{"learner":{"attributes":{"best_iteration":"95","best_score":"55.771926662718094"},"feature_names":["hour","hour_sin","hour_cos","day_of_week","dow_sin","dow_cos","month","month_sin","month_cos","is_weekend","is_night","is_morning","is_afternoon","is_evening","cmg_lag_1h","cmg_lag_2h","cmg_lag_3h","cmg_lag_6h","cmg_lag_12h","cmg_lag_24h","cmg_lag_48h","cmg_lag_168h","cmg_mean_6h","cmg_std_6h","cmg_min_6h","cmg_max_6h","cmg_range_6h","cmg_cv_6h","cmg_mean_12h","cmg_std_12h","cmg_min_12h","cmg_max_12h","cmg_range_12h","cmg_cv_12h","cmg_mean_24h","cmg_std_24h","cmg_min_24h","cmg_max_24h","cmg_range_24h","cmg_cv_24h","cmg_mean_48h","cmg_std_48h","cmg_min_48h","cmg_max_48h","cmg_range_48h","cmg_cv_48h","cmg_mean_168h","cmg_std_168h","cmg_min_168h","cmg_max_168h","cmg_range_168h","cmg_cv_168h","zeros_count_6h","zeros_ratio_6h","zeros_count_12h","zeros_ratio_12h","zeros_count_24h","zeros_ratio_24h","zeros_count_48h","zeros_ratio_48h","zeros_count_168h","zeros_ratio_168h","hours_since_zero","was_zero_1h_ago","was_zero_2h_ago","was_zero_24h_ago","cmg_trend_6h","cmg_trend_12h","cmg_trend_24h","cmg_trend_48h","cmg_change_1h","cmg_change_24h","cmg_change_48h","cmg_same_hour_yesterday","cmg_same_hour_last_week","cmg_7d_median_same_hour","cmg_diff_vs_yesterday","cmg_diff_vs_last_week"],"feature_types":["int","float","float","int","float","float","int","float","float","int","int","int","int","int","float","float","float","float","float","float","float","float","float","float","float","float","float","float","float","float","float","float","float","float","float","float","float","float","float","float","float","float","float","float","float","float","float","float","float","float","float","float","float","float","float","float","float","float","float","float","float","float","int","int","int","int","float","float","float","float","float","float","float","float","float","float","float","float"],"gradient_booster":{"model":{"cats":{"enc":[],"feature_segments":[],"sorted_idx":[]},"gbtree_model_param":{"num_parallel_tree":"1","num_trees":"146"},"iteration_indptr":[0,1,2,3,4,5,6,7,8,9,10,11,12,13,14,15,16,17,18,19,20,21,22,23,24,25,26,27,28,29,30,31,32,33,34,35,36,37,38,39,40,41,42,43,44,45,46,47,48,49,50,51,52,53,54,55,56,57,58,59,60,61,62,63,64,65,66,67,68,69,70,71,72,73,74,75,76,77,78,79,80,81,82,83,84,85,86,87,88,89,90,91,92,93,94,95,96,97,98,99,100,101,102,103,104,105,106,107,108,109,110,111,112,113,114,115,116,117,118,119,120,121,122,123,124,125,126,127,128,129,130,131,132,133,134,135,136,137,138,139,140,141,142,143,144,145,146],"tree_info":[0,0,0,0,0,0,0,0,0,0,0,0,0,0,0,0,0,0,0,0,0,0,0,0,0,0,0,0,0,0,0,0,0,0,0,0,0,0,0,0,0,0,0,0,0,0,0,0,0,0,0,0,0,0,0,0,0,0,0,0,0,0,0,0,0,0,0,0,0,0,0,0,0,0,0,0,0,0,0,0,0,0,0,0,0,0,0,0,0,0,0,0,0,0,0,0,0,0,0,0,0,0,0,0,0,0,0,0,0,0,0,0,0,0,0,0,0,0,0,0,0,0,0,0,0,0,0,0,0,0,0,0,0,0,0,0,0,0,0,0,0,0,0,0,0,0],"trees":[{"base_weights":[-1.4177898E-1,-2.6371412E1,9.157281E1,-4.0202923E1,1.2937359E1,6.9887436E1,1.5869232E2,-5.322092E1,-2.5912409E1,-5.376476E0,4.0359417E1,4.3678062E1,8.772099E1,1.7782466E2,1.1456748E2,-5.982694E1,-3.607801E1,-3.108382E1,-3.5786064E0,-2.051607E1,7.476839E0,9.476811E1,3.327784E1,3.5209595E1,1.3725397E2,6.842756E1,1.1270065E2,1.8351703E2,4.979741E1,1.5650396E1,1.3503905E2,-6.587186E1,-5.02057E1,-2.109829E1,-4.6486126E1,-4.0512558E1,-2.1033796E1,-1.3993254E1,2.109084E1,-2.8960333E1,-1.069739E1,-1.4254481E0,2.3981142E1,-3.203907E1,1.0620031E2,-1.6694045E0,4.3715996E1,1.8961786E1,7.410351E1,7.850735E0,1.64654E2,8.820489E1,4.784676E1,3.464903E1,1.1933403E2,1.940333E2,1.15839966E2,6.903827E1,-2.8183186E0,6.3887283E1,-6.641438E1,9.584483E1,1.6792348E2,-3.632325E0,-2.8971088E0,-2.726359E0,-1.8391675E0,-1.29149E0,1.658109E0,-1.1443431E0,-2.5941613E0,-2.7660291E0,-1.581665E0,-1.2184991E0,7.9978865E-1,2.3566525E-2,-2.306546E0,7.0672756E-1,7.715671E0,-1.7826042E0,-7.4632335E-1,-1.3002635E0,-2.7353498E-1,4.966828E0,-1.6176207E-1,1.6248181E0,-1.7797049E0,-3.2327557E0,-8.633024E-1,6.314004E0,2.2639954E0,1.3242714E0,-1.8959736E0,1.8636395E0,5.404464E0,2.8833356E-1,3.1073549E0,4.259877E0,-2.1722767E0,-1.706407E0,3.9346492E0,9.212715E0,1.24782E0,1.9515034E0,5.091362E0,1.4344938E0,3.7799957E0,2.78377E0,-1.9207217E0,6.070168E0,-3.5996609E0,8.708937E0,1.0845236E1,7.7307787E0,2.102847E0,1.6145605E0,5.3078322E0,4.64516E0,-1.0293539E0,9.385678E-1,-3.8770218E0,1.3826095E0,7.7161174E0,9.070995E0,1.1732185E0],"categories":[],"categories_nodes":[],"categories_segments":[],"categories_sizes":[],"default_left":[0,0,0,0,0,0,0,0,0,0,0,0,0,0,0,0,0,0,0,0,0,0,0,0,0,0,0,0,0,0,0,0,0,0,0,0,0,0,0,0,0,0,0,0,0,0,0,0,0,0,0,0,0,0,0,0,0,0,0,0,0,0,0,0,0,0,0,0,0,0,0,0,0,0,0,0,0,0,0,0,0,0,0,0,0,0,0,0,0,0,0,0,0,0,0,0,0,0,0,0,0,0,0,0,0,0,0,0,0,0,0,0,0,0,0,0,0,0,0,0,0,0,0,0,0],"id":0,"left_children":[1,3,5,7,9,11,13,15,17,19,21,23,25,27,29,31,33,35,37,39,41,43,45,47,49,51,53,55,57,59,61,63,65,67,69,71,73,75,77,79,81,83,85,87,89,91,93,95,97,99,101,103,105,107,109,111,113,115,-1,117,119,121,123,-1,-1,-1,-1,-1,-1,-1,-1,-1,-1,-1,-1,-1,-1,-1,-1,-1,-1,-1,-1,-1,-1,-1,-1,-1,-1,-1,-1,-1,-1,-1,-1,-1,-1,-1,-1,-1,-1,-1,-1,-1,-1,-1,-1,-1,-1,-1,-1,-1,-1,-1,-1,-1,-1,-1,-1,-1,-1,-1,-1,-1,-1],"loss_changes":[4.1364988E7,7.270327E6,5.554788E6,1.838683E6,1.7483858E6,1.347907E6,7.67276E5,5.83892E5,5.446895E5,4.064656E5,5.33954E5,9.2470475E5,8.21231E5,4.6384E5,5.750075E5,2.13861E5,2.2384238E5,3.620745E5,2.2844327E5,7.920234E4,1.6606062E5,2.35352E5,4.50582E5,6.79195E5,3.4263588E5,3.918235E5,3.83139E5,4.19494E5,6.3129227E4,2.0217052E5,2.88081E5,1.18811E5,8.18105E4,1.5309975E5,1.07075E5,2.579315E5,2.2967525E5,2.90558E5,2.424768E5,4.7832094E4,3.5461977E4,1.3435481E5,2.0204595E5,5.6293877E3,1.7410238E5,2.9187947E5,3.90418E5,4.3328612E5,4.1709925E5,5.6215445E4,2.1445075E5,3.276145E5,2.52498E5,9.4314305E4,2.81528E5,2.0562E5,2.3954175E5,3.067186E4,0E0,8.0347836E4,1.9463375E4,4.3438362E5,2.433525E5,0E0,0E0,0E0,0E0,0E0,0E0,0E0,0E0,0E0,0E0,0E0,0E0,0E0,0E0,0E0,0E0,0E0,0E0,0E0,0E0,0E0,0E0,0E0,0E0,0E0,0E0,0E0,0E0,0E0,0E0,0E0,0E0,0E0,0E0,0E0,0E0,0E0,0E0,0E0,0E0,0E0,0E0,0E0,0E0,0E0,0E0,0E0,0E0,0E0,0E0,0E0,0E0,0E0,0E0,0E0,0E0,0E0,0E0,0E0,0E0,0E0,0E0],"parents":[2147483647,0,0,1,1,2,2,3,3,4,4,5,5,6,6,7,7,8,8,9,9,10,10,11,11,12,12,13,13,14,14,15,15,16,16,17,17,18,18,19,19,20,20,21,21,22,22,23,23,24,24,25,25,26,26,27,27,28,28,29,29,30,30,31,31,32,32,33,33,34,34,35,35,36,36,37,37,38,38,39,39,40,40,41,41,42,42,43,43,44,44,45,45,46,46,47,47,48,48,49,49,50,50,51,51,52,52,53,53,54,54,55,55,56,56,57,57,59,59,60,60,61,61,62,62],"right_children":[2,4,6,8,10,12,14,16,18,20,22,24,26,28,30,32,34,36,38,40,42,44,46,48,50,52,54,56,58,60,62,64,66,68,70,72,74,76,78,80,82,84,86,88,90,92,94,96,98,100,102,104,106,108,110,112,114,116,-1,118,120,122,124,-1,-1,-1,-1,-1,-1,-1,-1,-1,-1,-1,-1,-1,-1,-1,-1,-1,-1,-1,-1,-1,-1,-1,-1,-1,-1,-1,-1,-1,-1,-1,-1,-1,-1,-1,-1,-1,-1,-1,-1,-1,-1,-1,-1,-1,-1,-1,-1,-1,-1,-1,-1,-1,-1,-1,-1,-1,-1,-1,-1,-1,-1],"split_conditions":[1.3415161E2,8.369092E1,2.6678998E2,5.375256E1,1.4032E2,1.4436E2,4E0,6.216215E1,9.635E1,7.320754E1,2E0,2.8159E2,6.234898E-1,3.7943E2,2.8338E2,3.0416185E1,-2.5881904E-1,6.234898E-1,6.234898E-1,1E0,6.234898E-1,5.894842E-1,6.48257E1,1.8E1,2.8137167E2,4E0,2.199E2,4E0,2.6849E2,2.9137E2,7.195653E1,6.234898E-1,6.403755E1,1.9483882E0,6E0,5.9045856E1,1.12885475E2,5E0,1.3095238E2,5.8794285E1,1.5248E2,-1.9601122E2,9E0,3.5032532E-1,1E0,3E0,2.9137E2,6E0,2.4E1,2.968E2,1.6211E2,1.6261E2,2.6069083E2,1.425E1,6E0,3.1275406E2,3.3007E2,1.4853E2,-2.8183186E0,1.6997E2,1.5993E2,1.15E2,2.4715E2,-3.632325E0,-2.8971088E0,-2.726359E0,-1.8391675E0,-1.29149E0,1.658109E0,-1.1443431E0,-2.5941613E0,-2.7660291E0,-1.581665E0,-1.2184991E0,7.9978865E-1,2.3566525E-2,-2.306546E0,7.0672756E-1,7.715671E0,-1.7826042E0,-7.4632335E-1,-1.3002635E0,-2.7353498E-1,4.966828E0,-1.6176207E-1,1.6248181E0,-1.7797049E0,-3.2327557E0,-8.633024E-1,6.314004E0,2.2639954E0,1.3242714E0,-1.8959736E0,1.8636395E0,5.404464E0,2.8833356E-1,3.1073549E0,4.259877E0,-2.1722767E0,-1.706407E0,3.9346492E0,9.212715E0,1.24782E0,1.9515034E0,5.091362E0,1.4344938E0,3.7799957E0,2.78377E0,-1.9207217E0,6.070168E0,-3.5996609E0,8.708937E0,1.0845236E1,7.7307787E0,2.102847E0,1.6145605E0,5.3078322E0,4.64516E0,-1.0293539E0,9.385678E-1,-3.8770218E0,1.3826095E0,7.7161174E0,9.070995E0,1.1732185E0],"split_indices":[46,14,14,46,14,14,3,75,19,46,6,75,5,43,25,14,1,5,5,13,5,45,46,60,44,3,43,6,75,75,41,5,19,45,6,75,46,3,46,46,49,77,6,33,13,3,25,3,58,43,15,19,44,77,6,14,49,26,0,68,17,62,69,0,0,0,0,0,0,0,0,0,0,0,0,0,0,0,0,0,0,0,0,0,0,0,0,0,0,0,0,0,0,0,0,0,0,0,0,0,0,0,0,0,0,0,0,0,0,0,0,0,0,0,0,0,0,0,0,0,0,0,0,0,0],"split_type":[0,0,0,0,0,0,0,0,0,0,0,0,0,0,0,0,0,0,0,0,0,0,0,0,0,0,0,0,0,0,0,0,0,0,0,0,0,0,0,0,0,0,0,0,0,0,0,0,0,0,0,0,0,0,0,0,0,0,0,0,0,0,0,0,0,0,0,0,0,0,0,0,0,0,0,0,0,0,0,0,0,0,0,0,0,0,0,0,0,0,0,0,0,0,0,0,0,0,0,0,0,0,0,0,0,0,0,0,0,0,0,0,0,0,0,0,0,0,0,0,0,0,0,0,0],"sum_hessian":[1.7193E4,1.337E4,3.823E3,9.89E3,3.48E3,2.891E3,9.32E2,5.174E3,4.716E3,2.087E3,1.393E3,1.172E3,1.719E3,6.48E2,2.84E2,3.733E3,1.441E3,3.829E3,8.87E2,9.58E2,1.129E3,1.59E2,1.234E3,1.076E3,9.6E1,9.72E2,7.47E2,6.2E2,2.8E1,4.9E1,2.35E2,2.289E3,1.444E3,5.92E2,8.49E2,1.974E3,1.855E3,6.24E2,2.63E2,5.14E2,4.44E2,7.34E2,3.95E2,1.3E1,1.46E2,2.84E2,9.5E2,7.6E2,3.16E2,1.7E1,7.9E1,4.94E2,4.78E2,5.9E1,6.88E2,5.35E2,8.5E1,2.4E1,4E0,3.1E1,1.8E1,1.09E2,1.26E2,1.23E3,1.059E3,1.09E3,3.54E2,5.45E2,4.7E1,1.59E2,6.9E2,7.38E2,1.236E3,1.702E3,1.53E2,4.31E2,1.93E2,2.51E2,1.2E1,3.47E2,1.67E2,1.12E2,3.32E2,1.2E1,7.22E2,3.46E2,4.9E1,3E0,1E1,1.09E2,3.7E1,1.6E2,1.24E2,8.65E2,8.5E1,5.83E2,1.77E2,2.89E2,2.7E1,1.1E1,6E0,6.9E1,1E1,1.08E2,3.86E2,2.84E2,1.94E2,4.6E1,1.3E1,6.81E2,7E0,2.91E2,2.44E2,5.5E1,3E1,1.3E1,1.1E1,2.3E1,8E0,2E0,1.6E1,5.1E1,5.8E1,1.15E2,1.1E1],"tree_param":{"num_deleted":"0","num_feature":"78","num_nodes":"125","size_leaf_vector":"1"}},{"base_weights":[2.1612327E-1,-2.558151E1,8.787368E1,-3.7269405E1,1.5366662E1,6.7730606E1,1.5354578E2,-4.5076435E1,-1.5544035E1,1.1889993E0,4.3051094E1,4.891184E1,8.9004715E1,1.1304129E2,1.7037808E2,-5.253759E1,-2.9996326E1,-4.5492012E1,-9.623988E0,-1.0194823E1,1.3818566E1,5.857681E1,-1.2944813E0,9.325727E0,6.379582E1,5.4944668E1,1.0999212E2,3.2357506E1,1.3990898E2,1.755899E2,3.9944107E1,-5.7786747E1,-4.234659E1,-4.1005516E1,-2.1600565E1,-6.0751347E1,-2.7992142E1,-1.5212678E1,1.9647305E1,6.3179726E1,-1.1945617E1,5.0443897E1,9.648965E0,3.931083E1,8.763751E1,-8.062635E0,1.1772411E2,-1.445503E1,4.2646095E1,5.870739E1,1.3705972E2,4.0851833E1,1.270451E2,7.5976265E1,1.3046274E2,7.386024E0,1.5035655E2,-1.1268447E1,1.4780038E2,1.8569176E2,1.1263907E2,6.852357E1,-3.3370683E0,-3.8467243E0,-2.7225368E0,-2.2504737E0,-8.699738E-1,-2.4839559E0,-1.548128E0,-1.6102475E0,-4.4177136E-1,-3.1105685E0,3.742043E0,-1.7328933E0,-4.4617397E-1,1.9674406E0,-8.639498E-1,1.7568785E0,-5.557577E-1,5.0392227E0,-5.3465474E-1,-1.0627254E0,-1.0872277E-1,1.4693636E0,3.5005467E0,-5.8769846E-1,8.943371E-1,1.4161118E0,4.275877E0,1.9501632E0,5.270451E0,1.4905952E-1,-3.2506435E0,7.674137E0,-5.0215685E-1,-2.2808378E0,2.068793E-1,3.1018898E0,-8.7338224E-2,1.857601E0,3.6339822E0,7.8362403E0,2.4631033E0,8.6377746E-1,3.2657037E0,3.1453004E0,7.667592E0,1.5470786E0,4.4061065E0,6.0306683E0,8.756117E0,-5.96776E-1,5.6953635E0,-2.0262573E0,8.569677E0,-3.838019E0,4.1336975E0,7.6359353E0,-1.5470103E0,8.260636E0,1.037707E1,7.6597705E0,2.1860158E0,1.1001043E0,5.440782E0],"categories":[],"categories_nodes":[],"categories_segments":[],"categories_sizes":[],"default_left":[0,0,0,0,0,0,0,0,0,0,0,0,0,0,0,0,0,0,0,0,0,0,0,0,0,0,0,0,0,0,0,0,0,0,0,0,0,0,0,0,0,0,0,0,0,0,0,0,0,0,0,0,0,0,0,0,0,0,0,0,0,0,0,0,0,0,0,0,0,0,0,0,0,0,0,0,0,0,0,0,0,0,0,0,0,0,0,0,0,0,0,0,0,0,0,0,0,0,0,0,0,0,0,0,0,0,0,0,0,0,0,0,0,0,0,0,0,0,0,0,0,0,0,0,0],"id":1,"left_children":[1,3,5,7,9,11,13,15,17,19,21,23,25,27,29,31,33,35,37,39,41,43,45,47,49,51,53,55,57,59,61,63,65,67,69,71,73,75,77,79,81,83,85,87,89,91,93,95,97,99,101,103,105,107,109,111,113,115,117,119,121,123,-1,-1,-1,-1,-1,-1,-1,-1,-1,-1,-1,-1,-1,-1,-1,-1,-1,-1,-1,-1,-1,-1,-1,-1,-1,-1,-1,-1,-1,-1,-1,-1,-1,-1,-1,-1,-1,-1,-1,-1,-1,-1,-1,-1,-1,-1,-1,-1,-1,-1,-1,-1,-1,-1,-1,-1,-1,-1,-1,-1,-1,-1,-1],"loss_changes":[3.871669E7,6.331467E6,5.139408E6,1.744762E6,1.1531154E6,1.189097E6,6.0321E5,8.50163E5,4.8215488E5,2.796351E5,6.8513E5,9.32696E5,9.93292E5,5.8294325E5,4.30096E5,2.68394E5,2.3093E5,1.18198875E5,3.7229838E5,1.3217312E5,1.4031469E5,4.0918875E5,2.0958305E5,3.4451094E5,4.21044E5,5.3842325E5,5.91712E5,2.0220562E5,2.438455E5,3.72082E5,8.384771E4,2.09097E5,1.1381075E5,9.28875E4,1.9261256E5,5.1970188E4,2.6510172E4,2.160159E5,1.743199E5,6.7748914E4,9.091247E4,3.667203E4,1.463734E5,2.2352519E5,2.4912975E5,1.5491514E5,6.550439E4,1.4735073E5,1.5592275E5,3.2196875E5,1.20044E5,2.5782281E5,1.3714738E5,1.761375E5,2.15528E5,1.20732516E5,5.5132656E4,7.402324E4,1.74392E5,2.03314E5,2.3927038E5,3.696921E4,0E0,0E0,0E0,0E0,0E0,0E0,0E0,0E0,0E0,0E0,0E0,0E0,0E0,0E0,0E0,0E0,0E0,0E0,0E0,0E0,0E0,0E0,0E0,0E0,0E0,0E0,0E0,0E0,0E0,0E0,0E0,0E0,0E0,0E0,0E0,0E0,0E0,0E0,0E0,0E0,0E0,0E0,0E0,0E0,0E0,0E0,0E0,0E0,0E0,0E0,0E0,0E0,0E0,0E0,0E0,0E0,0E0,0E0,0E0,0E0,0E0,0E0,0E0],"parents":[2147483647,0,0,1,1,2,2,3,3,4,4,5,5,6,6,7,7,8,8,9,9,10,10,11,11,12,12,13,13,14,14,15,15,16,16,17,17,18,18,19,19,20,20,21,21,22,22,23,23,24,24,25,25,26,26,27,27,28,28,29,29,30,30,31,31,32,32,33,33,34,34,35,35,36,36,37,37,38,38,39,39,40,40,41,41,42,42,43,43,44,44,45,45,46,46,47,47,48,48,49,49,50,50,51,51,52,52,53,53,54,54,55,55,56,56,57,57,58,58,59,59,60,60,61,61],"right_children":[2,4,6,8,10,12,14,16,18,20,22,24,26,28,30,32,34,36,38,40,42,44,46,48,50,52,54,56,58,60,62,64,66,68,70,72,74,76,78,80,82,84,86,88,90,92,94,96,98,100,102,104,106,108,110,112,114,116,118,120,122,124,-1,-1,-1,-1,-1,-1,-1,-1,-1,-1,-1,-1,-1,-1,-1,-1,-1,-1,-1,-1,-1,-1,-1,-1,-1,-1,-1,-1,-1,-1,-1,-1,-1,-1,-1,-1,-1,-1,-1,-1,-1,-1,-1,-1,-1,-1,-1,-1,-1,-1,-1,-1,-1,-1,-1,-1,-1,-1,-1,-1,-1,-1,-1],"split_conditions":[1.3245982E2,8.959E1,2.6678998E2,6.940774E1,1.6917E2,6.234898E-1,0E0,6.172389E1,-7.818315E-1,8.157753E1,7E0,1.2329E2,1.8205396E2,3.3445E2,4.0582E2,5.644E1,1.1E1,-1.8369701E-16,1.1027366E2,2E0,1.9365E2,1.9746E2,1.5519708E2,0E0,1.1094909E2,2.379417E2,7E0,6.234898E-1,1.4888E2,4E0,2.6849E2,-7.818315E-1,3.4E1,6.347953E1,6.83E1,6.815E1,1.0801E2,3.362479E1,3E0,6.123234E-17,7.123651E1,1.26697235E2,1.482667E1,4.7E1,6.462909E1,1.0527167E2,1.8E1,-2.5881904E-1,6.3018954E-1,1.8229E2,7.0710677E-1,1.2E1,7.243E1,1.4436E2,2.1399345E2,2.988E2,3E0,2.3407666E2,3.5771E2,3.1275406E2,3.3007E2,2.3510417E2,-3.3370683E0,-3.8467243E0,-2.7225368E0,-2.2504737E0,-8.699738E-1,-2.4839559E0,-1.548128E0,-1.6102475E0,-4.4177136E-1,-3.1105685E0,3.742043E0,-1.7328933E0,-4.4617397E-1,1.9674406E0,-8.639498E-1,1.7568785E0,-5.557577E-1,5.0392227E0,-5.3465474E-1,-1.0627254E0,-1.0872277E-1,1.4693636E0,3.5005467E0,-5.8769846E-1,8.943371E-1,1.4161118E0,4.275877E0,1.9501632E0,5.270451E0,1.4905952E-1,-3.2506435E0,7.674137E0,-5.0215685E-1,-2.2808378E0,2.068793E-1,3.1018898E0,-8.7338224E-2,1.857601E0,3.6339822E0,7.8362403E0,2.4631033E0,8.6377746E-1,3.2657037E0,3.1453004E0,7.667592E0,1.5470786E0,4.4061065E0,6.0306683E0,8.756117E0,-5.96776E-1,5.6953635E0,-2.0262573E0,8.569677E0,-3.838019E0,4.1336975E0,7.6359353E0,-1.5470103E0,8.260636E0,1.037707E1,7.6597705E0,2.1860158E0,1.1001043E0,5.440782E0],"split_indices":[46,14,14,46,14,5,4,19,4,46,6,21,25,49,49,21,0,2,19,6,49,32,34,4,35,20,0,5,20,6,21,4,58,14,21,66,19,40,54,2,20,34,23,60,47,40,0,2,51,19,1,60,19,15,46,19,6,28,21,14,49,19,0,0,0,0,0,0,0,0,0,0,0,0,0,0,0,0,0,0,0,0,0,0,0,0,0,0,0,0,0,0,0,0,0,0,0,0,0,0,0,0,0,0,0,0,0,0,0,0,0,0,0,0,0,0,0,0,0,0,0,0,0,0,0],"split_type":[0,0,0,0,0,0,0,0,0,0,0,0,0,0,0,0,0,0,0,0,0,0,0,0,0,0,0,0,0,0,0,0,0,0,0,0,0,0,0,0,0,0,0,0,0,0,0,0,0,0,0,0,0,0,0,0,0,0,0,0,0,0,0,0,0,0,0,0,0,0,0,0,0,0,0,0,0,0,0,0,0,0,0,0,0,0,0,0,0,0,0,0,0,0,0,0,0,0,0,0,0,0,0,0,0,0,0,0,0,0,0,0,0,0,0,0,0,0,0,0,0,0,0,0,0],"sum_hessian":[1.7119E4,1.3227E4,3.892E3,1.029E4,2.937E3,2.98E3,9.12E2,7.569E3,2.721E3,1.943E3,9.94E2,1.583E3,1.397E3,2.7E2,6.42E2,5.062E3,2.507E3,4.48E2,2.273E3,1.022E3,9.21E2,7.36E2,2.58E2,4.33E2,1.15E3,5.34E2,8.63E2,6.8E1,2.02E2,6.17E2,2.5E1,3.338E3,1.724E3,1.083E3,1.424E3,2.38E2,2.1E2,1.909E3,3.64E2,2.3E1,9.99E2,9.3E1,8.28E2,4.44E2,2.92E2,2.45E2,1.3E1,2.53E2,1.8E2,1.077E3,7.3E1,4.48E2,8.6E1,3.26E2,5.37E2,5.7E1,1.1E1,1E1,1.92E2,5.3E2,8.7E1,2E1,5E0,4.92E2,2.846E3,1.557E3,1.67E2,5.79E2,5.04E2,7.77E2,6.47E2,2.36E2,2E0,1.55E2,5.5E1,6.9E1,1.84E3,2.42E2,1.22E2,1.5E1,8E0,5.11E2,4.88E2,4.6E1,4.7E1,2.3E2,5.98E2,3.6E2,8.4E1,7.9E1,2.13E2,2.06E2,3.9E1,1E1,3E0,9.4E1,1.59E2,1.25E2,5.5E1,4.25E2,6.52E2,5.9E1,1.4E1,2.29E2,2.19E2,2.6E1,6E1,7E1,2.56E2,4.43E2,9.4E1,4.9E1,8E0,1E0,1E1,6E0,4E0,1.87E2,5E0,2.78E2,2.52E2,5.4E1,3.3E1,1E1,1E1],"tree_param":{"num_deleted":"0","num_feature":"78","num_nodes":"125","size_leaf_vector":"1"}},{"base_weights":[-3.5453984E-1,-2.4158503E1,8.293131E1,-3.6757324E1,1.1638255E1,6.286038E1,1.4647906E2,-4.820661E1,-2.4372747E1,-1.3396232E0,4.305499E1,5.0969524E1,9.571429E1,1.6120549E2,1.0941402E2,-5.2217884E1,-2.3195364E1,-4.920343E1,-2.0000395E1,-1.7343103E1,1.0607108E1,4.4664526E0,5.4482925E1,5.6512352E1,-2.7028023E1,7.282478E1,1.2248258E2,1.6629164E2,4.1917988E1,3.1916073E1,1.3366629E2,-6.0048897E1,-4.3955044E1,-2.4142065E1,7.53295E1,-6.534194E1,-3.283475E1,-2.7940552E1,-4.788346E0,-2.731744E1,-6.987952E0,-4.269239E0,1.9112642E1,3.2898533E1,-3.9466393E1,4.0492004E1,1.0286E2,4.869121E1,9.141174E1,-5.5598106E1,-1.751894E1,3.3514107E1,9.45553E1,6.1523827E1,1.3500641E2,1.0950332E2,1.7539383E2,-2.9816767E1,7.746691E1,-7.4908843E0,1.1898592E2,1.6215166E2,9.914922E1,1.6563435E0,-3.032169E0,1.402668E-1,-2.2591407E0,-1.4468017E0,-4.5729896E-1,-1.152219E0,7.7435503E0,-2.642898E0,-3.8046544E0,-2.4567218E0,-1.1341712E0,-1.7743571E0,-1.007062E0,-5.487976E-1,1.3316021E0,-1.8325089E0,-9.562606E-1,-5.8506453E-1,9.452459E-1,1.8158445E0,-5.2238435E-1,8.258109E-1,4.325629E0,5.796244E-1,4.16756E0,-2.6431544E0,5.7024306E-1,1.749793E0,7.460407E0,3.453144E0,6.9744897E0,5.347602E-1,2.78072E0,8.136154E0,4.0404406E0,-3.6032434E0,-9.015703E-1,-1.0735312E0,6.505165E-1,1.0206338E0,4.3737407E0,1.0222639E0,5.1386623E0,-4.7148928E-1,6.011678E0,7.043092E0,4.3365455E-1,6.803365E0,1.1209514E0,6.5782356E0,9.268428E0,4.4095206E-1,-2.8521907E0,5.4014354E0,1.0970429E0,1.5099454E0,-3.2851646E0,7.2390933E0,-1.019665E0,8.274193E0,-4.8182985E-1,1.3834976E-1,7.605667E0],"categories":[],"categories_nodes":[],"categories_segments":[],"categories_sizes":[],"default_left":[0,0,0,0,0,0,0,0,0,0,0,0,0,0,0,0,0,0,0,0,0,0,0,0,0,0,0,0,0,0,0,0,0,0,0,0,0,0,0,0,0,0,0,0,0,0,0,0,0,0,0,0,0,0,0,0,0,0,0,0,0,0,0,0,0,0,0,0,0,0,0,0,0,0,0,0,0,0,0,0,0,0,0,0,0,0,0,0,0,0,0,0,0,0,0,0,0,0,0,0,0,0,0,0,0,0,0,0,0,0,0,0,0,0,0,0,0,0,0,0,0,0,0,0,0,0,0],"id":2,"left_children":[1,3,5,7,9,11,13,15,17,19,21,23,25,27,29,31,33,35,37,39,41,43,45,47,49,51,53,55,57,59,61,63,65,67,69,71,73,75,77,79,81,83,85,87,89,91,93,95,97,99,101,103,105,107,109,111,113,115,117,119,121,123,125,-1,-1,-1,-1,-1,-1,-1,-1,-1,-1,-1,-1,-1,-1,-1,-1,-1,-1,-1,-1,-1,-1,-1,-1,-1,-1,-1,-1,-1,-1,-1,-1,-1,-1,-1,-1,-1,-1,-1,-1,-1,-1,-1,-1,-1,-1,-1,-1,-1,-1,-1,-1,-1,-1,-1,-1,-1,-1,-1,-1,-1,-1,-1,-1],"loss_changes":[3.399055E7,6.0140215E6,4.85158E6,1.397345E6,1.4156705E6,1.127257E6,4.81258E5,5.12865E5,5.136305E5,4.7012722E5,4.4735888E5,9.223835E5,4.62257E5,3.88606E5,4.9004275E5,2.83039E5,6.804297E4,1.8514825E5,4.8687562E5,1.0836244E5,1.7823764E5,2.923392E5,5.258005E5,5.384525E5,3.760385E4,3.530495E5,2.61187E5,3.03856E5,7.371242E4,2.204854E5,1.80569E5,1.274155E5,1.236745E5,5.0346438E4,5.834255E4,4.3759125E4,5.745947E4,1.552005E5,2.693654E5,4.020297E4,6.3316844E4,1.2901892E5,1.553701E5,1.5167616E5,6.33015E4,3.586677E5,2.0701325E5,4.2739325E5,2.613185E5,2.035164E4,1.3308676E4,1.0425878E5,1.6111925E5,2.5940519E5,2.147805E5,2.0283375E5,2.10379E5,1.102246E4,2.9872297E4,1.0071477E5,7.486094E4,6.34175E4,4.7432544E5,0E0,0E0,0E0,0E0,0E0,0E0,0E0,0E0,0E0,0E0,0E0,0E0,0E0,0E0,0E0,0E0,0E0,0E0,0E0,0E0,0E0,0E0,0E0,0E0,0E0,0E0,0E0,0E0,0E0,0E0,0E0,0E0,0E0,0E0,0E0,0E0,0E0,0E0,0E0,0E0,0E0,0E0,0E0,0E0,0E0,0E0,0E0,0E0,0E0,0E0,0E0,0E0,0E0,0E0,0E0,0E0,0E0,0E0,0E0,0E0,0E0,0E0,0E0,0E0],"parents":[2147483647,0,0,1,1,2,2,3,3,4,4,5,5,6,6,7,7,8,8,9,9,10,10,11,11,12,12,13,13,14,14,15,15,16,16,17,17,18,18,19,19,20,20,21,21,22,22,23,23,24,24,25,25,26,26,27,27,28,28,29,29,30,30,31,31,32,32,33,33,34,34,35,35,36,36,37,37,38,38,39,39,40,40,41,41,42,42,43,43,44,44,45,45,46,46,47,47,48,48,49,49,50,50,51,51,52,52,53,53,54,54,55,55,56,56,57,57,58,58,59,59,60,60,61,61,62,62],"right_children":[2,4,6,8,10,12,14,16,18,20,22,24,26,28,30,32,34,36,38,40,42,44,46,48,50,52,54,56,58,60,62,64,66,68,70,72,74,76,78,80,82,84,86,88,90,92,94,96,98,100,102,104,106,108,110,112,114,116,118,120,122,124,126,-1,-1,-1,-1,-1,-1,-1,-1,-1,-1,-1,-1,-1,-1,-1,-1,-1,-1,-1,-1,-1,-1,-1,-1,-1,-1,-1,-1,-1,-1,-1,-1,-1,-1,-1,-1,-1,-1,-1,-1,-1,-1,-1,-1,-1,-1,-1,-1,-1,-1,-1,-1,-1,-1,-1,-1,-1,-1,-1,-1,-1,-1,-1,-1],"split_conditions":[1.3415161E2,8.369092E1,2.6678998E2,5.375256E1,1.6917E2,2.5463E2,4E0,2E1,-7.818315E-1,7.259695E1,6.3515354E1,4.0582E2,1.1E1,3.7943E2,2.9681125E2,1.59E0,4.4E1,-1.8369701E-16,8.056834E1,1.8E1,1.5444817E1,3E0,4.5E1,1.9888E2,-7.818315E-1,1.3615663E2,-7.818315E-1,-1.8369701E-16,1.0003E2,6E0,1.2488194E2,8.707615E-2,6.27157E-1,1.434E1,2.2E1,6.450236E-1,6.434E1,6.281426E1,1.237763E2,-2.4492937E-16,8.3E1,1.9365E2,1.63E2,2.6375E2,2E1,1.0168387E0,5E-1,-7.818315E-1,1E0,9.077E1,1.9343333E2,1.8E1,1.4405923E2,1.8400072E2,3.3723E2,3.1798E2,1E1,2.3499E2,2.3192574E2,2.7468E2,2.2135402E2,1.3282726E0,2.4036417E2,1.6563435E0,-3.032169E0,1.402668E-1,-2.2591407E0,-1.4468017E0,-4.5729896E-1,-1.152219E0,7.7435503E0,-2.642898E0,-3.8046544E0,-2.4567218E0,-1.1341712E0,-1.7743571E0,-1.007062E0,-5.487976E-1,1.3316021E0,-1.8325089E0,-9.562606E-1,-5.8506453E-1,9.452459E-1,1.8158445E0,-5.2238435E-1,8.258109E-1,4.325629E0,5.796244E-1,4.16756E0,-2.6431544E0,5.7024306E-1,1.749793E0,7.460407E0,3.453144E0,6.9744897E0,5.347602E-1,2.78072E0,8.136154E0,4.0404406E0,-3.6032434E0,-9.015703E-1,-1.0735312E0,6.505165E-1,1.0206338E0,4.3737407E0,1.0222639E0,5.1386623E0,-4.7148928E-1,6.011678E0,7.043092E0,4.3365455E-1,6.803365E0,1.1209514E0,6.5782356E0,9.268428E0,4.4095206E-1,-2.8521907E0,5.4014354E0,1.0970429E0,1.5099454E0,-3.2851646E0,7.2390933E0,-1.019665E0,8.274193E0,-4.8182985E-1,1.3834976E-1,7.605667E0],"split_indices":[46,14,14,46,14,38,3,0,4,46,46,50,0,43,31,14,58,2,46,0,23,3,60,24,4,14,4,8,18,3,36,45,51,70,0,45,21,19,19,7,60,50,62,69,0,45,8,4,3,25,40,60,46,46,25,43,0,21,30,44,17,33,46,0,0,0,0,0,0,0,0,0,0,0,0,0,0,0,0,0,0,0,0,0,0,0,0,0,0,0,0,0,0,0,0,0,0,0,0,0,0,0,0,0,0,0,0,0,0,0,0,0,0,0,0,0,0,0,0,0,0,0,0,0,0,0,0],"split_type":[0,0,0,0,0,0,0,0,0,0,0,0,0,0,0,0,0,0,0,0,0,0,0,0,0,0,0,0,0,0,0,0,0,0,0,0,0,0,0,0,0,0,0,0,0,0,0,0,0,0,0,0,0,0,0,0,0,0,0,0,0,0,0,0,0,0,0,0,0,0,0,0,0,0,0,0,0,0,0,0,0,0,0,0,0,0,0,0,0,0,0,0,0,0,0,0,0,0,0,0,0,0,0,0,0,0,0,0,0,0,0,0,0,0,0,0,0,0,0,0,0,0,0,0,0,0,0],"sum_hessian":[1.7143E4,1.3333E4,3.81E3,9.862E3,3.471E3,2.897E3,9.13E2,5.123E3,4.739E3,2.457E3,1.014E3,2.129E3,7.68E2,6.51E2,2.62E2,4.414E3,7.09E2,7.08E2,4.031E3,1.05E3,1.407E3,2.32E2,7.82E2,1.988E3,1.41E2,4.16E2,3.52E2,6.24E2,2.7E1,6.3E1,1.99E2,2.263E3,2.151E3,7.03E2,6E0,3.55E2,3.53E2,2.648E3,1.383E3,5.34E2,5.16E2,5.12E2,8.95E2,1.41E2,9.1E1,6.08E2,1.74E2,1.626E3,3.62E2,3.4E1,1.07E2,1.49E2,2.67E2,6.1E1,2.91E2,8.8E1,5.36E2,9E0,1.8E1,4.4E1,1.9E1,1.07E2,9.2E1,1.4E1,2.249E3,5.5E1,2.096E3,5.32E2,1.71E2,3E0,3E0,1.67E2,1.88E2,1.34E2,2.19E2,1.344E3,1.304E3,1.156E3,2.27E2,2.48E2,2.86E2,4.37E2,7.9E1,6.7E1,4.45E2,8.63E2,3.2E1,1E2,4.1E1,7.2E1,1.9E1,5.8E2,2.8E1,9.2E1,8.2E1,2.51E2,1.375E3,4.5E1,3.17E2,2.3E1,1.1E1,9.5E1,1.2E1,1.21E2,2.8E1,2.7E1,2.4E2,2.8E1,3.3E1,2.78E2,1.3E1,6.7E1,2.1E1,1.02E2,4.34E2,4E0,5E0,1.1E1,7E0,2.7E1,1.7E1,1.6E1,3E0,1.05E2,2E0,3.3E1,5.9E1],"tree_param":{"num_deleted":"0","num_feature":"78","num_nodes":"127","size_leaf_vector":"1"}},{"base_weights":[-1.7395014E-1,-2.2326849E1,7.371752E1,1.3245983E0,-3.7479317E1,5.780222E1,1.3283849E2,-9.175185E0,4.0668617E1,-4.484112E1,-2.141033E1,6.882058E1,-1.3038275E0,1.0342739E2,1.6618732E2,-1.739887E1,1.5683344E1,3.1392448E1,1.2721224E2,-5.2390686E1,-3.4891197E1,-2.8291508E1,-9.389781E0,5.305764E1,9.0720245E1,7.6607423E0,-5.1248978E1,6.043728E1,1.2211075E2,1.8353378E2,1.3537279E2,-2.3948212E1,2.1441631E0,5.1969796E-1,3.4311825E1,1.1874543E1,6.882928E1,2.9913435E1,1.5264189E2,-5.850133E1,-3.7983284E1,-5.716844E1,-3.0364338E1,7.600859E1,-2.9319395E1,6.902944E1,-1.1557659E1,1.4432948E1,6.425284E1,7.2157875E1,1.1240494E2,3.4220078E1,-1.0502904E1,-5.9393593E1,5.408315E0,8.867582E1,2.032463E0,1.3185097E2,3.576614E1,1.1371808E2,1.9154874E2,1.483138E2,-7.437076E0,-1.7128336E0,-6.607833E-1,4.760488E0,-8.787142E-2,-5.577879E-1,6.9688857E-1,8.341839E-1,3.4161592E0,2.1044939E0,-6.1318284E-1,2.8519452E0,6.4781647E0,4.125892E0,-1.748741E0,2.4918005E0,8.30211E0,-3.2984223E0,-2.5302355E0,-2.0515974E0,-6.012577E-1,-3.2645726E0,-1.8037214E0,1.3096188E0,-1.603966E0,-2.4446785E0,5.4296603E0,-1.9265593E0,-9.38587E-1,1.5091988E0,6.7367134E0,-7.574475E-1,1.7795136E0,4.9391332E-1,4.409017E0,4.229068E0,1.9664567E0,2.8424914E0,5.6067443E0,4.593487E0,6.6867685E0,1.4204673E-1,3.2061925E0,2.6405874E-1,-1.6280167E0,-3.141824E0,4.626284E0,5.892578E0,1.9603623E0,4.4791474E0,-2.3823612E0,4.689213E0,7.454892E0,-1.0029362E0,3.652762E0,-2.5133846E0,8.036319E0,7.185701E0,9.915481E0,7.602016E0,-3.192446E0,2.3130767E0,-3.8897855E0],"categories":[],"categories_nodes":[],"categories_segments":[],"categories_sizes":[],"default_left":[0,0,0,0,0,0,0,0,0,0,0,0,0,0,0,0,0,0,0,0,0,0,0,0,0,0,0,0,0,0,0,0,0,0,0,0,0,0,0,0,0,0,0,0,0,0,0,0,0,0,0,0,0,0,0,0,0,0,0,0,0,0,0,0,0,0,0,0,0,0,0,0,0,0,0,0,0,0,0,0,0,0,0,0,0,0,0,0,0,0,0,0,0,0,0,0,0,0,0,0,0,0,0,0,0,0,0,0,0,0,0,0,0,0,0,0,0,0,0,0,0,0,0,0,0],"id":3,"left_children":[1,3,5,7,9,11,13,15,17,19,21,23,25,27,29,31,33,35,37,39,41,43,45,47,49,51,53,55,57,59,61,63,65,67,69,71,73,75,77,79,81,83,85,87,89,91,93,95,97,99,101,103,105,107,-1,109,111,113,115,117,119,121,123,-1,-1,-1,-1,-1,-1,-1,-1,-1,-1,-1,-1,-1,-1,-1,-1,-1,-1,-1,-1,-1,-1,-1,-1,-1,-1,-1,-1,-1,-1,-1,-1,-1,-1,-1,-1,-1,-1,-1,-1,-1,-1,-1,-1,-1,-1,-1,-1,-1,-1,-1,-1,-1,-1,-1,-1,-1,-1,-1,-1,-1,-1],"loss_changes":[2.813195E7,4.7385215E6,3.72216E6,2.1336405E6,9.52393E5,2.035252E6,8.06705E5,8.337289E5,8.694456E5,4.13273E5,2.093355E5,9.04452E5,2.206791E5,3.53256E5,1.84688E5,3.922248E5,2.864125E5,7.181801E5,2.5523262E5,2.74219E5,2.389835E5,1.74942E5,1.578809E5,6.623915E5,4.35063E5,2.0200864E5,1.0380258E5,2.2741866E5,2.576805E5,1.169905E5,2.6907825E5,2.53457E5,2.7975734E5,8.7886266E4,2.716587E5,4.7313097E5,2.3392762E5,8.1394445E4,1.06068625E5,1.26562E5,7.373775E4,6.6526E4,1.934695E5,7.042774E4,1.543485E5,5.9741547E4,1.5292888E5,1.153489E5,5.99095E5,3.583595E5,2.09354E5,1.5933811E5,8.686285E4,4.347292E4,0E0,1.2960456E5,2.0434448E5,1.69846E5,7.0160125E4,2.2392262E5,4.29725E4,1.14861E5,5.271503E4,0E0,0E0,0E0,0E0,0E0,0E0,0E0,0E0,0E0,0E0,0E0,0E0,0E0,0E0,0E0,0E0,0E0,0E0,0E0,0E0,0E0,0E0,0E0,0E0,0E0,0E0,0E0,0E0,0E0,0E0,0E0,0E0,0E0,0E0,0E0,0E0,0E0,0E0,0E0,0E0,0E0,0E0,0E0,0E0,0E0,0E0,0E0,0E0,0E0,0E0,0E0,0E0,0E0,0E0,0E0,0E0,0E0,0E0,0E0,0E0,0E0,0E0],"parents":[2147483647,0,0,1,1,2,2,3,3,4,4,5,5,6,6,7,7,8,8,9,9,10,10,11,11,12,12,13,13,14,14,15,15,16,16,17,17,18,18,19,19,20,20,21,21,22,22,23,23,24,24,25,25,26,26,27,27,28,28,29,29,30,30,31,31,32,32,33,33,34,34,35,35,36,36,37,37,38,38,39,39,40,40,41,41,42,42,43,43,44,44,45,45,46,46,47,47,48,48,49,49,50,50,51,51,52,52,53,53,55,55,56,56,57,57,58,58,59,59,60,60,61,61,62,62],"right_children":[2,4,6,8,10,12,14,16,18,20,22,24,26,28,30,32,34,36,38,40,42,44,46,48,50,52,54,56,58,60,62,64,66,68,70,72,74,76,78,80,82,84,86,88,90,92,94,96,98,100,102,104,106,108,-1,110,112,114,116,118,120,122,124,-1,-1,-1,-1,-1,-1,-1,-1,-1,-1,-1,-1,-1,-1,-1,-1,-1,-1,-1,-1,-1,-1,-1,-1,-1,-1,-1,-1,-1,-1,-1,-1,-1,-1,-1,-1,-1,-1,-1,-1,-1,-1,-1,-1,-1,-1,-1,-1,-1,-1,-1,-1,-1,-1,-1,-1,-1,-1,-1,-1,-1,-1],"split_conditions":[1.4436E2,6E0,2.8148E2,1.2830627E2,6.809682E1,6E0,2.988E2,1.1702058E2,2.8159E2,4.577E1,7.785E1,6.234898E-1,1.8229E2,1.4905E2,4E0,9.294E1,6.234898E-1,6.234898E-1,2.8137167E2,3.029E1,-7.818315E-1,-1.9021E2,2E0,1.2611E2,2.6797705E2,7.693344E-1,2.7579E2,3E0,4E0,3E0,4.125E1,6.234898E-1,-2.1996E2,4E0,9.873E1,4E0,9.336126E1,-2.2252093E-1,3.3110172E-1,6.234898E-1,1.0158E2,9.221E1,1E1,6.408E1,7.05E0,1.9E1,7.59E1,4E0,4E0,1.9365237E2,1E1,1.1E1,3E0,1.4481E2,5.408315E0,7.195035E1,-1.8369701E-16,-2.2252093E-1,1.958059E2,3.1275406E2,1.76E2,3.4333E2,3.571E2,-1.7128336E0,-6.607833E-1,4.760488E0,-8.787142E-2,-5.577879E-1,6.9688857E-1,8.341839E-1,3.4161592E0,2.1044939E0,-6.1318284E-1,2.8519452E0,6.4781647E0,4.125892E0,-1.748741E0,2.4918005E0,8.30211E0,-3.2984223E0,-2.5302355E0,-2.0515974E0,-6.012577E-1,-3.2645726E0,-1.8037214E0,1.3096188E0,-1.603966E0,-2.4446785E0,5.4296603E0,-1.9265593E0,-9.38587E-1,1.5091988E0,6.7367134E0,-7.574475E-1,1.7795136E0,4.9391332E-1,4.409017E0,4.229068E0,1.9664567E0,2.8424914E0,5.6067443E0,4.593487E0,6.6867685E0,1.4204673E-1,3.2061925E0,2.6405874E-1,-1.6280167E0,-3.141824E0,4.626284E0,5.892578E0,1.9603623E0,4.4791474E0,-2.3823612E0,4.689213E0,7.454892E0,-1.0029362E0,3.652762E0,-2.5133846E0,8.036319E0,7.185701E0,9.915481E0,7.602016E0,-3.192446E0,2.3130767E0,-3.8897855E0],"split_indices":[15,6,15,73,21,6,73,25,21,20,20,5,73,21,3,21,5,5,44,69,4,76,60,73,44,51,24,3,6,60,69,5,69,58,20,3,47,5,45,5,26,32,60,31,69,0,76,54,3,73,0,0,3,71,0,21,8,5,24,31,21,21,37,0,0,0,0,0,0,0,0,0,0,0,0,0,0,0,0,0,0,0,0,0,0,0,0,0,0,0,0,0,0,0,0,0,0,0,0,0,0,0,0,0,0,0,0,0,0,0,0,0,0,0,0,0,0,0,0,0,0,0,0,0,0],"split_type":[0,0,0,0,0,0,0,0,0,0,0,0,0,0,0,0,0,0,0,0,0,0,0,0,0,0,0,0,0,0,0,0,0,0,0,0,0,0,0,0,0,0,0,0,0,0,0,0,0,0,0,0,0,0,0,0,0,0,0,0,0,0,0,0,0,0,0,0,0,0,0,0,0,0,0,0,0,0,0,0,0,0,0,0,0,0,0,0,0,0,0,0,0,0,0,0,0,0,0,0,0,0,0,0,0,0,0,0,0,0,0,0,0,0,0,0,0,0,0,0,0,0,0,0,0],"sum_hessian":[1.7184E4,1.3221E4,3.963E3,5.163E3,8.058E3,3.124E3,8.39E2,4.076E3,1.087E3,5.525E3,2.533E3,2.633E3,4.91E2,4.48E2,3.91E2,3.063E3,1.013E3,9.83E2,1.04E2,3.139E3,2.386E3,1.61E3,9.23E2,1.533E3,1.1E3,4.17E2,7.4E1,1.37E2,3.11E2,2.47E2,1.44E2,2.294E3,7.69E2,5.59E2,4.54E2,6.47E2,3.36E2,2.2E1,8.2E1,2.202E3,9.37E2,4.01E2,1.985E3,1.5E1,1.595E3,2.4E1,8.99E2,3.45E2,1.188E3,5.95E2,5.05E2,1.69E2,2.48E2,7.1E1,3E0,9.2E1,4.5E1,2.79E2,3.2E1,2.7E1,2.2E2,1.32E2,1.2E1,1.169E3,1.125E3,3E1,7.39E2,2.99E2,2.6E2,3E2,1.54E2,2.87E2,3.6E2,2.83E2,5.3E1,1.2E1,1E1,1E1,7.2E1,1.128E3,1.074E3,8.38E2,9.9E1,2.88E2,1.13E2,5.8E1,1.927E3,3E0,1.2E1,8.5E2,7.45E2,1.6E1,8E0,8.36E2,6.3E1,3.26E2,1.9E1,6.53E2,5.35E2,4.32E2,1.63E2,2.6E2,2.45E2,8.3E1,8.6E1,1.45E2,1.03E2,7E1,1E0,5.7E1,3.5E1,1.6E1,2.9E1,8.9E1,1.9E2,1.3E1,1.9E1,6E0,2.1E1,3E1,1.9E2,1.3E2,2E0,7E0,5E0],"tree_param":{"num_deleted":"0","num_feature":"78","num_nodes":"125","size_leaf_vector":"1"}},{"base_weights":[1.0340996E-1,-2.1825974E1,7.367688E1,-3.4544216E1,9.802439E0,5.8299564E1,1.3229155E2,-4.2673805E1,-2.000036E1,-1.8655338E0,3.4866367E1,3.8117542E1,7.9807144E1,1.4182788E2,6.480835E1,-4.8558437E1,-2.9769716E1,9.0190704E1,-2.0551594E1,-3.2880753E1,3.6268585E0,2.8205109E1,1.0968765E2,4.998602E1,6.0178976E0,6.2163E1,1.02778984E2,1.4469765E2,-1.2200906E1,7.405822E1,-3.6313424E0,-6.61183E1,-4.4761524E1,-3.8714256E1,-1.8330496E1,-3.0313148E0,1.1038337E2,-2.6213615E1,-1.10369215E1,1.7419914E1,-3.8857037E1,8.0888796E-1,6.2711613E1,1.3332222E1,6.518105E1,7.9437776E0,1.4078319E2,4.6116657E1,1.1995691E2,4.957586E1,-3.4627118E0,7.973653E1,3.9729446E1,8.3028465E1,1.196965E2,1.6045813E2,1.10349556E2,-3.1814742E0,3.432421E1,4.7677673E1,1.26153786E2,-3.37183E0,-9.042533E-1,-2.6059053E0,-1.8114403E0,-5.167496E-1,-2.0859394E0,-1.1525985E0,1.8444016E0,-3.7901726E-1,5.0590515E-2,1.1393528E0,5.768435E0,-1.6933825E0,-9.949849E-1,-1.1480397E0,-2.9580426E-1,4.2815098E-1,6.48526E0,-2.9022367E0,-1.0719751E0,-7.339973E-1,5.7901776E-1,5.8641253E0,1.1400813E0,-1.5986979E-2,2.979949E0,3.6043003E0,-1.5342364E0,-2.4268186E0,2.5876813E0,-3.5143807E0,7.527701E0,1.5130634E0,3.3303838E0,-5.9514593E-2,6.7841616E0,3.871721E0,5.623063E-1,-2.694787E0,1.6946423E-1,2.2323482E0,5.102768E0,1.1994228E0,4.3184257E0,3.2097955E0,5.7009068E0,6.403427E0,2.155815E0,6.8926325E0,8.864989E0,3.9031873E0,7.0969186E0,3.7743745E0,4.0109363E-1,-6.5421814E-1,3.5368016E0,7.2086844E0,-1.8014513E0],"categories":[],"categories_nodes":[],"categories_segments":[],"categories_sizes":[],"default_left":[0,0,0,0,0,0,0,0,0,0,0,0,0,0,0,0,0,0,0,0,0,0,0,0,0,0,0,0,0,0,0,0,0,0,0,0,0,0,0,0,0,0,0,0,0,0,0,0,0,0,0,0,0,0,0,0,0,0,0,0,0,0,0,0,0,0,0,0,0,0,0,0,0,0,0,0,0,0,0,0,0,0,0,0,0,0,0,0,0,0,0,0,0,0,0,0,0,0,0,0,0,0,0,0,0,0,0,0,0,0,0,0,0,0,0,0,0,0,0],"id":4,"left_children":[1,3,5,7,9,11,13,15,17,19,21,23,25,27,29,31,33,35,37,39,41,43,45,47,49,51,53,55,57,59,-1,61,63,65,67,69,71,73,75,77,79,81,83,85,87,89,91,93,95,97,99,101,103,105,107,109,111,-1,113,115,117,-1,-1,-1,-1,-1,-1,-1,-1,-1,-1,-1,-1,-1,-1,-1,-1,-1,-1,-1,-1,-1,-1,-1,-1,-1,-1,-1,-1,-1,-1,-1,-1,-1,-1,-1,-1,-1,-1,-1,-1,-1,-1,-1,-1,-1,-1,-1,-1,-1,-1,-1,-1,-1,-1,-1,-1,-1,-1],"loss_changes":[2.7649188E7,5.310946E6,3.539046E6,1.112453E6,1.1075551E6,1.350811E6,5.16582E5,4.57131E5,2.0703662E5,4.404682E5,5.9648625E5,6.13448E5,6.05237E5,3.17815E5,1.3631828E5,2.73467E5,1.9308175E5,3.2335438E4,1.8082925E5,1.1761466E5,3.6574775E5,6.0736356E5,3.0893212E5,3.128615E5,1.802205E5,3.342985E5,2.085825E5,3.62316E5,3.568212E4,1.2729331E5,0E0,4.5322E4,2.12289E5,9.0121875E4,2.1802412E5,8.123907E1,3.4848281E3,1.01150875E5,7.6555766E4,4.0658285E4,1.15058E5,3.5019497E5,2.1511816E5,4.9900834E5,2.1204975E5,6.189721E4,1.6525738E5,3.60565E5,1.1637856E5,8.241842E4,1.24241195E5,3.7057625E5,2.7543494E5,1.70683E5,2.188745E5,1.5792E5,2.173705E5,0E0,8.0559736E3,9.339633E4,9.871506E4,0E0,0E0,0E0,0E0,0E0,0E0,0E0,0E0,0E0,0E0,0E0,0E0,0E0,0E0,0E0,0E0,0E0,0E0,0E0,0E0,0E0,0E0,0E0,0E0,0E0,0E0,0E0,0E0,0E0,0E0,0E0,0E0,0E0,0E0,0E0,0E0,0E0,0E0,0E0,0E0,0E0,0E0,0E0,0E0,0E0,0E0,0E0,0E0,0E0,0E0,0E0,0E0,0E0,0E0,0E0,0E0,0E0,0E0],"parents":[2147483647,0,0,1,1,2,2,3,3,4,4,5,5,6,6,7,7,8,8,9,9,10,10,11,11,12,12,13,13,14,14,15,15,16,16,17,17,18,18,19,19,20,20,21,21,22,22,23,23,24,24,25,25,26,26,27,27,28,28,29,29,31,31,32,32,33,33,34,34,35,35,36,36,37,37,38,38,39,39,40,40,41,41,42,42,43,43,44,44,45,45,46,46,47,47,48,48,49,49,50,50,51,51,52,52,53,53,54,54,55,55,56,56,58,58,59,59,60,60],"right_children":[2,4,6,8,10,12,14,16,18,20,22,24,26,28,30,32,34,36,38,40,42,44,46,48,50,52,54,56,58,60,-1,62,64,66,68,70,72,74,76,78,80,82,84,86,88,90,92,94,96,98,100,102,104,106,108,110,112,-1,114,116,118,-1,-1,-1,-1,-1,-1,-1,-1,-1,-1,-1,-1,-1,-1,-1,-1,-1,-1,-1,-1,-1,-1,-1,-1,-1,-1,-1,-1,-1,-1,-1,-1,-1,-1,-1,-1,-1,-1,-1,-1,-1,-1,-1,-1,-1,-1,-1,-1,-1,-1,-1,-1,-1,-1,-1,-1,-1,-1],"split_conditions":[1.4436E2,8.056834E1,2.8148E2,6.347953E1,1.3245982E2,8.264795E1,4E0,6.1471138E1,5E0,-7.818315E-1,2.8159E2,6E0,6.234898E-1,3.7943E2,1.1094909E2,-7.818315E-1,1.4E1,2.1293282E1,1.7E1,2.2507402E2,9.55251E-1,1.8E1,7.623031E1,9.326036E-1,1E0,4E0,1.1E1,4E0,2.2409003E2,9.12623E1,-3.6313424E0,1.0157E2,4.2677204E1,3.882698E-1,1.8394552E0,1E1,-9.659258E-1,-2.4492937E-16,3.6808212E1,1.6E1,-1.8369701E-16,1.4484E2,1E0,6E0,2.4E1,2.946495E-1,2.8176593E2,1.69156E2,-2.091E1,3E0,-1.453E1,1.8929E2,2E0,2.1147911E2,3.3802E2,3.1275406E2,2.3049458E2,-3.1814742E0,-7.0710677E-1,1.6823833E2,4E0,-3.37183E0,-9.042533E-1,-2.6059053E0,-1.8114403E0,-5.167496E-1,-2.0859394E0,-1.1525985E0,1.8444016E0,-3.7901726E-1,5.0590515E-2,1.1393528E0,5.768435E0,-1.6933825E0,-9.949849E-1,-1.1480397E0,-2.9580426E-1,4.2815098E-1,6.48526E0,-2.9022367E0,-1.0719751E0,-7.339973E-1,5.7901776E-1,5.8641253E0,1.1400813E0,-1.5986979E-2,2.979949E0,3.6043003E0,-1.5342364E0,-2.4268186E0,2.5876813E0,-3.5143807E0,7.527701E0,1.5130634E0,3.3303838E0,-5.9514593E-2,6.7841616E0,3.871721E0,5.623063E-1,-2.694787E0,1.6946423E-1,2.2323482E0,5.102768E0,1.1994228E0,4.3184257E0,3.2097955E0,5.7009068E0,6.403427E0,2.155815E0,6.8926325E0,8.864989E0,3.9031873E0,7.0969186E0,3.7743745E0,4.0109363E-1,-6.5421814E-1,3.5368016E0,7.2086844E0,-1.8014513E0],"split_indices":[14,46,14,14,46,47,6,74,60,4,74,6,5,43,35,4,0,35,0,49,51,60,41,51,3,3,0,3,28,35,0,25,46,39,45,0,1,7,47,0,2,37,3,3,58,33,43,46,70,56,68,19,56,46,43,14,46,0,1,22,3,0,0,0,0,0,0,0,0,0,0,0,0,0,0,0,0,0,0,0,0,0,0,0,0,0,0,0,0,0,0,0,0,0,0,0,0,0,0,0,0,0,0,0,0,0,0,0,0,0,0,0,0,0,0,0,0,0,0],"split_type":[0,0,0,0,0,0,0,0,0,0,0,0,0,0,0,0,0,0,0,0,0,0,0,0,0,0,0,0,0,0,0,0,0,0,0,0,0,0,0,0,0,0,0,0,0,0,0,0,0,0,0,0,0,0,0,0,0,0,0,0,0,0,0,0,0,0,0,0,0,0,0,0,0,0,0,0,0,0,0,0,0,0,0,0,0,0,0,0,0,0,0,0,0,0,0,0,0,0,0,0,0,0,0,0,0,0,0,0,0,0,0,0,0,0,0,0,0,0,0],"sum_hessian":[1.7135E4,1.3201E4,3.934E3,9.415E3,3.786E3,3.118E3,8.16E2,6.038E3,3.377E3,2.584E3,1.202E3,1.61E3,1.508E3,7.14E2,1.02E2,4.145E3,1.893E3,1.6E1,3.361E3,3.88E2,2.196E3,1.105E3,9.7E1,1.175E3,4.35E2,8.55E2,6.53E2,7.01E2,1.3E1,9.6E1,6E0,7.34E2,3.411E3,1.061E3,8.32E2,3E0,1.3E1,2.106E3,1.255E3,4.1E1,3.47E2,2.097E3,9.9E1,7.89E2,3.16E2,2.3E1,7.4E1,1.115E3,6E1,7.7E1,3.58E2,4.78E2,3.77E2,3.04E2,3.49E2,4.78E2,2.23E2,6E0,7E0,6.5E1,3.1E1,7.14E2,2E1,1.829E3,1.582E3,1.02E2,9.59E2,7.67E2,6.5E1,1E0,2E0,1E0,1.2E1,9.5E2,1.156E3,3.76E2,8.79E2,3.9E1,2E0,1.64E2,1.83E2,8.6E2,1.237E3,4.1E1,5.8E1,6.1E2,1.79E2,2.95E2,2.1E1,1E1,1.3E1,3E0,7.1E1,6.3E2,4.85E2,7E0,5.3E1,4.4E1,3.3E1,4.2E1,3.16E2,1.87E2,2.91E2,2.83E2,9.4E1,1.91E2,1.13E2,3.14E2,3.5E1,2.08E2,2.7E2,1.12E2,1.11E2,2E0,5E0,1.8E1,4.7E1,2.8E1,3E0],"tree_param":{"num_deleted":"0","num_feature":"78","num_nodes":"119","size_leaf_vector":"1"}},{"base_weights":[-6.016445E-2,-2.0664957E1,7.05393E1,-3.0430655E1,1.4113789E1,5.3591564E1,1.2365857E2,-3.6195206E1,-1.105818E1,2.1687424E0,3.682387E1,3.695247E1,7.2618866E1,1.3880533E2,8.834295E1,-4.298967E1,-2.308812E1,-4.0530956E1,-5.3677607E0,-8.762414E0,1.4445664E1,4.7818344E1,5.8249025E0,4.830373E0,5.2433186E1,1.8937563E1,8.253145E1,1.4275607E2,1.2920479E1,4.958315E0,1.0443848E2,-4.9942978E1,-3.5220116E1,-3.2296104E1,-1.4362125E1,-5.68574E1,-2.6654839E1,-1.0218202E1,1.8120096E1,-2.1803537E1,-2.033508E0,6.513745E0,2.9227802E1,3.3687103E1,8.315422E1,-3.0922267E0,1.2097169E2,-3.5197845E1,2.0287683E1,6.3217545E1,2.080191E1,3.756807E0,9.9642265E1,6.083503E1,1.1003331E2,8.8278725E1,1.4914508E2,3.5700765E0,-5.039858E0,4.9104343E1,-6.268343E1,7.764538E1,1.388018E2,-2.9366207E0,-2.1275733E0,-1.8469899E0,3.1162193E-1,-2.3951583E0,-1.4351732E0,-1.391222E0,-3.896922E-1,-2.914272E0,4.8262315E0,1.6021117E0,-1.5345451E0,-7.6776785E-1,7.979211E-1,2.3410234E0,-1.24563575E-1,-2.0014684E0,-8.8667786E-1,9.2677444E-1,-3.4247145E-1,1.1534691E0,-4.8096523E-1,2.1706429E-1,2.3393538E0,9.469926E-1,3.2178795E0,1.2404488E0,5.691912E0,1.2263306E0,-1.7908204E0,7.8634486E0,8.058047E-1,-3.062668E0,-8.608122E-1,5.673881E-1,3.7991753E0,4.122424E0,2.096577E0,-1.8811022E-1,3.175848E0,-2.692749E-1,3.7052133E0,5.790401E0,-8.640335E-1,1.96005E0,4.2038455E0,4.293719E0,6.2824845E0,6.2404876E0,-3.7313843E-1,6.757328E0,8.511387E0,2.909001E-1,-2.8824604E0,-3.6527898E0,3.57861E0,-3.8488488E0,-3.6330497E-1,3.6126098E-1,6.495823E0,7.684475E0,3.4666698E0],"categories":[],"categories_nodes":[],"categories_segments":[],"categories_sizes":[],"default_left":[0,0,0,0,0,0,0,0,0,0,0,0,0,0,0,0,0,0,0,0,0,0,0,0,0,0,0,0,0,0,0,0,0,0,0,0,0,0,0,0,0,0,0,0,0,0,0,0,0,0,0,0,0,0,0,0,0,0,0,0,0,0,0,0,0,0,0,0,0,0,0,0,0,0,0,0,0,0,0,0,0,0,0,0,0,0,0,0,0,0,0,0,0,0,0,0,0,0,0,0,0,0,0,0,0,0,0,0,0,0,0,0,0,0,0,0,0,0,0,0,0,0,0,0,0],"id":5,"left_children":[1,3,5,7,9,11,13,15,17,19,21,23,25,27,29,31,33,35,37,39,41,43,45,47,49,51,53,55,57,59,61,63,65,67,69,71,73,75,77,79,81,83,85,87,89,91,93,95,97,99,101,103,105,107,109,111,113,-1,115,117,119,121,123,-1,-1,-1,-1,-1,-1,-1,-1,-1,-1,-1,-1,-1,-1,-1,-1,-1,-1,-1,-1,-1,-1,-1,-1,-1,-1,-1,-1,-1,-1,-1,-1,-1,-1,-1,-1,-1,-1,-1,-1,-1,-1,-1,-1,-1,-1,-1,-1,-1,-1,-1,-1,-1,-1,-1,-1,-1,-1,-1,-1,-1,-1],"loss_changes":[2.4963894E7,4.512191E6,3.483646E6,1.157878E6,7.901384E5,9.28429E5,4.88955E5,7.10829E5,3.9893806E5,2.5645042E5,3.4190212E5,7.80963E5,7.279735E5,3.23416E5,3.80644E5,2.8257E5,2.1896888E5,8.570531E4,2.2758234E5,8.867343E4,1.053353E5,3.672095E5,2.714437E5,3.1750312E5,3.6027525E5,2.6303472E5,6.83679E5,2.07501E5,2.2416977E4,1.434254E5,2.0834925E5,1.77785E5,1.77659E5,7.308675E4,1.2393081E5,4.4176188E4,5.0733453E4,2.227985E5,2.024281E5,2.4807656E4,6.629814E4,1.5700547E5,1.3701144E5,2.3895531E5,3.74922E5,2.2321422E5,6.977894E4,6.594378E4,1.833668E5,3.1992925E5,2.8458775E5,1.1745018E5,6.626622E4,3.2303125E5,1.81243E5,2.4226138E5,1.44036E5,0E0,1.0046228E4,8.482436E4,1.4490781E4,4.996688E5,9.5869375E4,0E0,0E0,0E0,0E0,0E0,0E0,0E0,0E0,0E0,0E0,0E0,0E0,0E0,0E0,0E0,0E0,0E0,0E0,0E0,0E0,0E0,0E0,0E0,0E0,0E0,0E0,0E0,0E0,0E0,0E0,0E0,0E0,0E0,0E0,0E0,0E0,0E0,0E0,0E0,0E0,0E0,0E0,0E0,0E0,0E0,0E0,0E0,0E0,0E0,0E0,0E0,0E0,0E0,0E0,0E0,0E0,0E0,0E0,0E0,0E0,0E0,0E0],"parents":[2147483647,0,0,1,1,2,2,3,3,4,4,5,5,6,6,7,7,8,8,9,9,10,10,11,11,12,12,13,13,14,14,15,15,16,16,17,17,18,18,19,19,20,20,21,21,22,22,23,23,24,24,25,25,26,26,27,27,28,28,29,29,30,30,31,31,32,32,33,33,34,34,35,35,36,36,37,37,38,38,39,39,40,40,41,41,42,42,43,43,44,44,45,45,46,46,47,47,48,48,49,49,50,50,51,51,52,52,53,53,54,54,55,55,56,56,58,58,59,59,60,60,61,61,62,62],"right_children":[2,4,6,8,10,12,14,16,18,20,22,24,26,28,30,32,34,36,38,40,42,44,46,48,50,52,54,56,58,60,62,64,66,68,70,72,74,76,78,80,82,84,86,88,90,92,94,96,98,100,102,104,106,108,110,112,114,-1,116,118,120,122,124,-1,-1,-1,-1,-1,-1,-1,-1,-1,-1,-1,-1,-1,-1,-1,-1,-1,-1,-1,-1,-1,-1,-1,-1,-1,-1,-1,-1,-1,-1,-1,-1,-1,-1,-1,-1,-1,-1,-1,-1,-1,-1,-1,-1,-1,-1,-1,-1,-1,-1,-1,-1,-1,-1,-1,-1,-1,-1,-1,-1,-1,-1],"split_conditions":[1.3245982E2,8.959E1,2.6678998E2,7.320754E1,1.6917E2,6.234898E-1,4E0,6.211E1,-7.818315E-1,8.220994E1,7E0,1.4402E2,2.1788585E2,7.1925974E-1,2.8338E2,6.234898E-1,6.216215E1,-2.5881904E-1,1.11498375E2,1E1,6.234898E-1,4.5E1,7.840751E1,2.3846315E2,9.4E1,1.699025E2,1.1E1,8.0905014E1,-7.0710677E-1,1.5268E2,2.5623E2,1.59E0,1.2329E2,-7.818315E-1,8E0,8.008E1,2.0252817E2,2.7025154E1,3E0,1.5932E2,5E0,1.078828E2,1.562751E2,2.0538759E2,6.823157E1,3E0,1.7E1,6.123234E-17,2.1435E2,4E0,3.144286E2,4.1E1,6.9E1,1.5337E2,2.4572272E2,2.753E2,1.5485E2,3.5700765E0,2.6849E2,1.59E0,2E-2,1.15E2,2.11E1,-2.9366207E0,-2.1275733E0,-1.8469899E0,3.1162193E-1,-2.3951583E0,-1.4351732E0,-1.391222E0,-3.896922E-1,-2.914272E0,4.8262315E0,1.6021117E0,-1.5345451E0,-7.6776785E-1,7.979211E-1,2.3410234E0,-1.24563575E-1,-2.0014684E0,-8.8667786E-1,9.2677444E-1,-3.4247145E-1,1.1534691E0,-4.8096523E-1,2.1706429E-1,2.3393538E0,9.469926E-1,3.2178795E0,1.2404488E0,5.691912E0,1.2263306E0,-1.7908204E0,7.8634486E0,8.058047E-1,-3.062668E0,-8.608122E-1,5.673881E-1,3.7991753E0,4.122424E0,2.096577E0,-1.8811022E-1,3.175848E0,-2.692749E-1,3.7052133E0,5.790401E0,-8.640335E-1,1.96005E0,4.2038455E0,4.293719E0,6.2824845E0,6.2404876E0,-3.7313843E-1,6.757328E0,8.511387E0,2.909001E-1,-2.8824604E0,-3.6527898E0,3.57861E0,-3.8488488E0,-3.6330497E-1,3.6126098E-1,6.495823E0,7.684475E0,3.4666698E0],"split_indices":[46,14,14,46,14,5,3,19,4,46,6,21,44,51,25,5,21,2,19,0,5,60,36,37,62,34,0,47,2,30,38,14,21,4,0,66,49,68,58,49,6,46,37,32,47,3,0,2,24,3,37,60,62,14,37,19,36,0,21,19,70,62,70,0,0,0,0,0,0,0,0,0,0,0,0,0,0,0,0,0,0,0,0,0,0,0,0,0,0,0,0,0,0,0,0,0,0,0,0,0,0,0,0,0,0,0,0,0,0,0,0,0,0,0,0,0,0,0,0,0,0,0,0,0,0],"split_type":[0,0,0,0,0,0,0,0,0,0,0,0,0,0,0,0,0,0,0,0,0,0,0,0,0,0,0,0,0,0,0,0,0,0,0,0,0,0,0,0,0,0,0,0,0,0,0,0,0,0,0,0,0,0,0,0,0,0,0,0,0,0,0,0,0,0,0,0,0,0,0,0,0,0,0,0,0,0,0,0,0,0,0,0,0,0,0,0,0,0,0,0,0,0,0,0,0,0,0,0,0,0,0,0,0,0,0,0,0,0,0,0,0,0,0,0,0,0,0,0,0,0,0,0,0],"sum_hessian":[1.7159E4,1.3283E4,3.876E3,1.0371E4,2.912E3,2.94E3,9.36E2,7.992E3,2.379E3,1.909E3,1.003E3,1.57E3,1.37E3,6.53E2,2.83E2,5.262E3,2.73E3,3.84E2,1.995E3,1.01E3,8.99E2,7.4E2,2.63E2,5.11E2,1.059E3,2.14E2,1.156E3,6.33E2,2E1,4.6E1,2.37E2,2.774E3,2.488E3,1.327E3,1.403E3,1.75E2,2.09E2,1.654E3,3.41E2,3.43E2,6.67E2,5.86E2,3.13E2,5.3E2,2.1E2,2.45E2,1.8E1,1.42E2,3.69E2,7.89E2,2.7E2,1.81E2,3.3E1,6.48E2,5.08E2,6.8E1,5.65E2,4E0,1.6E1,2.8E1,1.8E1,1.35E2,1.02E2,1.264E3,1.51E3,2.389E3,9.9E1,2.46E2,1.081E3,4.59E2,9.44E2,1.74E2,1E0,1.3E1,1.96E2,1.383E3,2.71E2,1.42E2,1.99E2,6.1E1,2.82E2,1.26E2,5.41E2,2.89E2,2.97E2,1.3E2,1.83E2,3.59E2,1.71E2,7.3E1,1.37E2,1.33E2,1.12E2,1.3E1,5E0,5.7E1,8.5E1,3.19E2,5E1,4.13E2,3.76E2,1.72E2,9.8E1,1.61E2,2E1,2.9E1,4E0,3.37E2,3.11E2,2.02E2,3.06E2,4.9E1,1.9E1,3.44E2,2.21E2,1.4E1,2E0,4E0,2.4E1,1.4E1,4E0,5.8E1,7.7E1,8.3E1,1.9E1],"tree_param":{"num_deleted":"0","num_feature":"78","num_nodes":"125","size_leaf_vector":"1"}},{"base_weights":[2.893263E-1,-1.941874E1,6.5845604E1,-3.0703438E1,8.841522E0,5.184359E1,1.19638885E2,-3.8205395E1,-1.7312883E1,5.164139E0,8.821567E1,6.109268E1,4.966045E0,6.9513565E1,1.3254468E2,-4.2646862E1,-2.4313782E1,-2.2527609E1,-7.62323E0,-2.5772747E1,1.0906556E1,1.24152504E2,4.9450012E1,4.6521957E1,8.079125E1,-1.2567538E1,2.8088303E1,5.4206013E1,1.3383345E2,9.533861E1,1.4388148E2,-4.993879E1,-3.3814228E1,-1.5816051E1,-3.508553E1,-2.5267204E1,-6.3612394E0,-8.325578E0,1.1216247E2,-3.484692E1,1.2508626E1,5.3110614E0,4.3821873E1,3.8881966E1,1.4459767E2,-4.067376E1,6.398572E1,2.6708853E1,6.3691326E1,3.045371E1,8.680732E1,-5.565822E1,-4.448695E0,1.1971334E1,7.890368E1,1.9695705E1,9.674792E1,8.186993E0,2.364676E1,1.1283448E2,-4.8611217E0,1.3050882E2,1.7123198E2,-2.8475218E0,-2.0897458E0,-2.0179765E0,-9.8658866E-1,-9.7244066E-1,1.1467229E0,8.2791424E-1,-1.8337183E0,-1.6089972E0,-9.942462E-1,-6.605151E-1,5.8446603E0,-7.903765E-1,-9.108964E-2,1.1194308E0,6.1696672E0,1.3402826E0,-1.9543473E0,-1.2609075E0,1.8267319E0,-7.314333E-2,1.0865425E0,4.665548E0,1.4910558E0,4.7189426E0,-7.4767154E-1,7.5157685E0,-1.5648284E0,1.03854E0,-3.6996193E0,4.934203E0,2.2083879E0,6.232645E-1,2.95896E0,1.6647158E0,4.1003957E0,1.1228256E0,5.0611777E0,3.4357655E0,4.9960084E0,1.144429E0,-3.0766938E0,-1.0301412E0,1.2593473E0,-1.14885E0,1.5939184E0,2.5084617E0,6.262189E0,-2.3471425E0,2.1741939E0,6.22439E0,1.3708103E0,-1.4528446E0,3.0540166E0,2.3433216E0,6.3904786E0,1.3803631E0,-2.28713E0,-4.4663424E0,6.6041613E0,8.923427E0,4.9930873E0],"categories":[],"categories_nodes":[],"categories_segments":[],"categories_sizes":[],"default_left":[0,0,0,0,0,0,0,0,0,0,0,0,0,0,0,0,0,0,0,0,0,0,0,0,0,0,0,0,0,0,0,0,0,0,0,0,0,0,0,0,0,0,0,0,0,0,0,0,0,0,0,0,0,0,0,0,0,0,0,0,0,0,0,0,0,0,0,0,0,0,0,0,0,0,0,0,0,0,0,0,0,0,0,0,0,0,0,0,0,0,0,0,0,0,0,0,0,0,0,0,0,0,0,0,0,0,0,0,0,0,0,0,0,0,0,0,0,0,0,0,0,0,0,0,0],"id":6,"left_children":[1,3,5,7,9,11,13,15,17,19,21,23,25,27,29,31,33,35,37,39,41,43,45,47,49,51,53,55,57,59,61,63,65,67,69,71,73,75,77,79,81,83,85,87,89,91,93,95,97,99,101,103,105,107,109,111,113,-1,115,117,119,121,123,-1,-1,-1,-1,-1,-1,-1,-1,-1,-1,-1,-1,-1,-1,-1,-1,-1,-1,-1,-1,-1,-1,-1,-1,-1,-1,-1,-1,-1,-1,-1,-1,-1,-1,-1,-1,-1,-1,-1,-1,-1,-1,-1,-1,-1,-1,-1,-1,-1,-1,-1,-1,-1,-1,-1,-1,-1,-1,-1,-1,-1,-1],"loss_changes":[2.2213124E7,4.215924E6,2.98707E6,9.4834E5,1.1008424E6,1.367625E6,5.21249E5,3.7249E5,1.7132325E5,6.410737E5,2.2651075E5,7.52546E5,2.1157475E5,1.60124E5,2.60874E5,2.93681E5,1.3391062E5,9.75415E4,1.0096574E5,1.9670094E5,5.602194E5,1.4430762E5,1.1002356E5,5.1435E5,3.36228E5,1.0365678E5,1.8332811E5,2.0216516E5,1.0157731E5,2.7227612E5,1.59429E5,1.409455E5,1.9064875E5,1.1630092E5,5.3696E4,6.953125E4,2.725252E5,5.7537188E4,4.2950625E3,1.20511375E5,9.9721555E4,2.8944303E5,3.034723E5,5.5189844E4,7.409825E4,2.6103861E4,4.446453E4,3.2578262E5,4.4936625E5,6.620809E4,2.301345E5,2.3099594E4,1.20682164E5,1.2039591E5,6.562072E4,1.2568758E5,1.1582869E5,0E0,1.755789E4,1.24409875E5,3.311936E4,1.28784E5,6.4814E4,0E0,0E0,0E0,0E0,0E0,0E0,0E0,0E0,0E0,0E0,0E0,0E0,0E0,0E0,0E0,0E0,0E0,0E0,0E0,0E0,0E0,0E0,0E0,0E0,0E0,0E0,0E0,0E0,0E0,0E0,0E0,0E0,0E0,0E0,0E0,0E0,0E0,0E0,0E0,0E0,0E0,0E0,0E0,0E0,0E0,0E0,0E0,0E0,0E0,0E0,0E0,0E0,0E0,0E0,0E0,0E0,0E0,0E0,0E0,0E0,0E0,0E0],"parents":[2147483647,0,0,1,1,2,2,3,3,4,4,5,5,6,6,7,7,8,8,9,9,10,10,11,11,12,12,13,13,14,14,15,15,16,16,17,17,18,18,19,19,20,20,21,21,22,22,23,23,24,24,25,25,26,26,27,27,28,28,29,29,30,30,31,31,32,32,33,33,34,34,35,35,36,36,37,37,38,38,39,39,40,40,41,41,42,42,43,43,44,44,45,45,46,46,47,47,48,48,49,49,50,50,51,51,52,52,53,53,54,54,55,55,56,56,58,58,59,59,60,60,61,61,62,62],"right_children":[2,4,6,8,10,12,14,16,18,20,22,24,26,28,30,32,34,36,38,40,42,44,46,48,50,52,54,56,58,60,62,64,66,68,70,72,74,76,78,80,82,84,86,88,90,92,94,96,98,100,102,104,106,108,110,112,114,-1,116,118,120,122,124,-1,-1,-1,-1,-1,-1,-1,-1,-1,-1,-1,-1,-1,-1,-1,-1,-1,-1,-1,-1,-1,-1,-1,-1,-1,-1,-1,-1,-1,-1,-1,-1,-1,-1,-1,-1,-1,-1,-1,-1,-1,-1,-1,-1,-1,-1,-1,-1,-1,-1,-1,-1,-1,-1,-1,-1,-1,-1,-1,-1,-1,-1],"split_conditions":[1.4436E2,8.056834E1,2.8148E2,6.347953E1,2.0741655E2,6E0,1.5075E2,6.83E1,1.8E1,-7.818315E-1,5E-1,6.234898E-1,6.234898E-1,3.1036E2,2.0741655E2,6.234898E-1,1.2246469E-16,1E0,5.04E0,1.210544E0,1.8229E2,7.727039E1,3.1099E2,0E0,6.1262722E1,-1.453E1,2.7597E2,7.818315E-1,3.1006168E2,8E1,3.4813715E2,0E0,-2.4492937E-16,6.458333E-1,-1.0354E2,-2.4492937E-16,7.2E1,7.181069E1,1.9E1,2.2507402E2,5.254142E0,1.2902778E1,-4.3388373E-1,2.114309E2,3.4420438E2,1.8333E2,1.5166E2,3.1425E2,1.8336E2,1.1939713E0,1E1,1.7030434E1,7.851436E1,-2.4492937E-16,1.433E1,5.797887E1,3.3783E2,8.186993E0,-4.4083123E0,1.2E1,2.0675E2,-5.867E1,2.7404214E2,-2.8475218E0,-2.0897458E0,-2.0179765E0,-9.8658866E-1,-9.7244066E-1,1.1467229E0,8.2791424E-1,-1.8337183E0,-1.6089972E0,-9.942462E-1,-6.605151E-1,5.8446603E0,-7.903765E-1,-9.108964E-2,1.1194308E0,6.1696672E0,1.3402826E0,-1.9543473E0,-1.2609075E0,1.8267319E0,-7.314333E-2,1.0865425E0,4.665548E0,1.4910558E0,4.7189426E0,-7.4767154E-1,7.5157685E0,-1.5648284E0,1.03854E0,-3.6996193E0,4.934203E0,2.2083879E0,6.232645E-1,2.95896E0,1.6647158E0,4.1003957E0,1.1228256E0,5.0611777E0,3.4357655E0,4.9960084E0,1.144429E0,-3.0766938E0,-1.0301412E0,1.2593473E0,-1.14885E0,1.5939184E0,2.5084617E0,6.262189E0,-2.3471425E0,2.1741939E0,6.22439E0,1.3708103E0,-1.4528446E0,3.0540166E0,2.3433216E0,6.3904786E0,1.3803631E0,-2.28713E0,-4.4663424E0,6.6041613E0,8.923427E0,4.9930873E0],"split_indices":[14,46,14,14,46,6,75,75,0,4,1,5,5,20,46,5,1,5,48,33,19,41,50,4,47,68,43,4,22,62,37,4,7,59,76,7,62,26,0,49,23,68,4,17,20,18,17,43,19,33,0,35,46,7,36,46,31,0,76,60,38,77,46,0,0,0,0,0,0,0,0,0,0,0,0,0,0,0,0,0,0,0,0,0,0,0,0,0,0,0,0,0,0,0,0,0,0,0,0,0,0,0,0,0,0,0,0,0,0,0,0,0,0,0,0,0,0,0,0,0,0,0,0,0,0],"split_type":[0,0,0,0,0,0,0,0,0,0,0,0,0,0,0,0,0,0,0,0,0,0,0,0,0,0,0,0,0,0,0,0,0,0,0,0,0,0,0,0,0,0,0,0,0,0,0,0,0,0,0,0,0,0,0,0,0,0,0,0,0,0,0,0,0,0,0,0,0,0,0,0,0,0,0,0,0,0,0,0,0,0,0,0,0,0,0,0,0,0,0,0,0,0,0,0,0,0,0,0,0,0,0,0,0,0,0,0,0,0,0,0,0,0,0,0,0,0,0,0,0,0,0,0,0],"sum_hessian":[1.7191E4,1.3218E4,3.973E3,9.446E3,3.772E3,3.154E3,8.19E2,6.053E3,3.393E3,3.606E3,1.66E2,2.634E3,5.2E2,1.69E2,6.5E2,4.585E3,1.468E3,2.205E3,1.188E3,5.64E2,3.042E3,8.5E1,8.1E1,1.516E3,1.118E3,2.96E2,2.24E2,1.38E2,3.1E1,1.54E2,4.96E2,2.509E3,2.076E3,8.22E2,6.46E2,1.885E3,3.2E2,1.182E3,6E0,4.56E2,1.08E2,2.601E3,4.41E2,1.7E1,6.8E1,1.1E1,7E1,7.05E2,8.11E2,1.2E2,9.98E2,4.6E1,2.5E2,1.71E2,5.3E1,7.7E1,6.1E1,2.4E1,7E0,1.31E2,2.3E1,3.37E2,1.59E2,1.345E3,1.164E3,1.416E3,6.6E2,7.52E2,7E1,1.9E1,6.27E2,8.23E2,1.062E3,3.04E2,1.6E1,5.49E2,6.33E2,1E0,5E0,2.9E1,4.27E2,4.2E1,6.6E1,1.842E3,7.59E2,9.6E1,3.45E2,8E0,9E0,6.6E1,2E0,4E0,7E0,2.4E1,4.6E1,4.91E2,2.14E2,3.06E2,5.05E2,1.09E2,1.1E1,4.22E2,5.76E2,3E0,4.3E1,1.62E2,8.8E1,6.2E1,1.09E2,3.4E1,1.9E1,2E1,5.7E1,4.3E1,1.8E1,3E0,4E0,2.5E1,1.06E2,1.3E1,1E1,2E0,3.35E2,1.43E2,1.6E1],"tree_param":{"num_deleted":"0","num_feature":"78","num_nodes":"125","size_leaf_vector":"1"}},{"base_weights":[1.90032E-1,-1.8151907E1,6.567041E1,-2.578119E1,1.7091606E1,5.0181454E1,1.1388061E2,-3.604233E1,-1.5674182E1,6.60229E1,1.2637534E1,4.0729305E1,7.757442E1,1.27382126E2,8.209388E1,-3.97385E1,-1.5613305E1,-3.775726E1,-1.1800494E1,2.040161E1,9.848985E1,-4.37052E0,2.3829334E1,4.551587E1,-2.569711E1,1.00910706E2,5.0280327E1,1.314802E2,2.570544E1,2.723478E1,1.0733593E2,-4.7083675E1,-3.253317E1,-1.6536465E1,1.1546193E2,-5.1286865E1,-2.4899673E1,-1.628366E1,7.1656914E0,-4.3392353E1,3.489874E1,4.0423393E1,1.1650619E2,-6.063235E0,1.1716386E2,1.9896034E1,9.491043E1,5.859736E1,2.8081905E1,-4.221842E1,-1.5498799E1,1.0577693E2,-2.0056713E1,1.7878609E1,7.2006836E1,1.11423164E2,1.5156654E2,4.4163433E1,-3.0325406E0,1.1066397E2,-1.5648448E1,6.4323784E1,1.3594843E2,5.2567935E-1,-2.4016697E0,8.805586E-1,-1.6850958E0,4.4831896E-1,-9.404581E-1,-1.3901595E0,7.4837794E0,-2.6153924E0,3.1816566E0,-2.0194745E0,-9.356732E-1,-9.9581355E-1,-2.2836693E-4,5.1520575E-2,1.6197121E0,-4.2698865E0,-8.267786E-1,3.1044421E0,7.599516E-2,-1.732452E0,3.796922E0,6.0193152E0,-1.6779555E0,-3.554409E-1,6.110736E0,6.680427E0,-1.5931921E0,8.8792765E-1,4.1324472E0,6.6105475E0,-9.059728E-1,2.1953518E0,4.139679E0,8.084661E-1,3.567377E0,-3.2022069E0,-1.3194298E0,-1.1614834E0,-2.396785E-1,4.200587E0,6.632164E0,1.9865277E0,-1.8454987E0,-6.6744095E-1,1.7167294E0,1.626338E0,3.8827157E0,5.948295E0,3.465775E-1,3.2281704E0,7.8408265E0,4.9256235E-1,3.8790023E0,7.3366585E0,2.2166202E0,2.0565712E0,-3.5953355E0,-3.7253594E0,4.074997E0,-5.793137E-1,7.075998E0],"categories":[],"categories_nodes":[],"categories_segments":[],"categories_sizes":[],"default_left":[0,0,0,0,0,0,0,0,0,0,0,0,0,0,0,0,0,0,0,0,0,0,0,0,0,0,0,0,0,0,0,0,0,0,0,0,0,0,0,0,0,0,0,0,0,0,0,0,0,0,0,0,0,0,0,0,0,0,0,0,0,0,0,0,0,0,0,0,0,0,0,0,0,0,0,0,0,0,0,0,0,0,0,0,0,0,0,0,0,0,0,0,0,0,0,0,0,0,0,0,0,0,0,0,0,0,0,0,0,0,0,0,0,0,0,0,0,0,0,0,0,0,0,0,0],"id":7,"left_children":[1,3,5,7,9,11,13,15,17,19,21,23,25,27,29,31,33,35,37,39,41,43,45,47,49,51,53,55,57,59,61,63,65,67,69,71,73,75,77,79,81,83,85,87,89,91,93,95,97,99,101,103,105,107,109,111,113,115,-1,117,119,121,123,-1,-1,-1,-1,-1,-1,-1,-1,-1,-1,-1,-1,-1,-1,-1,-1,-1,-1,-1,-1,-1,-1,-1,-1,-1,-1,-1,-1,-1,-1,-1,-1,-1,-1,-1,-1,-1,-1,-1,-1,-1,-1,-1,-1,-1,-1,-1,-1,-1,-1,-1,-1,-1,-1,-1,-1,-1,-1,-1,-1,-1,-1],"loss_changes":[2.0626604E7,3.6077715E6,2.800482E6,1.1432465E6,5.19615E5,7.33734E5,3.81373E5,4.12565E5,4.7500212E5,2.927463E5,4.169723E5,6.745965E5,4.59257E5,2.62878E5,3.7788475E5,2.436675E5,1.0355214E5,1.4293425E5,4.0230194E5,7.92E4,1.1664325E5,1.7968944E5,3.674412E5,4.4900575E5,2.3439656E4,2.328745E5,2.3665669E5,2.30475E5,4.4121586E4,3.1657047E5,2.22624E5,1.2588E5,1.3784875E5,4.856547E4,3.3571188E4,5.0613125E4,4.016072E4,2.2625269E5,1.4004634E5,1.6637963E4,6.2528234E4,7.995103E4,5.5279875E4,1.160824E5,3.3665844E4,1.6660112E5,2.9330475E5,3.97313E5,4.3642562E5,1.6966805E4,7.3371113E3,2.093075E5,1.7588219E4,7.0859586E4,4.2512625E4,2.44291E5,1.28732E5,2.4460875E4,0E0,6.527075E4,1.914235E5,1.8968519E5,9.3703E4,0E0,0E0,0E0,0E0,0E0,0E0,0E0,0E0,0E0,0E0,0E0,0E0,0E0,0E0,0E0,0E0,0E0,0E0,0E0,0E0,0E0,0E0,0E0,0E0,0E0,0E0,0E0,0E0,0E0,0E0,0E0,0E0,0E0,0E0,0E0,0E0,0E0,0E0,0E0,0E0,0E0,0E0,0E0,0E0,0E0,0E0,0E0,0E0,0E0,0E0,0E0,0E0,0E0,0E0,0E0,0E0,0E0,0E0,0E0,0E0,0E0,0E0],"parents":[2147483647,0,0,1,1,2,2,3,3,4,4,5,5,6,6,7,7,8,8,9,9,10,10,11,11,12,12,13,13,14,14,15,15,16,16,17,17,18,18,19,19,20,20,21,21,22,22,23,23,24,24,25,25,26,26,27,27,28,28,29,29,30,30,31,31,32,32,33,33,34,34,35,35,36,36,37,37,38,38,39,39,40,40,41,41,42,42,43,43,44,44,45,45,46,46,47,47,48,48,49,49,50,50,51,51,52,52,53,53,54,54,55,55,56,56,57,57,59,59,60,60,61,61,62,62],"right_children":[2,4,6,8,10,12,14,16,18,20,22,24,26,28,30,32,34,36,38,40,42,44,46,48,50,52,54,56,58,60,62,64,66,68,70,72,74,76,78,80,82,84,86,88,90,92,94,96,98,100,102,104,106,108,110,112,114,116,-1,118,120,122,124,-1,-1,-1,-1,-1,-1,-1,-1,-1,-1,-1,-1,-1,-1,-1,-1,-1,-1,-1,-1,-1,-1,-1,-1,-1,-1,-1,-1,-1,-1,-1,-1,-1,-1,-1,-1,-1,-1,-1,-1,-1,-1,-1,-1,-1,-1,-1,-1,-1,-1,-1,-1,-1,-1,-1,-1,-1,-1,-1,-1,-1,-1],"split_conditions":[1.3569345E2,1.0188E2,2.6678998E2,5.375256E1,2E0,2.588902E2,4E0,2E1,-7.818315E-1,8.873724E1,7.912696E1,4.0582E2,5E-1,3.7943E2,6.673304E1,1.59E0,4.4E1,-1.8369701E-16,9.544E1,-7.818315E-1,6.291694E1,1.5178125E2,3.0902E2,4E0,7.5257087E-1,3.4189E2,1.3615663E2,3.5473E2,2.6849E2,3.765988E1,2.507463E2,4.9253103E-1,5.982042E-1,6E0,2.1E1,8.008E1,5.772179E1,7.824676E1,7.9324974E1,4.7251895E-1,7.063136E-1,9.094833E1,1.8395291E2,1.419325E2,3E0,2.6849E2,1.21525955E2,2.0107E2,1.8E1,2.6340693E1,5.424437E-1,3.1289E2,4.490436E1,1.7025417E2,1.6056306E2,3.4333E2,-5.029E1,1.4853E2,-3.0325406E0,3.0538977E2,1.5634E2,7.824676E1,1.1961785E2,5.2567935E-1,-2.4016697E0,8.805586E-1,-1.6850958E0,4.4831896E-1,-9.404581E-1,-1.3901595E0,7.4837794E0,-2.6153924E0,3.1816566E0,-2.0194745E0,-9.356732E-1,-9.9581355E-1,-2.2836693E-4,5.1520575E-2,1.6197121E0,-4.2698865E0,-8.267786E-1,3.1044421E0,7.599516E-2,-1.732452E0,3.796922E0,6.0193152E0,-1.6779555E0,-3.554409E-1,6.110736E0,6.680427E0,-1.5931921E0,8.8792765E-1,4.1324472E0,6.6105475E0,-9.059728E-1,2.1953518E0,4.139679E0,8.084661E-1,3.567377E0,-3.2022069E0,-1.3194298E0,-1.1614834E0,-2.396785E-1,4.200587E0,6.632164E0,1.9865277E0,-1.8454987E0,-6.6744095E-1,1.7167294E0,1.626338E0,3.8827157E0,5.948295E0,3.465775E-1,3.2281704E0,7.8408265E0,4.9256235E-1,3.8790023E0,7.3366585E0,2.2166202E0,2.0565712E0,-3.5953355E0,-3.7253594E0,4.074997E0,-5.793137E-1,7.075998E0],"split_indices":[46,14,14,46,6,38,3,0,4,66,46,49,1,43,35,14,58,2,73,4,21,34,25,3,51,25,14,49,21,35,21,45,51,6,0,66,21,47,35,39,39,28,34,40,3,21,46,14,0,29,45,44,29,40,46,49,77,26,0,25,36,47,22,0,0,0,0,0,0,0,0,0,0,0,0,0,0,0,0,0,0,0,0,0,0,0,0,0,0,0,0,0,0,0,0,0,0,0,0,0,0,0,0,0,0,0,0,0,0,0,0,0,0,0,0,0,0,0,0,0,0,0,0,0,0],"split_type":[0,0,0,0,0,0,0,0,0,0,0,0,0,0,0,0,0,0,0,0,0,0,0,0,0,0,0,0,0,0,0,0,0,0,0,0,0,0,0,0,0,0,0,0,0,0,0,0,0,0,0,0,0,0,0,0,0,0,0,0,0,0,0,0,0,0,0,0,0,0,0,0,0,0,0,0,0,0,0,0,0,0,0,0,0,0,0,0,0,0,0,0,0,0,0,0,0,0,0,0,0,0,0,0,0,0,0,0,0,0,0,0,0,0,0,0,0,0,0,0,0,0,0,0,0],"sum_hessian":[1.7172E4,1.3415E4,3.757E3,1.1028E4,2.387E3,2.845E3,9.12E2,5.471E3,5.557E3,1.98E2,2.189E3,2.117E3,7.28E2,6.38E2,2.74E2,4.632E3,8.39E2,8.28E2,4.729E3,8.3E1,1.15E2,8.69E2,1.32E3,1.975E3,1.42E2,3.91E2,3.37E2,6.13E2,2.5E1,8.7E1,1.87E2,2.291E3,2.341E3,8.34E2,5E0,4.02E2,4.26E2,3.825E3,9.04E2,1.5E1,6.8E1,2.8E1,8.7E1,8.58E2,1.1E1,1.252E3,6.8E1,1.127E3,8.48E2,5.3E1,8.9E1,3.76E2,1.5E1,1.36E2,2.01E2,3.1E2,3.03E2,2.1E1,4E0,2.9E1,5.8E1,7.6E1,1.11E2,3.7E1,2.254E3,5.3E1,2.288E3,6.8E1,7.66E2,1E0,4E0,3.99E2,3E0,1.2E2,3.06E2,3.127E3,6.98E2,7.28E2,1.76E2,5E0,1E1,3.7E1,3.1E1,9E0,1.9E1,8.5E1,2E0,8.52E2,6E0,1E1,1E0,1.212E3,4E1,5.1E1,1.7E1,7.03E2,4.24E2,6.66E2,1.82E2,2.1E1,3.2E1,5.1E1,3.8E1,2.1E2,1.66E2,3E0,1.2E1,4.7E1,8.9E1,2.6E1,1.75E2,2.89E2,2.1E1,1.8E1,2.85E2,1.1E1,1E1,1.8E1,1.1E1,2.9E1,2.9E1,8E0,6.8E1,4E0,1.07E2],"tree_param":{"num_deleted":"0","num_feature":"78","num_nodes":"125","size_leaf_vector":"1"}},{"base_weights":[2.8958035E-1,-1.7752262E1,6.4219765E1,-2.7984325E1,8.004982E0,4.9755386E1,1.08269196E2,-3.6360302E1,-1.8156925E1,-1.2540046E0,3.2238808E1,3.342971E1,6.2710968E1,1.2285254E2,7.425383E1,-4.2350456E1,-2.6980734E1,-2.163174E1,5.681986E-1,-1.1948532E1,7.1098537E0,1.0828346E0,4.1231358E1,2.7898888E1,1.0638412E2,4.7923542E1,8.206466E1,1.26599365E2,2.7339045E1,3.779459E1,1.1478437E2,-4.911308E1,-3.553545E1,-4.7916203E1,-2.1938204E1,-2.7372818E1,-1.314449E1,-4.6339035E0,2.984319E1,-1.8649487E1,-3.2690532E0,-1.2172124E0,2.2763908E1,2.497239E1,-3.7782406E1,2.9337654E1,8.253652E1,1.4256723E1,5.930854E1,5.8216152E1,1.5218799E2,1.9927011E1,5.634214E1,2.3472584E1,8.701033E1,8.71651E1,1.3495741E2,4.3758305E1,-2.5186756E0,6.730667E1,-9.365038E0,2.3837471E1,1.27795135E2,-2.8224564E0,-1.8808625E0,-1.9886893E0,-1.0133914E0,-2.5444188E0,-9.816608E-1,-1.388492E0,-6.243181E-2,-1.551204E0,-7.668149E-1,2.6289585E0,-7.6683885E-1,3.3674806E-2,-1.4462057E0,3.7919831E0,3.3742735E-1,-1.2211857E0,-3.6223248E-1,-3.9665598E-1,9.3912476E-1,-2.403387E0,1.6110192E-1,-1.4038028E0,1.4352114E0,2.6567075E-1,3.9890232E0,-2.8485022E0,1.5657248E-1,1.2172676E0,5.8727612E0,4.416937E0,-1.9727509E0,1.0995797E-1,2.6057453E0,3.3182995E0,-9.914927E-1,7.043287E0,1.5288626E0,1.3652651E0,8.185285E0,-5.407635E-1,2.2359188E0,9.8685315E-3,2.9928124E0,-2.3911216E0,2.333936E0,4.5465355E0,7.5187325E-1,4.9468756E0,-2.1992233E0,5.554161E0,7.667222E0,4.3180916E-2,3.9715955E0,1.6520861E0,5.913706E0,1.8812841E0,-3.7388725E0,-2.5639496E0,5.2325797E0,6.871418E0,2.355292E0],"categories":[],"categories_nodes":[],"categories_segments":[],"categories_sizes":[],"default_left":[0,0,0,0,0,0,0,0,0,0,0,0,0,0,0,0,0,0,0,0,0,0,0,0,0,0,0,0,0,0,0,0,0,0,0,0,0,0,0,0,0,0,0,0,0,0,0,0,0,0,0,0,0,0,0,0,0,0,0,0,0,0,0,0,0,0,0,0,0,0,0,0,0,0,0,0,0,0,0,0,0,0,0,0,0,0,0,0,0,0,0,0,0,0,0,0,0,0,0,0,0,0,0,0,0,0,0,0,0,0,0,0,0,0,0,0,0,0,0,0,0,0,0,0,0],"id":8,"left_children":[1,3,5,7,9,11,13,15,17,19,21,23,25,27,29,31,33,35,37,39,41,43,45,47,49,51,53,55,57,59,61,63,65,67,69,71,73,75,77,79,81,83,85,87,89,91,93,95,97,99,101,103,105,107,109,111,113,115,-1,117,119,121,123,-1,-1,-1,-1,-1,-1,-1,-1,-1,-1,-1,-1,-1,-1,-1,-1,-1,-1,-1,-1,-1,-1,-1,-1,-1,-1,-1,-1,-1,-1,-1,-1,-1,-1,-1,-1,-1,-1,-1,-1,-1,-1,-1,-1,-1,-1,-1,-1,-1,-1,-1,-1,-1,-1,-1,-1,-1,-1,-1,-1,-1,-1],"loss_changes":[1.9903374E7,3.547076E6,2.4145E6,7.92189E5,8.5874525E5,6.030295E5,4.5618E5,2.909635E5,2.8851638E5,2.4785458E5,2.9637688E5,5.0866738E5,4.522565E5,2.30945E5,4.1533225E5,1.443975E5,2.1314575E5,1.8187538E5,1.05980875E5,7.066256E4,2.0272562E5,2.2192017E5,4.0091238E5,5.047793E5,1.8749912E5,2.124135E5,1.97614E5,1.9588E5,3.537981E4,2.107889E5,1.5551425E5,1.31883E5,1.01628875E5,3.2037188E4,1.9747581E5,9.7529125E4,2.1851895E5,7.620992E4,1.1102676E5,4.4998938E4,5.4762297E4,2.1146381E5,1.638889E5,1.5904173E5,7.161705E4,2.7824275E5,1.3301662E5,3.7602275E5,2.00706E5,9.848817E4,6.0256062E4,1.6129584E5,1.3730825E5,9.322878E4,1.77805E5,1.7881762E5,2.10355E5,3.3595973E4,0E0,1.5850697E5,1.8416634E5,1.1463491E5,8.447025E4,0E0,0E0,0E0,0E0,0E0,0E0,0E0,0E0,0E0,0E0,0E0,0E0,0E0,0E0,0E0,0E0,0E0,0E0,0E0,0E0,0E0,0E0,0E0,0E0,0E0,0E0,0E0,0E0,0E0,0E0,0E0,0E0,0E0,0E0,0E0,0E0,0E0,0E0,0E0,0E0,0E0,0E0,0E0,0E0,0E0,0E0,0E0,0E0,0E0,0E0,0E0,0E0,0E0,0E0,0E0,0E0,0E0,0E0,0E0,0E0,0E0,0E0],"parents":[2147483647,0,0,1,1,2,2,3,3,4,4,5,5,6,6,7,7,8,8,9,9,10,10,11,11,12,12,13,13,14,14,15,15,16,16,17,17,18,18,19,19,20,20,21,21,22,22,23,23,24,24,25,25,26,26,27,27,28,28,29,29,30,30,31,31,32,32,33,33,34,34,35,35,36,36,37,37,38,38,39,39,40,40,41,41,42,42,43,43,44,44,45,45,46,46,47,47,48,48,49,49,50,50,51,51,52,52,53,53,54,54,55,55,56,56,57,57,59,59,60,60,61,61,62,62],"right_children":[2,4,6,8,10,12,14,16,18,20,22,24,26,28,30,32,34,36,38,40,42,44,46,48,50,52,54,56,58,60,62,64,66,68,70,72,74,76,78,80,82,84,86,88,90,92,94,96,98,100,102,104,106,108,110,112,114,116,-1,118,120,122,124,-1,-1,-1,-1,-1,-1,-1,-1,-1,-1,-1,-1,-1,-1,-1,-1,-1,-1,-1,-1,-1,-1,-1,-1,-1,-1,-1,-1,-1,-1,-1,-1,-1,-1,-1,-1,-1,-1,-1,-1,-1,-1,-1,-1,-1,-1,-1,-1,-1,-1,-1,-1,-1,-1,-1,-1,-1,-1,-1,-1,-1,-1],"split_conditions":[1.3569345E2,8.113339E1,2.6678998E2,5.867E1,1.6917E2,1.5151E2,4E0,5.298E1,9.635E1,7.259695E1,6.48257E1,2.9914E2,6.234898E-1,3.7943E2,3.1036E2,6.234898E-1,-7.818315E-1,5E-1,1.26697235E2,1.9E1,6.234898E-1,3E0,4.5E1,1.8E1,4.8072797E-1,1.4402E2,2.199E2,1E1,2.6849E2,1.3812E2,-4.196E1,3.0416185E1,4.472E1,2E1,7.378313E1,2.1066675E0,4.445225E-2,2.6701E2,1.0905E2,5.8794285E1,8.3E1,3.0469158E-1,1.2246469E-16,2.6375E2,6.8558815E1,1.0168387E0,6.2E1,6E0,2.3E1,1E0,2E0,8.486322E1,8.984E1,1.3592E2,3.5747E2,3.2788E2,5E-1,2.3510417E2,-2.5186756E0,2.507463E2,2.6067346E-1,9.744493E1,2.5881904E-1,-2.8224564E0,-1.8808625E0,-1.9886893E0,-1.0133914E0,-2.5444188E0,-9.816608E-1,-1.388492E0,-6.243181E-2,-1.551204E0,-7.668149E-1,2.6289585E0,-7.6683885E-1,3.3674806E-2,-1.4462057E0,3.7919831E0,3.3742735E-1,-1.2211857E0,-3.6223248E-1,-3.9665598E-1,9.3912476E-1,-2.403387E0,1.6110192E-1,-1.4038028E0,1.4352114E0,2.6567075E-1,3.9890232E0,-2.8485022E0,1.5657248E-1,1.2172676E0,5.8727612E0,4.416937E0,-1.9727509E0,1.0995797E-1,2.6057453E0,3.3182995E0,-9.914927E-1,7.043287E0,1.5288626E0,1.3652651E0,8.185285E0,-5.407635E-1,2.2359188E0,9.8685315E-3,2.9928124E0,-2.3911216E0,2.333936E0,4.5465355E0,7.5187325E-1,4.9468756E0,-2.1992233E0,5.554161E0,7.667222E0,4.3180916E-2,3.9715955E0,1.6520861E0,5.913706E0,1.8812841E0,-3.7388725E0,-2.5639496E0,5.2325797E0,6.871418E0,2.355292E0],"split_indices":[46,14,14,74,14,14,3,20,19,46,46,74,5,43,20,5,4,7,34,0,5,3,60,60,39,74,43,0,74,36,69,14,19,0,46,70,33,43,18,46,60,45,7,69,74,45,62,3,58,3,60,47,20,74,43,38,8,19,0,74,45,41,1,0,0,0,0,0,0,0,0,0,0,0,0,0,0,0,0,0,0,0,0,0,0,0,0,0,0,0,0,0,0,0,0,0,0,0,0,0,0,0,0,0,0,0,0,0,0,0,0,0,0,0,0,0,0,0,0,0,0,0,0,0,0],"split_type":[0,0,0,0,0,0,0,0,0,0,0,0,0,0,0,0,0,0,0,0,0,0,0,0,0,0,0,0,0,0,0,0,0,0,0,0,0,0,0,0,0,0,0,0,0,0,0,0,0,0,0,0,0,0,0,0,0,0,0,0,0,0,0,0,0,0,0,0,0,0,0,0,0,0,0,0,0,0,0,0,0,0,0,0,0,0,0,0,0,0,0,0,0,0,0,0,0,0,0,0,0,0,0,0,0,0,0,0,0,0,0,0,0,0,0,0,0,0,0,0,0,0,0,0,0],"sum_hessian":[1.7254E4,1.3457E4,3.797E3,9.631E3,3.826E3,2.86E3,9.37E2,5.198E3,4.433E3,2.769E3,1.057E3,1.267E3,1.593E3,6.54E2,2.83E2,3.17E3,2.028E3,3.739E3,6.94E2,1.215E3,1.554E3,2.37E2,8.2E2,1.179E3,8.8E1,9.05E2,6.88E2,6.29E2,2.5E1,1.5E2,1.33E2,1.588E3,1.582E3,3.92E2,1.636E3,2.229E3,1.51E3,5.9E2,1.04E2,6.85E2,5.3E2,1.015E3,5.39E2,1.47E2,9E1,6.38E2,1.82E2,8.23E2,3.56E2,4.4E1,4.4E1,2.1E2,6.95E2,5.4E1,6.34E2,1.12E2,5.17E2,2.1E1,4E0,9.2E1,5.8E1,1.7E1,1.16E2,9.67E2,6.21E2,1.237E3,3.45E2,3.54E2,3.8E1,1.276E3,3.6E2,1.709E3,5.2E2,4.8E1,1.462E3,4.85E2,1.05E2,3.4E1,7E1,4.54E2,2.31E2,4.38E2,9.2E1,8.7E1,9.28E2,5.6E1,4.83E2,1.09E2,3.8E1,6.1E1,2.9E1,6.05E2,3.3E1,1.74E2,8E0,6.25E2,1.98E2,3.27E2,2.9E1,1E1,3.4E1,4E0,4E1,9.4E1,1.16E2,4.1E1,6.54E2,1.3E1,4.1E1,6.01E2,3.3E1,1.03E2,9E0,2.28E2,2.89E2,1E1,1.1E1,5.6E1,3.6E1,3.4E1,2.4E1,9E0,8E0,1.03E2,1.3E1],"tree_param":{"num_deleted":"0","num_feature":"78","num_nodes":"125","size_leaf_vector":"1"}},{"base_weights":[-2.9060832E-1,-1.696518E1,6.0016506E1,-2.6626047E1,7.309845E0,4.6204845E1,1.02046814E2,-3.306522E1,-1.3501796E1,-3.256548E0,2.608075E1,3.302842E1,6.2163124E1,8.441443E1,1.2176948E2,-3.9138206E1,-2.5405096E1,-2.1966995E1,-4.2986317E0,-1.1104686E1,7.5320983E0,6.560033E1,2.0329294E1,1.5975197E1,5.006087E1,4.355643E1,8.3304955E1,1.0814118E2,5.6779243E1,1.2599087E2,1.7677925E1,-3.1483454E1,-4.513786E1,-3.2304897E1,-1.5568455E1,-2.4171108E1,1.8449417E1,3.9237475E0,-1.829679E1,-1.7850077E1,-2.9846728E0,-1.4285033E0,2.5353838E1,9.008565E1,9.066827E0,1.5955312E1,6.2534428E1,-2.4520725E1,2.3195454E1,6.114831E1,3.464402E1,3.7387543E1,1.1118718E2,4.4063277E0,9.370571E1,1.1106551E2,-6.438267E1,1.2530375E0,7.5280655E1,1.0729231E2,1.448051E2,3.0075827E1,-2.7168427E0,-1.9808563E0,-1.1460421E0,-2.4380157E0,-1.7557105E0,-1.1909771E0,-1.9746544E0,-8.669031E-1,5.7182345E0,-1.5950109E0,-7.832853E-1,-6.8213534E-1,3.6515605E0,-8.2559414E-2,1.4631095E0,2.0915725E0,-1.1737484E0,-1.2819285E0,-4.5276052E-1,-1.8771522E-1,4.821648E0,7.407866E-1,-5.5633074E-1,2.3550928E-1,1.8726639E0,1.0708224E0,5.049978E0,-2.8575358E0,1.0912664E0,-9.2492574E-1,1.1627644E0,4.0901947E0,-2.1855094E0,1.6190423E-1,-3.4503388E0,6.369114E-1,2.4238975E0,3.2039006E0,-6.036694E-1,6.968224E-1,3.0055525E0,2.415876E0,-6.358339E-1,6.352202E0,-8.979975E-1,-1.0330288E0,4.1885705E0,4.882131E0,3.8912526E-1,5.828886E0,1.9820683E0,-5.336509E0,2.625185E0,1.3608662E0,-2.6737285E0,5.1107388E0,1.3742704E0,2.5099885E0,5.785374E0,3.9707062E0,7.4060287E0,3.8672261E0,3.9371094E-1],"categories":[],"categories_nodes":[],"categories_segments":[],"categories_sizes":[],"default_left":[0,0,0,0,0,0,0,0,0,0,0,0,0,0,0,0,0,0,0,0,0,0,0,0,0,0,0,0,0,0,0,0,0,0,0,0,0,0,0,0,0,0,0,0,0,0,0,0,0,0,0,0,0,0,0,0,0,0,0,0,0,0,0,0,0,0,0,0,0,0,0,0,0,0,0,0,0,0,0,0,0,0,0,0,0,0,0,0,0,0,0,0,0,0,0,0,0,0,0,0,0,0,0,0,0,0,0,0,0,0,0,0,0,0,0,0,0,0,0,0,0,0,0,0,0],"id":9,"left_children":[1,3,5,7,9,11,13,15,17,19,21,23,25,27,29,31,33,35,37,39,41,43,45,47,49,51,53,55,57,59,61,63,65,67,69,71,73,75,77,79,81,83,85,87,89,91,93,95,97,99,101,103,105,107,109,111,113,115,117,119,121,123,-1,-1,-1,-1,-1,-1,-1,-1,-1,-1,-1,-1,-1,-1,-1,-1,-1,-1,-1,-1,-1,-1,-1,-1,-1,-1,-1,-1,-1,-1,-1,-1,-1,-1,-1,-1,-1,-1,-1,-1,-1,-1,-1,-1,-1,-1,-1,-1,-1,-1,-1,-1,-1,-1,-1,-1,-1,-1,-1,-1,-1,-1,-1],"loss_changes":[1.7284184E7,3.1579768E6,2.156518E6,8.135475E5,7.605234E5,5.875525E5,3.09658E5,2.9957E5,2.4702538E5,2.0786573E5,3.12561E5,4.4592512E5,4.94783E5,3.144935E5,1.87598E5,1.64004E5,1.93608E5,1.4760994E5,1.751361E5,7.777867E4,1.6515931E5,2.4142525E5,2.2181984E5,2.2570981E5,1.29329375E5,2.7787462E5,4.8538575E5,1.3933475E5,2.3413306E5,1.3046E5,1.7705203E4,1.09549625E5,7.15255E4,1.01529625E5,2.7353088E5,1.025135E5,1.5163788E5,1.3551684E5,1.7627467E5,5.292289E4,4.9790703E4,1.0870881E5,8.6246266E4,8.9269875E4,4.686851E4,2.75836E5,2.3491794E5,1.447044E5,1.7229012E5,9.6448375E4,1.7002703E5,3.4069738E5,1.1696219E5,1.4099134E5,1.76156E5,9.695425E4,3.0352969E4,8.3871305E4,2.1732281E5,9.60455E4,3.24645E4,1.6182025E4,0E0,0E0,0E0,0E0,0E0,0E0,0E0,0E0,0E0,0E0,0E0,0E0,0E0,0E0,0E0,0E0,0E0,0E0,0E0,0E0,0E0,0E0,0E0,0E0,0E0,0E0,0E0,0E0,0E0,0E0,0E0,0E0,0E0,0E0,0E0,0E0,0E0,0E0,0E0,0E0,0E0,0E0,0E0,0E0,0E0,0E0,0E0,0E0,0E0,0E0,0E0,0E0,0E0,0E0,0E0,0E0,0E0,0E0,0E0,0E0,0E0,0E0,0E0],"parents":[2147483647,0,0,1,1,2,2,3,3,4,4,5,5,6,6,7,7,8,8,9,9,10,10,11,11,12,12,13,13,14,14,15,15,16,16,17,17,18,18,19,19,20,20,21,21,22,22,23,23,24,24,25,25,26,26,27,27,28,28,29,29,30,30,31,31,32,32,33,33,34,34,35,35,36,36,37,37,38,38,39,39,40,40,41,41,42,42,43,43,44,44,45,45,46,46,47,47,48,48,49,49,50,50,51,51,52,52,53,53,54,54,55,55,56,56,57,57,58,58,59,59,60,60,61,61],"right_children":[2,4,6,8,10,12,14,16,18,20,22,24,26,28,30,32,34,36,38,40,42,44,46,48,50,52,54,56,58,60,62,64,66,68,70,72,74,76,78,80,82,84,86,88,90,92,94,96,98,100,102,104,106,108,110,112,114,116,118,120,122,124,-1,-1,-1,-1,-1,-1,-1,-1,-1,-1,-1,-1,-1,-1,-1,-1,-1,-1,-1,-1,-1,-1,-1,-1,-1,-1,-1,-1,-1,-1,-1,-1,-1,-1,-1,-1,-1,-1,-1,-1,-1,-1,-1,-1,-1,-1,-1,-1,-1,-1,-1,-1,-1,-1,-1,-1,-1,-1,-1,-1,-1,-1,-1],"split_conditions":[1.3569345E2,8.074E1,2.6678998E2,6.8558815E1,1.4032E2,1.1E1,3.013E2,5.11E1,5.3547226E1,8.112274E1,2E0,1.3916E2,6.234898E-1,3E0,6.3018954E-1,3E0,6.234898E-1,1.9483882E0,4E0,1.8E1,6.234898E-1,-1.8369701E-16,2.7480832E2,-7.818315E-1,4E0,3.0886E2,1.9304E2,3.5771E2,8.137304E1,3.1757E2,1.0352E2,3.8100418E1,5.189E1,4E0,2.2843E2,6.517E1,4.171374E1,1.11498375E2,2.2507402E2,5.8794285E1,5.04E0,1.0368975E2,1.5744112E2,-7.818315E-1,6.245672E-1,-2.4492937E-16,1.0398133E0,8E0,1.8E1,6.698163E-1,7.016873E1,3.4882E2,2.7747E2,6.850461E1,1.75E2,3.2788E2,1.9E1,2.516E2,1.3322E2,3E0,1.4757E2,-7.0710677E-1,-2.7168427E0,-1.9808563E0,-1.1460421E0,-2.4380157E0,-1.7557105E0,-1.1909771E0,-1.9746544E0,-8.669031E-1,5.7182345E0,-1.5950109E0,-7.832853E-1,-6.8213534E-1,3.6515605E0,-8.2559414E-2,1.4631095E0,2.0915725E0,-1.1737484E0,-1.2819285E0,-4.5276052E-1,-1.8771522E-1,4.821648E0,7.407866E-1,-5.5633074E-1,2.3550928E-1,1.8726639E0,1.0708224E0,5.049978E0,-2.8575358E0,1.0912664E0,-9.2492574E-1,1.1627644E0,4.0901947E0,-2.1855094E0,1.6190423E-1,-3.4503388E0,6.369114E-1,2.4238975E0,3.2039006E0,-6.036694E-1,6.968224E-1,3.0055525E0,2.415876E0,-6.358339E-1,6.352202E0,-8.979975E-1,-1.0330288E0,4.1885705E0,4.882131E0,3.8912526E-1,5.828886E0,1.9820683E0,-5.336509E0,2.625185E0,1.3608662E0,-2.6737285E0,5.1107388E0,1.3742704E0,2.5099885E0,5.785374E0,3.9707062E0,7.4060287E0,3.8672261E0,3.9371094E-1],"split_indices":[46,14,14,21,14,0,16,20,47,46,6,24,5,3,51,3,5,45,3,0,5,2,14,4,3,38,43,21,47,14,20,34,19,3,19,19,47,19,49,46,48,46,43,4,45,7,33,0,60,51,35,49,16,41,62,38,0,38,36,60,21,1,0,0,0,0,0,0,0,0,0,0,0,0,0,0,0,0,0,0,0,0,0,0,0,0,0,0,0,0,0,0,0,0,0,0,0,0,0,0,0,0,0,0,0,0,0,0,0,0,0,0,0,0,0,0,0,0,0,0,0,0,0,0,0],"split_type":[0,0,0,0,0,0,0,0,0,0,0,0,0,0,0,0,0,0,0,0,0,0,0,0,0,0,0,0,0,0,0,0,0,0,0,0,0,0,0,0,0,0,0,0,0,0,0,0,0,0,0,0,0,0,0,0,0,0,0,0,0,0,0,0,0,0,0,0,0,0,0,0,0,0,0,0,0,0,0,0,0,0,0,0,0,0,0,0,0,0,0,0,0,0,0,0,0,0,0,0,0,0,0,0,0,0,0,0,0,0,0,0,0,0,0,0,0,0,0,0,0,0,0,0,0],"sum_hessian":[1.7186E4,1.3464E4,3.722E3,9.631E3,3.833E3,2.803E3,9.19E2,6.46E3,3.171E3,2.453E3,1.38E3,1.537E3,1.266E3,4.88E2,4.31E2,3.601E3,2.859E3,1.651E3,1.52E3,1.42E3,1.033E3,1.74E2,1.206E3,7.69E2,7.68E2,6.75E2,5.91E2,2.61E2,2.27E2,4.14E2,1.7E1,1.585E3,2.016E3,1.679E3,1.18E3,1.566E3,8.5E1,9.58E2,5.62E2,7.75E2,6.45E2,6.88E2,3.45E2,1.21E2,5.3E1,1.094E3,1.12E2,1.16E2,6.53E2,4.45E2,3.23E2,6.2E2,5.5E1,6.9E1,5.22E2,2.57E2,4E0,5.7E1,1.7E2,2.11E2,2.03E2,1.5E1,2E0,8.11E2,7.74E2,1.478E3,5.38E2,7.72E2,9.07E2,1.165E3,1.5E1,8.19E2,7.47E2,5.4E1,3.1E1,7.86E2,1.72E2,4.4E1,5.18E2,4.1E2,3.65E2,6.41E2,4E0,2.57E2,4.31E2,1.28E2,2.17E2,1.7E1,1.04E2,8E0,4.5E1,1.91E2,9.03E2,9.5E1,1.7E1,7.2E1,4.4E1,4.63E2,1.9E2,4.28E2,1.7E1,1.79E2,1.44E2,5.09E2,1.11E2,4.9E1,6E0,5.3E1,1.6E1,4.99E2,2.3E1,2.38E2,1.9E1,3E0,1E0,3.9E1,1.8E1,1.08E2,6.2E1,2.8E1,1.83E2,1.1E1,1.92E2,4E0,1.1E1],"tree_param":{"num_deleted":"0","num_feature":"78","num_nodes":"125","size_leaf_vector":"1"}},{"base_weights":[-5.928523E-2,-1.6705265E1,5.3721626E1,-2.5617838E1,6.4163675E0,4.2125107E1,9.8501785E1,-3.2047493E1,-1.4425914E1,3.597002E0,6.917372E1,2.5706102E1,6.004911E1,1.0619157E2,4.8429092E1,-3.7215733E1,-2.326658E1,9.19539E1,-1.5009113E1,-3.1621838E-1,3.0505512E1,-1.4855904E1,8.914022E1,3.5714157E1,5.3888965E-1,4.6690712E1,7.766258E1,6.031202E1,1.13544495E2,7.305754E1,-1.7508776E-1,-4.401369E1,-2.9348684E1,-2.8076109E1,-1.0964911E1,-2.2534535E0,1.0316967E2,-2.0053587E1,-7.728704E0,-1.7573788E1,6.5664096E0,-2.431259E1,5.065218E1,1.268464E1,-4.1793323E0,1.1385869E2,5.5767536E1,3.427885E1,1.3416937E2,8.141799E0,-4.2065617E1,7.923196E0,5.6440254E1,7.996308E1,-2.0505327E1,2.3318943E1,1.0665171E2,-7.706025E1,1.15214005E2,1.02445564E2,-1.8951643E1,3.2793186E1,-3.3134605E1,-2.5137696E0,-1.8656362E0,-1.8072026E0,-7.3543185E-1,-1.4874513E0,9.790107E-1,-5.960515E-1,5.5371437E0,1.7890339E-1,-3.479124E-1,-4.931572E-1,5.5425334E0,-1.1165389E0,-1.5189497E-1,-5.328782E-1,5.5098337E-1,-1.0420192E0,1.8240252E0,-2.0777225E-1,1.3747066E0,-2.0557168E0,2.842673E0,5.9456223E-1,3.3913205E0,-1.1125517E0,3.016306E0,3.1663098E0,6.741323E0,-4.8911116E-1,3.6004097E0,7.8841287E-1,2.161876E0,6.966989E0,1.2860653E0,-5.274378E-1,1.4557192E0,3.4990487E-1,-3.2387445E0,-3.6855268E-1,3.8966777E0,2.7253962E0,7.740476E0,-2.6187384E0,4.084821E0,-3.4352403E0,1.8141125E0,3.828064E0,-6.928172E-1,7.1689286E0,1.8863188E0,-5.4742007E0,2.1264637E0,5.22914E0,6.8034987E0,5.7491064E0,-1.1639467E0,-2.6311567E0,3.1386883E0,3.3053443E0,-2.3660107E-2,-4.315142E0,-4.8291698E-1],"categories":[],"categories_nodes":[],"categories_segments":[],"categories_sizes":[],"default_left":[0,0,0,0,0,0,0,0,0,0,0,0,0,0,0,0,0,0,0,0,0,0,0,0,0,0,0,0,0,0,0,0,0,0,0,0,0,0,0,0,0,0,0,0,0,0,0,0,0,0,0,0,0,0,0,0,0,0,0,0,0,0,0,0,0,0,0,0,0,0,0,0,0,0,0,0,0,0,0,0,0,0,0,0,0,0,0,0,0,0,0,0,0,0,0,0,0,0,0,0,0,0,0,0,0,0,0,0,0,0,0,0,0,0,0,0,0,0,0,0,0,0,0,0,0],"id":10,"left_children":[1,3,5,7,9,11,13,15,17,19,21,23,25,27,29,31,33,35,37,39,41,43,45,47,49,51,53,55,57,59,61,63,65,67,69,71,73,75,77,79,81,83,85,87,-1,89,91,93,95,97,99,101,103,105,107,109,111,113,115,117,119,121,123,-1,-1,-1,-1,-1,-1,-1,-1,-1,-1,-1,-1,-1,-1,-1,-1,-1,-1,-1,-1,-1,-1,-1,-1,-1,-1,-1,-1,-1,-1,-1,-1,-1,-1,-1,-1,-1,-1,-1,-1,-1,-1,-1,-1,-1,-1,-1,-1,-1,-1,-1,-1,-1,-1,-1,-1,-1,-1,-1,-1,-1,-1],"loss_changes":[1.5389109E7,2.7052875E6,2.105743E6,6.813605E5,6.460981E5,9.48733E5,3.16372E5,2.72197E5,2.1597881E5,3.6824E5,2.6473525E5,4.248935E5,3.594225E5,2.37056E5,1.3527897E5,2.01183E5,1.31749E5,2.0308047E4,1.2621856E5,3.628617E5,4.9158603E5,5.97396E4,9.84155E4,1.6596638E5,1.5614714E5,3.3216238E5,1.5159425E5,1.7236622E5,2.068085E5,2.04739E5,4.3464707E4,8.325975E4,1.7436212E5,1.284615E5,7.451505E4,1.07205414E2,1.58528125E4,7.8668125E4,7.754248E4,1.5455572E5,4.9016888E5,1.6598525E5,2.1554256E5,3.9623223E4,0E0,6.7749875E4,6.032039E4,1.96822E5,5.94825E3,1.6063072E5,8.1789984E4,1.9116902E5,1.2518925E5,1.531515E5,4.6286863E4,1.1586022E5,1.08504375E5,2.7921523E4,1.22573E5,9.251744E4,5.5587863E4,2.2195816E4,2.413029E4,0E0,0E0,0E0,0E0,0E0,0E0,0E0,0E0,0E0,0E0,0E0,0E0,0E0,0E0,0E0,0E0,0E0,0E0,0E0,0E0,0E0,0E0,0E0,0E0,0E0,0E0,0E0,0E0,0E0,0E0,0E0,0E0,0E0,0E0,0E0,0E0,0E0,0E0,0E0,0E0,0E0,0E0,0E0,0E0,0E0,0E0,0E0,0E0,0E0,0E0,0E0,0E0,0E0,0E0,0E0,0E0,0E0,0E0,0E0,0E0,0E0,0E0],"parents":[2147483647,0,0,1,1,2,2,3,3,4,4,5,5,6,6,7,7,8,8,9,9,10,10,11,11,12,12,13,13,14,14,15,15,16,16,17,17,18,18,19,19,20,20,21,21,22,22,23,23,24,24,25,25,26,26,27,27,28,28,29,29,30,30,31,31,32,32,33,33,34,34,35,35,36,36,37,37,38,38,39,39,40,40,41,41,42,42,43,43,45,45,46,46,47,47,48,48,49,49,50,50,51,51,52,52,53,53,54,54,55,55,56,56,57,57,58,58,59,59,60,60,61,61,62,62],"right_children":[2,4,6,8,10,12,14,16,18,20,22,24,26,28,30,32,34,36,38,40,42,44,46,48,50,52,54,56,58,60,62,64,66,68,70,72,74,76,78,80,82,84,86,88,-1,90,92,94,96,98,100,102,104,106,108,110,112,114,116,118,120,122,124,-1,-1,-1,-1,-1,-1,-1,-1,-1,-1,-1,-1,-1,-1,-1,-1,-1,-1,-1,-1,-1,-1,-1,-1,-1,-1,-1,-1,-1,-1,-1,-1,-1,-1,-1,-1,-1,-1,-1,-1,-1,-1,-1,-1,-1,-1,-1,-1,-1,-1,-1,-1,-1,-1,-1,-1,-1,-1,-1,-1,-1,-1],"split_conditions":[1.4032E2,8.112274E1,2.8148E2,6.28E1,2.0741655E2,8.264795E1,4E0,5.693E1,2.9761905E-2,9.126129E-1,3.137436E-1,6E0,6.234898E-1,1.5075E2,1.04224434E2,6.234898E-1,1.8E1,3.685E1,7.045E1,1.440499E2,7.79046E1,8.83121E1,5E-1,1.3926761E0,1.8229E2,1.3094052E2,3.6073E2,8.3333336E-2,-5.53E1,1.0398133E0,1.5499E2,2.3389465E1,-2.4492937E-16,2.6508E2,4.4E1,1.5E1,3.668116E1,9.919E1,1E0,6.752E1,6.234898E-1,3.1547618E-1,1.1716947E-1,6.123234E-17,-4.1793323E0,3.94536E-1,8.1908844E1,1.2830627E2,2.6678998E2,7.7000656E1,1.6211E2,2.5669E2,3.3759E2,-5E-1,2.3187E2,2.005E2,-1.8369701E-16,1.9E1,3.1757E2,2.4512875E2,6.234898E-1,6.608351E1,3.0902E2,-2.5137696E0,-1.8656362E0,-1.8072026E0,-7.3543185E-1,-1.4874513E0,9.790107E-1,-5.960515E-1,5.5371437E0,1.7890339E-1,-3.479124E-1,-4.931572E-1,5.5425334E0,-1.1165389E0,-1.5189497E-1,-5.328782E-1,5.5098337E-1,-1.0420192E0,1.8240252E0,-2.0777225E-1,1.3747066E0,-2.0557168E0,2.842673E0,5.9456223E-1,3.3913205E0,-1.1125517E0,3.016306E0,3.1663098E0,6.741323E0,-4.8911116E-1,3.6004097E0,7.8841287E-1,2.161876E0,6.966989E0,1.2860653E0,-5.274378E-1,1.4557192E0,3.4990487E-1,-3.2387445E0,-3.6855268E-1,3.8966777E0,2.7253962E0,7.740476E0,-2.6187384E0,4.084821E0,-3.4352403E0,1.8141125E0,3.828064E0,-6.928172E-1,7.1689286E0,1.8863188E0,-5.4742007E0,2.1264637E0,5.22914E0,6.8034987E0,5.7491064E0,-1.1639467E0,-2.6311567E0,3.1386883E0,3.3053443E0,-2.3660107E-2,-4.315142E0,-4.8291698E-1],"split_indices":[14,46,14,14,46,47,6,21,61,45,45,6,5,21,18,5,0,17,20,37,47,47,1,39,19,20,43,61,77,33,32,19,7,21,58,0,19,21,5,69,5,61,27,2,0,45,47,19,15,46,15,14,21,7,28,44,2,0,16,21,5,41,25,0,0,0,0,0,0,0,0,0,0,0,0,0,0,0,0,0,0,0,0,0,0,0,0,0,0,0,0,0,0,0,0,0,0,0,0,0,0,0,0,0,0,0,0,0,0,0,0,0,0,0,0,0,0,0,0,0,0,0,0,0,0],"split_type":[0,0,0,0,0,0,0,0,0,0,0,0,0,0,0,0,0,0,0,0,0,0,0,0,0,0,0,0,0,0,0,0,0,0,0,0,0,0,0,0,0,0,0,0,0,0,0,0,0,0,0,0,0,0,0,0,0,0,0,0,0,0,0,0,0,0,0,0,0,0,0,0,0,0,0,0,0,0,0,0,0,0,0,0,0,0,0,0,0,0,0,0,0,0,0,0,0,0,0,0,0,0,0,0,0,0,0,0,0,0,0,0,0,0,0,0,0,0,0,0,0,0,0,0,0],"sum_hessian":[1.7188E4,1.3126E4,4.062E3,9.474E3,3.652E3,3.228E3,8.34E2,6.016E3,3.458E3,3.496E3,1.56E2,1.686E3,1.542E3,7.22E2,1.12E2,3.785E3,2.231E3,1.8E1,3.44E3,3.053E3,4.43E2,3E1,1.26E2,1.206E3,4.8E2,8.79E2,6.63E2,1.01E2,6.21E2,7.4E1,3.8E1,2.028E3,1.757E3,1.603E3,6.28E2,2E0,1.6E1,2.031E3,1.409E3,8.7E2,2.183E3,1.19E2,3.24E2,2.2E1,8E0,7.1E1,5.5E1,1.19E3,1.6E1,4.08E2,7.2E1,1.77E2,7.02E2,6.48E2,1.5E1,5.7E1,4.4E1,5E0,6.16E2,5.6E1,1.8E1,1.9E1,1.9E1,1.045E3,9.83E2,1.199E3,5.58E2,1.549E3,5.4E1,6.24E2,4E0,1E0,1E0,1E0,1.5E1,1.791E3,2.4E2,1.219E3,1.9E2,8.21E2,4.9E1,1.444E3,7.39E2,9.9E1,2E1,1E2,2.24E2,1.3E1,9E0,2.2E1,4.9E1,1.1E1,4.4E1,3.89E2,8.01E2,1.5E1,1E0,2.16E2,1.92E2,2.3E1,4.9E1,1.46E2,3.1E1,6.9E2,1.2E1,8E0,6.4E2,8E0,7E0,2.3E1,3.4E1,2.8E1,1.6E1,4E0,1E0,4.12E2,2.04E2,5.1E1,5E0,1.3E1,5E0,9E0,1E1,5E0,1.4E1],"tree_param":{"num_deleted":"0","num_feature":"78","num_nodes":"125","size_leaf_vector":"1"}},{"base_weights":[3.0425835E-1,-1.5510497E1,5.1101334E1,2.0736982E-1,-2.5530834E1,3.8916573E1,8.904261E1,-6.7516003E0,2.6105362E1,-3.0552946E1,-1.2896005E1,4.6532627E1,1.0111166E0,6.0386658E1,1.0063902E2,-1.23971815E1,8.242756E0,1.1541078E1,4.5742058E1,-3.6908653E1,-2.2628103E1,-1.417322E1,5.2273796E1,3.3906055E1,5.6874393E1,3.608844E1,-7.4669237E0,9.337663E0,9.05132E1,1.0393832E2,-1.5678164E0,-3.0142485E1,-8.854682E0,6.4349957E0,8.909786E1,1.9282768E1,-2.8115408E1,5.3540596E1,-1.5155041E1,-4.9880108E1,-3.4338577E1,-2.5063967E1,-2.5406659E0,-3.4944518E0,-1.8880365E1,-7.379362E-2,8.523612E1,3.0436188E1,9.010905E1,6.3779125E1,2.7807837E1,2.639796E1,8.122331E0,2.0297132E-1,-3.7966305E1,-5.27619E1,3.1732033E1,1.00452194E2,-2.6175138E1,1.209395E2,8.698081E1,2.6527569E1,-2.8781307E0,-1.806474E0,-5.301677E-2,-5.444014E-1,2.8124814E0,-1.067553E0,5.6862164E-1,-2.3192558E0,5.1761456E0,6.0062466E0,8.5371315E-1,3.545456E0,-1.864869E0,5.561744E0,2.1440413E0,-1.4509858E0,2.021048E0,-2.5441968E0,2.2548692E0,-2.0947654E0,-1.4530843E0,-1.4678273E0,-8.139572E-1,-5.94663E-1,1.8151163E0,-3.360489E-1,5.2061796E0,-1.3141122E0,-4.9221253E-1,2.6508398E0,-7.1131825E-1,2.0308815E-1,4.9588404E0,2.095427E0,7.9065144E-1,5.6860435E-1,5.4426823E0,2.3815558E0,4.0461617E0,-7.19435E-1,2.238012E0,-4.8790272E-2,2.9074411E0,2.4321747E0,-7.2213125E-1,-2.3429658E0,2.6187367E0,1.0046805E0,-3.632066E0,-2.0114763E0,2.8194854E0,1.899777E0,5.3871145E0,5.835648E0,-2.8567922E0,6.1897793E0,7.440112E-1,-2.2452807E0,4.634738E0,-1.02284074E-1,2.7678266E0],"categories":[],"categories_nodes":[],"categories_segments":[],"categories_sizes":[],"default_left":[0,0,0,0,0,0,0,0,0,0,0,0,0,0,0,0,0,0,0,0,0,0,0,0,0,0,0,0,0,0,0,0,0,0,0,0,0,0,0,0,0,0,0,0,0,0,0,0,0,0,0,0,0,0,0,0,0,0,0,0,0,0,0,0,0,0,0,0,0,0,0,0,0,0,0,0,0,0,0,0,0,0,0,0,0,0,0,0,0,0,0,0,0,0,0,0,0,0,0,0,0,0,0,0,0,0,0,0,0,0,0,0,0,0,0,0,0,0,0,0,0,0,0],"id":11,"left_children":[1,3,5,7,9,11,13,15,17,19,21,23,25,27,29,31,33,35,37,39,41,43,45,47,49,51,53,55,57,59,61,63,65,67,69,71,73,75,77,79,81,83,85,87,89,91,93,95,97,99,101,103,-1,105,107,109,111,113,115,117,119,121,-1,-1,-1,-1,-1,-1,-1,-1,-1,-1,-1,-1,-1,-1,-1,-1,-1,-1,-1,-1,-1,-1,-1,-1,-1,-1,-1,-1,-1,-1,-1,-1,-1,-1,-1,-1,-1,-1,-1,-1,-1,-1,-1,-1,-1,-1,-1,-1,-1,-1,-1,-1,-1,-1,-1,-1,-1,-1,-1,-1,-1],"loss_changes":[1.3805443E7,2.0640215E6,1.882741E6,9.1985606E5,5.07424E5,8.92005E5,3.23238E5,3.4065662E5,3.0863206E5,2.87572E5,1.9035216E5,3.340565E5,1.5431592E5,4.4207862E5,2.375595E5,1.8348084E5,1.6035611E5,1.9150127E5,2.1926925E5,1.04167E5,1.247575E5,1.1227972E5,7.592821E4,2.23672E5,2.818115E5,1.1938334E5,9.778921E4,1.5186773E5,2.1254675E5,1.861E5,3.771049E4,8.458134E4,3.2335394E5,1.4813569E5,5.170628E4,1.1398114E5,9.538724E4,2.4615338E5,4.2011793E4,5.215825E4,1.046135E5,8.531125E4,1.0106108E5,2.38554E5,1.0347869E5,1.4278867E4,3.0151062E4,1.8303662E5,9.7647E4,3.120235E5,1.9592989E5,8.26251E4,0E0,2.3836508E5,6.9940195E4,4.3461055E4,1.4422092E5,7.1943875E4,7.302723E4,1.005425E5,2.6415175E5,1.3293035E4,0E0,0E0,0E0,0E0,0E0,0E0,0E0,0E0,0E0,0E0,0E0,0E0,0E0,0E0,0E0,0E0,0E0,0E0,0E0,0E0,0E0,0E0,0E0,0E0,0E0,0E0,0E0,0E0,0E0,0E0,0E0,0E0,0E0,0E0,0E0,0E0,0E0,0E0,0E0,0E0,0E0,0E0,0E0,0E0,0E0,0E0,0E0,0E0,0E0,0E0,0E0,0E0,0E0,0E0,0E0,0E0,0E0,0E0,0E0,0E0,0E0],"parents":[2147483647,0,0,1,1,2,2,3,3,4,4,5,5,6,6,7,7,8,8,9,9,10,10,11,11,12,12,13,13,14,14,15,15,16,16,17,17,18,18,19,19,20,20,21,21,22,22,23,23,24,24,25,25,26,26,27,27,28,28,29,29,30,30,31,31,32,32,33,33,34,34,35,35,36,36,37,37,38,38,39,39,40,40,41,41,42,42,43,43,44,44,45,45,46,46,47,47,48,48,49,49,50,50,51,51,53,53,54,54,55,55,56,56,57,57,58,58,59,59,60,60,61,61],"right_children":[2,4,6,8,10,12,14,16,18,20,22,24,26,28,30,32,34,36,38,40,42,44,46,48,50,52,54,56,58,60,62,64,66,68,70,72,74,76,78,80,82,84,86,88,90,92,94,96,98,100,102,104,-1,106,108,110,112,114,116,118,120,122,-1,-1,-1,-1,-1,-1,-1,-1,-1,-1,-1,-1,-1,-1,-1,-1,-1,-1,-1,-1,-1,-1,-1,-1,-1,-1,-1,-1,-1,-1,-1,-1,-1,-1,-1,-1,-1,-1,-1,-1,-1,-1,-1,-1,-1,-1,-1,-1,-1,-1,-1,-1,-1,-1,-1,-1,-1,-1,-1,-1,-1],"split_conditions":[1.4032E2,6E0,2.7480832E2,1.3592E2,7.045E1,6E0,3.2263727E2,1.1446E2,8.3067375E1,3E-2,1.55E2,8.264795E1,1E0,4.3388373E-1,3.9531E2,-7.818315E-1,2.8159E2,1E0,1.10198875E2,-7.818315E-1,9.229E1,7.5257087E-1,1E1,9.326036E-1,7.2963464E-1,3.1495E2,6.1E1,2.8148E2,6E0,3E0,2.6849E2,1.9E1,2.1897E2,-7.818315E-1,3.0181107E2,1.844E1,3.91625E1,1E0,1.1474688E2,2.4436E2,1.5932E2,6.372309E1,6.797394E1,1.1719328E0,1.8E1,7.414859E1,2.1293282E1,4.7014955E-1,5.724736E1,1E1,2.5865E2,1.0889167E2,8.122331E0,5.17896E-1,4.1367364E-1,1.5591E2,7.982405E1,3.4411466E-1,2E0,3.5771E2,2.02E1,2.3299228E2,-2.8781307E0,-1.806474E0,-5.301677E-2,-5.444014E-1,2.8124814E0,-1.067553E0,5.6862164E-1,-2.3192558E0,5.1761456E0,6.0062466E0,8.5371315E-1,3.545456E0,-1.864869E0,5.561744E0,2.1440413E0,-1.4509858E0,2.021048E0,-2.5441968E0,2.2548692E0,-2.0947654E0,-1.4530843E0,-1.4678273E0,-8.139572E-1,-5.94663E-1,1.8151163E0,-3.360489E-1,5.2061796E0,-1.3141122E0,-4.9221253E-1,2.6508398E0,-7.1131825E-1,2.0308815E-1,4.9588404E0,2.095427E0,7.9065144E-1,5.6860435E-1,5.4426823E0,2.3815558E0,4.0461617E0,-7.19435E-1,2.238012E0,-4.8790272E-2,2.9074411E0,2.4321747E0,-7.2213125E-1,-2.3429658E0,2.6187367E0,1.0046805E0,-3.632066E0,-2.0114763E0,2.8194854E0,1.899777E0,5.3871145E0,5.835648E0,-2.8567922E0,6.1897793E0,7.440112E-1,-2.2452807E0,4.634738E0,-1.02284074E-1,2.7678266E0],"split_indices":[14,6,14,75,20,6,50,25,47,69,62,47,3,4,44,4,20,7,47,4,75,51,0,51,51,50,36,14,56,3,75,0,19,4,50,32,34,3,41,25,50,19,47,45,0,34,35,51,47,0,44,34,0,39,27,19,47,51,3,75,20,19,0,0,0,0,0,0,0,0,0,0,0,0,0,0,0,0,0,0,0,0,0,0,0,0,0,0,0,0,0,0,0,0,0,0,0,0,0,0,0,0,0,0,0,0,0,0,0,0,0,0,0,0,0,0,0,0,0,0,0,0,0],"split_type":[0,0,0,0,0,0,0,0,0,0,0,0,0,0,0,0,0,0,0,0,0,0,0,0,0,0,0,0,0,0,0,0,0,0,0,0,0,0,0,0,0,0,0,0,0,0,0,0,0,0,0,0,0,0,0,0,0,0,0,0,0,0,0,0,0,0,0,0,0,0,0,0,0,0,0,0,0,0,0,0,0,0,0,0,0,0,0,0,0,0,0,0,0,0,0,0,0,0,0,0,0,0,0,0,0,0,0,0,0,0,0,0,0,0,0,0,0,0,0,0,0,0,0],"sum_hessian":[1.7183E4,1.3104E4,4.079E3,5.102E3,8.002E3,3.089E3,9.9E2,4.022E3,1.08E3,5.725E3,2.277E3,2.572E3,5.17E2,2.87E2,7.03E2,2.922E3,1.1E3,6.21E2,4.59E2,3.175E3,2.55E3,2.234E3,4.3E1,1.16E3,1.412E3,1E2,4.17E2,1.07E2,1.8E2,6.81E2,2.2E1,4.85E2,2.437E3,1.077E3,2.3E1,5.2E2,1.01E2,4.07E2,5.2E1,5.22E2,2.653E3,2.274E3,2.76E2,6.84E2,1.55E3,1.7E1,2.6E1,1.094E3,6.6E1,1.14E3,2.72E2,9.4E1,6E0,3.34E2,8.3E1,2.8E1,7.9E1,1.66E2,1.4E1,3.37E2,3.44E2,1.5E1,7E0,4.02E2,8.3E1,2.364E3,7.3E1,1.62E2,9.15E2,2E0,2.1E1,1E1,5.1E2,8E0,9.3E1,6.2E1,3.45E2,4.2E1,1E1,5.17E2,5E0,1.088E3,1.565E3,1.526E3,7.48E2,2.23E2,5.3E1,6.65E2,1.9E1,8.51E2,6.99E2,3E0,1.4E1,4E0,2.2E1,6.12E2,4.82E2,1.3E1,5.3E1,5.89E2,5.51E2,7.8E1,1.94E2,5.1E1,4.3E1,7.7E1,2.57E2,7.6E1,7E0,6E0,2.2E1,2E1,5.9E1,1.8E1,1.48E2,2E0,1.2E1,3.28E2,9E0,1.4E1,3.3E2,8E0,7E0],"tree_param":{"num_deleted":"0","num_feature":"78","num_nodes":"123","size_leaf_vector":"1"}},{"base_weights":[1.7487843E-1,-1.4332354E1,5.1521084E1,-2.2867401E1,3.5146348E0,3.7033127E1,8.211074E1,-2.881221E1,-1.3064985E1,-2.605174E0,3.222172E1,2.1635267E1,5.8961926E1,1.0296323E2,5.7007294E1,-3.161004E1,-1.5185358E1,-1.4237814E1,6.32623E1,-1.0456273E1,7.7408333E0,2.5860453E1,9.282474E1,3.8854897E1,8.357898E0,7.834873E1,2.827988E1,8.979446E1,1.2889447E2,4.2169194E0,6.564896E1,-3.755965E1,-2.5976048E1,1.2578154E2,-1.6349113E1,-8.448241E0,-2.2430893E1,-2.448788E1,8.740229E1,-1.8038889E1,1.6466949E0,3.4432402E-1,3.6922752E1,2.0145136E1,6.988106E1,6.5707344E1,1.4432172E2,2.625767E1,7.165722E1,1.8770206E0,7.4762184E1,5.342842E1,9.652964E1,7.598716E-1,5.9809265E1,6.96694E1,1.2565503E2,6.512906E0,1.3112033E2,-3.842316E1,4.080915E1,4.827846E1,8.1558136E1,1.9130796E0,-1.9056929E0,-2.0842237E0,-1.1317358E0,7.655973E0,-1.6395973E0,-9.3141985E-1,1.8860476E0,-5.816798E-1,7.2250754E-1,-1.2755418E0,-4.681689E-2,-3.3723813E-1,-2.9143963E0,5.7829684E-1,5.271819E0,-3.238022E-1,-1.4051704E0,-1.500398E0,2.6432198E-1,2.842898E-1,-1.736072E0,1.3987993E0,6.333469E0,8.086607E-1,4.263825E0,1.428205E0,5.023178E0,-1.4740969E0,4.2499967E0,7.664978E0,-1.5542201E0,-1.0219538E0,1.9038712E0,4.6528378E0,1.1547923E0,-9.1964704E-1,8.391266E-1,-1.4101537E0,4.7254424E0,2.9295635E0,-2.955191E-1,2.962199E0,5.4506564E0,-3.1843781E0,4.4673115E-1,8.5565436E-1,4.3219905E0,3.949789E0,-2.1133173E-1,6.5640574E0,3.1633642E0,-3.9212304E-1,6.031181E-1,6.7588196E0,3.1326015E0,7.2001106E-1,-3.560131E0,-3.5225747E0,2.3977416E0,2.6764247E0,-1.8272774E0,2.42618E0,5.009303E0],"categories":[],"categories_nodes":[],"categories_segments":[],"categories_sizes":[],"default_left":[0,0,0,0,0,0,0,0,0,0,0,0,0,0,0,0,0,0,0,0,0,0,0,0,0,0,0,0,0,0,0,0,0,0,0,0,0,0,0,0,0,0,0,0,0,0,0,0,0,0,0,0,0,0,0,0,0,0,0,0,0,0,0,0,0,0,0,0,0,0,0,0,0,0,0,0,0,0,0,0,0,0,0,0,0,0,0,0,0,0,0,0,0,0,0,0,0,0,0,0,0,0,0,0,0,0,0,0,0,0,0,0,0,0,0,0,0,0,0,0,0,0,0,0,0,0,0],"id":12,"left_children":[1,3,5,7,9,11,13,15,17,19,21,23,25,27,29,31,33,35,37,39,41,43,45,47,49,51,53,55,57,59,61,63,65,67,69,71,73,75,77,79,81,83,85,87,89,91,93,95,97,99,101,103,105,107,109,111,113,115,117,119,121,123,125,-1,-1,-1,-1,-1,-1,-1,-1,-1,-1,-1,-1,-1,-1,-1,-1,-1,-1,-1,-1,-1,-1,-1,-1,-1,-1,-1,-1,-1,-1,-1,-1,-1,-1,-1,-1,-1,-1,-1,-1,-1,-1,-1,-1,-1,-1,-1,-1,-1,-1,-1,-1,-1,-1,-1,-1,-1,-1,-1,-1,-1,-1,-1,-1],"loss_changes":[1.2801695E7,2.0412338E6,1.674846E6,5.27873E5,7.6184056E5,8.66839E5,6.306685E5,2.146245E5,3.0741344E5,2.9046934E5,2.913598E5,3.4536594E5,6.28301E5,2.14829E5,2.5245612E5,1.55898E5,1.6003744E5,1.5980681E5,1.1229134E5,1.8660252E5,3.3303506E5,1.7244206E5,9.1062375E4,2.700162E5,3.6781575E5,2.8888775E5,3.5744247E5,3.10957E5,5.93475E4,1.24831375E5,1.27605125E5,9.701375E4,1.25392875E5,3.9701633E4,1.1852114E5,1.444425E5,9.2394125E4,6.80348E3,5.485375E4,1.452861E5,9.0487086E4,2.3095444E5,2.4697416E5,1.572019E5,9.695284E4,9.249191E4,4.255972E4,2.6405553E5,1.8698356E5,2.3597331E5,1.5719016E5,8.4901E4,1.67622E5,1.1700104E5,2.1682906E5,1.9744E5,4.71525E4,4.9292102E2,5.17945E4,6.5091637E4,3.756489E4,1.0438194E5,1.4713388E5,0E0,0E0,0E0,0E0,0E0,0E0,0E0,0E0,0E0,0E0,0E0,0E0,0E0,0E0,0E0,0E0,0E0,0E0,0E0,0E0,0E0,0E0,0E0,0E0,0E0,0E0,0E0,0E0,0E0,0E0,0E0,0E0,0E0,0E0,0E0,0E0,0E0,0E0,0E0,0E0,0E0,0E0,0E0,0E0,0E0,0E0,0E0,0E0,0E0,0E0,0E0,0E0,0E0,0E0,0E0,0E0,0E0,0E0,0E0,0E0,0E0,0E0,0E0,0E0],"parents":[2147483647,0,0,1,1,2,2,3,3,4,4,5,5,6,6,7,7,8,8,9,9,10,10,11,11,12,12,13,13,14,14,15,15,16,16,17,17,18,18,19,19,20,20,21,21,22,22,23,23,24,24,25,25,26,26,27,27,28,28,29,29,30,30,31,31,32,32,33,33,34,34,35,35,36,36,37,37,38,38,39,39,40,40,41,41,42,42,43,43,44,44,45,45,46,46,47,47,48,48,49,49,50,50,51,51,52,52,53,53,54,54,55,55,56,56,57,57,58,58,59,59,60,60,61,61,62,62],"right_children":[2,4,6,8,10,12,14,16,18,20,22,24,26,28,30,32,34,36,38,40,42,44,46,48,50,52,54,56,58,60,62,64,66,68,70,72,74,76,78,80,82,84,86,88,90,92,94,96,98,100,102,104,106,108,110,112,114,116,118,120,122,124,126,-1,-1,-1,-1,-1,-1,-1,-1,-1,-1,-1,-1,-1,-1,-1,-1,-1,-1,-1,-1,-1,-1,-1,-1,-1,-1,-1,-1,-1,-1,-1,-1,-1,-1,-1,-1,-1,-1,-1,-1,-1,-1,-1,-1,-1,-1,-1,-1,-1,-1,-1,-1,-1,-1,-1,-1,-1,-1,-1,-1,-1,-1,-1,-1],"split_conditions":[1.3569345E2,7.320754E1,2.0741655E2,6.252E1,8.012E1,1.8E1,2.5881904E-1,3.097E1,1.4058958E2,6.234898E-1,2.0683E2,2.7693E2,4E0,3.94536E-1,-7.818315E-1,4.2677204E1,3.235E1,1.2246469E-16,1E1,1.245E2,1.20683876E2,4.7E1,7.7511055E1,2.3876419E2,2.9506E2,1E1,7.3128975E1,3.1757E2,3.8164474E1,3.108728E2,6E0,3.718002E-1,-7.818315E-1,1.7E1,2.643575E2,1.577035E0,6.9E0,8E0,-5E-1,4E0,8E0,7E0,1.0910187E0,1.0506896E0,1E0,1.738275E-1,1.0926094E0,-7.818315E-1,5E0,1.237763E2,1.59E0,6.9193965E-1,1.4641487E2,7.983798E0,1.1E1,8.6809326E1,2.7404214E2,1.4E1,1.1E1,1.8153293E2,-2.3597733E2,3.2788E2,-2.2252093E-1,1.9130796E0,-1.9056929E0,-2.0842237E0,-1.1317358E0,7.655973E0,-1.6395973E0,-9.3141985E-1,1.8860476E0,-5.816798E-1,7.2250754E-1,-1.2755418E0,-4.681689E-2,-3.3723813E-1,-2.9143963E0,5.7829684E-1,5.271819E0,-3.238022E-1,-1.4051704E0,-1.500398E0,2.6432198E-1,2.842898E-1,-1.736072E0,1.3987993E0,6.333469E0,8.086607E-1,4.263825E0,1.428205E0,5.023178E0,-1.4740969E0,4.2499967E0,7.664978E0,-1.5542201E0,-1.0219538E0,1.9038712E0,4.6528378E0,1.1547923E0,-9.1964704E-1,8.391266E-1,-1.4101537E0,4.7254424E0,2.9295635E0,-2.955191E-1,2.962199E0,5.4506564E0,-3.1843781E0,4.4673115E-1,8.5565436E-1,4.3219905E0,3.949789E0,-2.1133173E-1,6.5640574E0,3.1633642E0,-3.9212304E-1,6.031181E-1,6.7588196E0,3.1326015E0,7.2001106E-1,-3.560131E0,-3.5225747E0,2.3977416E0,2.6764247E0,-1.8272774E0,2.42618E0,5.009303E0],"split_indices":[46,46,46,21,67,60,1,66,34,5,67,50,3,45,4,46,25,1,0,25,20,60,23,25,21,0,35,15,35,31,60,45,4,0,77,45,36,0,7,3,60,6,45,45,12,68,27,4,6,19,20,51,46,29,0,41,46,0,58,28,77,38,5,0,0,0,0,0,0,0,0,0,0,0,0,0,0,0,0,0,0,0,0,0,0,0,0,0,0,0,0,0,0,0,0,0,0,0,0,0,0,0,0,0,0,0,0,0,0,0,0,0,0,0,0,0,0,0,0,0,0,0,0,0,0,0,0],"split_type":[0,0,0,0,0,0,0,0,0,0,0,0,0,0,0,0,0,0,0,0,0,0,0,0,0,0,0,0,0,0,0,0,0,0,0,0,0,0,0,0,0,0,0,0,0,0,0,0,0,0,0,0,0,0,0,0,0,0,0,0,0,0,0,0,0,0,0,0,0,0,0,0,0,0,0,0,0,0,0,0,0,0,0,0,0,0,0,0,0,0,0,0,0,0,0,0,0,0,0,0,0,0,0,0,0,0,0,0,0,0,0,0,0,0,0,0,0,0,0,0,0,0,0,0,0,0,0],"sum_hessian":[1.7184E4,1.3399E4,3.785E3,9.064E3,4.335E3,2.57E3,1.215E3,5.641E3,3.423E3,3.574E3,7.61E2,1.511E3,1.059E3,6.62E2,5.53E2,4.679E3,9.62E2,3.372E3,5.1E1,2.032E3,1.542E3,6.9E2,7.1E1,6.57E2,8.54E2,6.48E2,4.11E2,4.42E2,2.2E2,7.8E1,4.75E2,2.273E3,2.406E3,7E0,9.55E2,1.977E3,1.395E3,1.1E1,4E1,1.249E3,7.83E2,1.231E3,3.11E2,6.12E2,7.8E1,4.8E1,2.3E1,4.76E2,1.81E2,7.79E2,7.5E1,2.75E2,3.73E2,2.2E2,1.91E2,2.85E2,1.57E2,4E0,2.16E2,3.6E1,4.2E1,2.29E2,2.46E2,1.6E1,2.257E3,4.2E2,1.986E3,6E0,1E0,9.17E2,3.8E1,1.736E3,2.41E2,1.22E3,1.75E2,8E0,3E0,8E0,3.2E1,5.82E2,6.67E2,8E1,7.03E2,1.069E3,1.62E2,2.84E2,2.7E1,5.78E2,3.4E1,3.4E1,4.4E1,8E0,4E1,2.2E1,1E0,9.6E1,3.8E2,1.25E2,5.6E1,3.3E2,4.49E2,1.2E1,6.3E1,2.53E2,2.2E1,9.5E1,2.78E2,2.4E1,1.96E2,7.4E1,1.17E2,2.53E2,3.2E1,1.43E2,1.4E1,1E0,3E0,2.03E2,1.3E1,1.4E1,2.2E1,2E0,4E1,2.16E2,1.3E1,9E1,1.56E2],"tree_param":{"num_deleted":"0","num_feature":"78","num_nodes":"127","size_leaf_vector":"1"}},{"base_weights":[1.1729049E-1,-1.3930209E1,4.829712E1,-2.194264E1,6.969053E0,3.4725006E1,7.8566216E1,-2.8429598E1,-1.3998793E1,-2.8807944E-1,2.6720413E1,4.2487076E1,-4.7594543E0,9.472357E1,5.163032E1,-3.4170845E1,-2.0778078E1,-1.6754593E1,2.940471E-1,-1.2157431E1,5.1362414E0,1.15832E0,3.5903023E1,3.2039497E1,7.2426E1,3.800427E0,-3.6155655E1,4.9850216E1,1.0258091E2,-4.938066E-1,5.9265907E1,-3.4913597E1,1.832262E1,-3.9298725E1,-1.6280273E1,-1.950717E1,-1.4466608E0,-6.169834E0,5.5320415E1,-1.6321802E1,1.1900717E1,2.9749563E0,4.197511E1,-5.646491E0,1.0036037E2,2.5300104E1,7.0806206E1,-4.016583E0,3.8068462E1,3.406621E1,8.396076E1,-1.5368703E1,2.8457409E1,-9.769016E1,-2.6934587E1,8.806446E1,-8.554854E0,7.016967E1,1.12466E2,-7.5908264E1,2.465532E1,4.9196854E1,8.897614E1,-1.9994602E0,-1.4903932E0,3.9003444E-1,5.948064E0,-2.0833318E0,-7.1409786E-1,-8.99306E-1,1.817612E0,-1.0466968E0,2.699493E-1,-3.9859146E-1,8.999676E-1,-5.6030387E-1,1.3811834E0,5.064264E-1,5.558049E0,-1.5021771E0,-6.096633E-1,-3.6970398E-1,1.5060948E0,-1.3441622E-1,6.8455875E-1,6.540676E0,1.7565678E0,-7.394812E-1,2.1865275E0,6.625628E0,-1.6536888E-1,8.951926E-1,2.713695E0,1.1131741E0,5.032222E0,-1.1511673E0,2.546128E0,1.2443146E0,2.7823555E0,5.4704374E-1,4.7823205E0,4.621255E0,1.6462427E0,-1.669929E-2,-1.6804663E0,-2.4420488E0,2.0905824E0,-1.3239249E0,-5.0878406E0,-2.0565467E0,-7.4418074E-1,1.634181E0,5.0783577E0,2.0904424E0,-3.2698734E0,4.1862984E0,-2.1204174E0,2.7346218E0,5.8962855E0,1.3823617E0,-4.6983294E0,1.9260901E0,-2.2146194E0,2.6802871E0,-1.3416361E0,2.06892E0,5.661842E0],"categories":[],"categories_nodes":[],"categories_segments":[],"categories_sizes":[],"default_left":[0,0,0,0,0,0,0,0,0,0,0,0,0,0,0,0,0,0,0,0,0,0,0,0,0,0,0,0,0,0,0,0,0,0,0,0,0,0,0,0,0,0,0,0,0,0,0,0,0,0,0,0,0,0,0,0,0,0,0,0,0,0,0,0,0,0,0,0,0,0,0,0,0,0,0,0,0,0,0,0,0,0,0,0,0,0,0,0,0,0,0,0,0,0,0,0,0,0,0,0,0,0,0,0,0,0,0,0,0,0,0,0,0,0,0,0,0,0,0,0,0,0,0,0,0,0,0],"id":13,"left_children":[1,3,5,7,9,11,13,15,17,19,21,23,25,27,29,31,33,35,37,39,41,43,45,47,49,51,53,55,57,59,61,63,65,67,69,71,73,75,77,79,81,83,85,87,89,91,93,95,97,99,101,103,105,107,109,111,113,115,117,119,121,123,125,-1,-1,-1,-1,-1,-1,-1,-1,-1,-1,-1,-1,-1,-1,-1,-1,-1,-1,-1,-1,-1,-1,-1,-1,-1,-1,-1,-1,-1,-1,-1,-1,-1,-1,-1,-1,-1,-1,-1,-1,-1,-1,-1,-1,-1,-1,-1,-1,-1,-1,-1,-1,-1,-1,-1,-1,-1,-1,-1,-1,-1,-1,-1,-1],"loss_changes":[1.167761E7,2.2371692E6,1.597399E6,4.97241E5,5.307892E5,8.2494275E5,5.195415E5,2.327745E5,1.7106788E5,1.7447645E5,2.3351156E5,7.0114225E5,1.1919267E5,2.600305E5,1.8072062E5,1.1897275E5,1.8937262E5,1.5338994E5,2.503871E5,8.535325E4,1.4796705E5,1.787802E5,2.6910394E5,3.6296162E5,2.5421575E5,1.6539322E5,5.127307E4,2.5519062E5,1.96836E5,1.1377139E5,1.140875E5,7.6371E4,4.4605277E4,2.5765625E4,1.6558506E5,1.0977475E5,7.06935E4,1.0753068E5,1.8561611E5,4.070542E4,4.4521043E4,1.06728E5,5.802711E4,1.1260905E5,5.710172E4,1.1967778E5,2.4399225E5,2.5178403E5,3.299815E5,1.926261E5,1.8962225E5,5.401457E4,1.5997806E5,7.8075E2,1.3758523E4,4.8278062E4,1.3442319E5,2.3552412E5,1.474785E5,3.06485E4,4.4729023E4,1.0132969E5,1.09635125E5,0E0,0E0,0E0,0E0,0E0,0E0,0E0,0E0,0E0,0E0,0E0,0E0,0E0,0E0,0E0,0E0,0E0,0E0,0E0,0E0,0E0,0E0,0E0,0E0,0E0,0E0,0E0,0E0,0E0,0E0,0E0,0E0,0E0,0E0,0E0,0E0,0E0,0E0,0E0,0E0,0E0,0E0,0E0,0E0,0E0,0E0,0E0,0E0,0E0,0E0,0E0,0E0,0E0,0E0,0E0,0E0,0E0,0E0,0E0,0E0,0E0,0E0,0E0,0E0],"parents":[2147483647,0,0,1,1,2,2,3,3,4,4,5,5,6,6,7,7,8,8,9,9,10,10,11,11,12,12,13,13,14,14,15,15,16,16,17,17,18,18,19,19,20,20,21,21,22,22,23,23,24,24,25,25,26,26,27,27,28,28,29,29,30,30,31,31,32,32,33,33,34,34,35,35,36,36,37,37,38,38,39,39,40,40,41,41,42,42,43,43,44,44,45,45,46,46,47,47,48,48,49,49,50,50,51,51,52,52,53,53,54,54,55,55,56,56,57,57,58,58,59,59,60,60,61,61,62,62],"right_children":[2,4,6,8,10,12,14,16,18,20,22,24,26,28,30,32,34,36,38,40,42,44,46,48,50,52,54,56,58,60,62,64,66,68,70,72,74,76,78,80,82,84,86,88,90,92,94,96,98,100,102,104,106,108,110,112,114,116,118,120,122,124,126,-1,-1,-1,-1,-1,-1,-1,-1,-1,-1,-1,-1,-1,-1,-1,-1,-1,-1,-1,-1,-1,-1,-1,-1,-1,-1,-1,-1,-1,-1,-1,-1,-1,-1,-1,-1,-1,-1,-1,-1,-1,-1,-1,-1,-1,-1,-1,-1,-1,-1,-1,-1,-1,-1,-1,-1,-1,-1,-1,-1,-1,-1,-1,-1],"split_conditions":[1.3245982E2,8.113339E1,2.0741655E2,5.9045856E1,1.6681E2,9E1,5E-1,4.577E1,8.78E0,5.9485E1,1.2246469E-16,2.3273273E2,3.5343E2,3.0129E2,-7.818315E-1,1.3426875E2,-7.818315E-1,1.088E1,1E0,1.1685058E0,1.0664762E0,7.840751E1,8.691623E1,-7.818315E-1,0E0,1.8767E2,2.8069383E-1,2.2610167E2,3E0,6.8966415E1,1.1E1,6.234898E-1,7.91E0,2E1,1.1746786E2,3.4E1,1.0638E2,1.2830627E2,8.508E1,8.131647E1,7.4E1,6.234898E-1,1.8E1,2.643575E2,1.7E1,4.7E1,1E0,1.9E1,1.8E1,6.757809E-1,3.4108E2,1.5519708E2,3.9590256E1,8.959E1,5.17E1,2.1399345E2,1.9204727E-1,3.858879E-1,3.1127667E-1,3E0,9E0,2.968E2,-2.2252093E-1,-1.9994602E0,-1.4903932E0,3.9003444E-1,5.948064E0,-2.0833318E0,-7.1409786E-1,-8.99306E-1,1.817612E0,-1.0466968E0,2.699493E-1,-3.9859146E-1,8.999676E-1,-5.6030387E-1,1.3811834E0,5.064264E-1,5.558049E0,-1.5021771E0,-6.096633E-1,-3.6970398E-1,1.5060948E0,-1.3441622E-1,6.8455875E-1,6.540676E0,1.7565678E0,-7.394812E-1,2.1865275E0,6.625628E0,-1.6536888E-1,8.951926E-1,2.713695E0,1.1131741E0,5.032222E0,-1.1511673E0,2.546128E0,1.2443146E0,2.7823555E0,5.4704374E-1,4.7823205E0,4.621255E0,1.6462427E0,-1.669929E-2,-1.6804663E0,-2.4420488E0,2.0905824E0,-1.3239249E0,-5.0878406E0,-2.0565467E0,-7.4418074E-1,1.634181E0,5.0783577E0,2.0904424E0,-3.2698734E0,4.1862984E0,-2.1204174E0,2.7346218E0,5.8962855E0,1.3823617E0,-4.6983294E0,1.9260901E0,-2.2146194E0,2.6802871E0,-1.3416361E0,2.06892E0,5.661842E0],"split_indices":[46,14,46,21,14,62,1,20,36,46,7,14,50,43,4,34,4,70,5,27,45,36,29,4,4,73,45,34,60,35,60,5,70,0,46,58,21,73,38,32,60,5,60,77,0,60,12,0,60,45,31,34,41,14,42,46,33,51,51,0,0,32,5,0,0,0,0,0,0,0,0,0,0,0,0,0,0,0,0,0,0,0,0,0,0,0,0,0,0,0,0,0,0,0,0,0,0,0,0,0,0,0,0,0,0,0,0,0,0,0,0,0,0,0,0,0,0,0,0,0,0,0,0,0,0,0,0],"split_type":[0,0,0,0,0,0,0,0,0,0,0,0,0,0,0,0,0,0,0,0,0,0,0,0,0,0,0,0,0,0,0,0,0,0,0,0,0,0,0,0,0,0,0,0,0,0,0,0,0,0,0,0,0,0,0,0,0,0,0,0,0,0,0,0,0,0,0,0,0,0,0,0,0,0,0,0,0,0,0,0,0,0,0,0,0,0,0,0,0,0,0,0,0,0,0,0,0,0,0,0,0,0,0,0,0,0,0,0,0,0,0,0,0,0,0,0,0,0,0,0,0,0,0,0,0,0,0],"sum_hessian":[1.7252E4,1.3358E4,3.894E3,9.656E3,3.702E3,2.69E3,1.204E3,5.314E3,4.342E3,2.708E3,9.94E2,2.248E3,4.42E2,7.51E2,4.53E2,3.034E3,2.28E3,3.64E3,7.02E2,8.49E2,1.859E3,2.63E2,7.31E2,1.668E3,5.8E2,3.48E2,9.4E1,1.13E2,6.38E2,5.8E1,3.95E2,2.992E3,4.2E1,4.44E2,1.836E3,3.085E3,5.55E2,6.29E2,7.3E1,7.24E2,1.25E2,1.757E3,1.02E2,2.47E2,1.6E1,5.62E2,1.69E2,2.39E2,1.429E3,1.35E2,4.45E2,1.96E2,1.52E2,1.1E1,8.3E1,6.8E1,4.5E1,1.51E2,4.87E2,1.4E1,4.4E1,2.97E2,9.8E1,1.497E3,1.495E3,3.9E1,3E0,4.05E2,3.9E1,1.779E3,5.7E1,2.918E3,1.67E2,4.16E2,1.39E2,5.48E2,8.1E1,4.1E1,3.2E1,1.66E2,5.58E2,6.1E1,6.4E1,1.15E3,6.07E2,6E0,9.6E1,2.09E2,3.8E1,1.2E1,4E0,4.49E2,1.13E2,6.5E1,1.04E2,1.78E2,6.1E1,8.18E2,6.11E2,9.9E1,3.6E1,3.81E2,6.4E1,1.08E2,8.8E1,2.2E1,1.3E2,1E0,1E1,3.7E1,4.6E1,1.4E1,5.4E1,2.4E1,2.1E1,1.35E2,1.6E1,4.3E1,4.44E2,2E0,1.2E1,3.7E1,7E0,2.81E2,1.6E1,3.4E1,6.4E1],"tree_param":{"num_deleted":"0","num_feature":"78","num_nodes":"127","size_leaf_vector":"1"}},{"base_weights":[3.627803E-1,-1.3036257E1,4.6408913E1,-2.0288311E1,6.0236864E0,3.360069E1,7.4332275E1,-2.518246E1,-1.0380193E1,