tree
version=v4
num_class=1
num_tree_per_iteration=1
label_index=0
max_feature_idx=149
objective=quantile
feature_names=hour hour_sin hour_cos day_of_week dow_sin dow_cos month month_sin month_cos is_weekend is_night is_morning is_afternoon is_evening cmg_lag_1h cmg_lag_2h cmg_lag_3h cmg_lag_6h cmg_lag_12h cmg_lag_24h cmg_lag_48h cmg_lag_168h cmg_mean_6h cmg_std_6h cmg_min_6h cmg_max_6h cmg_range_6h cmg_cv_6h cmg_mean_12h cmg_std_12h cmg_min_12h cmg_max_12h cmg_range_12h cmg_cv_12h cmg_mean_24h cmg_std_24h cmg_min_24h cmg_max_24h cmg_range_24h cmg_cv_24h cmg_mean_48h cmg_std_48h cmg_min_48h cmg_max_48h cmg_range_48h cmg_cv_48h cmg_mean_168h cmg_std_168h cmg_min_168h cmg_max_168h cmg_range_168h cmg_cv_168h zeros_count_6h zeros_ratio_6h zeros_count_12h zeros_ratio_12h zeros_count_24h zeros_ratio_24h zeros_count_48h zeros_ratio_48h zeros_count_168h zeros_ratio_168h hours_since_zero was_zero_1h_ago was_zero_2h_ago was_zero_24h_ago cmg_trend_6h cmg_trend_12h cmg_trend_24h cmg_trend_48h cmg_change_1h cmg_change_24h cmg_change_48h cmg_same_hour_yesterday cmg_same_hour_last_week cmg_7d_median_same_hour cmg_diff_vs_yesterday cmg_diff_vs_last_week zero_risk_lgb_t+1 zero_risk_xgb_t+1 zero_risk_avg_t+1 zero_risk_lgb_t+2 zero_risk_xgb_t+2 zero_risk_avg_t+2 zero_risk_lgb_t+3 zero_risk_xgb_t+3 zero_risk_avg_t+3 zero_risk_lgb_t+4 zero_risk_xgb_t+4 zero_risk_avg_t+4 zero_risk_lgb_t+5 zero_risk_xgb_t+5 zero_risk_avg_t+5 zero_risk_lgb_t+6 zero_risk_xgb_t+6 zero_risk_avg_t+6 zero_risk_lgb_t+7 zero_risk_xgb_t+7 zero_risk_avg_t+7 zero_risk_lgb_t+8 zero_risk_xgb_t+8 zero_risk_avg_t+8 zero_risk_lgb_t+9 zero_risk_xgb_t+9 zero_risk_avg_t+9 zero_risk_lgb_t+10 zero_risk_xgb_t+10 zero_risk_avg_t+10 zero_risk_lgb_t+11 zero_risk_xgb_t+11 zero_risk_avg_t+11 zero_risk_lgb_t+12 zero_risk_xgb_t+12 zero_risk_avg_t+12 zero_risk_lgb_t+13 zero_risk_xgb_t+13 zero_risk_avg_t+13 zero_risk_lgb_t+14 zero_risk_xgb_t+14 zero_risk_avg_t+14 zero_risk_lgb_t+15 zero_risk_xgb_t+15 zero_risk_avg_t+15 zero_risk_lgb_t+16 zero_risk_xgb_t+16 zero_risk_avg_t+16 zero_risk_lgb_t+17 zero_risk_xgb_t+17 zero_risk_avg_t+17 zero_risk_lgb_t+18 zero_risk_xgb_t+18 zero_risk_avg_t+18 zero_risk_lgb_t+19 zero_risk_xgb_t+19 zero_risk_avg_t+19 zero_risk_lgb_t+20 zero_risk_xgb_t+20 zero_risk_avg_t+20 zero_risk_lgb_t+21 zero_risk_xgb_t+21 zero_risk_avg_t+21 zero_risk_lgb_t+22 zero_risk_xgb_t+22 zero_risk_avg_t+22 zero_risk_lgb_t+23 zero_risk_xgb_t+23 zero_risk_avg_t+23 zero_risk_lgb_t+24 zero_risk_xgb_t+24 zero_risk_avg_t+24
feature_infos=[0:23] [-1:1] [-1:1] [0:6] [-0.97492791218182362:0.97492791218182362] [-0.90096886790241903:1] [1:12] [-1:1] [-1:1] [0:1] [0:1] [0:1] [0:1] [0:1] [0:371.66000000000003] [0:371.66000000000003] [0:371.66000000000003] [0:353.50999999999999] [0:371.66000000000003] [0:371.66000000000003] [0:353.50999999999999] [0:371.66000000000003] [0:349.44666666666666] [0:153.30693861227124] [0:339.83999999999997] [0:371.66000000000003] [0:329.93000000000001] [0:2.4494896874170573] [0:333.88333333333338] [0:139.67150019209095] [0:327.86000000000001] [0:371.66000000000003] [0:371.66000000000003] [0:3.464101428007337] [0:315.17583333333329] [0:133.58115591090203] [0:296.29000000000002] [0:371.66000000000003] [0:371.66000000000003] [0:4.8989787993545502] [0:305.62479166666668] [0:121.59284917311297] [0:289.70999999999998] [0:371.66000000000003] [0:371.66000000000003] [0:6.9282012893730816] [15.913095238095238:269.83386904761909] [15.71430876621686:105.75616875003355] [0:120.59999999999999] [70.306545:371.66000000000003] [39.599999999999994:371.66000000000003] [0.11038429794768589:2.3481555595262882] [0:6] [0:1] [0:12] [0:1] [0:24] [0:1] [0:48] [0:1] [0:127] [0:0.75595238095238093] [0:308] [0:1] [0:1] [0:1] [-292.45999999999998:371.66000000000003] [-334.23000000000002:338.87] [-371.66000000000003:329.93000000000001] [-328.94999999999999:335.49000000000001] [-329.93000000000001:329.93000000000001] [-371.66000000000003:329.93000000000001] [-328.94999999999999:335.49000000000001] [0:371.66000000000003] [0:371.66000000000003] [0:371.66000000000003] [-371.66000000000003:329.93000000000001] [-371.66000000000003:314.30000000000001] [0:0.32669745056921329] [0:0.99765104055404663] [0:0.65594157105835782] [0:0.44992488438738992] [0:0.99034565687179565] [0:0.65234544536850159] [0:1] [0:0.99445551633834839] [0:0.91830748319625843] [0:0.3267054404748142] [0:0.99411326646804798] [0:0.64654275560840868] [0:1] [0:0.99299073219299316] [0:0.84425145387649536] [0:1] [0:0.98114782571792603] [0:0.88434042521562106] [0:0.44992488049970181] [0:0.99315094947814941] [0:0.65380465799380105] [0:0.44992488177380208] [0:0.98150163888931286] [0:0.64798000269938272] [0:0.4498216914669172] [0:0.98505371809005737] [0:0.64969947531079386] [0:0.31423210000304258] [0:0.98909991979598999] [0:0.65166600989951629] [0:0.99958394666309602] [0:0.981048583984375] [0:0.64764034147082261] [0:0.71520320632648071] [0:0.97877067327499401] [0:0.83636402119493281] [0:0.44981409352920038] [0:0.99168819189071655] [0:0.64176026585842982] [0:0.99999831221257041] [0:0.99181115627288818] [0:0.69725304154041812] [0:0.44982899400120402] [0:0.99005705118179321] [0:0.65214457450475871] [0:0.44970562071533349] [0:0.98534667491912842] [0:0.64978938719368651] [0:0.44960946379120181] [0:0.98795938491821278] [0:0.64648612344127443] [0:0.4494850584872731] [0:0.99210077524185181] [0:0.65316643547081288] [0:0.31423209680738462] [0:0.98839068412780762] [0:0.65131139046759612] [0:0.44926322485877068] [0:0.99073618650436401] [0:0.65242757766679704] [0:0.32627491427323052] [0:0.98989325761795044] [0:0.65194954853722364] [0:0.32627491427323052] [0:0.98751729726791382] [0:0.65076156836220533] [0:0.44915255373655549] [0:0.98664319515228283] [0:0.63671501613090853] [0:0.3140058394564969] [0:0.9937611222267152] [0:0.65388348084160597]
tree_sizes=2671 2818 2800 2815 2812 2814 2819 2822 2842 2830 2824 2830 2828 2825 2804 2856 2845 2843 2817 2833 2862 2847 2829 2835 2840 2827 2807 2845 2845 2848 2837

Tree=0
num_leaves=31
num_cat=0
split_feature=137 1 93 40 17 112 67 59 122 126 41 123 120 112 115 100 86 134 57 37 60 0 103 49 15 46 142 119 60 92
split_gain=59.2281 13.1462 16.8024 7.5578 6.85989 4.6029 4.8402 3.97877 3.858 3.61786 3.56757 3.37846 3.27841 4.1484 3.93147 3.02018 2.88995 3.41704 2.75396 3.03395 3.72603 2.68713 2.41416 3.52281 3.28611 3.09076 4.62611 3.62487 3.5113 2.87682
threshold=0.27616641370859968 1.0000000180025095e-35 0.3018411628167878 41.37583333333334 50.965617500000008 0.31573899090290075 -32.669999999999995 0.13541666666666671 0.61598358181162816 0.44959324713953802 21.986095898864175 0.4497033694738069 0.44981398978019288 0.38602693378925329 0.24060839414596558 0.13443606346845627 0.53561048025473812 0.43305614288144817 0.77083333333333337 62.715000000000011 66.500000000000014 15.500000000000002 0.72614222764968883 261.72169500000001 17.107545000000005 36.860713616071436 0.20273359864950177 0.39074022584677354 42.500000000000007 0.31000474504015157
decision_type=2 2 2 2 2 2 2 2 2 2 2 2 2 2 2 2 2 2 2 2 2 2 2 2 2 2 2 2 2 2
left_child=9 2 3 5 12 6 -2 10 22 -1 -5 -9 13 14 -3 -12 21 -18 19 -16 -21 -4 23 25 -25 26 -7 -28 -27 -29
right_child=1 4 16 7 -6 8 -8 11 -10 -11 15 -13 -14 -15 18 -17 17 -19 -20 20 -22 -23 -24 24 -26 28 27 29 -30 -31
leaf_value=35.25702431579252 32.919824371598665 32.873924381734426 33.468124334399405 34.043893376968711 34.233874285422907 33.428484452102971 32.45482435938716 33.40574466784939 32.999384391655305 33.160174324562398 34.177474348085376 33.097824386924508 33.737324336163688 33.618884202089262 32.695074362885208 32.719990111025822 33.410083317110178 33.0914057774919 33.852884212984989 32.916066852131152 33.280824405759574 34.295824432373045 34.516974456583682 32.626962478174271 32.871865313339917 32.846316297487505 32.743224371439219 33.414349528562681 33.80352392891281 33.004373373776531
leaf_weight=5732 50 101 147 44 1157 67 65 363 26 33 21 24 285 252 23 110 113 23 32 115 52 412 40 21 24 63 34 66 111 115
leaf_count=5732 50 101 147 44 1157 67 65 363 26 33 21 24 285 252 23 110 113 23 32 115 52 412 40 21 24 63 34 66 111 115
internal_value=34.0276 34.0226 34.0196 34.0161 34.0254 34.0126 34.0035 34.0204 34.0145 34.0305 34.0142 34.0233 34.022 34.0198 34.0161 34.01 34.0259 34.0193 34.0124 34.0101 34.0124 34.0274 34.0154 34.0144 34.0011 34.0157 34.0125 34.0089 34.021 34.0117
internal_weight=9721 3956 1939 1244 2017 682 115 562 567 5765 175 387 860 575 323 131 695 136 222 190 167 559 541 501 45 456 282 215 174 181
internal_count=9721 3956 1939 1244 2017 682 115 562 567 5765 175 387 860 575 323 131 695 136 222 190 167 559 541 501 45 456 282 215 174 181
is_linear=0
shrinkage=1


Tree=1
num_leaves=31
num_cat=0
split_feature=81 1 17 40 113 136 137 125 1 28 60 30 18 121 49 16 17 60 122 115 104 6 134 111 46 12 148 119 45 97
split_gain=56.8174 24.1961 10.9572 7.93275 4.93945 3.99698 3.58184 3.42696 3.26213 3.25349 3.52741 3.61944 4.57688 3.07717 2.98374 6.40762 3.49176 2.79115 2.81464 3.82218 2.63676 2.45808 2.4454 4.44042 2.60758 2.27501 2.23432 2.21093 2.0863 2.05714
threshold=0.32044643670242912 -1.0000000180025095e-35 50.965617500000008 41.37583333333334 0.33932444985186933 0.33156837522983551 0.5157783892446921 0.6181163338020893 -0.25881904510252113 24.231857395833327 69.500000000000014 56.070000000000007 71.235000000000014 0.46224796772003174 261.72169500000001 9.8554200000000023 65.793291250000024 18.500000000000004 0.30577111313696226 0.23573578894138333 0.41134891583377708 9.5000000000000018 0.22955485051570826 0.45055478484271477 36.860713616071436 1.0000000180025095e-35 0.18728789687156677 0.26384212580253696 1.4350350188093399 0.81317123770713817
decision_type=2 2 2 2 2 2 2 2 2 2 2 2 2 2 2 2 2 2 2 2 2 2 2 2 2 2 2 2 2 2
left_child=5 3 17 4 8 -1 -4 14 13 -5 11 12 27 -2 16 -16 22 -3 19 -19 -21 -14 -6 24 26 -7 -24 -11 29 -22
right_child=1 2 6 9 7 25 -8 -9 -10 10 -12 -13 21 -15 15 -17 -18 18 -20 20 28 -23 23 -25 -26 -27 -28 -29 -30 -31
leaf_value=1.318609045804304 -1.3788447469710066 -0.80834108819127182 0.36854425527729795 0.095712751348741423 -0.24467618020338266 0.26060886900723867 -1.7061937143009478 -0.717947849279857 -1.4210264473064242 -1.4042345083532828 -0.043616632251951164 0.74291959906009253 -1.3949831975512181 -1.0099340043890945 -1.1776575989903741 -0.82844366752320975 -1.2010585860323635 -1.1630971798134935 -0.83630331590367679 -1.2948662055489619 -0.93450832704504316 -1.1435359822151816 0.2528040406274889 -1.4075658061236682 -0.80945996289573729 -0.49973903107631212 -0.74304274729010944 -0.87917189920212435 0.15319420832611996 -1.3841173942099609
leaf_weight=5297 52 26 1448 118 92 386 20 22 39 27 116 43 41 25 35 25 24 73 813 30 21 26 21 25 116 238 165 311 22 24
leaf_count=5297 52 26 1448 118 92 386 20 22 39 27 116 43 41 25 35 25 24 73 813 30 21 26 21 25 116 238 165 311 22 24
internal_value=0.000454686 -0.00465789 -0.00174203 -0.0101172 -0.0141108 0.00317598 0.00101499 -0.0120476 -0.0234483 -0.00636364 -0.00794326 -0.00995536 -0.0114198 -0.0294156 -0.0112028 -0.0216667 -0.00978555 -0.00575322 -0.00532553 -0.0111765 -0.0176804 -0.0233582 -0.00872315 -0.0107492 -0.00907285 -0.000608974 -0.0127419 -0.00905325 -0.0121642 -0.0183333
internal_weight=9721 3800 2477 1323 641 5921 1468 525 116 682 564 448 405 77 503 60 443 1009 983 170 97 67 419 327 302 624 186 338 67 45
internal_count=9721 3800 2477 1323 641 5921 1468 525 116 682 564 448 405 77 503 60 443 1009 983 170 97 67 419 327 302 624 186 338 67 45
is_linear=0
shrinkage=0.05


Tree=2
num_leaves=31
num_cat=0
split_feature=81 0 17 40 126 126 136 136 28 60 123 29 129 92 125 50 25 107 140 94 8 34 20 51 93 28 50 148 40 34
split_gain=53.2103 23.3891 9.45798 7.28822 4.40679 4.69583 3.9083 3.1856 3.12835 3.36828 3.24748 4.40051 3.68939 3.63861 2.89813 3.40211 3.56943 3.48444 3.04748 2.84602 2.71292 3.57909 2.66513 3.54948 3.37123 2.63674 2.49809 2.47274 2.45236 2.44774
threshold=0.32044643670242912 12.500000000000002 50.965617500000008 41.37583333333334 0.44959100163165111 0.44958109234092908 0.33156837522983551 0.43652337789535528 24.231857395833327 69.500000000000014 0.44970195239712141 24.952414688079038 0.4494814433081708 0.5868184305727483 0.6181163338020893 124.77000000000002 63.895000000000003 0.3586505420639986 0.57310309148262373 0.50322479009628307 1.0000000180025095e-35 70.355208333333351 63.66378375 1.0710292945639286 0.16093573462436073 27.133750000000003 241.23500000000004 0.71027997136116039 35.88302083333334 20.955126770833335
decision_type=2 2 2 2 2 2 2 2 2 2 2 2 2 2 2 2 2 2 2 2 2 2 2 2 2 2 2 2 2 2
left_child=6 2 20 4 5 14 -1 -4 -5 10 13 -12 -13 19 15 16 18 -18 -3 -10 27 22 23 24 -22 -24 28 -2 -7 -26
right_child=1 3 7 8 -6 26 -8 -9 9 -11 11 12 -14 -15 -16 -17 17 -19 -20 -21 21 -23 25 -25 29 -27 -28 -29 -30 -31
leaf_value=1.2526785935140889 -0.64843816508681407 -0.73871045580595673 0.56504186707733595 0.090927113781304317 -0.5710665236949265 -1.1698784179320061 -0.13820020658731536 -0.91466199769070222 -1.0176532222476373 -0.041435800639353461 -1.4446403473008722 -1.150390894571691 0.19288486828135376 0.39325467109156348 -0.68205045681586407 -0.71330407934120599 -1.2863927613943686 -1.3003166072268204 -1.3642423056117252 -1.0900087799556608 0.40194888032244869 -0.87690505099594795 -1.6182689005224369 -0.36382688099279759 -1.594115837635228 -0.55020518819789965 -1.3606882896041306 -0.98819471358595701 -1.2985489682077682 -1.3334348480044256
leaf_weight=5297 512 83 1302 118 100 29 624 166 283 116 24 29 32 49 22 289 25 20 33 31 24 23 29 223 21 36 20 88 20 53
leaf_count=5297 512 83 1302 118 100 29 624 166 283 116 24 29 32 49 22 289 25 20 33 31 24 23 29 223 21 36 20 88 20 53
internal_value=0.000454686 -0.00444737 -0.00158054 -0.00981481 -0.0136427 -0.0154251 0.00313376 0.000980927 -0.00621701 -0.00776596 -0.00973214 -0.0185294 -0.0113934 -0.00767218 -0.0136441 -0.0127778 -0.0186025 -0.0305556 -0.0139655 -0.00964968 -0.00530723 -0.00844743 -0.0073057 -0.00543614 -0.0133673 -0.0165385 -0.0276087 -0.00316667 -0.0215306 -0.0186486
internal_weight=9721 3800 2477 1323 641 541 5921 1468 682 564 448 85 61 363 472 450 161 45 116 314 1009 409 386 321 98 65 69 600 49 74
internal_count=9721 3800 2477 1323 641 541 5921 1468 682 564 448 85 61 363 472 450 161 45 116 314 1009 409 386 321 98 65 69 600 49 74
is_linear=0
shrinkage=0.05


Tree=3
num_leaves=31
num_cat=0
split_feature=114 0 17 40 113 131 59 125 45 91 49 49 17 137 8 34 20 0 121 28 20 29 1 143 111 8 46 118 31 19
split_gain=50.3729 22.0656 8.63495 6.56199 4.74121 4.15192 3.86148 3.72485 3.24736 3.13787 2.99522 5.63333 2.93434 2.81409 2.71615 3.68267 2.83382 2.67094 3.01546 2.63674 2.34209 3.70057 1.97362 2.35793 4.58958 1.97721 2.28935 1.94732 2.88934 2.27964
threshold=0.32668713720209869 12.500000000000002 50.965617500000008 41.37583333333334 0.33932444985186933 0.19974592681788741 0.13541666666666671 0.6181163338020893 0.34630602979260811 0.46546797454357153 261.72169500000001 267.30500000000006 65.793291250000024 0.5157783892446921 1.0000000180025095e-35 70.355208333333351 64.241216250000022 13.500000000000002 0.44181695580482488 27.133750000000003 118.84500000000001 32.318200112770896 -0.60355339059327362 0.20245408769914422 0.45055478484271477 -0.68301270189221952 35.407019308035721 0.7013995647430421 64.795111250000019 50.130730000000007
decision_type=2 2 2 2 2 2 2 2 2 2 2 2 2 2 2 2 2 2 2 2 2 2 2 2 2 2 2 2 2 2
left_child=5 2 14 4 17 -1 8 10 -5 -10 12 -12 22 -4 27 16 -16 -3 -19 -18 -8 -22 25 -24 -25 26 -6 28 -2 -30
right_child=1 3 13 6 7 -7 20 -9 9 -11 11 -13 -14 -15 15 -17 19 18 -20 -21 21 -23 23 24 -26 -27 -28 -29 29 -31
leaf_value=1.3184869867120963 -1.0505649102302119 -1.3143099209740428 0.34855766809601213 0.23043693889233632 -0.92234386752539421 0.12664447635692189 -0.43699704914414927 -0.64794793397507078 -1.073604998137075 -1.1843653891501797 -0.14050585476223895 -1.2419308244170679 -1.0621369723467742 -1.5751509287013654 -0.97494805929902406 -0.83305979844615041 -1.5373554554963149 -1.3049791915626969 -0.77357434573560291 -0.52269492878800461 -0.53802780591737576 -0.9453715166069675 -0.58814768312390708 -0.89287849612414938 -1.3545100711879214 -0.47132509007394569 -0.18977718169517566 0.55677977608267148 0.51614444445746088 -1.2214555329064156
leaf_weight=4390 141 39 1305 44 40 1700 400 22 149 23 20 40 29 20 322 23 29 45 33 36 29 22 43 104 20 175 34 109 211 124
leaf_count=4390 141 39 1305 44 40 1700 400 22 149 23 20 40 29 20 322 23 29 45 33 36 29 22 43 104 20 175 34 109 211 124
internal_value=0.000454686 -0.0044602 -0.00153017 -0.00964531 -0.0132453 0.0029803 -0.00616941 -0.0112239 -0.0116667 -0.0147674 -0.0103465 -0.0208333 -0.00893258 0.00111321 -0.00505025 -0.00817073 -0.0070155 -0.0223504 -0.0276923 -0.0165385 -0.00353659 -0.0136275 -0.00786058 -0.0120659 -0.0155645 -0.00504016 -0.0118919 -0.00286325 -0.0042437 -0.00171642
internal_weight=9721 3631 2320 1311 644 6090 667 527 216 172 505 60 445 1325 995 410 387 117 78 65 451 51 416 167 124 249 74 585 476 335
internal_count=9721 3631 2320 1311 644 6090 667 527 216 172 505 60 445 1325 995 410 387 117 78 65 451 51 416 167 124 249 74 585 476 335
is_linear=0
shrinkage=0.05


Tree=4
num_leaves=31
num_cat=0
split_feature=114 0 17 131 92 131 76 128 107 51 134 35 35 6 34 6 43 51 19 148 119 57 39 59 82 140 122 125 98 137
split_gain=47.0448 19.5365 8.28627 5.27943 5.66389 4.1113 3.33209 4.10235 4.05557 3.37357 2.86005 2.73052 2.92641 2.59277 3.72902 2.55454 3.04611 2.32832 2.50573 2.65118 2.28359 2.17007 3.52894 3.33556 2.36358 2.15258 2.15167 2.49291 1.98701 2.72727
threshold=0.32668713720209869 12.500000000000002 50.965617500000008 0.55727007779463389 0.38156087156439544 0.19974592681788741 -48.780000000000001 0.39062794668561612 0.29887867557865194 0.84882605523685684 0.33269291068607082 18.28088485005669 35.599075816658207 9.5000000000000018 70.355208333333351 9.5000000000000018 95.210000000000008 1.1032036813779125 51.355000000000011 0.18728789687156677 0.32265954228782029 0.22916666666666671 0.5717607599209491 0.65625000000000011 0.22043339163064957 0.59994357088158201 0.30577111313696226 0.50016167732034644 0.29876884954950128 0.42992950031697758
decision_type=2 2 2 2 2 2 2 2 2 2 2 2 2 2 2 2 2 2 2 2 2 2 2 2 2 2 2 2 2 2
left_child=5 2 13 6 25 -1 20 -8 9 -9 -4 -11 28 -2 17 -12 -17 26 -19 -20 -3 22 -10 -23 -24 -5 -15 -28 -13 -30
right_child=1 3 10 4 -6 -7 7 8 21 11 15 12 -14 14 -16 16 -18 18 19 -21 -22 23 24 -25 -26 -27 27 -29 29 -31
leaf_value=1.2525626373764915 -0.63924101467001826 -0.89596223063864222 0.49970423224239191 -1.0439019724636223 -1.2934272095251564 0.12031225253907576 -0.50904457990487251 -0.58201574542932655 -1.0188601721164143 -0.69629686478649044 0.26936429734166861 -1.318444052288789 -0.99961792613929379 -1.4608776628539339 -0.79140680852384293 -0.50333548672789141 -1.6014441101229329 -0.32204673728395278 -1.2313910278945743 -0.33078348779701927 0.092140054724855425 -0.54819776619063931 -0.73522363095953325 -0.629327909687452 -0.99947645425126874 -0.070944271033667849 -0.77112066483102737 -1.3020088094918458 -1.2550721223122416 -0.88036311703645698
leaf_weight=4390 585 31 1213 27 33 1700 463 35 70 22 66 68 42 27 23 24 22 179 20 43 147 215 30 35 23 26 93 25 20 24
leaf_count=4390 585 31 1213 27 33 1700 463 35 70 22 66 68 42 27 23 24 22 179 20 43 147 215 30 35 23 26 93 25 20 24
internal_value=0.000454686 -0.00430873 -0.00155172 -0.00918764 -0.0211628 0.00288177 -0.00834694 -0.00942216 -0.0122089 -0.0177488 0.00103774 -0.0205682 -0.0229221 -0.005 -0.00804878 -0.00660714 -0.0156522 -0.0068863 -0.0038843 -0.0124603 -0.00202247 -0.00907507 -0.0145122 -0.0064 -0.0242453 -0.0110377 -0.0118966 -0.00898305 -0.0271429 -0.0188636
internal_weight=9721 3631 2320 1311 86 6090 1225 1047 584 211 1325 176 154 995 410 112 46 387 242 63 178 373 123 250 53 53 145 118 112 44
internal_count=9721 3631 2320 1311 86 6090 1225 1047 584 211 1325 176 154 995 410 112 46 387 242 63 178 373 123 250 53 53 145 118 112 44
is_linear=0
shrinkage=0.05


Tree=5
num_leaves=31
num_cat=0
split_feature=131 1 81 0 121 25 24 40 113 18 66 125 51 88 81 51 16 51 51 124 128 51 46 20 60 23 40 135 33 40
split_gain=45.37 8.92501 9.58177 7.15438 5.91774 5.50799 5.13045 4.39615 5.29802 3.48412 4.90665 3.01389 3.00821 2.84168 3.51418 2.94348 2.71869 2.6671 3.06599 3.56139 2.6545 2.55116 3.19854 2.85132 3.59011 2.41022 3.51487 2.3625 2.35668 2.23234
threshold=0.26840627953741036 1.0000000180025095e-35 0.31912667627619651 15.500000000000002 0.90686511993408214 69.519240000000011 58.203668750000006 41.000416666666673 0.33932444985186933 72.465753750000019 33.695000000000007 0.25890537608730252 1.2935428635954132 0.075665336102247224 0.4499248798261451 1.3907963589401542 157.66324375000002 1.3209357590045376 0.83351048645369141 0.098470836877822807 0.40073293202977928 1.0490708285693982 56.792488333333345 39.229656250000005 64.500000000000014 24.637756101069765 17.300816380208335 0.44926091404527385 0.93782381905375978 32.915833333333339
decision_type=2 2 2 2 2 2 2 2 2 2 2 2 2 2 2 2 2 2 2 2 2 2 2 2 2 2 2 2 2 2
left_child=6 2 3 20 7 17 11 8 12 16 -11 -1 -4 -10 25 -16 28 18 -3 -20 -2 22 23 24 29 -15 -27 -25 -9 -21
right_child=1 5 4 -5 -6 -7 -8 9 13 10 -12 -13 -14 14 15 -17 -18 -19 19 21 -22 -23 -24 27 -26 26 -28 -29 -30 -31
leaf_value=0.68825418482840206 -0.60276651942111048 0.12558913484307591 -1.1923185296252752 0.24899927510069034 -0.85263186616378983 0.31636985517207239 1.248981828918208 -0.58770430881996594 0.24658810411874976 -0.9945043881142972 -1.1616525685859747 -0.29784831269768225 -0.76141810575796653 -0.56475649781475479 -1.1999370750577412 -0.8812443207270777 -0.97521587006473764 -0.10401967202926612 -1.5398861099922059 -1.3184322657799705 -0.68017277375967455 -0.85723808551391656 -0.10235842641256454 -0.40705450801110399 -0.28394656214990605 -1.0624365861063303 -0.94898322016878867 -1.3995438021549464 0.10362360781320348 -1.4477129980783625
leaf_weight=1358 84 131 80 405 25 951 3840 286 51 62 29 689 31 317 47 28 21 269 26 47 41 289 65 64 21 25 126 20 188 23
leaf_count=1358 84 131 80 405 25 951 3840 286 51 62 29 689 31 317 47 28 21 269 26 47 41 289 65 64 21 25 126 20 188 23
internal_value=0.000458554 -0.00414179 -0.00661972 -0.000943396 -0.00890577 -0.00174187 0.00289366 -0.00843919 -0.0110993 -0.00523891 -0.0142308 0.000872008 -0.0211261 -0.00922559 -0.0102855 -0.0203333 -0.00358586 -0.00442408 -0.00607872 -0.0077027 -0.0114 -0.00681474 -0.010625 -0.0141429 -0.0202747 -0.00867521 -0.0138742 -0.0075 -0.00280591 -0.0257143
internal_weight=9639 3752 1846 530 1316 1906 5887 1291 705 586 91 2047 111 594 543 75 495 955 686 555 125 529 240 175 91 468 151 84 474 70
internal_count=9639 3752 1846 530 1316 1906 5887 1291 705 586 91 2047 111 594 543 75 495 955 686 555 125 529 240 175 91 468 151 84 474 70
is_linear=0
shrinkage=0.05


Tree=6
num_leaves=31
num_cat=0
split_feature=81 134 90 31 125 24 49 86 33 104 34 133 39 34 55 123 62 0 0 4 115 145 0 99 32 85 79 8 33 25
split_gain=38.7219 14.0518 6.95269 5.25828 4.99206 4.62134 4.05945 3.18188 2.86356 3.27753 3.984 3.45148 2.86168 3.23094 2.768 2.52201 3.09153 2.47288 2.30367 2.28535 2.7451 2.21058 2.17014 2.10675 2.88057 2.68984 4.1798 2.00618 1.97661 2.7014
threshold=0.32044643670242912 0.30222275211588367 0.21672497998177578 78.081107500000016 0.6181163338020893 39.350000000000009 227.01946750000002 0.73355149477720272 0.48052210704859338 0.40903091208961978 59.169583333333343 0.71310651302337658 1.3212162379964028 16.389291354166669 1.0000000180025095e-35 0.44970279916496286 8.5000000000000018 1.0000000180025095e-35 11.500000000000002 -0.60785761079279388 0.47267474234104162 0.1860015690326691 17.500000000000004 0.44992487968445433 69.035000000000011 0.15093131363391873 0.2338255122303963 0.93301270189221952 1.0455764289747849 54.772751250000006
decision_type=2 2 2 2 2 2 2 2 2 2 2 2 2 2 2 2 2 2 2 2 2 2 2 2 2 2 2 2 2 2
left_child=3 2 -2 22 6 15 8 21 -3 10 11 -10 -13 -14 -11 -4 17 -17 -7 20 -16 -8 27 24 25 -19 -27 -1 29 -23
right_child=1 4 5 -5 -6 18 7 -9 9 14 -12 12 13 -15 19 16 -18 23 -20 -21 -22 28 -24 -25 -26 26 -28 -29 -30 -31
leaf_value=-0.28518012840035317 -1.296587629544145 -0.60023161470541819 -0.21858187936929838 1.0755258713730496 -0.87767317415248491 0.69064609102185626 -1.099166325040543 -1.0406235308253124 -0.78138192913451376 -0.50846300923031185 -1.3588756197787921 -1.2516640427813694 -1.0789694937742953 -0.13654827626237473 -1.370127039058378 -1.2672919051676326 -1.3250671347451011 -0.5642952506145279 -0.41969742246021041 -0.47159367804578417 -0.81534426320349584 -1.1123594409787487 0.23669060409589343 0.12739540494893728 -0.49150254553690548 -1.3070644275001566 -0.76862485963836291 -0.96078724862129661 0.38614318227842331 -0.36058059325616415
leaf_weight=360 38 156 866 5224 22 818 47 22 264 20 23 44 20 26 21 27 49 63 198 203 64 49 162 159 225 33 29 42 213 152
leaf_count=360 38 156 866 5224 22 818 47 22 264 20 23 44 20 26 21 27 49 63 198 203 64 49 162 159 225 33 29 42 213 152
internal_value=0.000458554 -0.00362114 -0.00140719 0.002849 -0.00774146 -0.00108026 -0.00734894 -0.00369565 -0.00944709 -0.0108394 -0.0139655 -0.0126554 -0.0211111 -0.0123913 -0.00701299 -0.00289111 -0.00542735 -0.00432836 0.00150591 -0.00576389 -0.0126471 -0.00280911 -0.00173759 -0.00354617 -0.00571429 -0.0118 -0.0191935 -0.00370647 -0.00164251 -0.005199
internal_weight=9639 3851 2505 5788 1346 2467 1324 483 841 685 377 354 90 46 308 1451 585 536 1016 288 85 461 564 509 350 125 62 402 414 201
internal_count=9639 3851 2505 5788 1346 2467 1324 483 841 685 377 354 90 46 308 1451 585 536 1016 288 85 461 564 509 350 125 62 402 414 201
is_linear=0
shrinkage=0.05


Tree=7
num_leaves=31
num_cat=0
split_feature=137 128 0 117 137 107 90 106 0 17 17 139 39 118 47 139 49 60 76 49 49 34 142 135 51 5 45 26 81 120
split_gain=36.1267 9.1849 5.13548 7.32412 6.90673 4.78692 4.53812 4.12879 4.73598 3.4491 2.98763 2.8641 2.93884 2.51898 2.41623 2.74232 3.67021 2.37348 2.9655 2.29522 3.45333 2.81896 5.05734 3.49113 2.5984 3.03234 2.8757 4.47481 2.20435 2.18481
threshold=0.25630054869898455 0.39062794668561612 7.5000000000000009 0.28630531771409434 0.61293007979333414 0.54680184665081788 0.21672497998177578 0.23609340935945514 13.500000000000002 60.335000000000008 67.97226000000002 0.53773438930511486 0.86592279450123588 0.89922618865966808 49.668378931861774 0.53773438930511486 227.01946750000002 70.500000000000014 -67.499999999999986 244.69500000000002 180.57500000000002 26.615383854166669 0.12603183090686798 0.44925963340545266 1.2220445506032822 0.81174490092936691 0.96294186748318789 43.97625 0.4499248781615775 0.44981451686591017
decision_type=2 2 2 2 2 2 2 2 2 2 2 2 2 2 2 2 2 2 2 2 2 2 2 2 2 2 2 2 2 2
left_child=10 6 13 -4 5 7 -2 8 29 19 -1 12 -10 -3 17 16 -16 18 -9 20 21 22 23 -8 25 26 -22 -28 -24 -5
right_child=1 2 3 4 -6 -7 9 14 11 -11 -12 -13 -14 -15 15 -17 -18 -19 -20 -21 24 -23 28 -25 -26 -27 27 -29 -30 -31
leaf_value=0.35265709378967625 -1.1910421451355464 0.15099201926736378 0.024424550330662143 -1.1304530668187309 -1.2207589354306299 -1.1748915802075133 -1.1385785389632701 -1.0414793182066471 -0.76242379791627712 0.22933883137042876 1.2322226330427442 -1.0598507044591814 -1.0212780003613513 -0.79192067479340511 -1.0282944518451438 0.23797038505806453 -0.48646959283936086 -0.35366614811052338 -0.7766708315067351 0.007785847668571203 -1.0600227655150682 0.03742387394276555 -0.90513824653479191 -1.3939868142460465 0.45067160961955105 0.032004401803434328 -1.2808947534962618 -1.2038222693573788 0.20981806434722264 0.53252020637348207
leaf_weight=1177 26 356 281 154 25 26 22 22 29 1345 4033 22 40 31 30 174 115 204 235 427 103 384 69 20 39 38 23 37 115 37
leaf_count=1177 26 356 281 154 25 26 22 22 29 1345 4033 22 40 31 30 174 115 204 235 427 103 384 69 20 39 38 23 37 115 37
internal_value=0.000453367 -0.00300406 -0.00578046 -0.00719512 -0.00901617 -0.00841912 -0.00113671 -0.00790019 -0.0130851 -0.000930587 0.0031382 -0.0224725 -0.0174638 -0.000684754 -0.00602564 -0.00268025 -0.00775862 -0.00834056 -0.011537 -0.0027917 -0.00429412 -0.00229508 -0.00672566 -0.022381 -0.009375 -0.0116667 -0.0146319 -0.0233333 -0.00315217 -0.00861257
internal_weight=9639 4429 1781 1394 1113 1088 2648 1062 282 2622 5210 91 69 387 780 319 145 461 257 1277 850 610 226 42 240 201 163 60 184 191
internal_count=9639 4429 1781 1394 1113 1088 2648 1062 282 2622 5210 91 69 387 780 319 145 461 257 1277 850 610 226 42 240 201 163 60 184 191
is_linear=0
shrinkage=0.05


Tree=8
num_leaves=31
num_cat=0
split_feature=131 24 128 1 2 47 137 31 45 108 38 38 113 20 69 30 131 93 116 17 35 45 41 69 137 30 0 116 26 22
split_gain=34.8937 7.88943 5.82582 4.46106 6.54004 5.68246 4.32623 3.93563 3.68838 3.52604 3.48305 4.28823 3.39259 3.53019 3.25148 3.04771 2.8478 3.98076 2.72902 2.72109 2.39675 4.92765 2.74391 2.37576 2.27665 2.16107 2.67236 2.62007 2.05988 2.41588
threshold=0.25906431576909245 27.450000000000003 0.62339795136314191 1.0000000180025095e-35 -0.78656609248549325 50.104785269603816 0.5542044576926608 77.627147500000007 1.2446376912618762 0.3160555593814019 77.895000000000024 77.223998750000021 0.43766303234580195 62.055000000000007 -107.25999999999999 4.9600000000000009 0.44559822352948586 0.296606434757893 0.3972857535481899 5.6057800000000002 25.934220210181412 1.4066415192778214 30.431652880522932 -20.997597499999991 0.27894748586180723 3.3409237500000004 4.5000000000000009 0.33215777192221041 44.777916250000004 12.002843958333303
decision_type=2 2 2 2 2 2 2 2 2 2 2 2 2 2 2 2 2 2 2 2 2 2 2 2 2 2 2 2 2 2
left_child=7 2 3 4 6 14 -2 -1 -4 -3 11 12 13 28 -6 -7 20 18 -18 -15 -16 22 -22 -8 -9 26 -11 -28 29 -5
right_child=1 9 8 10 5 15 23 24 -10 25 -12 -13 -14 19 16 -17 17 -19 -20 -21 21 -23 -24 -25 -26 -27 27 -29 -30 -31
leaf_value=-0.14048546366437661 -0.89848447320243974 0.21521808568728804 -0.74716327327261867 -0.88148423926975694 -0.54074026158365707 0.051003442410410826 -0.72480314505207843 1.0489783751591666 -0.45424148858768387 0.76655568781681671 -0.15327442058594645 -1.3832035161800995 -0.10326502996407226 -1.3377566234192282 0.073773642524640928 -0.99308024669715289 -0.887000061818773 0.19529293242259699 -0.66100732958451802 -0.90287383723981984 -0.84308600090375529 -1.1108722441780534 -0.25084205986238628 -1.099280383985662 -0.020956446317642031 -0.065567212648773576 -1.5598460765392561 -0.87734308378280002 -0.058740267961288728 -1.2694356457025444
leaf_weight=512 214 731 25 110 20 409 22 4766 29 31 918 24 239 28 115 21 41 64 182 21 37 24 161 33 400 206 24 101 102 29
leaf_count=512 214 731 25 110 20 409 22 4766 29 31 918 24 239 28 115 21 41 64 182 21 37 24 161 33 400 206 24 101 102 29
internal_value=0.000437805 -0.00328074 -0.0046583 -0.00434613 -0.00642963 -0.00468343 -0.0134015 0.00283374 -0.0209259 0.000333943 -0.00244392 -0.00557866 -0.00464083 -0.00827586 -0.00765528 -0.000232558 -0.00701923 -0.0106794 -0.0138341 -0.0205102 -0.00390208 -0.00693694 -0.00434343 -0.0259091 0.00324816 -0.00370166 -0.00814103 -0.0114 -0.00578838 -0.0097482
internal_weight=9639 3961 2868 2814 1343 1074 269 5678 54 1093 1471 553 529 290 644 430 624 287 223 49 337 222 198 55 5166 362 156 125 241 139
internal_count=9639 3961 2868 2814 1343 1074 269 5678 54 1093 1471 553 529 290 644 430 624 287 223 49 337 222 198 55 5166 362 156 125 241 139
is_linear=0
shrinkage=0.05


Tree=9
num_leaves=31
num_cat=0
split_feature=131 90 125 90 146 17 22 0 50 86 18 77 43 86 80 97 33 55 3 92 33 55 28 43 76 98 1 133 15 47
split_gain=33.4286 8.33543 5.87088 4.79544 4.99808 4.05036 3.71297 2.9848 2.94362 2.59391 2.50794 2.5 2.35604 2.35211 2.3358 3.36894 2.88327 3.47058 3.8817 2.81036 2.45213 3.76959 3.58179 2.70488 2.25469 2.17857 2.07826 3.20009 1.99254 2.17481
threshold=0.25906431576909245 0.30215032808591374 0.6181163338020893 0.21672497998177578 0.60751219726036421 62.088317500000009 63.795436666666653 6.5000000000000009 227.01946750000002 0.71981074661016475 158.24500000000003 -3.8109612500000014 123.92500000000001 0.58505278084844059 0.18696014524792207 0.14776083827018738 0.49567964387615832 0.12500000000000003 2.5000000000000004 0.39323557914523427 1.0343758848269073 0.62500000000000011 45.847083333333337 83.045000000000002 -8.4049999999999958 0.32251719522258554 -0.78656609248549292 0.69203847646713268 63.393026250000005 26.746907975542246
decision_type=2 2 2 2 2 2 2 2 2 2 2 2 2 2 2 2 2 2 2 2 2 2 2 2 2 2 2 2 2 2
left_child=6 2 3 11 7 9 -1 -5 14 25 13 -2 -6 -10 -9 -16 -17 18 19 -18 22 28 -19 24 -23 26 -3 -28 29 -22
right_child=1 5 -4 4 12 -7 -8 8 10 -11 -12 -13 -14 -15 15 16 17 20 -20 -21 21 23 -24 -25 -26 -27 27 -29 -30 -31
leaf_value=0.058701588288273127 -0.51370324846325754 -0.094215535941455375 -0.74067433674974381 -0.36253051501354078 -1.0114971062925042 0.3731352710384232 1.0286465591801395 0.24742460031894217 0.080167877530460591 -0.74659004148614183 -1.0296397180166137 -1.1685574663359322 -0.75026610960153406 -0.89603492503689308 -1.3507846002175623 -0.43384062945956758 -0.076216184049979332 0.1065209972312164 -1.2209139649054188 -0.41668025980119011 -0.98276881208706568 -0.69841741835828586 -0.7717278481109493 0.31645202542004536 -0.56347782422706894 -0.0045627059270059046 -0.80673318294252361 -1.2067117669735268 -1.1087786583340811 -0.69646386251428616
leaf_weight=1150 20 221 22 479 31 910 4528 78 323 22 20 20 26 126 21 147 36 116 48 21 23 21 31 80 45 482 451 32 21 88
leaf_count=1150 20 221 22 479 31 910 4528 78 323 22 20 20 26 126 21 147 36 116 48 21 23 21 31 80 45 482 451 32 21 88
internal_value=0.000437805 -0.00323024 -0.00568909 -0.00537891 -0.00499438 -0.00109065 0.00275449 -0.00451276 -0.00580321 -0.00298841 -0.00267591 -0.0225 -0.0195614 -0.00190423 -0.0076933 -0.00861031 -0.00799852 -0.00971698 -0.0178571 -0.00903509 -0.00770588 -0.0104676 -0.00248299 -0.00493151 -0.0124242 -0.00267285 -0.00444602 -0.00628364 -0.0165909 -0.0139189
internal_weight=9639 3961 1843 1821 1781 2118 5678 1724 1245 1208 469 40 57 449 776 698 677 530 105 57 425 278 147 146 66 1186 704 483 132 111
internal_count=9639 3961 1843 1821 1781 2118 5678 1724 1245 1208 469 40 57 449 776 698 677 530 105 57 425 278 147 146 66 1186 704 483 132 111
is_linear=0
shrinkage=0.05


Tree=10
num_leaves=31
num_cat=0
split_feature=137 1 34 47 25 116 75 43 143 131 0 93 46 86 20 31 107 143 135 115 6 60 94 0 115 4 0 37 16 133
split_gain=33.2879 7.51861 5.94572 5.43842 4.51072 3.24046 3.29315 3.96703 3.0205 2.48936 2.8764 3.18349 2.78457 2.38687 5.15433 2.31454 2.26518 2.22606 2.16256 2.15392 1.98848 3.81446 3.11868 2.96751 3.45014 3.19205 2.09656 1.85045 2.63542 2.13135
threshold=0.25630054869898455 0.12940952255126045 33.125625000000007 49.668378931861774 53.920000000000009 0.61453225811590395 25.361797500000005 67.586896250000009 0.24018432703086648 0.19974592681788741 1.0000000180025095e-35 0.3018411628167878 67.149166666666687 0.5757480524687455 113.08000000000001 77.270000000000024 0.34377366888385824 0.16815635045987098 0.44926246408514486 0.39395424723625189 9.5000000000000018 53.500000000000007 0.28768834471702581 4.5000000000000009 0.22659508138895032 0.6078576107927941 1.5000000000000002 64.168423750000017 1.7136887500000002 0.65510892868042003
decision_type=2 2 2 2 2 2 2 2 2 2 2 2 2 2 2 2 2 2 2 2 2 2 2 2 2 2 2 2 2 2
left_child=9 2 3 5 17 6 7 -2 19 -1 11 -11 -13 -4 15 -15 -10 -3 27 -9 -6 22 -22 -24 -25 -26 -23 28 29 -19
right_child=1 4 13 -5 20 -7 -8 8 16 10 -12 12 -14 14 -16 -17 -18 18 -20 -21 21 26 23 24 25 -27 -28 -29 -30 -31
leaf_value=1.0065166968671149 -0.55837309935418922 -1.2995036248115166 -0.33637843580799781 -0.48968934830269051 0.51753650047116639 -1.0754699473062217 -0.59617483438557195 -0.032034918185600184 -0.96888417971521656 0.82035871408142413 0.53275879879964894 -1.1354727832381137 -0.28266136459024516 -0.82252290959951169 -0.91168569689782375 -0.15037076922036188 -0.41503105218366659 -0.02815497490920256 -1.2019948499058888 -0.99194218514775123 0.5629619736930066 -0.6522499436611856 -0.20018865498472868 0.90526086689136143 -1.5254553156178077 -1.2798610124704819 0.43956154049491536 -0.27290781321411633 -1.054361110932962 -1.0098703329921699
leaf_weight=4382 52 24 1224 220 1114 23 257 34 81 44 816 29 28 136 23 167 41 69 32 26 47 45 41 21 39 27 352 284 25 28
leaf_count=4382 52 24 1224 220 1114 23 257 34 81 44 816 29 28 136 23 167 41 69 32 26 47 45 41 21 39 27 352 284 25 28
internal_value=0.000413113 -0.00291967 -0.00491681 -0.00862398 -0.000796089 -0.0114397 -0.0105804 -0.0148718 -0.0183516 0.00295244 0.000583424 -0.00737624 -0.0151754 -0.00316129 -0.00696319 -0.00523102 -0.0228689 -0.00517316 -0.00436073 -0.00916667 0.000403322 -0.00199301 -0.00814286 -0.0121875 -0.0174138 -0.0230303 0.000717884 -0.00337438 -0.00852459 -0.00479381
internal_weight=9731 4432 2284 734 2148 514 491 234 182 5299 917 101 57 1550 326 303 122 462 438 60 1686 572 175 128 87 66 397 406 122 97
internal_count=9731 4432 2284 734 2148 514 491 234 182 5299 917 101 57 1550 326 303 122 462 438 60 1686 572 175 128 87 66 397 406 122 97
is_linear=0
shrinkage=0.05


Tree=11
num_leaves=31
num_cat=0
split_feature=137 128 1 16 86 136 59 76 49 7 51 24 27 98 125 114 1 1 6 5 25 92 134 106 122 111 56 34 134 24
split_gain=31.7298 7.64258 5.56398 4.47536 4.09977 3.25601 2.98637 2.81407 3.7749 2.67704 2.65807 2.30744 2.24406 2.41071 2.33639 2.23627 2.3946 2.67204 4.44493 3.23604 2.74571 2.20412 2.18156 2.02876 1.98502 1.98266 1.95909 4.38341 2.22872 2.72149
threshold=0.25630054869898455 0.61692239476900057 0.25881904510252091 60.29085125000001 0.26952256852216755 0.33156837522983551 0.40625000000000006 -17.69499999999999 274.49000000000007 -0.86602540378443837 1.333077781968327 63.07630000000001 1.5160869937020969 0.29165684941193376 0.3506286384735175 0.44981409323130556 -0.78656609248549292 -0.37940952255126059 7.5000000000000009 -0.22252093395631442 79.284812500000001 0.31000474504015157 0.37265704675690153 0.22304273396730417 0.21977553685610843 0.32669670603521406 14.500000000000002 14.408665208333334 0.30222275211588367 18.410000000000004
decision_type=2 2 2 2 2 2 2 2 2 2 2 2 2 2 2 2 2 2 2 2 2 2 2 2 2 2 2 2 2 2
left_child=11 2 4 10 -2 12 -3 8 -7 -8 24 -1 -6 -14 -15 16 25 19 -19 20 -18 -21 -20 -23 -4 -9 27 -26 -29 -30
right_child=1 6 3 -5 5 7 9 15 -10 -11 -12 -13 13 14 -16 -17 17 18 22 21 -22 23 -24 -25 26 -27 -28 28 29 -31
leaf_value=0.47374414170808266 -0.017780351282041158 -0.97096223007384685 0.78703728333814416 0.78972974738397572 -0.27643784921182907 -0.25222244804050309 -0.17116520569640545 0.32654901553545196 -0.47580409187185402 -0.64421769278249352 0.46765035796973553 1.1410383714721035 0.15870614456089446 -0.9926340749436412 -0.2921255034597679 0.017267236776070442 -0.95019940287740412 0.063446067862730202 -0.90409335619208742 -0.46340223553474713 -0.64881963987847469 -1.0175608973979822 -1.0169820544157895 -0.60519911439957697 -1.2699112111750874 -0.47685529978526087 0.17424975128578934 -0.45504175930970492 -0.85691946777026995 -1.2249618270555256
leaf_weight=1962 499 20 65 684 696 290 29 41 27 28 294 3337 24 29 31 69 45 99 100 58 25 32 74 66 24 149 210 468 211 45
leaf_count=1962 499 20 65 684 696 290 29 41 27 28 294 3337 24 29 31 69 45 99 100 58 25 32 74 66 24 149 210 468 211 45
internal_value=0.000413113 -0.00276173 -0.00248565 -0.000547226 -0.00413339 -0.00521563 -0.0183766 -0.007 -0.00304416 -0.0125439 -0.00225133 0.00297132 -0.00275641 -0.0104762 -0.0158333 -0.00865435 -0.00951379 -0.0113327 -0.00800366 -0.015354 -0.0242857 -0.0113462 -0.0128161 -0.0159184 -0.00345552 -0.00473684 -0.00402923 -0.00522727 -0.00453039 -0.00828125
internal_weight=9731 4432 4355 2001 2354 1855 77 1075 317 57 1317 5299 780 84 60 758 689 499 273 226 70 156 174 98 1023 190 958 748 724 256
internal_count=9731 4432 4355 2001 2354 1855 77 1075 317 57 1317 5299 780 84 60 758 689 499 273 226 70 156 174 98 1023 190 958 748 724 256
is_linear=0
shrinkage=0.05


Tree=12
num_leaves=31
num_cat=0
split_feature=137 128 24 1 1 59 145 116 81 142 107 51 17 17 51 7 1 6 47 46 16 34 80 61 47 16 59 40 134 124
split_gain=29.4999 7.79797 4.96543 3.34356 3.6886 2.98637 2.93524 3.5116 2.83494 2.93372 3.8524 6.85643 2.901 2.83429 2.72647 2.67704 2.62282 3.73837 2.54585 2.08647 2.20796 2.08078 2.98079 2.17696 2.11371 2.06775 1.92477 3.11265 2.23379 3.39751
threshold=0.25630054869898455 0.61692239476900057 55.822436250000003 0.25881904510252091 -0.70710678118654735 0.40625000000000006 0.88031509518623363 0.30291222471772689 0.32642584127587276 0.33598050475120544 0.27507234009859832 0.73630688281223222 62.430856250000012 67.97226000000002 1.3209357590045376 -0.86602540378443837 -0.37940952255126059 7.5000000000000009 52.67497489520801 54.144655840773815 63.66378375 36.187500000000007 0.4228828011408155 0.1815476190476191 41.956337361533116 116.87000000000002 0.67708333333333337 14.986893854166668 0.32624641830107376 0.45279791951179504
decision_type=2 2 2 2 2 2 2 2 2 2 2 2 2 2 2 2 2 2 2 2 2 2 2 2 2 2 2 2 2 2
left_child=13 2 3 4 8 -3 16 -8 -2 -10 11 -11 -12 -1 19 -7 18 -18 21 20 26 22 24 -23 -6 -19 27 -5 -29 -30
right_child=1 5 -4 14 6 15 7 -9 9 10 12 -13 -14 -15 -16 -17 17 25 -20 -21 -22 23 -24 -25 -26 -27 -28 28 29 -31
leaf_value=0.2593992220722306 0.18453192005076405 -0.92241411857015443 0.39556512295066315 -1.3655816683576933 -0.84723865549959876 -0.16260694541158524 0.90278427789343019 -0.86839116246183967 0.029349416434455534 -0.21535309874776332 -0.34155301820946571 -0.78080869416867404 -0.29454493009595395 0.98543995478405366 0.65249489938156902 -0.61200680814336883 0.066525082640890146 -0.78374080001145729 -0.44090811837287841 0.036354592892697483 0.7628755993093993 -1.0479782144057239 -0.47265308041388343 -0.74132604772260702 -0.95761643705172139 -0.69893446686182892 1.019669898550658 -0.60374367882055269 -1.1620922825709663 -0.30613790108048411
leaf_weight=1198 335 20 747 20 53 29 20 39 172 32 161 29 36 4101 385 28 268 466 155 365 118 24 26 135 24 23 46 479 97 100
leaf_count=1198 335 20 747 20 53 29 20 39 172 32 161 29 36 4101 385 28 268 466 155 365 118 24 26 135 24 23 46 479 97 100
internal_value=0.000413113 -0.00260379 -0.00232491 -0.00309313 -0.00445946 -0.0183766 -0.00615166 -0.0170339 -0.00173203 -0.0044186 -0.0077907 -0.0187705 -0.00439086 0.00292414 -0.00139752 -0.0125439 -0.00560477 -0.00385073 -0.00878897 -0.00255102 -0.00389535 -0.0117939 -0.0173301 -0.00820755 -0.0222727 -0.00645194 -0.00490566 -0.00556034 -0.00498521 -0.009467
internal_weight=9731 4432 4355 3608 1998 77 1233 59 765 430 258 61 197 5299 1610 57 1174 757 417 1225 860 262 103 159 77 489 742 696 676 197
internal_count=9731 4432 4355 3608 1998 77 1233 59 765 430 258 61 197 5299 1610 57 1174 757 417 1225 860 262 103 159 77 489 742 696 676 197
is_linear=0
shrinkage=0.05


Tree=13
num_leaves=31
num_cat=0
split_feature=131 17 125 51 1 73 94 4 130 38 35 90 55 118 80 123 38 140 116 109 95 58 74 136 33 47 47 22 113 23
split_gain=28.821 8.29777 3.42423 3.5568 2.7905 3.78804 2.66784 2.26921 5.22995 2.9641 2.08552 2.05196 2.00469 2.7116 2.45395 2.51997 3.26902 3.65651 1.91317 2.4803 2.57499 1.85887 2.22258 1.8006 1.70028 1.6875 1.66496 1.92678 1.72279 1.61712
threshold=0.20186907336426327 57.485203750000004 0.61271707685743293 1.0940236095433671 1.0000000180025095e-35 56.195000000000007 0.23220964521169662 -0.8783796973249266 0.65506243705749523 82.851316250000011 27.962692188020394 0.21672497998177578 0.12500000000000003 0.7013995647430421 0.64150930251031901 0.44970285858499026 94.77500000000002 0.2046745420391328 0.29358240962729182 0.56757092475891124 0.35161396255992611 33.500000000000007 3.1724475000000005 0.16129002720117572 0.92806956931226459 34.366026326015039 26.023428866906723 25.610468958333318 0.3408854786804304 4.1155387567797233
decision_type=2 2 2 2 2 2 2 2 2 2 2 2 2 2 2 2 2 2 2 2 2 2 2 2 2 2 2 2 2 2
left_child=-1 2 7 -4 5 6 -3 8 -2 -10 -5 -9 13 24 15 26 17 23 -8 20 -20 22 29 25 -13 -17 27 28 -14 -16
right_child=1 4 3 10 -6 -7 18 11 9 -11 -12 12 14 -15 21 16 -18 -19 19 -21 -22 -23 -24 -25 -26 -27 -28 -29 -30 -31
leaf_value=0.83223581408708425 -0.84895505724249354 -0.37944311487195787 -0.95776089363546868 0.72045347431334461 0.40896757969891351 0.051864767154882453 -0.005032162897506875 -0.96109592504788832 -0.92634352071799597 -0.81530745667406979 -0.85650634200523745 -0.41880323101071726 -0.9164236631583812 -0.8378746283953048 -0.29994920315905838 -1.0626442804624026 -0.24070151745014434 -0.62918452838250427 -0.75159357915383229 -0.35374057386198943 -0.69324375348748335 1.0271151746191756 -0.74327120383281153 -0.86733716937530514 -0.89331368357874408 -1.0874094214293284 -0.036041029702620839 0.53860960052838736 -0.38538272383074362 -0.67944448209570463
leaf_weight=4597 217 176 24 21 1437 545 35 38 26 39 29 516 22 24 33 24 201 36 63 37 24 28 24 120 24 24 1281 24 21 21
leaf_count=4597 217 176 24 21 1437 545 35 38 26 39 29 516 22 24 33 24 201 36 63 37 24 28 24 120 24 24 1281 24 21 21
internal_value=0.000413113 -0.00215816 -0.00398119 -0.0145946 5.82652e-05 -0.00215909 -0.00634328 -0.00369486 -0.00794326 -0.0203846 -0.007 -0.00320805 -0.00302724 -0.0056383 -0.00223507 -0.00178836 -0.00524691 -0.00970588 -0.0110377 -0.0139516 -0.0185632 -0.00962264 -0.0135897 -0.00660714 -0.00490741 -0.0147917 -0.000749258 -0.00843284 -0.0147674 -0.00796296
internal_weight=9731 5134 2817 74 2317 880 335 2743 282 65 50 2461 2423 564 1859 1753 405 204 159 124 87 106 78 168 540 48 1348 67 43 54
internal_count=9731 5134 2817 74 2317 880 335 2743 282 65 50 2461 2423 564 1859 1753 405 204 159 124 87 106 78 168 540 48 1348 67 43 54
is_linear=0
shrinkage=0.05


Tree=14
num_leaves=31
num_cat=0
split_feature=131 17 128 45 136 90 77 1 1 40 47 140 104 101 6 46 33 17 62 84 45 18 28 136 32 115 128 59 6 131
split_gain=27.0814 7.9257 5.80116 3.28947 2.71381 2.06273 2.63467 2.15138 5.12699 2.61122 2.26115 3.21111 2.22771 1.93519 1.93134 2.03369 1.90091 2.00058 2.90719 1.73517 2.36505 1.72389 1.72007 1.68779 1.64837 1.68397 2.2325 2.04612 1.88948 1.82956
threshold=0.20422716047429376 60.058625000000013 0.61692239476900057 1.2446376912618762 0.39117686450481415 0.21672497998177578 -20.34 -0.70710678118654735 -0.37940952255126059 41.976041666666674 26.746907975542246 0.43143018222282742 0.32425112395678163 0.32656271131202369 8.5000000000000018 45.69565476190477 0.34996767987910521 177.27089375000003 2.5000000000000004 0.99785160614773527 0.86015225633166359 72.920000000000016 116.649641875 0.20540814846754071 64.198423750000018 0.68317878246307384 0.38124726940045961 0.76041666666666685 11.500000000000002 0.50953877214145638
decision_type=2 2 2 2 2 2 2 2 2 2 2 2 2 2 2 2 2 2 2 2 2 2 2 2 2 2 2 2 2 2
left_child=-1 2 5 -4 -3 6 -2 10 9 12 11 -7 14 -14 15 -9 -6 18 -18 -20 -21 23 24 -11 25 26 28 29 -10 -28
right_child=1 4 3 -5 16 7 -8 8 22 21 -12 -13 13 -15 -16 -17 17 -19 19 20 -22 -23 -24 -25 -26 -27 27 -29 -30 -31
leaf_value=0.77955243269037244 -0.13156272763338403 0.39468872887727635 -0.78996073870492833 -0.2679915027524894 0.88278370314815169 0.12125862547906385 -0.95074738835691852 -0.77501050007168715 -0.15174037016462796 -0.90617005174102472 0.040399116459197887 -0.73051814326155728 0.70657678944246083 -0.78487600248705203 -0.60049364780082248 -0.94514014621625586 -0.229940716696172 0.20613085362462291 -0.68058895720868839 -1.5071557690810038 -0.25134073536703633 -0.8202956418231564 -1.0842730201957822 -0.25526720408263492 -0.35758916878011432 -0.023802501140532048 -0.73530910181894971 0.69885951098558197 -1.4435193918655727 -1.0221919835782078
leaf_weight=4651 21 1632 36 40 81 36 20 33 258 24 611 24 22 54 39 24 173 55 91 20 27 21 20 139 1139 169 196 28 23 24
leaf_count=4651 21 1632 36 40 81 36 20 33 258 24 611 24 22 54 39 24 173 55 91 20 27 21 20 139 1139 169 196 28 23 24
internal_value=0.000413113 -0.00208661 -0.00373042 -0.0173684 0.000286195 -0.00337607 -0.0145122 -0.00321775 -0.00396972 -0.00946629 -0.000737705 -0.01 -0.0138953 -0.0075 -0.0189583 -0.0248246 -0.00316555 -0.00469945 -0.00625402 -0.0116667 -0.0194681 -0.00532609 -0.00291599 -0.00358896 -0.00275721 -0.00467049 -0.0060586 -0.00951613 -0.00300712 -0.0111364
internal_weight=9731 5080 3001 76 2079 2925 41 2884 2213 356 671 60 172 76 96 57 447 366 311 138 47 184 1857 163 1837 698 529 248 281 220
internal_count=9731 5080 3001 76 2079 2925 41 2884 2213 356 671 60 172 76 96 57 447 366 311 138 47 184 1857 163 1837 698 529 248 281 220
is_linear=0
shrinkage=0.05


Tree=15
num_leaves=31
num_cat=0
split_feature=81 136 90 131 111 1 88 104 17 52 27 148 47 1 8 145 13 55 20 32 131 118 1 31 113 80 1 33 5 35
split_gain=24.504 7.27003 4.28382 4.11402 3.74906 3.76427 3.28644 3.15422 3.10575 2.89562 3.28874 2.96432 2.81358 2.50002 2.64105 3.54307 2.56655 2.3773 2.49609 2.10951 2.03819 2.74833 2.01206 1.8059 1.79884 1.76871 1.7206 1.71048 1.67202 1.65987
threshold=0.32044643670242912 0.43652337789535528 0.21672497998177578 0.56210438818049979 0.11152862745488841 0.25881904510252091 0.27922333776950842 0.23705223172163098 55.402837500000011 1.5000000000000002 0.87610641249726873 0.32680070400238043 26.023428866906723 -0.70710678118654735 0.6830127018922193 0.050997929647564853 1.0000000180025095e-35 0.37500000000000006 59.42675375000001 243.37000000000003 0.23496103197646681 0.68993163108825695 -0.37940952255126059 70.256340000000009 0.3408854786804304 0.64150930251031901 -1.0000000180025095e-35 0.74452975612735972 1.0000000180025095e-35 26.298078938908422
decision_type=2 2 2 2 2 2 2 2 2 2 2 2 2 2 2 2 2 2 2 2 2 2 2 2 2 2 2 2 2 2
left_child=4 2 -2 9 -1 13 -5 -4 -9 10 11 17 24 -6 19 -16 20 18 -3 22 -17 -22 27 -7 -11 -14 28 -15 -10 -13
right_child=1 3 7 6 5 23 -8 8 26 12 -12 29 25 14 15 16 -18 -19 -20 -21 21 -23 -24 -25 -26 -27 -28 -29 -30 -31
leaf_value=1.3364251149192687 -0.90321001791790589 -0.55026974637539861 -1.0797655059373679 -0.2606126073209582 0.32292676415479638 -0.81717478753389983 -0.80389838759532284 -0.41774665508083103 -0.74428918974913916 -0.84940855703903984 -1.0306925001673084 -0.13485027857175019 -0.26899734872450926 -0.67575629757777267 0.61028736934791183 -1.8067568439673882 0.08052015990993075 -0.083197314191716581 -0.9189184759093586 -1.1812292861633555 -0.19944818045189849 -1.0399790474008861 0.39584377100530022 0.69021173546331849 -0.30545369172634201 -0.5900009716450908 0.42503905673403236 0.17901465608446043 0.092412496973216587 -0.65469108871326875
leaf_weight=3509 40 40 29 38 580 85 48 1192 105 21 31 167 534 123 52 27 36 25 38 21 73 27 387 979 20 77 1191 66 135 126
leaf_count=3509 40 40 29 38 580 85 48 1192 105 21 31 167 534 123 52 27 36 25 38 21 73 27 387 979 20 77 1191 66 135 126
internal_value=0.000419467 -0.00268732 -0.00125929 -0.00598712 0.00242666 0.000928339 -0.0165116 -0.00101433 -0.000833015 -0.00514829 -0.00834895 -0.00712121 -0.00305215 -0.000783046 -0.00257389 -0.00732558 -0.0109509 -0.0144175 -0.0187179 -0.000862646 -0.0142913 -0.011 -0.000295139 0.00316729 -0.0157317 -0.00220131 0.000737247 -0.00452381 -0.003125 -0.00455631
internal_weight=9822 3857 2692 1165 5965 2456 86 2652 2623 1079 427 396 652 1392 812 215 163 103 78 597 127 100 576 1064 41 611 1431 189 240 293
internal_count=9822 3857 2692 1165 5965 2456 86 2652 2623 1079 427 396 652 1392 812 215 163 103 78 597 127 100 576 1064 41 611 1431 189 240 293
is_linear=0
shrinkage=0.05


Tree=16
num_leaves=31
num_cat=0
split_feature=125 136 90 84 83 24 131 80 62 88 102 32 50 125 0 8 15 20 146 80 111 134 0 38 97 24 2 18 80 39
split_gain=23.4416 6.71911 3.60453 3.42693 3.0879 3.08015 2.83884 4.76782 3.09398 2.97524 3.08001 2.33564 2.23893 2.23404 2.57712 4.56383 3.14571 2.16945 2.13019 2.025 1.98884 2.18338 2.68005 2.16606 1.83767 1.68392 1.60342 1.59042 2.00202 1.68759
threshold=0.25538773259258946 0.37327368557453161 0.21672497998177578 0.29321915359195133 0.63694265999495714 55.547672500000012 0.56718581825805259 0.25607127598079554 2.5000000000000004 0.80879440903663646 0.44980342498974463 74.795000000000016 167.15000000000001 0.29710467457835216 1.5000000000000002 0.6830127018922193 88.085000000000022 1.1700000000000002 0.60357377565334669 0.65145091241749642 0.32669617461700867 0.42681960459047075 21.500000000000004 78.490000000000023 0.096167821437120424 61.115000000000002 -0.37940952255126015 39.284683750000006 0.24278047775717423 1.3042334175205006
decision_type=2 2 2 2 2 2 2 2 2 2 2 2 2 2 2 2 2 2 2 2 2 2 2 2 2 2 2 2 2 2
left_child=25 2 -2 4 26 13 8 -8 -5 10 11 12 -10 24 15 16 -15 -17 -6 -20 -13 23 -23 -22 -4 -1 27 29 -29 -3
right_child=1 3 5 6 18 -7 7 -9 9 -11 -12 20 -14 14 -16 17 -18 -19 19 -21 21 22 -24 -25 -26 -27 -28 28 -30 -31
leaf_value=0.39856229749362643 -0.82163385616563545 -0.7296508826810193 -1.1979168095368544 -0.25983785380919633 -0.49194492700487047 0.54369006872490833 0.28759186452271041 -0.88274442760979765 0.17056241788384055 -0.97866040222383788 -1.1807555744857334 -0.87723163251765335 -0.48376183328343408 0.27002762208608 0.095048991869322239 -1.2056138159119227 -1.0378964350510949 -0.61909534285058743 -0.50127758158275892 -0.37524815970458952 -0.63304262893228769 -0.54304226396372468 -0.91684255059985087 -0.10696199993925344 -0.42011565201091727 0.94756431921575279 0.19983201805795492 -0.60164171352520635 0.12423076685935622 -0.2603985322536484
leaf_weight=1609 35 43 24 440 70 973 23 34 114 38 34 20 212 194 1224 25 40 56 20 20 23 38 23 113 442 3290 376 41 180 48
leaf_count=1609 35 43 24 440 70 973 23 34 114 38 34 20 212 194 1224 25 40 56 20 20 23 38 23 113 442 3290 376 41 180 48
internal_value=0.000414376 -0.00194698 -0.000476269 -0.00426702 -0.00176692 -0.000288784 -0.00606115 -0.0169298 -0.00547393 -0.00776423 -0.00687175 -0.00595764 -0.00328221 -0.00140898 -0.000490578 -0.00452381 -0.000982906 -0.0147531 -0.00954545 -0.01875 -0.00997696 -0.00845178 -0.0163115 -0.00492647 -0.00444206 0.00293835 -0.000523256 -0.00317308 -0.000882353 -0.00873626
internal_weight=9822 4923 3013 1910 798 2978 1112 57 1055 615 577 543 326 2005 1539 315 234 81 110 40 217 197 61 136 466 4899 688 312 221 91
internal_count=9822 4923 3013 1910 798 2978 1112 57 1055 615 577 543 326 2005 1539 315 234 81 110 40 217 197 61 136 466 4899 688 312 221 91
is_linear=0
shrinkage=0.05


Tree=17
num_leaves=31
num_cat=0
split_feature=81 136 17 71 92 131 47 101 62 102 25 77 43 24 0 130 41 5 24 24 145 17 31 87 24 131 106 80 115 123
split_gain=22.5844 6.66024 3.36816 3.13554 3.49862 3.08936 3.01726 2.82805 2.54837 2.86356 2.52431 3.33768 2.3844 2.15252 2.11096 3.68808 2.01833 2.50858 3.76819 2.36733 1.86436 1.6644 1.59065 1.57746 2.01882 2.89655 1.61375 1.53557 1.50388 1.61954
threshold=0.32044643670242912 0.37327368557453161 60.335000000000008 -69.094206249999999 0.24808969181085347 0.54768138360046692 47.153672225768211 0.24080458089793597 2.5000000000000004 0.44980342498974463 64.815000000000012 -22.184999999999999 81.538645000000017 54.977440000000009 16.500000000000004 0.6095833182334901 23.368136580041057 -0.56174490092936669 20.117327500000005 14.965000000000002 0.88031509518623363 5.6057800000000002 70.384028750000013 0.32669752511043332 18.410000000000004 0.43567377914549671 0.32020236551761633 0.25607127598079554 0.059112815186381305 0.44970248837842064
decision_type=2 2 2 2 2 2 2 2 2 2 2 2 2 2 2 2 2 2 2 2 2 2 2 2 2 2 2 2 2 2
left_child=2 3 14 4 -2 7 10 -3 20 16 11 -7 -13 28 15 22 -10 18 19 27 -9 -6 -1 24 26 -26 -19 -18 -5 -30
right_child=1 5 -4 13 21 6 -8 8 9 -11 -12 12 -14 -15 -16 -17 17 23 -20 -21 -22 -23 -24 -25 25 -27 -28 -29 29 -31
leaf_value=-0.51599572763559132 -1.2104041281161573 -0.5647941569671443 0.74555686070445637 -1.0056650194762393 -1.0745311576705348 -0.97035449152362685 -0.070169982046922735 -0.24376308828240489 0.070928603798607021 -1.138309482136014 -0.62687676327564412 0.099135075053237903 -0.42006248784171962 0.46725671815547409 0.35105761213602238 -0.68470454181801665 -1.0834292402394505 -0.95023226239235048 -0.13504267319318461 -0.46651855075217413 -0.63353251885133088 0.027522646120052209 0.23672345456276911 0.31780190352286675 -0.68192435667012363 -0.78539920439167077 0.16795037311255082 -0.98112040796268407 0.019448555797390205 -0.51798864456770655
leaf_weight=141 22 31 4788 24 28 29 51 729 110 33 25 20 27 627 414 91 29 36 44 20 44 61 531 60 87 21 103 24 958 614
leaf_count=141 22 31 4788 24 28 29 51 729 110 33 25 20 27 627 414 91 29 36 44 20 44 61 531 60 87 21 103 24 958 614
internal_value=0.000414376 -0.00244102 0.00246857 -0.000762639 -0.00896396 -0.00501313 -0.0117763 -0.00426331 -0.00391791 -0.00646384 -0.0167822 -0.0213158 -0.0130851 -0.000353126 7.22177e-05 -0.00148755 -0.00558052 -0.00714623 -0.0133761 -0.0203425 -0.00205045 -0.00455056 -0.000208333 -0.00477199 -0.00653846 -0.0116667 -0.00255396 -0.0148113 -0.00132832 -0.00113868
internal_weight=9822 3857 5965 2334 111 1523 152 1371 1340 567 101 76 47 2223 1177 763 534 424 117 73 773 89 672 307 247 108 139 53 1596 1572
internal_count=9822 3857 5965 2334 111 1523 152 1371 1340 567 101 76 47 2223 1177 763 534 424 117 73 773 89 672 307 247 108 139 53 1596 1572
is_linear=0
shrinkage=0.05


Tree=18
num_leaves=31
num_cat=0
split_feature=131 131 111 34 4 90 111 39 27 146 120 60 46 97 8 34 66 72 92 35 149 40 0 14 118 0 60 47 75 47
split_gain=21.7241 4.99465 3.66529 3.5397 3.39571 2.95111 2.89299 4.06445 2.87728 3.04318 2.02171 1.95505 3.30521 4.12782 4.05 2.85937 2.97856 3.52595 2.08333 1.9369 2.06008 2.39539 1.85261 1.81551 1.72449 1.69869 2.52344 1.59409 2.025 1.54965
threshold=0.19974592681788741 0.45574353261501471 0.11579948398805777 28.956666666666667 -0.8783796973249266 0.21672497998177578 0.45055478484271477 0.9831897568319895 0.21932342201800978 0.60751219726036421 0.44981391267928711 64.500000000000014 38.570513028273815 0.16494135558605191 -0.68301270189221952 61.868750000000013 -21.666812499999995 69.074206250000017 0.51548149641657603 81.517324755507516 0.33342166865339401 74.397187500000015 21.500000000000004 75.954707500000026 0.32069391012191778 1.5000000000000002 94.500000000000014 32.491210561795647 28.678700000000003 48.654055898318262
decision_type=2 2 2 2 2 2 2 2 2 2 2 2 2 2 2 2 2 2 2 2 2 2 2 2 2 2 2 2 2 2
left_child=-1 2 -2 4 -3 -4 7 -6 -7 11 -8 12 13 -10 18 -14 22 19 -15 20 21 23 -17 -18 -9 26 -13 28 -5 -26
right_child=1 3 5 27 6 8 10 24 9 -11 -12 25 15 14 -16 16 17 -19 -20 -21 -22 -23 -24 -25 29 -27 -28 -29 -30 -31
leaf_value=0.68185984456777127 0.6178771713898219 -0.7392774183957268 -0.71960175772358481 0.090778600478580537 -0.38866681902943578 0.13313531727402866 -0.92732916151670541 -0.9444259497183447 -1.1538196923131376 -0.45729381406404734 -0.68198447899357162 -0.27048488784448271 -0.1629924330815338 -0.46327972553102709 0.21253233798559062 0.0043631167686070862 0.10126184868840533 -0.16638973511171706 -0.87478929324678212 -0.25939457828530244 -1.1425374890063613 -1.021065333877607 -0.62752828781185199 -1.0347675272674473 -0.32103472001851457 0.050894648800778958 -0.87985636771340736 -0.15500697555906384 -0.77879451186299353 0.21121921898719989
leaf_weight=4588 642 24 36 20 25 1101 26 32 25 27 35 84 964 24 72 169 26 65 24 25 25 27 22 24 231 898 20 398 20 123
leaf_count=4588 642 24 36 20 25 1101 26 32 25 27 35 84 964 24 72 169 26 65 24 25 25 27 22 24 231 898 20 398 20 123
internal_value=0.000414376 -0.0016966 -0.000976744 -0.00501071 -0.00790323 -0.0015883 -0.00697034 -0.00546229 -0.00144671 -0.00237802 -0.0171311 -0.00219727 -0.0033445 -0.0105172 -0.00666667 -0.00257238 -0.00622715 -0.010625 -0.0179167 -0.0154724 -0.0185294 -0.0144805 -0.00180628 -0.008 -0.00419689 -0.000489022 -0.00653846 -0.00173516 -0.01125 -0.00319209
internal_weight=9822 5234 4300 934 496 3658 472 411 3622 2521 61 2494 1492 145 120 1347 383 192 48 127 102 77 191 50 386 1002 104 438 40 354
internal_count=9822 5234 4300 934 496 3658 472 411 3622 2521 61 2494 1492 145 120 1347 383 192 48 127 102 77 191 50 386 1002 104 438 40 354
is_linear=0
shrinkage=0.05


Tree=19
num_leaves=31
num_cat=0
split_feature=7 17 1 137 1 88 104 131 47 60 97 145 53 44 70 24 37 49 137 123 41 23 20 125 124 39 124 38 119 16
split_gain=20.5835 6.38051 3.31742 2.69269 2.46878 2.20443 3.6049 2.00736 2.90581 3.14325 3.3225 2.64029 2.08197 2.29519 2.29396 2.00107 1.91067 1.9716 1.752 2.1241 1.83217 2.34748 1.88931 1.8082 2.91939 1.82974 1.71727 2.64474 2.43084 1.68766
threshold=0.25000000000000011 39.305000000000007 -1.0000000180025095e-35 0.16560058879838163 0.25881904510252091 0.08094554767012592 0.22120023860787483 0.54768138360046692 47.153672225768211 45.500000000000007 0.63516893982887279 0.88031509518623363 0.58333333333333337 63.838506249999995 -54.184999999999995 56.73995750000001 82.851316250000011 246.61860500000003 0.3799080314110474 0.44970338408738136 23.65612688719547 16.020331963498478 40.734226249999999 0.54114913912569007 0.49936692416667944 0.84305060196339987 0.23375715315341947 151.63000000000002 0.312372157455028 48.795000000000009
decision_type=2 2 2 2 2 2 2 2 2 2 2 2 2 2 2 2 2 2 2 2 2 2 2 2 2 2 2 2 2 2
left_child=1 7 5 -2 -5 -3 -7 11 9 -9 -11 12 13 -1 -15 -4 17 -6 19 -16 -20 -22 -23 24 -24 -26 27 28 -14 -10
right_child=3 2 15 4 16 6 -8 8 29 10 -12 -13 26 14 18 -17 -18 -19 20 -21 21 22 23 -25 25 -27 -28 -29 -30 -31
leaf_value=-0.83817440106936503 1.7938342663866529 0.063194036223166355 -0.082981100897618079 -0.025207821300833884 0.65231373366548007 -0.99470432097085115 -0.40000084640619032 -0.71777139787391031 0.1860416374934051 -0.30359516865750635 -0.64000572925976373 -0.64779728371643963 -0.95296550705214134 -0.88590128594673312 -0.09746026861119686 0.5519799745782592 0.57179184771475544 -0.84872397682630663 0.078045178963447301 -0.73806854145430956 -0.76704655140834521 0.055465175698025532 -0.35877822750252863 0.18450564042873105 -0.8541834435368435 -1.0324779647880902 0.013645777700556364 1.2631681369769394 -0.95357551459096301 -0.47558398201056279
leaf_weight=36 2961 255 1317 1157 48 22 561 24 59 61 20 40 39 44 414 736 865 68 53 48 82 88 52 25 29 22 570 51 54 21
leaf_count=36 2961 255 1317 1157 48 22 561 24 59 61 20 40 39 44 414 736 865 68 53 48 82 88 52 25 29 22 570 51 54 21
internal_value=0.000414376 -0.00180711 -0.000344171 0.00277407 0.00142189 -0.00299523 -0.00469125 -0.00411572 -0.00905405 -0.0145238 -0.00981481 -0.00356102 -0.00324518 -0.00485442 -0.00433489 0.000737945 0.00326707 -0.00275862 -0.00373309 -0.00170996 -0.00639601 -0.00791946 -0.00518518 -0.0090625 -0.0119903 -0.0204902 -0.00123249 -0.00611111 -0.011129 -0.001875
internal_weight=9822 4723 2891 5099 2138 838 583 1832 185 105 81 1647 1607 893 857 2053 981 116 813 462 351 298 216 128 103 51 714 144 93 80
internal_count=9822 4723 2891 5099 2138 838 583 1832 185 105 81 1647 1607 893 857 2053 981 116 813 462 351 298 216 128 103 51 714 144 93 80
is_linear=0
shrinkage=0.05


Tree=20
num_leaves=31
num_cat=0
split_feature=131 17 116 90 136 102 137 27 1 131 145 149 83 47 61 1 37 121 20 26 100 39 135 121 26 47 106 66 12 109
split_gain=18.7486 5.50502 1.9449 1.87173 1.82431 2.33436 2.2061 2.51858 1.77146 3.30737 3.35966 2.69844 3.9839 2.30378 2.40889 1.83934 2.11549 2.70703 3.63541 2.28349 2.10434 2.66496 1.58567 1.58484 1.80201 2.52609 1.77046 1.62802 1.50131 1.54064
threshold=0.19974592681788741 57.485203750000004 0.19566229384231493 0.21672497998177578 0.44175560772418981 0.44980538190644964 0.39218941397347751 1.5523786273744842 -0.70710678118654735 0.54768138360046692 0.89010968804359447 0.22478762027093682 0.50135194918892101 26.746907975542246 0.41964285714285721 1.0000000180025095e-35 78.056360000000026 0.33391889929771429 61.214993750000012 46.815000000000012 0.44668354094028478 2.2108985276641646 0.44926217990191397 0.39007177948951727 64.009681250000014 53.480681785226601 0.43741066753864294 -39.244999999999997 1.0000000180025095e-35 0.14633021503686902
decision_type=2 2 2 2 2 2 2 2 2 2 2 2 2 2 2 2 2 2 2 2 2 2 2 2 2 2 2 2 2 2
left_child=28 3 -3 -2 -4 6 -6 -8 13 10 15 -11 -13 14 -5 20 17 18 19 -17 21 23 -15 -10 27 26 -26 -25 -1 -30
right_child=1 2 4 8 5 -7 7 -9 9 11 -12 12 -14 22 -16 16 -18 -19 -20 -21 -22 -23 -24 24 25 -27 -28 -29 29 -31
leaf_value=0.66168175317671185 -0.53984677297937889 0.60798924859424952 0.12898774768089658 -0.68850037504206174 -0.6369640009552644 -1.4783174385179514 0.044744490158209832 -0.72456002816800524 -0.29159507391951872 0.21731225278586064 -0.67729503867581042 -0.83348319218200373 0.15685747302842412 0.04807931995349831 0.11881860785522021 -0.88230420010252097 0.036979852202304327 -0.18823350480332621 -1.1017814096444996 0.48191155126083579 0.018637795633195186 -0.77780595486059112 -0.30560916412081451 -0.75094066691930794 -0.84430204365421746 -0.25770724395863559 -0.51344069681644644 -0.34293417083770072 0.3434985966850056 -0.95372882364984246
leaf_weight=3621 33 317 1710 27 33 20 265 39 244 35 51 69 26 573 29 133 724 309 39 50 141 29 38 23 37 39 33 130 907 25
leaf_count=3621 33 317 1710 27 33 20 265 39 244 35 51 69 26 573 29 133 724 309 39 50 141 29 38 23 37 39 33 130 907 25
internal_value=0.000391835 -0.00136066 0.000406879 -0.00285917 -0.000152395 -0.00340336 -0.0024184 -0.00108553 -0.0027186 -0.00342803 -0.00292129 -0.0111538 -0.0155263 -0.000472264 -0.0101786 -0.00258674 -0.00145418 -0.00385122 -0.00806306 -0.00510929 -0.00468935 -0.0061215 0.000417349 -0.00527668 -0.0079771 -0.0128899 -0.0185714 -0.00447712 0.00303426 0.00124464
internal_weight=9749 5196 2384 2812 2067 357 337 304 2779 2112 1982 130 95 667 56 1931 1255 531 222 183 676 535 611 506 262 109 70 153 4553 932
internal_count=9749 5196 2384 2812 2067 357 337 304 2779 2112 1982 130 95 667 56 1931 1255 531 222 183 676 535 611 506 262 109 70 153 4553 932
is_linear=0
shrinkage=0.05


Tree=21
num_leaves=31
num_cat=0
split_feature=133 114 142 131 142 100 17 2 12 51 116 118 140 104 6 102 120 51 136 1 1 95 5 115 51 60 60 60 31 95
split_gain=17.705 4.6003 2.53893 2.249 2.98306 3.30856 2.04909 1.83579 2.74303 2.27573 1.91119 1.81118 2.24914 1.71955 1.62163 1.61733 3.13922 1.61673 1.85204 1.49968 1.45511 1.42064 1.41731 1.3992 1.76671 1.36939 1.35607 2.86966 1.34499 1.26018
threshold=0.14459304511547086 0.32625643433320223 0.91263940930366527 0.54768138360046692 0.22735526412725446 0.18166004866361618 131.84000000000003 0.91597561503675351 1.0000000180025095e-35 1.2935428635954132 0.25552415225420111 0.19527594000101087 0.60614170766304365 0.25209931831395754 3.5000000000000004 0.44981424329560543 0.44981451686591017 0.92181424270950429 0.082284614443778964 -0.37940952255126059 -0.60355339059327362 0.47488183512038651 -0.56174490092936669 0.059112815186381305 0.76839543989191161 7.5000000000000009 45.500000000000007 28.500000000000004 347.03000000000003 0.2990571131066877
decision_type=2 2 2 2 2 2 2 2 2 2 2 2 2 2 2 2 2 2 2 2 2 2 2 2 2 2 2 2 2 2
left_child=6 7 3 13 -5 -6 19 8 -2 14 25 -12 -13 21 17 23 -17 18 -9 20 -1 22 -3 -15 -25 -10 27 -22 -8 -7
right_child=1 2 -4 4 5 29 28 9 10 -11 11 12 -14 15 -16 16 -18 -19 -20 -21 26 -23 -24 24 -26 -27 -28 -29 -30 -31
leaf_value=0.10418743811179261 0.54144029073654021 -1.1048133189607865 -0.60929918712032338 -0.6911895697252799 -0.86568989895454451 0.50726916774211339 1.9208310255031575 -0.92765039303287622 -0.98917566159317905 -1.163501976489435 -0.69007260206816623 -0.0022815176670400775 -0.40678770719799462 -0.90186099881583603 0.62003673745845544 -1.1188615438010363 -0.68286246631346159 0.12151289054435684 -0.40755642695581851 0.39813955573496074 -0.48826109637264398 0.01634382204425441 -0.4171480395781223 0.15305046623219448 -0.27032689550687777 0.25624992874953162 0.4215862780172267 -1.1809473480388812 -0.77363454409642474 -0.2581393912953775
leaf_weight=508 842 35 29 26 24 52 2580 21 21 20 25 89 21 24 61 36 57 33 28 2054 85 45 53 348 2272 226 28 29 22 55
leaf_count=508 842 35 29 26 24 52 2580 21 21 20 25 89 21 24 61 36 57 33 28 2054 85 45 53 348 2272 226 28 29 22 55
internal_value=0.000391835 -0.0016059 -0.00268979 -0.00254873 -0.0083758 -0.00530534 0.00267245 0.000782264 0.00144608 -0.00420245 -0.00206806 -0.00685185 -0.00409091 -0.00222996 -0.00199301 -0.00196018 -0.00844086 -0.00658537 -0.0123469 0.00170858 -0.000384615 -0.00778195 -0.0114773 -0.00173222 -0.00162214 0.000546559 -0.00485915 -0.0072807 0.0036741 -0.00154206
internal_weight=9749 4443 3056 3027 157 131 5306 1387 1224 163 382 135 110 2870 143 2737 93 82 49 2704 650 133 88 2644 2620 247 142 114 2602 107
internal_count=9749 4443 3056 3027 157 131 5306 1387 1224 163 382 135 110 2870 143 2737 93 82 49 2704 650 133 88 2644 2620 247 142 114 2602 107
is_linear=0
shrinkage=0.05


Tree=22
num_leaves=31
num_cat=0
split_feature=133 113 123 143 0 126 135 41 40 124 95 126 143 107 66 49 47 0 5 19 47 71 99 44 19 95 143 26 27 134
split_gain=16.8153 4.47636 2.21489 3.44047 3.03227 2.63414 3.20029 4.7422 2.60162 2.56879 2.12056 2.52083 1.97435 2.15149 2.0006 2.10069 2.55118 2.23841 3.94815 2.04629 1.95791 1.8626 1.59334 1.51484 2.778 1.409 2.08333 1.39043 1.27581 1.23077
threshold=0.14459304511547086 0.24508512329123272 0.44970284059999827 0.24760359907100263 1.5000000000000002 0.44955441390969336 0.44926220424527841 32.889880011214665 41.000416666666673 0.46212507784366613 0.21684693005985459 0.44959324713953802 0.61724945166657041 0.29887867557865194 16.740000000000006 234.36414375000001 62.397744943983248 17.500000000000004 1.0000000180025095e-35 56.942557500000014 50.42131377586059 -70.959999999999994 0.44992487705032991 222.68955750000001 96.675000000000026 0.20307228920168116 0.21625012639266727 235.59500000000003 0.34747600098936288 0.41875979001813651
decision_type=2 2 2 2 2 2 2 2 2 2 2 2 2 2 2 2 2 2 2 2 2 2 2 2 2 2 2 2 2 2
left_child=20 27 5 4 10 6 12 -8 9 -5 11 -4 14 -14 25 16 17 -16 29 -20 23 -7 -6 -1 -25 26 -3 -2 -22 -19
right_child=1 2 3 8 22 21 7 -9 -10 -11 -12 -13 13 -15 15 -17 -18 18 19 -21 28 -23 -24 24 -26 -27 -28 -29 -30 -31
leaf_value=0.23980911246526745 0.33819773327294717 0.052774082680180127 -0.96234237163707492 -0.66452760989895099 -1.0629498694172008 -0.85929009491510644 -0.96909294304839833 -1.4509303821226323 -0.23811329059926889 -0.30190821514449012 -0.064797817221399642 -0.27816479426321211 -0.60844612487232919 -0.080439410984968263 -0.29009230544329684 -0.025479293102731546 -0.93896097048854166 -0.56593888249706137 -0.4801957913270668 0.053468369903501178 0.73442391224376524 0.3902506539458665 -0.25018871000333548 -0.047862305709994196 -2.2820108277972464 -0.10254160094776517 -1.3126993260490809 -0.51672746510620515 0.32392064469973092 -0.78822309095876353
leaf_weight=995 954 28 24 31 23 23 29 21 52 20 25 24 26 41 248 260 24 36 32 71 3040 478 398 85 21 1482 21 33 1165 39
leaf_count=995 954 28 24 31 23 23 29 21 52 20 25 24 26 41 248 260 24 36 32 71 3040 478 398 85 21 1482 21 33 1165 39
internal_value=0.000386706 -0.00151587 -0.002364 -0.005134 -0.00340081 -0.00178559 -0.00248516 -0.015 -0.0134466 -0.0214706 -0.0128082 -0.0189583 -0.00221404 -0.0106716 -0.00196118 -0.00415493 -0.00622222 -0.00532864 -0.00960674 -0.00325243 0.0026536 0.00150699 -0.0017696 0.000776567 -0.00490566 -0.000943827 -0.00928571 0.0014539 0.00314507 -0.0183333
internal_weight=9749 4443 3456 597 494 2859 2358 50 103 51 73 48 2308 67 2241 710 450 426 178 103 5306 501 421 1101 106 1531 49 987 4205 75
internal_count=9749 4443 3456 597 494 2859 2358 50 103 51 73 48 2308 67 2241 710 450 426 178 103 5306 501 421 1101 106 1531 49 987 4205 75
is_linear=0
shrinkage=0.05


Tree=23
num_leaves=31
num_cat=0
split_feature=131 24 111 1 46 49 102 1 1 70 134 140 31 47 112 86 31 118 1 47 32 92 126 37 47 35 94 97 8 17
split_gain=16.0843 4.89433 3.29468 1.85678 1.89602 2.11109 1.77719 1.99355 2.98908 3.32332 3.02072 2.44347 2.35493 2.1022 2.40509 1.95744 2.35142 1.8242 1.80194 1.68055 2.18878 3.13633 1.93973 1.92285 1.72016 1.64719 2.43783 1.6 1.58889 1.625
threshold=0.19974592681788741 56.166383750000008 0.11579948398805777 1.0000000180025095e-35 139.79773809523812 343.04000000000002 0.44981742842706324 0.25881904510252091 -0.70710678118654735 -54.184999999999995 0.2617546401470256 0.62456680098126005 213.06665375000003 33.004247344255411 0.36821842193603521 0.57170944505689258 76.385057500000002 0.42195636034011846 1.0000000180025095e-35 60.135100982233034 75.515000000000015 0.51548149641657603 0.44957834046767731 89.490000000000023 34.510435215734823 41.160578535036336 0.18675673007965088 0.20648679882287982 1.0000000180025095e-35 32.350000000000009
decision_type=2 2 2 2 2 2 2 2 2 2 2 2 2 2 2 2 2 2 2 2 2 2 2 2 2 2 2 2 2 2
left_child=3 2 -2 4 5 -1 7 8 13 10 -10 12 18 14 17 -15 27 -4 19 20 22 23 -11 -22 -24 26 -26 -17 29 -25
right_child=1 -3 6 -5 -6 -7 -8 -9 9 11 -12 -13 -14 15 -16 16 -18 -19 -20 -21 21 -23 24 28 25 -27 -28 -29 -30 -31
leaf_value=0.041326701873037053 0.55614716690202226 0.39937045905365781 -0.84997762347901862 0.58353271082779923 1.6887376358525412 -1.1519190691393717 -0.98977204189386758 -0.17401806390396937 -1.1266130793837139 -0.18802307781204952 -0.0065083788355150525 -0.44249794086007582 -0.63501682549532079 0.11860837363695272 -0.073766760791102434 -0.023270995004178993 0.21578915200901905 -0.43353539482768721 -0.047823875014928151 0.048743661466695912 -0.74056081911993032 -0.48924888837837344 -0.070725342210890205 0.16062127777179583 -0.78825124141549729 0.47902937464890027 -0.11339401088489301 -0.62861640853495182 -0.66923098244369184 -0.57703048968713488
leaf_weight=759 328 1055 29 2676 1096 22 35 1655 29 324 20 27 98 483 137 20 38 30 345 136 46 93 50 40 39 20 29 20 45 25
leaf_count=759 328 1055 29 2676 1096 22 35 1655 29 324 20 27 98 483 137 20 38 30 345 136 46 93 50 40 39 20 29 20 45 25
internal_value=0.000381578 -0.00116821 -0.00194277 0.00290248 0.00169686 -0.000185659 -0.00235641 -0.00225251 -0.0032666 -0.00466325 -0.017449 -0.00418755 -0.00387597 -0.000746367 -0.00520408 0.000811052 -0.00653846 -0.0136441 -0.00326342 -0.00450413 -0.0054782 -0.00925703 -0.00344156 -0.0135897 -0.0084058 -0.0126136 -0.0163235 -0.015 -0.01 -0.005
internal_weight=9749 5196 4141 4553 1877 781 3813 3778 2123 1366 49 1317 1290 757 196 561 78 59 1192 847 711 249 462 156 138 88 68 40 110 65
internal_count=9749 5196 4141 4553 1877 781 3813 3778 2123 1366 49 1317 1290 757 196 561 78 59 1192 847 711 249 462 156 138 88 68 40 110 65
is_linear=0
shrinkage=0.05


Tree=24
num_leaves=31
num_cat=0
split_feature=133 116 17 137 101 46 52 33 133 32 16 125 139 77 134 97 86 123 92 27 51 61 1 24 82 43 143 106 39 51
split_gain=15.0029 3.48328 2.34404 4.49293 2.4381 2.16585 2.0813 2.79085 2.4145 2.42707 2.19945 2.09116 2.07085 2.00136 1.69763 2.16782 1.69795 1.69689 1.62751 2.64087 2.05172 1.92471 1.60426 1.81725 1.56637 1.75438 1.60767 1.27971 2.62835 1.137
threshold=0.14459304511547086 0.24155738989112754 39.305000000000007 0.5542044576926608 0.40754823687646924 124.7119642857143 2.5000000000000004 1.3001856590256731 0.50832837820053112 76.085000000000008 21.931427500000002 0.26947981638880897 0.43015341460704809 -7.562101250000004 0.15649644589057368 0.19451434910297391 0.74931574612855922 0.44970338408738136 0.54264411703362148 0.75993021719625031 1.333077781968327 0.31250000000000006 -0.37940952255126059 52.428738750000001 0.95605897903442394 93.460000000000022 0.16509097903963657 0.20757341384887693 0.77643123630595856 0.91931267772606062
decision_type=2 2 2 2 2 2 2 2 2 2 2 2 2 2 2 2 2 2 2 2 2 2 2 2 2 2 2 2 2 2
left_child=5 -2 6 14 -5 22 7 8 17 10 -10 -8 18 -11 15 -4 -16 27 19 -9 -20 -21 29 -24 26 -26 -13 28 -3 -1
right_child=1 2 3 4 -6 -7 11 12 9 13 -12 24 -14 -15 16 -17 -18 -19 20 21 -22 -23 23 -25 25 -27 -28 -29 -30 -31
leaf_value=-0.51193353186507606 0.3605008194179557 -0.88646614190602391 -1.1193452996733284 -0.75931197260729744 -0.3221637683516238 2.3103368904323736 -0.82968713273745609 -0.75210441043348775 -0.27606587307494806 -0.8788026256607161 0.079602623288385715 -0.82981305849083542 0.072584484250382025 -0.7066732619121755 0.013670026083982129 0.2032323594359049 -1.1673917081045506 -0.74567289072072407 -0.039325848754412751 0.23465618282732345 -0.86404369740418763 -0.87369115741745196 0.031530987376229377 0.42018028642823319 -0.17711785516902684 -0.63033839354880994 -0.067189094364916796 0.021717518548099446 -0.036921758323001104 0.21837232253916425
leaf_weight=446 731 24 27 28 20 2520 23 33 27 21 70 20 35 53 1717 26 39 23 45 23 23 40 711 1489 43 31 960 298 63 140
leaf_count=446 731 24 27 28 20 2520 23 33 27 21 70 20 35 53 1717 26 39 23 45 23 23 40 711 1489 43 31 960 298 63 140
internal_value=0.000381578 -0.00136957 -0.00199084 -0.000735056 -0.0158333 0.00256879 -0.00324798 -0.00521851 -0.00346287 -0.00845029 -0.00324742 -0.00182451 -0.0103266 -0.0152703 -0.000334439 -0.00915094 -6.83369e-05 -0.00137255 -0.0126829 -0.016875 -0.00676471 -0.010873 0.00160804 0.00222727 -0.00149905 -0.00851351 -0.000969388 -0.000584415 -0.00591954 -0.000716723
internal_weight=9749 4443 3712 1857 48 5306 1855 778 579 171 97 1077 199 74 1809 53 1756 408 164 96 68 63 2786 2200 1054 74 980 385 87 586
internal_count=9749 4443 3712 1857 48 5306 1855 778 579 171 97 1077 199 74 1809 53 1756 408 164 96 68 63 2786 2200 1054 74 980 385 87 586
is_linear=0
shrinkage=0.05


Tree=25
num_leaves=31
num_cat=0
split_feature=17 116 136 131 117 33 98 114 16 76 44 56 82 28 77 44 114 103 76 25 136 146 119 131 113 17 70 25 104 20
split_gain=14.8451 4.05324 2.62331 2.54174 2.65275 3.31271 2.51609 2.28149 1.93791 2.70616 1.75953 1.73898 1.66556 1.53236 1.5013 1.575 1.47177 1.40372 1.67794 1.38371 1.90901 1.3354 1.37776 1.62845 2.7 1.39315 1.66402 1.63594 1.79059 2.20819
threshold=67.97226000000002 0.24155738989112754 0.33156837522983551 0.54768138360046692 0.28683928371027428 1.4469845620184716 0.2903966129993702 0.44981409332646405 77.305000000000021 18.044999999999998 111.27643375000002 2.5000000000000004 0.50396269559860241 37.661602499999994 -24.939999999999994 77.134832500000016 0.32668882813468775 0.32725797593593603 -85.308457499999975 54.772751250000006 0.18500608950853348 0.60751219726036421 0.31818070896145173 0.42202548547322588 0.31655573310053592 60.058625000000013 1.0000000180025095e-35 70.025312500000013 0.39178377081870802 47.320000000000007
decision_type=2 2 2 2 2 2 2 2 2 2 2 2 2 2 2 2 2 2 2 2 2 2 2 2 2 2 2 2 2 2
left_child=1 -1 7 6 12 -6 8 -2 17 11 14 -10 -5 -4 -7 -16 -11 18 -3 20 -20 22 23 25 -25 26 -8 28 29 -28
right_child=2 3 13 4 5 10 21 -9 9 16 -12 -13 -14 -15 15 -17 -18 -19 19 -21 -22 -23 -24 24 -26 -27 27 -29 -30 -31
leaf_value=0.19061516098162157 0.58992414837971763 -0.56308346185756464 -0.63616227511173984 0.16774996615269711 -0.6204372651838177 -0.73567355186916983 -0.11142736119420034 -1.0777553937983784 -0.93202143574149066 0.81213675345277359 0.92646888045188835 -0.84625429508683681 -0.98957715456714102 -0.064469806313533981 0.064848698114879852 -0.27901852243785336 -0.37289236265650849 0.15036652068884493 -0.89885489546850017 -0.18686910486934763 -0.54943397444518893 -0.43939495451059751 -0.033244129536537124 0.37224145101761674 -0.85669459782821833 0.33672387615430566 -0.19680202985622472 -0.079193112055212872 -0.44835819570592206 -1.0642527591115105
leaf_weight=1038 4796 25 38 75 53 21 278 22 28 29 27 25 32 389 21 24 45 128 24 275 194 35 1622 21 49 165 20 54 60 21
leaf_count=1038 4796 25 38 75 53 21 278 22 28 29 27 25 32 389 21 24 45 128 24 275 194 35 1622 21 49 165 20 54 60 21
internal_value=0.000391322 -0.00139098 0.00255005 -0.00223665 -0.00705534 -0.0114384 -0.00184312 0.00288294 -0.00431436 -0.00996063 -0.00575269 -0.0185849 -0.00107477 -0.00120609 -0.0101515 -0.005 -0.00378378 -0.00320433 -0.00436293 -0.00372211 -0.00669725 -0.00102151 -0.000873362 -0.00278443 -0.01 -0.0019398 -0.00342956 -0.00758064 -0.0113366 -0.0193902
internal_weight=9634 4389 5245 3351 253 146 3098 4818 773 127 93 53 107 427 66 45 74 646 518 493 218 2325 2290 668 70 598 433 155 101 41
internal_count=9634 4389 5245 3351 253 146 3098 4818 773 127 93 53 107 427 66 45 74 646 518 493 218 2325 2290 668 70 598 433 155 101 41
is_linear=0
shrinkage=0.05


Tree=26
num_leaves=31
num_cat=0
split_feature=131 17 136 0 0 17 62 131 52 71 70 0 49 0 94 117 0 85 0 27 123 17 83 59 19 20 131 59 92 66
split_gain=13.6997 3.83416 2.20547 1.75436 2.39053 2.54331 2.06226 1.72423 2.06609 2.34722 2.01803 2.72411 1.8496 1.97625 1.7914 1.63634 2.5135 2.64143 2.47196 2.1267 1.61601 1.84246 2.17828 1.94188 1.7987 1.6102 2.51905 1.55307 3.43479 1.4303
threshold=0.20422716047429376 37.315000000000005 0.78061178326606762 12.500000000000002 14.500000000000002 80.715000000000018 133.50000000000003 0.54768138360046692 2.5000000000000004 0.86500000000000565 -48.409369999999988 1.5000000000000002 182.63500000000002 15.500000000000002 0.23699215054512021 0.28691530769825041 1.5000000000000002 0.54150775074958812 12.500000000000002 1.5830859315586803 0.44970331673115743 32.350000000000009 0.63992371179759233 0.69791666666666685 59.82500000000001 171.86500000000004 0.17081298241206347 0.65625000000000011 0.56617129966616642 12.310123750000004
decision_type=2 2 2 2 2 2 2 2 2 2 2 2 2 2 2 2 2 2 2 2 2 2 2 2 2 2 2 2 2 2
left_child=3 7 15 -1 5 25 -7 10 9 -9 11 -2 14 -14 -10 16 17 -3 -17 -20 21 22 -12 -24 27 26 -5 28 -22 -23
right_child=1 2 -4 4 -6 6 -8 8 12 -11 20 -13 13 -15 -16 18 -18 -19 19 -21 24 29 23 -25 -26 -27 -28 -29 -30 -31
leaf_value=0.53191448599110536 -0.82341050438550212 -0.16034362144380931 -0.58803053291513174 -1.5041352045145144 0.50754480070759722 0.4101720651459797 -0.69764581603767473 -0.63077007047990363 0.11684874997521083 -0.20545755925293166 -0.097859699558825675 -0.50552965238826408 -0.28948276940988588 0.14032708461220664 -0.47687021343811326 0.1041360833386159 0.44460322955812481 -1.4048313251476401 -0.31892301587122313 -0.58167174527106136 -0.731171204086006 -0.79626514243365121 -0.55482306734043874 1.2512526041967091 0.11862463500750674 -0.27562091263057803 -0.8384457916048268 -0.72214259164253569 -0.24321635932111341 -0.15162907384217239
leaf_weight=2944 24 50 64 21 1338 230 20 36 20 36 1351 43 43 79 31 1348 909 20 559 31 25 39 43 21 66 39 35 88 49 32
leaf_count=2944 24 50 64 21 1338 230 20 36 20 36 1351 43 43 79 31 1348 909 20 559 31 25 39 43 21 66 39 35 88 49 32
internal_value=0.000386132 -0.00102157 0.000119088 0.00275232 0.00146465 -0.00224638 0.0004 -0.0026999 -0.00663265 -0.01375 -0.0021589 -0.0106716 -0.00367052 -0.000327869 -0.0116667 0.000320535 0.00198672 -0.00714286 -0.000521156 -0.00322034 -0.00182614 -0.00122476 -0.000830388 -0.00984375 -0.00574561 -0.00921053 -0.0146429 -0.00858025 -0.0139189 -0.00908451
internal_weight=9634 5007 2981 4627 1683 345 250 2026 245 72 1781 67 173 122 51 2917 979 70 1938 590 1714 1486 1415 64 228 95 56 162 74 71
internal_count=9634 5007 2981 4627 1683 345 250 2026 245 72 1781 67 173 122 51 2917 979 70 1938 590 1714 1486 1415 64 228 95 56 162 74 71
is_linear=0
shrinkage=0.05


Tree=27
num_leaves=31
num_cat=0
split_feature=24 116 1 137 6 128 123 140 71 37 143 133 114 8 98 116 1 4 95 16 49 107 47 133 135 126 43 104 34 43
split_gain=13.8641 4.97419 2.26593 2.14312 1.99133 1.92123 1.84393 2.78735 3.00048 2.0844 2.63917 1.85214 1.61204 1.57185 1.54464 2.08342 1.75719 1.76029 1.62755 2.76453 2.04522 1.94629 1.46636 3.05501 2.58284 2.38855 1.74222 1.98265 1.71769 1.59082
threshold=56.73995750000001 0.23317220578263254 0.12940952255126045 0.63108983009294461 9.5000000000000018 0.32338046905295265 0.44970284059999827 0.23293424034068647 -20.985000000000003 77.839626250000023 0.16313196779446218 0.31011690199375158 0.44981409326043337 1.0000000180025095e-35 0.28030497930693637 0.3840488625613131 0.25881904510252091 -0.8783796973249266 0.24306976323535665 67.425000000000011 249.15404750000002 0.34872075560448446 33.004247344255411 0.40573722124099731 0.44926219317765742 0.44955511042121793 58.370000000000012 0.52403595450555363 42.821568906250015 104.67513875000002
decision_type=2 2 2 2 2 2 2 2 2 2 2 2 2 2 2 2 2 2 2 2 2 2 2 2 2 2 2 2 2 2
left_child=1 -1 4 6 -2 -6 14 9 -9 10 -8 -12 -11 -13 15 16 17 -3 -19 21 -21 -20 23 -16 -24 -26 -25 28 29 -28
right_child=2 3 -4 -5 5 -7 7 8 -10 12 11 13 -14 -15 22 -17 -18 18 19 20 -22 -23 24 26 25 -27 27 -29 -30 -31
leaf_value=0.29415576931006582 0.43829211148442343 -0.644264918786289 0.53595078698801135 -0.60808682975157058 -1.2687309471152945 -0.038142111903994559 -0.89592351067589837 0.022479775905185607 -0.49400029439646592 -0.071929557165301639 0.17123714793398603 -0.68339601133640882 -0.67083399747643002 -0.59369603096138512 -0.035816999796914661 0.039902302289490821 0.16087049734583861 -0.033411817745949576 -0.35508239694837318 -0.78309745384015683 -0.72879701563413146 -0.52119199103198655 0.038263568931940536 0.4327873733328983 -1.0990959881725126 -0.063467014809121369 -0.29469076498332414 -0.54571131366732861 0.047364367878277067 -0.49595614228862361
leaf_weight=1342 1893 21 2453 26 20 41 39 20 32 410 67 23 81 41 444 218 64 100 133 27 23 20 1780 25 37 54 86 34 50 30
leaf_count=1342 1893 21 2453 26 20 41 39 20 32 410 67 23 81 41 444 218 64 100 133 27 23 20 1780 25 37 54 86 34 50 30
internal_value=0.000386132 -0.00094031 0.00286703 -0.00184685 0.00159672 -0.00729508 -0.00175045 -0.00404628 -0.0151923 -0.00316944 -0.00794118 -0.00454198 -0.00151731 -0.010625 -0.00123013 -0.00349835 -0.00569588 -0.00719136 -0.00622112 -0.0087931 -0.019 -0.00545752 -0.000688976 -0.00269806 2.93962e-05 -0.00818681 -0.00744444 -0.009 -0.00674699 -0.0100862
internal_weight=9634 5227 4407 3885 1954 61 3859 713 52 661 170 131 491 64 3146 606 388 324 303 203 50 153 2540 669 1871 91 225 200 166 116
internal_count=9634 5227 4407 3885 1954 61 3859 713 52 661 170 131 491 64 3146 606 388 324 303 203 50 153 2540 669 1871 91 225 200 166 116
is_linear=0
shrinkage=0.05


Tree=28
num_leaves=31
num_cat=0
split_feature=24 46 1 30 1 70 27 25 1 76 47 137 1 83 92 8 81 43 120 128 112 111 27 0 92 31 8 16 22 72
split_gain=13.3171 4.31196 2.35021 2.85232 3.06726 2.77429 2.85548 2.29869 2.2761 2.62505 2.22116 2.16358 2.1562 2.15427 2.14783 1.96664 2.14851 1.91951 1.87739 1.86104 1.79236 1.69691 1.55678 1.88751 1.43336 1.42783 1.26822 1.53369 1.70168 1.63954
threshold=56.73995750000001 74.697321428571442 0.25881904510252091 46.345000000000006 -0.70710678118654735 -54.184999999999995 0.74630224703324377 69.519240000000011 -0.37940952255126059 -12.805000000000005 26.746907975542246 0.6057602370733024 0.12940952255126045 0.33904321900388901 0.38156087156439544 -0.9330127018922193 0.44992488071653708 86.015000000000015 0.44981674051715043 0.52372639536389809 0.16212558001279828 0.11178986578439482 0.51129879302689629 14.500000000000002 0.67455146461725246 10.440000000000003 -0.68301270189221952 75.243301250000016 77.442499999999981 -2.5150000000000001
decision_type=2 2 2 2 2 2 2 2 2 2 2 2 2 2 2 2 2 2 2 2 2 2 2 2 2 2 2 2 2 2
left_child=1 2 3 4 10 6 -6 18 9 -7 13 14 21 -1 26 -11 17 -17 24 20 -19 -2 -22 -24 -4 -3 -10 29 -29 -28
right_child=12 25 7 -5 5 8 -8 -9 11 15 -12 -13 -14 -15 -16 16 -18 19 -20 -21 22 -23 23 -25 -26 -27 27 28 -30 -31
leaf_value=-0.26404666847764685 0.88464686018347738 -1.0693755635681323 -0.23704587057236523 -1.3072044169219021 -0.5161877482286571 0.022831732071178387 -0.88434922474422106 0.3375006991469981 0.14701866200413352 -0.71391410303460157 0.039613397099355387 -0.52624725196136468 0.50915324763861081 -0.44374443444270811 -0.011345066666174117 0.057309745151064663 -0.73430747025870691 -0.59550253511031015 -1.3296862464031596 -0.53327802307217231 0.32828001702841841 -0.042942648247425191 -0.58642466361293988 -0.28919988566391475 -0.86737146788759656 0.35759598413821536 -0.64747288104381395 -0.82447809081101353 -0.32199757394835959 -0.16099211102585589
leaf_weight=45 1249 33 964 37 26 102 22 824 69 23 672 22 2453 20 596 63 29 37 24 24 34 705 28 50 24 1227 50 40 28 114
leaf_count=45 1249 33 964 37 26 102 22 824 69 23 672 22 2453 20 596 63 29 37 24 24 34 705 28 50 24 1227 50 40 28 114
internal_value=0.000380943 -0.000921178 -0.00173053 -0.00286016 -0.002617 -0.00402727 -0.0158333 -0.00041939 -0.00359435 -0.00679487 -2.03526e-05 -0.00223613 0.0028103 -0.00884615 -0.00185619 -0.00923611 -0.00801887 -0.00644068 -0.00201581 -0.00916185 -0.00708054 0.00157114 -0.00392857 -0.00782051 -0.00168016 0.00162698 -0.005299 -0.00706897 -0.0133824 -0.00445122
internal_weight=9634 5227 3967 2131 2094 1357 48 1836 1309 390 737 919 4407 65 897 288 265 236 1012 173 149 1954 112 78 988 1260 301 232 68 164
internal_count=9634 5227 3967 2131 2094 1357 48 1836 1309 390 737 919 4407 65 897 288 265 236 1012 173 149 1954 112 78 988 1260 301 232 68 164
is_linear=0
shrinkage=0.05


Tree=29
num_leaves=31
num_cat=0
split_feature=17 125 111 123 123 130 83 130 4 47 100 60 34 41 0 22 136 40 49 39 83 130 118 41 49 80 109 60 39 120
split_gain=12.3005 2.87527 2.16814 1.62871 1.90549 1.84455 1.61305 1.68741 3.62753 3.21823 2.6892 1.72361 1.57626 3.57635 1.44335 1.62635 1.44339 1.74351 1.37681 1.52909 1.28248 1.90166 1.42258 1.93908 1.84864 1.69761 1.39358 1.26759 1.225 1.21971
threshold=67.97226000000002 0.23025918549037647 0.11178986578439482 0.44970284059999827 0.44970324377215459 0.38608801364898682 0.17055748113251032 0.7948088049888612 -0.8783796973249266 32.804890675929194 0.83181858062744152 71.500000000000014 13.333541666666671 22.861238699261715 12.500000000000002 26.427499999999977 0.37986908853054052 54.41713059895833 237.85500000000005 1.0457620563517585 0.63992371179759233 0.58984035253524791 0.78225407004356395 17.671952583062296 130.52000000000004 0.17511736357007993 0.90323421359062206 66.500000000000014 0.64189055660985395 0.44981652643118836
decision_type=2 2 2 2 2 2 2 2 2 2 2 2 2 2 2 2 2 2 2 2 2 2 2 2 2 2 2 2 2 2
left_child=1 18 -2 6 -5 -6 28 20 -9 11 -11 -10 13 -7 16 -16 -4 27 19 -1 22 -22 23 24 -8 -25 29 -18 -3 -27
right_child=2 3 14 4 5 12 7 8 9 10 -12 -13 -14 -15 15 -17 17 -19 -20 -21 21 -23 -24 25 -26 26 -28 -29 -30 -31
leaf_value=0.01814706452697119 0.90080865766487817 -0.44411858609399435 0.34011387460179521 -0.82129248797334453 -0.2860986717865695 -0.24340236527771064 -0.31629540878744739 -0.54203989808957853 -0.46006515413178956 0.051000607322448814 -0.98934755801054719 -0.066153469344634189 -0.26037321050965501 -0.83177970485774433 -0.61736510259623711 -0.010661152067081868 -1.1910104167878091 0.75808095223953142 0.32240509571084885 -1.7553026437304966 0.065228560248347736 -0.55585445968810865 0.53430992835853197 0.22980516309496024 -1.0310344532924969 -0.12086528367523082 -1.0921839189114195 -0.37868974950749279 -0.7955004218310141 -0.87976676360812489
leaf_weight=170 3035 20 1396 24 374 29 24 28 36 199 20 29 167 21 29 661 30 70 612 37 44 41 241 333 23 1845 25 24 20 27
leaf_count=170 3035 20 1396 24 374 29 24 28 36 199 20 29 167 21 29 661 30 70 612 37 44 41 241 333 23 1845 25 24 20 27
internal_value=0.000380943 -0.00115174 0.00243565 -0.00176471 -0.00410569 -0.00354484 -0.0012775 -0.00114065 -0.00461538 -0.00292253 -2.28309e-05 -0.0126923 -0.00721198 -0.015 0.00124434 -0.000652174 0.00210526 -0.00306452 0.00152015 -0.00200483 -0.000724164 -0.00676471 -0.000520254 -0.000906895 -0.0109574 -0.000695067 -0.00127306 -0.00981481 -0.01125 -0.00111645
internal_weight=9634 4389 5245 3570 615 591 2955 2915 312 284 219 65 217 50 2210 690 1520 124 819 207 2603 85 2518 2277 47 2230 1897 54 40 1872
internal_count=9634 4389 5245 3570 615 591 2955 2915 312 284 219 65 217 50 2210 690 1520 124 819 207 2603 85 2518 2277 47 2230 1897 54 40 1872
is_linear=0
shrinkage=0.05


Tree=30
num_leaves=31
num_cat=0
split_feature=24 117 102 77 131 59 142 1 111 74 136 47 72 1 0 61 0 95 27 3 118 5 37 119 39 104 66 90 43 111
split_gain=11.4316 3.03459 3.02198 3.62436 2.7005 4.17372 2.20632 1.79777 2.30769 2.00898 2.11487 2.625 1.77846 1.65023 2.96218 2.1925 1.93229 1.39275 1.44603 1.77355 3.80952 1.33603 1.26643 2.12578 1.23764 1.1515 1.54925 1.12798 1.08305 3.12979
threshold=56.73995750000001 0.28683928371027428 0.44981127787343883 -34.104999999999997 0.56210438818049979 0.48958333333333343 0.91263940930366527 0.12940952255126045 0.11178986578439482 208.95000000000002 0.043500592932105002 69.476031362142692 1.1500575000000011 0.25881904510252091 15.500000000000002 0.48511904761904767 13.500000000000002 0.24306976323535665 0.83570108347426741 5.5000000000000009 0.061143347993493004 1.0000000180025095e-35 76.805000000000021 0.22497812635312978 0.1955229033901445 0.30547566818035243 -12.310000000000015 0.21672497998177578 82.851316250000011 0.45051337838999089
decision_type=2 2 2 2 2 2 2 2 2 2 2 2 2 2 2 2 2 2 2 2 2 2 2 2 2 2 2 2 2 2
left_child=1 13 4 -4 6 -6 24 8 -2 -10 -11 -12 -5 14 15 16 25 18 -18 20 -20 -16 23 -15 -3 -1 -27 -26 29 -29
right_child=7 2 3 12 5 -7 -8 -9 9 10 11 -13 -14 22 21 -17 17 -19 19 -21 -22 -23 -24 -25 27 26 -28 28 -30 -31
leaf_value=0.10000018693524491 0.86001526210213053 -0.91618741262845027 -0.20371283548406016 -1.1314598966845393 -0.50561472426402254 0.0088515599975044473 -0.50269995142946244 0.42310641069565097 0.023409783035842919 0.34374703875366042 -0.38878420491093874 -0.94258035801410289 -0.89957519280784892 -1.2437812501694749 -0.01845871907192145 -0.55934195216643112 -0.019033574152101891 -0.47146331106359995 -1.6160509743659333 0.40442381722284398 -0.31966027852392043 0.42417369936033406 0.47799479002288509 0.40086250509764965 -0.50052901335043032 -0.76795767097022971 -0.18285408455395757 -0.14277889865378768 -0.053832928191585541 -0.79368308318619263
leaf_weight=322 1274 31 51 20 38 42 23 2459 617 34 32 24 21 28 308 21 83 24 20 29 28 391 727 64 28 20 97 685 2123 40
leaf_count=322 1274 31 51 20 38 42 23 2459 617 34 32 24 21 28 308 21 83 24 20 29 28 391 727 64 28 20 97 685 2123 40
internal_value=0.000352432 -0.000832067 -0.0018343 -0.0107609 -0.00156146 -0.010625 -0.00131399 0.00261261 0.00149167 -0.000799151 -0.00777778 -0.01375 -0.0218293 0.000605921 -0.000472822 -0.00291925 -0.00238363 -0.00668478 -0.005 -0.00993506 -0.0158333 0.00178112 0.00237485 -0.00315217 -0.00119195 -0.000580865 -0.00482906 -0.00108484 -0.000986657 -0.00265517
internal_weight=9704 5264 3102 92 3010 80 2930 4440 1981 707 90 56 41 2162 1343 644 623 184 160 77 48 699 819 92 2907 439 117 2876 2848 725
internal_count=9704 5264 3102 92 3010 80 2930 4440 1981 707 90 56 41 2162 1343 644 623 184 160 77 48 699 819 92 2907 439 117 2876 2848 725
is_linear=0
shrinkage=0.05


end of trees

feature_importances:
hour_sin=40
hour=33
cmg_lag_6h=30
zero_risk_avg_t+18=29
cmg_std_168h=25
cmg_min_6h=18
cmg_cv_168h=18
zero_risk_xgb_t+20=17
zero_risk_avg_t+20=17
cmg_max_168h=16
zeros_count_168h=16
cmg_mean_24h=14
zero_risk_avg_t+16=14
cmg_mean_48h=13
cmg_lag_48h=12
zero_risk_avg_t+5=12
zero_risk_lgb_t+12=12
zero_risk_lgb_t+16=12
month_cos=11
cmg_lag_3h=11
cmg_cv_24h=11
cmg_mean_168h=11
zero_risk_lgb_t+5=11
zero_risk_avg_t+13=11
zero_risk_avg_t+19=11
month=10
cmg_cv_6h=10
cmg_max_12h=10
cmg_cv_12h=10
cmg_max_48h=10
zeros_ratio_48h=10
zero_risk_lgb_t+2=10
zero_risk_avg_t+17=10
cmg_max_6h=9
zero_risk_avg_t+1=9
zero_risk_avg_t+9=9
zero_risk_xgb_t+14=9
zero_risk_xgb_t+19=9
zero_risk_avg_t+3=8
zero_risk_avg_t+12=8
zero_risk_xgb_t+13=8
zero_risk_avg_t+22=8
dow_cos=7
cmg_mean_12h=7
cmg_std_24h=7
cmg_max_24h=7
cmg_std_48h=7
cmg_cv_48h=7
cmg_diff_vs_yesterday=7
zero_risk_avg_t+6=7
zero_risk_xgb_t+7=7
zero_risk_avg_t+10=7
zero_risk_lgb_t+13=7
zero_risk_lgb_t+17=7
zero_risk_avg_t+21=7
dow_sin=6
cmg_range_12h=6
cmg_range_24h=6
cmg_trend_6h=6
cmg_diff_vs_last_week=6
zero_risk_avg_t+2=6
zero_risk_lgb_t+9=6
zero_risk_avg_t+14=6
zero_risk_lgb_t+15=6
zero_risk_lgb_t+20=6
zero_risk_xgb_t+22=6
zero_risk_xgb_t+23=6
cmg_lag_12h=5
cmg_lag_24h=5
cmg_mean_6h=5
cmg_range_6h=5
zeros_ratio_12h=5
hours_since_zero=5
cmg_change_1h=5
zero_risk_xgb_t+6=5
zero_risk_avg_t+7=5
zero_risk_xgb_t+10=5
zero_risk_xgb_t+15=5
zero_risk_xgb_t+16=5
zero_risk_xgb_t+18=5
cmg_min_12h=4
cmg_range_48h=4
cmg_range_168h=4
zeros_ratio_168h=4
cmg_change_24h=4
zero_risk_xgb_t+4=4
zero_risk_lgb_t+6=4
zero_risk_xgb_t+8=4
zero_risk_xgb_t+12=4
zero_risk_lgb_t+14=4
zero_risk_avg_t+15=4
zero_risk_avg_t+23=4
zero_risk_xgb_t+24=4
hour_cos=3
month_sin=3
is_afternoon=3
cmg_lag_2h=3
cmg_std_6h=3
zeros_count_6h=3
cmg_change_48h=3
zero_risk_xgb_t+2=3
zero_risk_avg_t+8=3
zero_risk_xgb_t+11=3
zero_risk_xgb_t+21=3
day_of_week=2
cmg_std_12h=2
zeros_count_24h=2
zeros_ratio_24h=2
cmg_trend_48h=2
cmg_same_hour_last_week=2
cmg_7d_median_same_hour=2
zero_risk_lgb_t+3=2
zero_risk_xgb_t+3=2
zero_risk_lgb_t+8=2
zero_risk_xgb_t+9=2
zero_risk_avg_t+24=2
is_evening=1
cmg_lag_1h=1
zeros_ratio_6h=1
zeros_count_48h=1
cmg_trend_12h=1
cmg_same_hour_yesterday=1
zero_risk_xgb_t+1=1
zero_risk_lgb_t+4=1
zero_risk_xgb_t+5=1
zero_risk_lgb_t+11=1
zero_risk_lgb_t+18=1

parameters:
[boosting: gbdt]
[objective: quantile]
[metric: quantile]
[tree_learner: serial]
[device_type: cuda]
[data_sample_strategy: bagging]
[data: ]
[valid: ]
[num_iterations: 31]
[learning_rate: 0.05]
[num_leaves: 31]
[num_threads: 0]
[seed: 44]
[deterministic: 0]
[force_col_wise: 0]
[force_row_wise: 1]
[histogram_pool_size: -1]
[max_depth: -1]
[min_data_in_leaf: 20]
[min_sum_hessian_in_leaf: 0.001]
[bagging_fraction: 0.8]
[pos_bagging_fraction: 1]
[neg_bagging_fraction: 1]
[bagging_freq: 5]
[bagging_seed: 21897]
[bagging_by_query: 0]
[feature_fraction: 0.8]
[feature_fraction_bynode: 1]
[feature_fraction_seed: 12646]
[extra_trees: 0]
[extra_seed: 20733]
[early_stopping_round: 0]
[early_stopping_min_delta: 0]
[first_metric_only: 0]
[max_delta_step: 0]
[lambda_l1: 0]
[lambda_l2: 0]
[linear_lambda: 0]
[min_gain_to_split: 0]
[drop_rate: 0.1]
[max_drop: 50]
[skip_drop: 0.5]
[xgboost_dart_mode: 0]
[uniform_drop: 0]
[drop_seed: 20829]
[top_rate: 0.2]
[other_rate: 0.1]
[min_data_per_group: 100]
[max_cat_threshold: 32]
[cat_l2: 10]
[cat_smooth: 10]
[max_cat_to_onehot: 4]
[top_k: 20]
[monotone_constraints: ]
[monotone_constraints_method: basic]
[monotone_penalty: 0]
[feature_contri: ]
[forcedsplits_filename: ]
[refit_decay_rate: 0.9]
[cegb_tradeoff: 1]
[cegb_penalty_split: 0]
[cegb_penalty_feature_lazy: ]
[cegb_penalty_feature_coupled: ]
[path_smooth: 0]
[interaction_constraints: ]
[verbosity: -1]
[saved_feature_importance_type: 0]
[use_quantized_grad: 0]
[num_grad_quant_bins: 4]
[quant_train_renew_leaf: 0]
[stochastic_rounding: 1]
[linear_tree: 0]
[max_bin: 255]
[max_bin_by_feature: ]
[min_data_in_bin: 3]
[bin_construct_sample_cnt: 200000]
[data_random_seed: 182]
[is_enable_sparse: 1]
[enable_bundle: 1]
[use_missing: 1]
[zero_as_missing: 0]
[feature_pre_filter: 1]
[pre_partition: 0]
[two_round: 0]
[header: 0]
[label_column: ]
[weight_column: ]
[group_column: ]
[ignore_column: ]
[categorical_feature: ]
[forcedbins_filename: ]
[precise_float_parser: 0]
[parser_config_file: ]
[objective_seed: 3944]
[num_class: 1]
[is_unbalance: 0]
[scale_pos_weight: 1]
[sigmoid: 1]
[boost_from_average: 1]
[reg_sqrt: 0]
[alpha: 0.1]
[fair_c: 1]
[poisson_max_delta_step: 0.7]
[tweedie_variance_power: 1.5]
[lambdarank_truncation_level: 30]
[lambdarank_norm: 1]
[label_gain: ]
[lambdarank_position_bias_regularization: 0]
[eval_at: ]
[multi_error_top_k: 1]
[auc_mu_weights: ]
[num_machines: 1]
[local_listen_port: 12400]
[time_out: 120]
[machine_list_filename: ]
[machines: ]
[gpu_platform_id: -1]
[gpu_device_id: -1]
[gpu_use_dp: 1]
[num_gpu: 1]

end of parameters

pandas_categorical:[]
