tree
version=v4
num_class=1
num_tree_per_iteration=1
label_index=0
max_feature_idx=149
objective=quantile
feature_names=hour hour_sin hour_cos day_of_week dow_sin dow_cos month month_sin month_cos is_weekend is_night is_morning is_afternoon is_evening cmg_lag_1h cmg_lag_2h cmg_lag_3h cmg_lag_6h cmg_lag_12h cmg_lag_24h cmg_lag_48h cmg_lag_168h cmg_mean_6h cmg_std_6h cmg_min_6h cmg_max_6h cmg_range_6h cmg_cv_6h cmg_mean_12h cmg_std_12h cmg_min_12h cmg_max_12h cmg_range_12h cmg_cv_12h cmg_mean_24h cmg_std_24h cmg_min_24h cmg_max_24h cmg_range_24h cmg_cv_24h cmg_mean_48h cmg_std_48h cmg_min_48h cmg_max_48h cmg_range_48h cmg_cv_48h cmg_mean_168h cmg_std_168h cmg_min_168h cmg_max_168h cmg_range_168h cmg_cv_168h zeros_count_6h zeros_ratio_6h zeros_count_12h zeros_ratio_12h zeros_count_24h zeros_ratio_24h zeros_count_48h zeros_ratio_48h zeros_count_168h zeros_ratio_168h hours_since_zero was_zero_1h_ago was_zero_2h_ago was_zero_24h_ago cmg_trend_6h cmg_trend_12h cmg_trend_24h cmg_trend_48h cmg_change_1h cmg_change_24h cmg_change_48h cmg_same_hour_yesterday cmg_same_hour_last_week cmg_7d_median_same_hour cmg_diff_vs_yesterday cmg_diff_vs_last_week zero_risk_lgb_t+1 zero_risk_xgb_t+1 zero_risk_avg_t+1 zero_risk_lgb_t+2 zero_risk_xgb_t+2 zero_risk_avg_t+2 zero_risk_lgb_t+3 zero_risk_xgb_t+3 zero_risk_avg_t+3 zero_risk_lgb_t+4 zero_risk_xgb_t+4 zero_risk_avg_t+4 zero_risk_lgb_t+5 zero_risk_xgb_t+5 zero_risk_avg_t+5 zero_risk_lgb_t+6 zero_risk_xgb_t+6 zero_risk_avg_t+6 zero_risk_lgb_t+7 zero_risk_xgb_t+7 zero_risk_avg_t+7 zero_risk_lgb_t+8 zero_risk_xgb_t+8 zero_risk_avg_t+8 zero_risk_lgb_t+9 zero_risk_xgb_t+9 zero_risk_avg_t+9 zero_risk_lgb_t+10 zero_risk_xgb_t+10 zero_risk_avg_t+10 zero_risk_lgb_t+11 zero_risk_xgb_t+11 zero_risk_avg_t+11 zero_risk_lgb_t+12 zero_risk_xgb_t+12 zero_risk_avg_t+12 zero_risk_lgb_t+13 zero_risk_xgb_t+13 zero_risk_avg_t+13 zero_risk_lgb_t+14 zero_risk_xgb_t+14 zero_risk_avg_t+14 zero_risk_lgb_t+15 zero_risk_xgb_t+15 zero_risk_avg_t+15 zero_risk_lgb_t+16 zero_risk_xgb_t+16 zero_risk_avg_t+16 zero_risk_lgb_t+17 zero_risk_xgb_t+17 zero_risk_avg_t+17 zero_risk_lgb_t+18 zero_risk_xgb_t+18 zero_risk_avg_t+18 zero_risk_lgb_t+19 zero_risk_xgb_t+19 zero_risk_avg_t+19 zero_risk_lgb_t+20 zero_risk_xgb_t+20 zero_risk_avg_t+20 zero_risk_lgb_t+21 zero_risk_xgb_t+21 zero_risk_avg_t+21 zero_risk_lgb_t+22 zero_risk_xgb_t+22 zero_risk_avg_t+22 zero_risk_lgb_t+23 zero_risk_xgb_t+23 zero_risk_avg_t+23 zero_risk_lgb_t+24 zero_risk_xgb_t+24 zero_risk_avg_t+24
feature_infos=[0:23] [-1:1] [-1:1] [0:6] [-0.97492791218182362:0.97492791218182362] [-0.90096886790241903:1] [1:12] [-1:1] [-1:1] [0:1] [0:1] [0:1] [0:1] [0:1] [0:371.66000000000003] [0:371.66000000000003] [0:371.66000000000003] [0:371.66000000000003] [0:371.66000000000003] [0:371.66000000000003] [0:371.66000000000003] [0:371.66000000000003] [0:349.44666666666666] [0:153.30693861227124] [0:339.83999999999997] [0:371.66000000000003] [0:371.66000000000003] [0:2.4494896766224681] [0:333.88333333333338] [0:141.231575175367] [0:327.86000000000001] [0:371.66000000000003] [0:371.66000000000003] [0:3.464101428007337] [0:315.17583333333329] [0:133.58115591090203] [0:296.29000000000002] [0:371.66000000000003] [0:371.66000000000003] [0:4.8989787993545502] [0:305.62479166666668] [0:121.59284917311297] [0:289.70999999999998] [0:371.66000000000003] [0:371.66000000000003] [0:6.9282012893730816] [15.913095238095238:269.83386904761909] [23.211038969083901:105.75616875003355] [0:77.849999999999994] [70.306545:371.66000000000003] [70.306545:371.66000000000003] [0.22275801180977944:2.3481555595262882] [0:6] [0:1] [0:12] [0:1] [0:24] [0:1] [0:48] [0:1] [0:127] [0:0.75595238095238093] [0:308] [0:1] [0:1] [0:1] [-295.41000000000003:371.66000000000003] [-334.23000000000002:338.87] [-371.66000000000003:329.93000000000001] [-328.94999999999999:335.49000000000001] [-329.93000000000001:329.93000000000001] [-371.66000000000003:329.93000000000001] [-328.94999999999999:335.49000000000001] [0:371.66000000000003] [0:371.66000000000003] [0:371.66000000000003] [-371.66000000000003:329.93000000000001] [-371.66000000000003:314.30000000000001] [0:0.32669745056921329] [0:0.99765104055404663] [0:0.65594157105835782] [0:0.44992488438738992] [0:0.99227374792098999] [0:0.65330949089309875] [0:1] [0:0.99535131454467762] [0:0.89101618528366089] [0:0.3267054404748142] [0:0.99328559637069702] [0:0.64707901859745287] [0:1] [0:0.99299073219299316] [0:0.78795132040977478] [0:1] [0:0.98111879825592041] [0:0.88434042521562106] [0:0.44992488049970181] [0:0.9914417862892152] [0:0.65295007639933389] [0:0.44992488315890761] [0:0.98150163888931286] [0:0.64798000269938272] [0:0.4498236612326354] [0:0.98505371809005737] [0:0.64969947531079386] [0:0.31423210000304258] [0:0.98909991979598999] [0:0.65166600989951629] [0:0.99958394666309602] [0:0.98193889856338501] [0:0.64808549876032762] [0:0.65148023165098867] [0:0.98361694812774658] [0:0.81074030894454341] [0:0.44981409352920038] [0:0.99168819189071655] [0:0.6693220198680222] [0:0.99999831221257041] [0:0.99181115627288818] [0:0.69725304154041812] [0:0.44982899400120402] [0:0.99005705118179321] [0:0.65280482369477544] [0:0.44970562071533349] [0:0.98534667491912842] [0:0.64978938719368651] [0:0.4496097775267468] [0:0.98795938491821278] [0:0.65359174215656068] [0:0.4494850584872731] [0:0.99276989698410045] [0:0.65350099634193715] [0:0.31423209680738462] [0:0.98970258235931396] [0:0.65196733958334929] [0:0.44926402353972478] [0:0.99073618650436401] [0:0.67099088631880888] [0:0.32627491427323052] [0:0.98989325761795044] [0:0.65194954853722364] [0:0.32627491427323052] [0:0.98751729726791382] [0:0.65076156836220533] [0:0.44915255373655549] [0:0.98664319515228283] [0:0.63870736098717074] [0:0.3140058394564969] [0:0.9937611222267152] [0:0.65388348084160597]
tree_sizes=2663 2792 2770 2802 2812 2811 2819 2813 2813 2811 2825 2798 2815 2834 2819 2810 2825 2828 2833 2860 2821 2849 2821 2827 2835

Tree=0
num_leaves=31
num_cat=0
split_feature=104 147 104 0 46 32 40 49 32 86 94 109 0 139 100 101 4 33 92 15 69 67 23 1 61 91 51 23 6 98
split_gain=56.3184 16.2281 16.4851 7.89507 6.12789 5.92031 4.77689 4.77921 5.49469 4.40128 4.35972 4.1703 4.13784 4.00705 3.35271 2.86419 2.84392 3.44327 3.26313 2.63139 2.59085 2.56583 4.9373 2.52019 2.55072 2.43459 2.41066 2.42827 2.36331 2.47839
threshold=0.28789025236978022 0.30175529426276126 0.49299908283509469 11.500000000000002 37.433720238095241 62.45412875000001 41.423825572916677 265.32000000000005 74.810000000000016 0.49355996404260088 0.70321533083915722 0.69174745678901683 3.5000000000000004 0.21949514001607892 0.15708164125680921 0.53349035412157464 -1.0000000180025095e-35 0.90753146777364313 0.59885289147496235 34.147883750000005 -4.0399999999999983 -25.041616249999993 12.253862404323403 0.37940952255126054 0.21726190476190479 0.91225522756576549 0.53673846838024863 58.595170052416854 9.5000000000000018 0.24825023197162532
decision_type=2 2 2 2 2 2 2 2 2 2 2 2 2 2 2 2 2 2 2 2 2 2 2 2 2 2 2 2 2 2
left_child=9 2 3 6 5 10 7 14 -9 -1 -4 20 15 -13 -2 -3 -12 -18 -19 -7 26 22 -6 -23 -25 -11 -5 -28 29 -8
right_child=1 12 4 11 21 19 28 8 -10 25 16 13 -14 -15 -16 -17 17 18 -20 -21 -22 23 -24 24 -26 -27 27 -29 -30 -31
leaf_value=35.538400660481464 32.886450634811077 33.758700614720581 34.13727167258272 33.746450671609487 33.462015358107664 32.70410063382834 32.803135790492327 33.392700672149658 33.210300598168374 34.300600618755801 32.516841800413495 34.73000072772254 34.80140072459286 33.021390858288385 33.024135837305302 33.230200638249514 35.043093117269166 33.09245313794554 33.418907760929493 32.90717571142725 34.140700724030268 32.682570008521253 32.852368278513474 32.824742957052415 34.219206093890307 33.274000609447064 33.256550666829227 33.022508922469761 33.218504992306777 33.59483663150732
leaf_weight=4678 31 185 37 21 23 46 22 31 32 1153 21 34 723 69 278 38 21 39 23 55 860 76 31 25 106 21 397 22 171 442
leaf_count=4678 31 185 37 21 23 46 22 31 32 1153 21 34 723 69 278 38 21 39 23 55 860 76 31 25 106 21 397 22 171 442
internal_value=34.0965 34.0914 34.0896 34.0913 34.0813 34.0756 34.0879 34.0834 34.0708 34.0992 34.0822 34.0937 34.0971 34.084 34.086 34.0911 34.077 34.0811 34.0752 34.0663 34.0945 34.0866 34.0769 34.0892 34.0934 34.0964 34.0913 34.0922 34.0905 34.0924
internal_weight=9711 3859 2913 2410 503 242 1007 372 63 5852 141 1403 946 103 309 223 104 83 62 101 1300 261 54 207 131 1174 440 419 635 464
internal_count=9711 3859 2913 2410 503 242 1007 372 63 5852 141 1403 946 103 309 223 104 83 62 101 1300 261 54 207 131 1174 440 419 635 464
is_linear=0
shrinkage=1


Tree=1
num_leaves=31
num_cat=0
split_feature=114 104 1 117 98 31 43 2 146 56 41 101 20 102 34 41 142 110 49 83 20 46 34 51 17 46 95 49 35 114
split_gain=56.1066 27.1526 6.85914 6.47622 6.40542 5.26535 4.92254 4.70208 4.85108 3.48228 3.50544 3.47466 3.18983 3.15559 2.82983 2.68173 2.66898 2.60648 2.65547 2.41857 3.14213 2.71647 4.11777 2.3473 2.26398 1.96049 1.99648 1.93189 3.0717 2.04569
threshold=0.32649517747557388 0.37820273139720267 0.12940952255126045 0.28719841850841138 0.56649645767855661 98.327756250000007 72.259387500000017 0.91597561503675351 0.33665440415044534 1.5000000000000002 53.99717702219862 0.25985543287034574 61.633996250000003 0.44981604946776804 15.207569739583334 37.406417609849903 0.26664920151233679 0.42743530810747665 139.90500000000003 0.28505590739639286 13.128205000000003 31.20138984375 21.443001770833337 1.2319701749956531 63.66878375000001 60.038333333333341 0.58971768281242565 265.32000000000005 38.493609329668075 0.44981409326825578
decision_type=2 2 2 2 2 2 2 2 2 2 2 2 2 2 2 2 2 2 2 2 2 2 2 2 2 2 2 2 2 2
left_child=11 2 -2 5 7 -4 -6 9 12 10 -3 -1 17 15 -5 19 -10 18 -9 -11 21 22 -21 -19 -22 26 27 29 -29 -16
right_child=1 4 3 14 6 -7 -8 8 16 13 -12 -13 -14 -15 25 -17 -18 23 -20 20 24 -23 -24 -25 -26 -27 -28 28 -30 -31
leaf_value=1.5640799517171378 -0.044862684354364343 -0.68429125373464761 -1.2418418224439352 -1.1565725242862475 -0.59864614817343209 -0.46511842144577531 -1.1987211632336763 -0.96255117595349271 -1.6212646631161443 -0.67410569878107096 -1.0521960315887993 0.2224299649548005 -0.71240489102023563 -1.6573275333712638 -0.32642072840305336 -0.40676907374996052 -1.2841040246643021 -0.71335426495189613 -1.4121676486312416 -0.4620726153327212 -0.98666547308031505 0.027530950822343317 -1.0180283953344369 -1.2270965678538674 -1.4476179456918004 0.65985812129524535 -1.0896437412450637 -0.98074174709879403 -0.079925204911855022 -1.2171300398367646
leaf_weight=4277 1917 97 32 25 38 25 54 22 30 159 20 1590 76 26 293 273 33 57 25 41 161 92 32 24 23 116 22 34 40 57
leaf_count=4277 1917 97 32 25 38 25 54 22 30 159 20 1590 76 26 293 273 33 57 25 41 161 92 32 24 23 116 22 34 40 57
internal_value=0.000455154 -0.00461238 -0.00163803 -0.00610248 -0.0105495 -0.022193 -0.0232609 -0.00956759 -0.015412 -0.00787879 -0.0159402 0.0031592 -0.0116667 -0.00671004 -0.00454003 -0.00613956 -0.0275397 -0.0164844 -0.0258511 -0.0082874 -0.010616 -0.00560606 -0.0128082 -0.0110494 -0.0151087 -0.00380783 -0.0053139 -0.00455189 -0.0118919 -0.003
internal_weight=9711 3844 2561 644 1283 57 92 1191 267 924 117 5867 204 807 587 781 63 128 47 508 349 165 73 81 184 562 446 424 74 350
internal_count=9711 3844 2561 644 1283 57 92 1191 267 924 117 5867 204 807 587 781 63 128 47 508 349 165 73 81 184 562 446 424 74 350
is_linear=0
shrinkage=0.05


Tree=2
num_leaves=31
num_cat=0
split_feature=114 104 1 117 37 92 50 104 35 40 15 104 0 8 51 114 7 79 46 34 93 111 73 26 27 133 95 111 92 5
split_gain=52.1881 24.1535 6.50663 5.90813 5.57053 5.414 4.03724 4.66961 4.95602 3.79495 3.75 3.63372 3.55287 3.70147 3.28945 3.2871 3.95187 3.15273 2.86458 2.85919 2.58031 2.34015 3.97102 2.29758 3.00174 2.23194 3.37149 2.15565 2.10241 1.91626
threshold=0.32649517747557388 0.37820273139720267 0.12940952255126045 0.28719841850841138 87.850000000000009 0.61197467894582103 226.67946750000002 0.49299908283509469 27.9946874277707 41.717395833333342 54.909973750000013 0.28233033072104824 2.5000000000000004 0.6830127018922193 1.2433035454926533 0.32669202981795903 -0.5 0.13294977694749835 35.633214285714295 15.207569739583334 0.17029614138260449 0.45055130342472155 57.833552500000003 24.705000000000009 1.1057773898242285 0.40414050221443182 0.52306638937443495 0.44968090137887667 0.59885289147496235 -0.22252093395631442
decision_type=2 2 2 2 2 2 2 2 2 2 2 2 2 2 2 2 2 2 2 2 2 2 2 2 2 2 2 2 2 2
left_child=11 2 -2 4 -4 6 7 14 15 17 18 28 13 -13 21 -9 25 -7 -10 -5 27 22 -3 -18 -25 -17 -27 -8 -1 -24
right_child=1 5 3 19 -6 9 20 8 10 -11 -12 12 -14 -15 -16 16 23 -19 -20 -21 -22 -23 29 24 -26 26 -28 -29 -30 -31
leaf_value=1.3484584458400033 -0.042619550136646166 -0.92615617066157974 -1.168281778906566 -1.0987438980719351 -0.82678152707148422 -0.59575410199061751 -1.4304028719577271 -1.4745439889562217 -1.3016883216208572 -0.64979900852118277 -0.84880219960635162 -0.29135653332150258 0.27652565935693352 -0.69088150875841881 0.12176531103864155 0.28431171852725007 -1.0443726330950827 -1.4088418605824986 -1.3741511008804652 -0.53714766811329961 -0.77073055598537366 0.33062656394627726 -1.5001589337953594 -1.3529573688547214 -0.7908256385161877 -0.28113274205854988 -1.0678423097301837 -0.13680175613876991 -1.3138215211652042 -0.62972965314743523
leaf_weight=4781 1917 199 25 25 32 20 24 23 32 52 36 139 882 45 93 54 26 55 22 562 353 30 45 20 34 45 39 31 20 50
leaf_count=4781 1917 199 25 25 32 20 24 23 32 52 36 139 882 45 93 54 26 55 22 562 353 30 45 20 34 45 39 31 20 50
internal_value=0.000455154 -0.00440427 -0.00159898 -0.0059472 -0.0213158 -0.0100039 -0.00892734 -0.0111096 -0.0155438 -0.0198031 -0.0255556 0.00309102 0.000450282 -0.00586956 -0.00758993 -0.011805 -0.00990826 -0.027 -0.0338889 -0.00445485 -0.00492647 -0.00996914 -0.0113265 -0.01875 -0.0246296 -0.00478261 -0.00988095 -0.015 0.00367736 -0.0197368
internal_weight=9711 3844 2561 644 57 1283 1156 748 331 127 90 5867 1066 184 417 241 218 75 54 587 408 324 294 80 54 138 84 55 4801 95
internal_count=9711 3844 2561 644 57 1283 1156 748 331 127 90 5867 1066 184 417 241 218 75 54 587 408 324 294 80 54 138 84 55 4801 95
is_linear=0
shrinkage=0.05


Tree=3
num_leaves=31
num_cat=0
split_feature=114 0 40 121 92 95 109 8 101 134 92 4 7 98 76 148 0 46 1 0 61 61 33 100 26 55 148 40 67 29
split_gain=51.0514 23.3702 10.1565 4.73144 5.20651 4.79253 4.62383 3.84805 3.50649 3.4936 3.68842 3.57179 4.03427 4.12386 3.3827 4.04802 3.25252 3.065 6.23685 3.76365 3.50869 2.5575 2.89302 2.4604 2.39722 2.39444 4.83246 2.70287 2.22258 3.1529
threshold=0.32649517747557388 10.500000000000002 38.502291666666672 0.13596018403768537 0.57823294773697864 0.23704371332433202 0.61889445781707775 1.0000000180025095e-35 0.25985543287034574 0.259899646285979 0.64280463755130779 -1.0000000180025095e-35 -0.5 0.52387606702494638 -23.379350000000002 0.35930489003658295 2.5000000000000004 53.584498772321432 -0.70710678118654735 12.500000000000002 0.53869047619047628 0.38988095238095244 1.8308786606819096 0.73494553565979015 151.48907125000002 0.54166666666666685 0.58342924714088451 10.005729166666669 19.05500000000001 22.726048928433116
decision_type=2 2 2 2 2 2 2 2 2 2 2 2 2 2 2 2 2 2 2 2 2 2 2 2 2 2 2 2 2 2
left_child=8 2 3 -2 28 -6 7 -3 -1 -4 11 12 13 -11 15 -8 23 19 -19 20 -9 22 24 -10 -21 26 -7 -27 29 -5
right_child=1 6 9 4 5 25 14 17 16 10 -12 -13 -14 -15 -16 -17 -18 18 -20 21 -22 -23 -24 -25 -26 27 -28 -29 -30 -31
leaf_value=1.4249031350170587 0.073540941161080731 0.20558464532602361 -0.45561611581535488 -0.83275819994492783 -0.90242032251158089 -1.2323828254060698 -1.4915166176621568 -0.8970927030675937 -0.30701247261933456 -1.2108714845756554 -0.71341902377144673 -0.51335259309233761 -0.67024050821368053 -1.0280234813996647 -0.69892483170289099 -0.25015719340722448 0.2959928037371426 -1.4304617456871018 0.199601152574261 -0.28290760751347471 -1.2436559069346829 0.50464355113080428 -1.6502924057868644 -0.80658745551950695 -1.3007564154333338 -0.69046293945206749 -1.0596192763914156 -0.51309586601208235 -0.76812523478284578 -1.2576405896205101
leaf_weight=4277 49 1552 511 86 56 37 24 96 161 49 23 140 36 24 185 21 1402 31 38 184 20 311 31 27 21 26 29 42 111 111
leaf_count=4277 49 1552 511 86 56 37 24 96 161 49 23 140 36 24 185 21 1402 31 38 184 20 311 31 27 21 26 29 42 111 111
internal_value=0.000455154 -0.00433923 -0.00969925 -0.0149269 -0.0163855 -0.0228947 -0.00150358 -0.000823117 0.00307397 -0.00604725 -0.010625 -0.00885542 -0.0156422 -0.0223973 -0.00826087 -0.0205556 0.00106918 -0.00381148 -0.0138406 -0.00276772 -0.0109483 -0.00103291 -0.00495763 -0.00510638 -0.00280488 -0.0177612 -0.0245455 -0.0111765 -0.0123701 -0.0155584
internal_weight=9711 3844 1330 547 498 190 2514 2284 5867 783 272 249 109 73 230 45 1590 732 69 663 116 547 236 188 205 134 66 68 308 197
internal_count=9711 3844 1330 547 498 190 2514 2284 5867 783 272 249 109 73 230 45 1590 732 69 663 116 547 236 188 205 134 66 68 308 197
is_linear=0
shrinkage=0.05


Tree=4
num_leaves=31
num_cat=0
split_feature=114 0 127 92 109 43 92 121 37 37 6 87 76 148 37 0 61 68 35 79 61 33 26 77 110 148 35 0 34 86
split_gain=48.5258 22.0155 7.56955 5.45314 4.4105 4.38208 3.69247 3.66387 4.09875 4.00132 3.61269 4.75603 3.50338 4.04802 3.37101 3.14192 3.92215 3.02405 2.75242 3.0281 2.55282 2.97776 3.30169 2.32008 3.36531 4.09375 2.3136 2.29859 2.1973 2.25021
threshold=0.32649517747557388 10.500000000000002 0.33741727471351624 0.58871565386652958 0.61889445781707775 98.215000000000018 0.62651051580905925 0.36167198419570928 66.625035000000011 93.02500000000002 9.5000000000000018 0.32669754542775614 -23.379350000000002 0.35930489003658295 86.155000000000015 12.500000000000002 0.53869047619047628 -19.149999999999995 22.370293508133411 0.11588409915566442 0.38988095238095244 2.1677362921292116 151.48907125000002 -32.271106249999995 0.3166895078682499 0.6670445203781129 24.427748542266361 3.5000000000000004 40.896871250000004 0.38622767033260358
decision_type=2 2 2 2 2 2 2 2 2 2 2 2 2 2 2 2 2 2 2 2 2 2 2 2 2 2 2 2 2 2
left_child=14 2 5 18 10 6 17 9 -9 -5 28 15 13 -6 27 16 26 -2 -4 -20 21 22 -17 -21 -25 -26 -12 -1 29 -3
right_child=1 4 3 7 12 -7 -8 8 -10 -11 11 -13 -14 -15 -16 20 -18 -19 19 23 -22 -23 -24 24 25 -27 -28 -29 -30 -31
leaf_value=-0.9903187587173069 -0.90089209094060885 -0.79658638917888269 -0.66428978622444179 -0.67755682256945171 -1.4169407867790491 -0.47546842144598883 -0.73790735591386858 -0.7147034683046859 -1.3607555067558792 0.18410791066692311 -1.0337900808477467 -1.3711202508773703 -0.66397859011774651 -0.23764933373686317 1.1450078411081943 -0.062381023104021438 -1.1814731115879487 -0.63686054453084151 0.53320518641367121 -0.4822730847742796 0.48630692412396787 -1.5694388015659861 -1.2153216123932815 -0.5387960707519216 -1.168209799953168 -1.0948515829554522 -0.28720126671193319 -0.01079210171108089 0.69195624276399004 0.017661262424413363
leaf_weight=43 36 145 113 36 24 539 28 27 53 27 25 58 185 21 5494 194 20 173 34 88 303 28 27 46 99 31 77 330 872 535
leaf_count=43 36 145 113 36 24 539 28 27 53 27 25 58 185 21 5494 194 20 173 34 88 303 28 27 46 99 31 77 330 872 535
internal_value=0.000455154 -0.00419615 -0.0093985 -0.0138628 -0.00144391 -0.00621134 -0.0118776 -0.0222727 -0.029375 -0.013254 -0.000779334 -0.00367486 -0.00804348 -0.0205556 0.00303136 -0.00249258 -0.0097541 -0.0095933 -0.0109367 -0.0134564 -0.000887681 -0.00463855 -0.00269231 -0.0152652 -0.0185795 -0.0226923 -0.00578431 -0.00156836 0.00058634 -0.00154412
internal_weight=9711 3844 1330 554 2514 776 237 143 80 63 2284 732 230 45 5867 674 122 209 411 298 552 249 221 264 176 130 102 373 1552 680
internal_count=9711 3844 1330 554 2514 776 237 143 80 63 2284 732 230 45 5867 674 122 209 411 298 552 249 221 264 176 130 102 373 1552 680
is_linear=0
shrinkage=0.05


Tree=5
num_leaves=31
num_cat=0
split_feature=104 104 49 6 61 89 33 100 120 43 98 0 79 0 40 81 104 4 33 69 40 68 31 35 125 143 14 121 51 135
split_gain=44.0377 11.2442 10.1676 5.0509 5.36175 4.47597 6.17862 4.55764 3.83402 4.18306 4.88306 3.66674 3.47194 3.2262 3.12552 3.04787 3.00373 2.96251 2.8424 2.62375 2.22808 3.30919 3.47222 2.20857 3.04408 2.15489 4.72158 2.15182 2.32866 2.1046
threshold=0.28233033072104824 0.48959612443303208 228.28500000000003 9.5000000000000018 0.37797619047619052 0.25068922220686268 2.027221835189025 0.20963107049465177 0.3142320978277241 70.333272500000007 0.56649645767855661 2.5000000000000004 0.14264032989740374 1.5000000000000002 78.527604166666677 0.32637637843546102 0.39019362010030717 -0.60785761079279388 0.86531832912067019 -4.7651562500000102 32.093333333333341 47.46365500000001 62.410000000000004 26.666249223535598 0.35467599852057624 0.25810601076911305 70.218856250000002 0.20489745587110522 1.0612263906668729 0.44926240771746667
decision_type=2 2 2 2 2 2 2 2 2 2 2 2 2 2 2 2 2 2 2 2 2 2 2 2 2 2 2 2 2 2
left_child=14 3 8 15 5 6 7 -5 -3 -10 17 -4 -9 -6 -1 -2 19 18 -11 25 21 22 -19 24 -15 26 27 -17 -29 -18
right_child=1 2 11 4 13 -7 -8 12 9 10 -12 -13 -14 23 -16 16 29 20 -20 -21 -22 -23 -24 -25 -26 -27 -28 28 -30 -31
leaf_value=0.34845762661672314 0.22711152304319893 0.17943807430344233 -0.78440198064091571 -1.0676149283121923 -1.0916172314517487 -0.472635936743039 -1.5351743643477389 -0.45666388904554811 -0.62136529288152387 -1.287045166001054 -0.76754590508315124 0.054630367322723264 -1.3531731945962946 -1.3772162176290115 1.4008748214831845 -1.4255390401005732 -0.78172418110600839 -0.85824850594199431 -1.3284117242474807 0.14386553900545607 -0.64304223570424224 -0.63159828415064545 -1.0866318923930762 0.16690859578460426 -0.55847047605734834 -0.24869893045074451 0.86416946625071223 -1.2282292279461451 -0.84742124787871609 -1.0156644518326237
leaf_weight=1700 870 41 96 108 28 269 21 36 110 21 46 248 59 24 3901 26 320 30 25 673 55 37 60 303 119 268 40 42 33 20
leaf_count=1700 870 41 96 108 28 269 21 36 110 21 46 248 59 24 3901 26 320 30 25 673 55 37 60 303 119 268 40 42 33 20
internal_value=0.00045903 -0.00380089 -0.00923927 -0.00251764 -0.00554809 -0.00919878 -0.0144196 -0.0117488 -0.0144118 -0.0159635 -0.0192701 -0.00284884 -0.0197368 -0.00175105 0.00305392 -0.00123909 -0.00266526 -0.0162719 -0.0276087 -0.00137708 -0.0134066 -0.0170472 -0.0222222 -0.000717489 -0.00583916 -0.00453545 -0.00953901 -0.015297 -0.011 -0.00676471
internal_weight=9629 4028 769 3259 967 493 224 203 425 384 274 344 95 474 5601 2292 1422 228 46 1082 182 127 90 446 143 409 141 101 75 340
internal_count=9629 4028 769 3259 967 493 224 203 425 384 274 344 95 474 5601 2292 1422 228 46 1082 182 127 90 446 143 409 141 101 75 340
is_linear=0
shrinkage=0.05


Tree=6
num_leaves=31
num_cat=0
split_feature=104 104 46 29 81 77 6 61 94 86 143 83 39 85 47 68 129 101 21 69 125 51 0 35 26 46 45 39 118 0
split_gain=38.8609 10.8265 10.186 5.7402 4.25967 4.12217 3.9927 4.08207 3.4814 3.40776 4.59359 3.9636 3.16538 7.43071 3.03739 3.05515 2.90307 2.8165 2.7677 2.76435 2.67745 2.80874 2.65676 4.14194 3.20919 2.5214 2.51807 2.73119 2.51039 3.0124
threshold=0.28233033072104824 0.49672808961813419 36.676994047619054 26.356818316491324 0.3266035374902837 -0.24999999999999997 9.5000000000000018 0.37797619047619052 0.15017482638359073 0.59613267704844486 0.45571943381378716 0.63484270746328575 0.92940534155403098 0.15082287788391113 49.50744981629029 -56.689999999999991 0.4494815222936015 0.33512930686141457 68.964133750000016 -2.1349999999999976 0.46699473233972494 0.98225516166296434 12.500000000000002 26.491954425485179 26.170000000000005 20.378839285714289 0.97640376814588847 0.74664324613517541 0.69127997756004345 1.0000000180025095e-35
decision_type=2 2 2 2 2 2 2 2 2 2 2 2 2 2 2 2 2 2 2 2 2 2 2 2 2 2 2 2 2 2
left_child=8 6 3 9 28 18 14 12 -1 -3 11 -11 17 16 15 19 -14 -8 -6 -2 21 -15 23 24 -9 -10 -17 -28 -4 -30
right_child=1 2 4 -5 5 -7 7 22 25 10 -12 -13 13 20 -16 26 -18 -19 -20 -21 -22 -23 -24 -25 -26 -27 27 -29 29 -31
leaf_value=1.1854136198885461 -1.2371717641427229 -0.61340583673385163 0.10770067763330396 -1.1025300313995912 -0.35133960328035829 -1.0742205083311669 0.029979297787644712 -1.0423469781111121 -0.93385735256065761 -0.91135684940642436 -0.91573672234353909 0.14408838709010538 -1.4476317317690248 -1.0864051476989516 0.20561241775688802 -0.029569094526103536 -1.4225983981206838 -0.67032569646188656 -1.1516083627247615 0.7127860191646973 0.27209017186370665 -0.50201553029219226 0.3814551872134101 -0.28716157502490847 -0.89376953126553849 0.18255572269549847 -0.93436773074782753 -0.87227231988363119 -0.91923649448433375 -0.50044650435717886
leaf_weight=4417 77 113 230 64 65 27 120 21 38 23 27 20 32 24 1042 754 37 171 21 26 56 70 284 144 34 1146 22 403 22 99
leaf_count=4417 77 113 230 64 65 27 120 21 38 23 27 20 32 24 1042 754 37 171 21 26 56 70 284 144 34 1146 22 403 22 99
internal_value=0.000453837 -0.00346574 -0.0090647 -0.0172672 -0.00469828 -0.0131416 -0.0022656 -0.00491944 0.00297358 -0.0127596 -0.0214286 -0.0112791 -0.00803922 -0.0125799 -0.00113167 -0.00276131 -0.0261594 -0.00462199 -0.0077907 -0.0110194 -0.00633333 -0.0114894 -0.00162526 -0.00605528 -0.0177273 0.000565879 -0.00203986 -0.00511765 -0.00198006 -0.00780992
internal_weight=9629 4028 711 247 464 113 3317 993 5601 183 70 43 510 219 2324 1282 69 291 86 103 150 94 483 199 55 1184 1179 425 351 121
internal_count=9629 4028 711 247 464 113 3317 993 5601 183 70 43 510 219 2324 1282 69 291 86 103 150 94 483 199 55 1184 1179 425 351 121
is_linear=0
shrinkage=0.05


Tree=7
num_leaves=31
num_cat=0
split_feature=104 104 46 29 81 6 15 69 104 135 47 68 94 37 31 46 118 0 89 148 21 139 114 0 68 148 35 69 8 137
split_gain=36.2466 10.3208 9.3924 5.12563 3.92863 3.67086 3.53898 3.30908 3.66642 3.67881 3.52917 3.51497 3.27794 2.57689 3.07628 2.5214 2.51039 3.0124 2.46524 3.08629 2.35345 2.32288 2.22944 2.20481 2.12245 2.11123 4.72616 3.27491 1.988 2.26891
threshold=0.28233033072104824 0.49672808961813419 36.676994047619054 30.518181332409636 0.3266035374902837 5.5000000000000009 2.5983912500000006 -4.7651562500000102 0.40283386879362926 0.44926240771746667 56.957759077611463 -55.220549999999996 0.15017482638359073 99.226315000000014 104.88000000000001 20.378839285714289 0.69127997756004345 1.0000000180025095e-35 0.39831310033120021 0.69880640506744396 33.765810000000009 0.17842084169387817 0.44981409317521132 2.5000000000000004 -4.1650000000000054 0.20384864509105682 30.96688389170998 -11.584999999999992 -0.68301270189221952 0.37927579555138008
decision_type=2 2 2 2 2 2 2 2 2 2 2 2 2 2 2 2 2 2 2 2 2 2 2 2 2 2 2 2 2 2
left_child=12 5 3 18 16 -2 20 10 23 -10 11 13 -1 22 -15 -14 -4 -18 -3 28 -6 -5 -7 24 -9 26 27 -13 29 -20
right_child=1 2 4 21 6 7 -8 8 9 -11 -12 25 15 14 -16 -17 17 -19 19 -21 -22 -23 -24 -25 -26 -27 -28 -29 -30 -31
leaf_value=1.1261429388941189 0.19913561621790254 -0.26023430588651858 0.10231564375163878 -0.91868902660387808 -0.98040258326046392 -1.1247411506965201 -1.0760137732998964 -1.0761490029919731 -0.61089716423336837 -1.3438491758708271 -0.21308150298935213 -1.3418265566818486 -0.88716448493262468 -0.30205838729941697 -1.2497440705256859 0.17342793656072364 -0.87327466976011703 -0.47542417913931995 -1.0891661026233852 -0.6840243490385739 -0.302518135445278 -0.8809991047264335 -1.2955187446138734 0.0031040639341934221 -0.30507103388202511 -0.59983704356526601 0.065457483956667575 -0.67485478450954517 -0.41304728880668506 -0.57304414423745709
leaf_weight=4417 615 37 230 21 26 32 29 26 357 23 263 51 38 51 20 1146 22 99 30 45 58 20 26 1315 72 394 52 20 73 21
leaf_count=4417 615 37 230 21 26 32 29 26 357 23 263 51 38 51 20 1146 22 99 30 45 58 20 26 1315 72 394 52 20 73 21
internal_value=0.000438259 -0.00331678 -0.0087834 -0.0166599 -0.00459052 -0.00214501 -0.0126991 -0.00293856 -0.00169269 -0.00605263 -0.00539604 -0.0073839 0.00290216 -0.0147674 -0.00838028 0.000565879 -0.00198006 -0.00780992 -0.0134466 -0.0160059 -0.0075 -0.0328049 -0.0225862 -0.00052017 -0.0077551 -0.00554159 -0.0112602 -0.0196479 -0.0119355 -0.0195098
internal_weight=9629 4028 711 247 464 3317 113 2702 1793 380 909 646 5601 129 71 1184 351 121 206 169 84 41 58 1413 98 517 123 71 124 51
internal_count=9629 4028 711 247 464 3317 113 2702 1793 380 909 646 5601 129 71 1184 351 121 206 169 84 41 58 1413 98 517 123 71 124 51
is_linear=0
shrinkage=0.05


Tree=8
num_leaves=31
num_cat=0
split_feature=104 114 104 148 47 35 55 70 38 0 116 58 23 38 27 1 34 58 148 103 95 85 109 130 35 26 0 56 77 26
split_gain=34.233 10.931 10.6675 5.74664 5.11457 4.96848 5.8489 3.73218 3.52739 3.35948 3.01571 2.91729 2.58049 3.07882 2.2779 2.24397 2.95117 4.23528 3.89774 2.22857 2.07261 1.85791 2.85523 1.76449 2.62456 2.71636 3.12458 4.10711 3.00394 2.75656
threshold=0.32052212831979293 0.32649517747557388 0.50700581239649389 0.10269781947135921 48.229720586890089 27.9946874277707 0.29166666666666669 -52.364999999999988 40.385693750000009 2.5000000000000004 0.33638669384797087 9.5000000000000018 54.546266048440586 84.155000000000015 0.089279216538992553 -0.37940952255126059 27.429089427083337 25.500000000000004 0.20659884810447693 0.37228210270404821 0.36728691027031818 0.094485260546207414 0.51386874914169323 0.19584771245718002 23.935827819188088 75.225636250000022 9.5000000000000018 12.500000000000002 46.95500000000002 61.82500000000001
decision_type=2 2 2 2 2 2 2 2 2 2 2 2 2 2 2 2 2 2 2 2 2 2 2 2 2 2 2 2 2 2
left_child=3 9 7 -1 5 10 -7 20 -9 12 -4 -6 13 -2 -12 16 17 18 -10 -20 -3 22 -19 -17 -25 26 27 28 29 -26
right_child=1 2 4 -5 11 6 -8 8 15 -11 14 -13 -14 -15 -16 23 -18 21 19 -21 -22 -23 -24 24 25 -27 -28 -29 -30 -31
leaf_value=1.1695054990453153 -0.89897297328235659 -1.2722485723495027 -0.97997030726209811 0.10665753558481846 -1.1914722084079787 -0.76791525187259457 -0.98130038695502741 -1.3726000343252656 -1.4334700714033739 0.3103927701164344 -0.174502887074761 -0.48909382691561448 -0.59566581974995891 0.051494103220815185 -0.68842998433000435 -0.18494153022868415 0.030761957700234845 0.37784160257626032 0.0077332709138697555 -1.3285596218664244 -0.3747408825841827 0.61953260497388773 -1.4701028344085936 -0.25290629762633587 -0.7188928598308223 -0.52746446903639066 -0.83225255652694319 0.27995417568455627 -1.0647011817676151 -0.5879381188662699
leaf_weight=3949 28 31 23 2706 22 32 50 23 20 670 52 126 20 116 128 213 557 35 30 26 20 78 22 174 91 151 165 28 20 23
leaf_count=3949 28 31 23 2706 22 32 50 23 20 670 52 126 20 116 128 213 557 35 30 26 20 78 22 174 91 151 165 28 20 23
internal_value=0.000438259 -0.00411231 -0.00600467 0.00234035 -0.0130139 -0.0169298 -0.0273171 -0.00422671 -0.00381642 0.000743405 -0.012734 -0.00547297 -0.00567073 -0.00333333 -0.0105556 -0.00354256 -0.00157552 -0.00661137 -0.0160526 -0.00928571 -0.017549 -0.0012963 -0.00815789 -0.00528902 -0.00657975 -0.00849372 -0.011055 -0.0159877 -0.0196269 -0.0164912
internal_weight=9629 2974 2140 6655 433 285 82 1707 1656 834 203 148 164 144 180 1633 768 211 76 56 51 135 57 865 652 478 327 162 134 114
internal_count=9629 2974 2140 6655 433 285 82 1707 1656 834 203 148 164 144 180 1633 768 211 76 56 51 135 57 865 652 478 327 162 134 114
is_linear=0
shrinkage=0.05


Tree=9
num_leaves=31
num_cat=0
split_feature=104 104 46 29 81 15 7 94 69 104 135 140 61 46 106 41 146 32 22 98 139 33 45 118 0 112 131 131 43 16
split_gain=32.3635 10.119 8.79255 4.02855 3.30672 3.96713 3.20065 3.15388 2.93394 2.79889 3.60833 2.58495 2.59044 2.60713 2.54569 2.41044 2.32429 2.3196 3.65856 2.73441 2.29971 2.28194 2.21742 2.16713 2.38017 2.09167 1.90974 1.99171 1.90688 1.88875
threshold=0.28233033072104824 0.49672808961813419 36.676994047619054 30.518181332409636 0.3266035374902837 2.5983912500000006 -0.5 0.15017482638359073 -4.7651562500000102 0.40283386879362926 0.44926240771746667 0.17666601599092357 0.38988095238095244 39.015765334821438 0.62732499837875377 27.876487970464929 0.59834351277778974 26.073495000000001 13.764999999999985 0.56649645767855661 0.17842084169387817 2.2696267051560248 1.0305806778379487 0.69127997756004345 1.0000000180025095e-35 0.32275384664535528 0.28493713667662363 0.30225588154105232 85.63000000000001 68.168763750000025
decision_type=2 2 2 2 2 2 2 2 2 2 2 2 2 2 2 2 2 2 2 2 2 2 2 2 2 2 2 2 2 2
left_child=7 6 3 14 23 -6 8 -1 16 11 -11 12 13 -10 -3 -8 26 -16 19 -19 -5 -9 -20 -4 -25 -23 -2 -28 -17 -14
right_child=1 2 4 20 5 -7 15 21 9 10 -12 -13 29 -15 17 28 -18 18 22 -21 -22 25 -24 24 -26 -27 27 -29 -30 -31
leaf_value=1.023857014105841 -0.11307232579498819 -0.90877594258926642 0.081680223058235066 -0.824756481935212 -0.705447348256248 -0.98231624971515918 -0.59284623517112167 0.18332059185680097 -1.3417916225472037 -0.5697877386692024 -1.2141866130376036 0.16708165863967983 0.03824274864550415 -1.008468284551969 -0.070551014964747832 -1.2722624089035328 0.61530901917936365 -1.081079971556747 -0.84442957128315099 -0.73388203357768833 -0.78788413014236047 -1.230162226557046 -0.33187371026398971 -0.78246699100538075 -0.40899050446126889 0.57698477252145031 -1.2473417696369131 -1.0042250041322338 0.15929173210534847 -1.1446445720074871
leaf_weight=4417 81 30 230 21 84 29 387 1128 27 242 23 603 206 56 43 21 56 26 20 22 20 34 65 22 99 22 23 374 1170 48
leaf_count=4417 81 30 230 21 84 29 387 1128 27 242 23 603 206 56 43 21 56 26 20 22 20 34 65 22 99 22 23 374 1170 48
internal_value=0.000438259 -0.00301887 -0.00843179 -0.0160526 -0.004375 -0.0118142 -0.00185861 0.00285753 -0.00333813 -0.00197095 -0.00650943 -0.000691489 -0.00419881 -0.0118675 -0.0132039 -0.000228137 -0.00642322 -0.0109091 -0.0141729 -0.0252083 -0.0303659 0.000565879 -0.00794118 -0.00198006 -0.00739669 -0.00928571 -0.0075523 -0.00897985 0.00088581 -0.00169291
internal_weight=9629 4028 711 247 464 113 3317 5601 1739 1205 265 940 337 83 206 1578 534 176 133 48 41 1184 85 351 121 56 478 397 1191 254
internal_count=9629 4028 711 247 464 113 3317 5601 1739 1205 265 940 337 83 206 1578 534 176 133 48 41 1184 85 351 121 56 478 397 1191 254
is_linear=0
shrinkage=0.05


Tree=10
num_leaves=31
num_cat=0
split_feature=114 103 97 2 82 0 39 39 146 135 49 49 7 88 61 56 8 20 110 107 74 43 118 11 39 109 122 122 27 39
split_gain=32.2616 13.2404 5.81397 6.94837 4.38334 4.01273 3.75043 3.63123 3.60561 3.08433 3.03278 3.03149 4.65747 3.58589 4.80288 3.12504 2.7586 2.65251 4.45873 2.27883 2.25757 2.46956 2.32667 2.21597 2.7346 2.65459 2.15111 2.08451 1.88328 1.88299
threshold=0.32649517747557388 0.33077044785022741 0.855980545282364 0.91597561503675351 0.14885194599628448 2.5000000000000004 1.3629109539951541 2.2484014939752375 0.33942794907062651 0.44926242218692475 228.28500000000003 215.92000000000004 -1.0000000180025095e-35 0.47817665338516241 0.26488095238095244 14.500000000000002 0.93301270189221952 61.045000000000009 0.37107175870572529 0.560119819072464 15.240000000000002 82.851316250000011 0.53386270999908458 1.0000000180025095e-35 1.7155937199356834 0.37030507624149328 0.45579384078436652 0.54137755063220006 0.36243314944805077 0.92227356104505209
decision_type=2 2 2 2 2 2 2 2 2 2 2 2 2 2 2 2 2 2 2 2 2 2 2 2 2 2 2 2 2 2
left_child=4 23 3 9 -1 16 -4 -8 17 10 11 12 20 14 -13 -14 -6 18 -5 -20 21 26 -23 29 25 -25 -3 -19 -10 -2
right_child=1 2 6 8 5 -7 7 -9 28 -11 -12 13 15 -15 -16 -17 -18 27 19 -21 -22 22 -24 24 -26 -27 -28 -29 -30 -31
leaf_value=1.0505162765587255 0.23088898593426374 -0.8391690395068836 -0.65436710934915931 -0.98766809555154345 -0.35782085055731627 0.14851666653278042 -0.90141086648014179 -0.36350027257790118 -0.74536065207344859 -1.1506409086300868 -0.16681651742407927 -0.39913724677813817 -0.96520209120496525 -0.23167384967848248 -1.1777910815208787 0.052138345990294668 -0.62943746819884883 0.093360312884065752 -0.60016469373478887 -0.76343576047366968 0.0092027064023913526 0.11291932777826 -0.63023786261542281 -0.36841552546005468 -1.150307664303881 -0.7185092449616044 -0.11525268927873145 -0.83775600443115317 -1.0524127083345709 -0.39678072467745551
leaf_weight=4296 953 25 48 21 166 1357 48 25 22 30 461 26 56 59 48 22 21 71 83 22 314 67 27 326 26 22 20 20 46 996
leaf_count=4296 953 25 48 21 166 1357 48 25 22 30 461 26 56 59 48 22 21 71 83 22 314 67 27 326 26 22 20 20 46 996
internal_value=0.00041341 -0.00322606 -0.00678732 -0.00590278 0.00265411 0.000369171 -0.017314 -0.0244521 -0.0128947 -0.00417749 -0.00375556 -0.00591867 -0.00422787 -0.0126692 -0.02 -0.0155128 -0.00649733 -0.00974654 -0.0144444 -0.0102381 -0.00228477 -0.00758993 -0.00297872 -0.000832974 -0.00435829 -0.00318965 -0.0172222 -0.00324176 -0.0229412 -0.00015649
internal_weight=9724 3884 1561 1440 5840 1544 121 73 285 1155 1125 664 531 133 74 78 187 217 126 105 453 139 94 2323 374 348 45 91 68 1949
internal_count=9724 3884 1561 1440 5840 1544 121 73 285 1155 1125 664 531 133 74 78 187 217 126 105 453 139 94 2323 374 348 45 91 68 1949
is_linear=0
shrinkage=0.05


Tree=11
num_leaves=31
num_cat=0
split_feature=104 0 114 98 40 102 46 58 70 39 39 100 3 55 43 69 34 145 49 98 102 70 130 37 135 47 102 30 108 27
split_gain=31.9461 8.52498 6.56576 8.9985 4.23953 4.07433 3.72405 3.44537 3.3744 3.33724 3.50725 3.23624 3.02363 3.54421 3.07876 3.31833 2.87811 2.73288 2.34476 2.18778 2.1328 2.12618 2.09547 1.90895 2.56817 2.56906 2.65629 1.96726 1.90819 1.89253
threshold=0.28233033072104824 2.5000000000000004 0.32611443427147579 0.55317557313073074 34.208020833333343 0.44981621873580879 71.321577380952405 10.500000000000002 -54.184999999999995 1.3629109539951541 2.2484014939752375 0.53331947326660167 2.5000000000000004 0.20833333333333334 126.15500000000002 -25.43127749999999 44.039711979166675 0.40800856053829193 253.64315500000004 0.25850895824035536 0.44980517914002394 -13.6 0.18622240424156186 99.226315000000014 0.44926244595652132 33.939697198990501 0.4498018455791048 48.455000000000005 0.24846075198390152 0.6097443040480256
decision_type=2 2 2 2 2 2 2 2 2 2 2 2 2 2 2 2 2 2 2 2 2 2 2 2 2 2 2 2 2 2
left_child=6 4 -3 5 21 8 20 -7 16 -5 -11 23 -13 22 15 -15 -4 18 -6 -20 -1 -2 -14 24 27 -26 -27 28 -10 -24
right_child=1 2 3 9 17 7 -8 -9 11 10 -12 12 13 14 -16 -17 -18 -19 19 -21 -22 -23 29 -25 25 26 -28 -29 -30 -31
leaf_value=0.30962169378593923 -0.99456275542602146 0.1865967081357216 -1.2850415266529149 -0.66428201006869148 -0.4958596448683521 -0.73953357234540018 1.1097629925833374 -1.111780635022712 -1.2807295548544482 -0.86204738608456444 -0.3635029872142993 -0.21644080110550767 -0.21023578070099994 -0.84252275643818708 0.23066650556736185 -0.65101736495137774 -0.36299858231027493 -0.84736474522442118 -0.89337967951422748 -0.60043565991886061 -0.60962626487688842 -0.71952135621255353 -1.088105719979062 0.049150609331875351 0.39080272746806255 -0.97480153173152062 -1.3013761355913123 -0.59376538490140429 -0.22215703390829594 -0.61428231921811682
leaf_weight=1477 41 815 20 44 279 30 4140 24 21 46 23 235 20 27 92 51 29 29 31 77 37 116 49 934 25 22 24 47 890 29
leaf_count=1477 41 815 20 44 279 30 4140 24 21 46 23 235 20 27 92 51 29 29 31 77 37 116 49 934 25 22 24 47 890 29
internal_value=0.00041341 -0.00304668 -0.00212039 -0.00331469 -0.00869983 -0.00270728 0.00276265 -0.0162963 -0.00241551 -0.0171239 -0.0239855 -0.00215734 -0.00573559 -0.00936567 -0.005 -0.0123077 -0.0154082 -0.00605769 -0.00494832 -0.0112037 0.000640687 -0.0157006 -0.0169388 -0.00124045 -0.00272595 -0.0119014 -0.018913 -0.00204593 -0.00153128 -0.020641
internal_weight=9724 4070 3497 2682 573 2569 5654 54 2515 113 69 2466 503 268 170 78 49 416 387 108 1514 157 98 1963 1029 71 46 958 911 78
internal_count=9724 4070 3497 2682 573 2569 5654 54 2515 113 69 2466 503 268 170 78 49 416 387 108 1514 157 98 1963 1029 71 46 958 911 78
is_linear=0
shrinkage=0.05


Tree=12
num_leaves=31
num_cat=0
split_feature=104 0 34 102 101 40 70 38 146 50 20 29 71 92 5 50 117 117 58 8 47 98 51 35 41 100 3 56 110 95
split_gain=29.9464 7.35926 6.23691 6.26129 3.97059 3.89749 3.85348 3.4722 3.09505 3.02368 4.02685 3.00357 2.93821 2.9073 3.15853 2.82098 2.51917 2.85445 2.80012 2.22022 2.47101 2.18014 2.12906 2.70173 3.29089 2.10645 2.78266 3.06633 1.92825 1.85475
threshold=0.28233033072104824 2.5000000000000004 36.908129322916672 0.44981604946776804 0.23019931271756564 31.287187500000005 -44.284999999999989 64.625000000000014 0.35393518288254822 254.45500000000004 64.146897500000023 27.142878080773457 -47.329999999999998 0.31556472387219198 1.0000000180025095e-35 253.64315500000004 0.32513023352622256 0.3262759317126433 6.5000000000000009 -0.5 32.979583793879378 0.25850895824035536 1.0740473350571438 22.579972581864457 23.34980823210622 0.53331947326660167 2.5000000000000004 2.5000000000000004 0.52269192447321144 0.40434148146457144
decision_type=2 2 2 2 2 2 2 2 2 2 2 2 2 2 2 2 2 2 2 2 2 2 2 2 2 2 2 2 2 2
left_child=4 5 3 6 -1 19 -3 9 15 10 22 -10 13 -9 -15 -7 -4 18 -18 -2 -21 -17 23 24 -8 28 -27 -28 -19 -6
right_child=1 2 16 -5 29 8 7 12 11 -11 -12 -13 -14 14 -16 21 17 25 -20 20 -22 -23 -24 -25 -26 26 27 -29 -30 -31
leaf_value=1.0532660152519318 -0.87106864384801375 -1.2112368765602883 0.16592516044141317 -1.0628107808014575 0.42905152391793194 -0.41244655219603382 -0.56632680726595008 0.44254394220275278 -0.78129256707742389 0.17527895878507807 -1.0645085463913089 -1.0252978881938872 -0.30050753000067387 -0.88242020461217219 -0.93796536438915301 -0.84871069553851619 -0.83900549785546485 0.013553237257478354 -0.54399859043732657 0.26833154880842597 -0.74591865309316974 -0.73525325479637038 -0.56309557429956247 -0.43519842550142296 -1.0928486147501273 0.046799392355505259 -0.92377999637514208 -0.68413175317685104 -0.79900903143036661 -0.33602108792060542
leaf_weight=4021 50 24 863 20 1267 280 33 28 21 53 20 24 899 42 33 31 22 963 30 28 55 84 117 54 23 103 36 98 36 366
leaf_count=4021 50 24 863 20 1267 280 33 28 21 53 20 24 899 42 33 31 22 963 30 28 55 84 117 54 23 103 36 98 36 366
internal_value=0.00041341 -0.00292383 -0.0020632 -0.00473254 0.00270074 -0.00817626 -0.00431373 -0.00394777 -0.00590909 -0.00866667 -0.0109919 -0.0183333 -0.00253493 -0.010534 -0.0156667 -0.00449367 -0.00039284 -0.00179348 -0.0132692 -0.0156767 -0.0106627 -0.011087 -0.00909692 -0.0140909 -0.0217857 -0.00131068 -0.00554852 -0.0102985 -0.000305305 0.000621556
internal_weight=9724 4070 3497 1346 5654 573 1326 1302 440 300 247 45 1002 103 75 395 2151 1288 52 133 83 115 227 110 56 1236 237 134 999 1633
internal_count=9724 4070 3497 1346 5654 573 1326 1302 440 300 247 45 1002 103 75 395 2151 1288 52 133 83 115 227 110 56 1236 237 134 999 1633
is_linear=0
shrinkage=0.05


Tree=13
num_leaves=31
num_cat=0
split_feature=104 0 114 97 101 39 102 148 58 69 127 51 69 97 146 58 17 44 133 139 102 58 149 107 33 73 140 127 86 0
split_gain=27.3274 7.1098 5.67653 7.70723 3.9008 3.77381 3.68081 3.37059 2.9037 2.58593 2.56771 2.47897 2.26667 2.26468 2.88589 2.48987 2.9007 2.20764 2.18998 3.69671 2.10015 2.05375 3.58788 2.8658 1.91387 1.829 1.80252 1.73983 2.52083 1.66471
threshold=0.28233033072104824 2.5000000000000004 0.32611443427147579 0.855980545282364 0.23019931271756564 0.86090048505087402 0.44981621873580879 0.16309723258018494 10.500000000000002 -4.4376275000000041 0.57429414987564098 0.81601632893031917 -12.298452500000003 0.73794347047805797 0.33942794907062651 24.500000000000004 31.680000000000003 265.32000000000005 0.31798985600471502 0.59370952844619762 0.44980517914002394 17.500000000000004 0.2291219140083913 0.41255975904820236 1.3992227147646792 39.395000000000003 0.22862794380852497 0.73878052830696117 0.28435179141636491 11.500000000000002
decision_type=2 2 2 2 2 2 2 2 2 2 2 2 2 2 2 2 2 2 2 2 2 2 2 2 2 2 2 2 2 2
left_child=4 5 -3 6 -1 17 9 25 -8 11 12 -4 -5 14 15 -9 -17 26 -13 21 27 23 -23 24 -20 -7 -2 -6 -29 -11
right_child=1 2 3 10 20 7 8 13 -10 29 -12 18 -14 -15 -16 16 -18 -19 19 -21 -22 22 -24 -25 -26 -27 -28 28 -30 -31
leaf_value=1.0006027144893352 -0.057185250207738396 0.17787820762991907 0.027792208933102636 -0.61468209749238034 0.31972883191967783 -0.81121929874362653 -0.70323455559100401 -0.58208030761106833 -1.0030510642315036 -0.29540836363881556 -0.81188950233429313 -0.22755897904418798 -0.33071196480600307 -0.3918618364316967 -0.86782551343783776 -0.50680281899343249 -0.91417881103960053 -0.72279641266394201 -0.70091331724385142 -0.59096303244486337 -0.6005975278289406 -1.1724829782354254 -0.050665068164619687 -0.78126743951379574 -1.2666483564785813 0.034101830704104462 -0.82799190207124129 0.55833490503392669 -1.2831348299777821 0.073472090369337217
leaf_weight=4021 199 815 205 34 1548 28 30 66 24 618 28 243 51 39 36 22 23 23 78 190 37 20 62 26 25 60 77 24 24 1048
leaf_count=4021 199 815 205 34 1548 28 30 66 24 618 28 243 51 39 36 22 23 23 78 190 37 20 62 26 25 60 77 24 24 1048
internal_value=0.00041341 -0.00275184 -0.00190592 -0.00301641 0.00262115 -0.00791448 -0.00245426 -0.0121533 -0.0153704 -0.00217694 -0.0157965 -0.00442285 -0.0114706 -0.0159677 -0.0188095 -0.0148198 -0.0238889 -0.0040301 -0.0059472 -0.00821696 0.000560319 -0.0127725 -0.00658537 -0.0167054 -0.0129612 -0.00409091 -0.00278985 0.000833334 -0.00854167 -0.00103241
internal_weight=9724 4070 3497 2682 5654 573 2569 274 54 2515 113 849 85 186 147 111 45 299 644 401 1633 211 82 129 103 88 276 1596 48 1666
internal_count=9724 4070 3497 2682 5654 573 2569 274 54 2515 113 849 85 186 147 111 45 299 644 401 1633 211 82 129 103 88 276 1596 48 1666
is_linear=0
shrinkage=0.05


Tree=14
num_leaves=31
num_cat=0
split_feature=79 104 0 49 102 31 69 43 6 12 66 123 29 77 103 0 104 49 146 101 116 139 69 100 127 58 67 17 19 70
split_gain=25.9942 9.90008 5.50685 5.02443 3.94199 3.57292 3.35195 3.61021 3.0721 2.98932 2.96958 2.81752 2.81056 2.7441 4.34434 2.39901 2.92733 2.33382 2.37637 3.05504 1.96489 1.79207 1.75219 2.01399 1.6017 1.59061 2.36605 1.57342 1.45431 1.57834
threshold=0.10058658197522162 0.36429163220559629 1.5000000000000002 226.67946750000002 0.449802102374386 80.27500000000002 -12.298452500000003 122.24846500000001 5.5000000000000009 1.0000000180025095e-35 16.065000000000005 0.44970213522290109 27.142878080773457 -36.579999999999998 0.77990835905075084 4.5000000000000009 0.49299908283509469 225.63500000000002 0.47270766532848696 0.58827773106045356 0.18649922082493753 0.53308999538421642 1.3649999999999951 0.39542043209075933 0.83027502894401561 25.500000000000004 -48.189154999999992 72.175000000000026 81.465000000000018 -52.364999999999988
decision_type=2 2 2 2 2 2 2 2 2 2 2 2 2 2 2 2 2 2 2 2 2 2 2 2 2 2 2 2 2 2
left_child=8 9 10 6 -5 -6 7 12 -1 20 11 13 15 -3 27 -4 21 18 -8 25 -2 -17 -12 -24 -11 26 -20 -15 29 -22
right_child=1 2 3 4 5 -7 17 -9 -10 24 22 -13 -14 14 -16 16 -18 -19 19 -21 28 -23 23 -25 -26 -27 -28 -29 -30 -31
leaf_value=0.92826050952849715 0.67827333902669329 -0.38625671103702564 -0.092605410409758032 0.026373641209243001 -0.67354750847998379 -1.0267329285047766 -0.27450174389074761 -0.50854903258881001 0.17780109029489299 0.40342410565041215 0.081559134305549466 -0.99772809655123551 -0.88598197533961176 -0.71845059705308267 -0.72355724790363862 -1.1222191980524936 -0.85729032557284968 -1.0207402437237776 0.35879404781320318 -0.77955106803486007 -0.9248514402780208 0.021786211060297739 -0.53277794221314412 -0.84031565653784546 -1.0762297039489723 0.071039571964464795 -0.62919574179005933 -0.25225695328600878 0.19208598839715252 -0.52825871314080952
leaf_weight=4004 214 36 26 595 32 24 356 98 1229 1384 47 20 22 22 20 30 37 30 24 22 56 22 39 33 34 41 37 27 220 943
leaf_count=4004 214 36 26 595 32 24 356 98 1229 1384 47 20 22 22 20 30 37 30 24 22 56 22 39 33 34 41 37 27 220 943
internal_value=0.000408268 -0.00239256 -0.0054878 -0.0042765 -0.00106759 -0.01375 -0.00708054 -0.0120213 0.00279285 -0.000612066 -0.012418 -0.0178 -0.0172628 -0.0145238 -0.0203623 -0.0141304 -0.0180337 -0.00480392 -0.00395833 -0.00991935 -0.00222261 -0.0103846 -0.00676471 -0.0116667 0.00101551 -0.00627451 -0.0113934 -0.0123469 -0.00299836 -0.00380881
internal_weight=9724 4491 1640 1396 651 56 745 235 5233 2851 244 125 137 105 69 115 89 510 480 124 1433 52 119 72 1418 102 61 49 1219 999
internal_count=9724 4491 1640 1396 651 56 745 235 5233 2851 244 125 137 105 69 115 89 510 480 124 1433 52 119 72 1418 102 61 49 1219 999
is_linear=0
shrinkage=0.05


Tree=15
num_leaves=31
num_cat=0
split_feature=104 34 47 46 3 1 6 106 47 46 68 3 1 44 7 110 18 4 86 136 4 143 44 10 23 32 72 33 137 31
split_gain=27.0434 6.37068 4.55806 3.3842 3.31286 3.0118 4.76316 2.94744 2.72901 4.92703 4.29828 4.4744 4.43197 2.88711 2.66054 3.27559 3.05687 2.57165 2.48521 2.39485 2.26141 2.21261 4.40797 1.99312 2.66184 1.94317 1.81736 1.91681 3.26942 2.64659
threshold=0.28233033072104824 36.908129322916672 26.057626338859937 71.321577380952405 2.5000000000000004 1.0000000180025095e-35 10.500000000000002 0.12053044512867926 49.50744981629029 29.001928125000003 -7.0749999999999984 5.5000000000000009 0.60355339059327384 107.81000000000002 -0.5 0.49647703165827689 13.245295 1.0000000180025095e-35 0.62065494435116508 0.70925575494766246 -1.0000000180025095e-35 0.18239147812345538 85.096546250000017 1.0000000180025095e-35 62.068843023510446 55.249590000000005 -4.7651562500000102 1.0898014285348763 0.36942236865320416 76.112392500000013
decision_type=2 2 2 2 2 2 2 2 2 2 2 2 2 2 2 2 2 2 2 2 2 2 2 2 2 2 2 2 2 2
left_child=3 2 4 5 -2 -1 -7 -8 9 18 12 21 13 20 15 19 -17 -14 -4 26 -11 22 -12 -16 -25 -13 27 28 -3 -30
right_child=1 14 8 -5 -6 6 7 -9 -10 10 11 25 17 -15 23 16 -18 -19 -20 -21 -22 -23 -24 24 -26 -27 -28 -29 29 -31
leaf_value=0.50729593611560264 -0.54698148684482628 -0.45132259548542158 -0.015500125688502868 0.95865367862882478 -0.83896230346365663 -0.093070045401189752 -1.2232508640974331 -0.34578602350498128 -0.26720674567624936 -0.92170819186799968 -1.3011249574289072 -0.9920762795022191 -0.83975585032011291 -0.7775743537162233 0.16517860706322446 -0.32001889818976775 -0.80730628113338287 -0.51865302979592742 -0.46500417607007311 0.99306286953673206 -0.29258554536750991 -0.22306515622795597 -0.50182132839807647 -0.12470385190589819 -0.55519922092420249 -0.94111215559750172 -0.331387083891797 0.13124783078225896 -0.10300856169713515 -0.68050815515729024
leaf_weight=1024 54 107 355 4170 26 475 32 21 448 39 20 29 22 59 1000 54 32 20 33 125 37 353 51 425 33 20 625 54 33 40
leaf_count=1024 54 107 355 4170 26 475 32 21 448 39 20 29 22 59 1000 54 32 20 33 125 37 353 51 425 33 20 625 54 33 40
internal_value=0.000414629 -0.00274304 -0.00524904 0.00257952 -0.016875 0.00058634 -0.00248106 -0.0166981 -0.00462315 -0.00603083 -0.00869231 -0.00620507 -0.015339 -0.0109259 -0.00119066 -0.00308411 -0.0124419 -0.0295238 -0.00157216 -0.00226626 -0.0173684 -0.00455189 -0.0126056 0.000198903 -0.00253275 -0.0205102 -0.00320722 -0.00696581 -0.00944444 -0.0176027
internal_weight=9816 4094 1566 5722 80 1552 528 53 1486 1038 650 473 177 135 2528 1070 86 42 388 984 76 424 71 1458 458 49 859 234 180 73
internal_count=9816 4094 1566 5722 80 1552 528 53 1486 1038 650 473 177 135 2528 1070 86 42 388 984 76 424 71 1458 458 49 859 234 180 73
is_linear=0
shrinkage=0.05


Tree=16
num_leaves=31
num_cat=0
split_feature=104 34 70 102 28 0 6 35 51 46 58 119 140 146 0 120 100 25 32 87 79 8 5 3 50 6 66 70 28 28
split_gain=24.2698 5.6194 5.08862 4.54092 3.28969 3.97036 3.80193 2.62368 3.31748 3.02334 3.2065 2.50187 3.24053 4.33931 2.49582 2.52803 2.60547 2.84184 3.23474 2.96412 2.47713 3.38159 2.41203 2.17081 4.01898 2.0983 2.28424 2.0762 2.03264 1.86778
threshold=0.27737428930125035 36.908129322916672 -54.184999999999995 0.44981604946776804 88.993333333333325 12.500000000000002 10.500000000000002 30.109189235832648 1.1368237314950596 50.460170290178574 11.500000000000002 0.42566364354690184 0.12262731147509051 0.41719890273044918 2.5000000000000004 0.31423209782772421 0.5274958908557893 152.28500000000003 214.58041750000004 0.32669751562601473 0.18602966517210004 0.6830127018922193 1.0000000180025095e-35 3.5000000000000004 102.18500000000002 10.500000000000002 -55.614999999999988 13.135 13.334999999999996 48.730833333333344
decision_type=2 2 2 2 2 2 2 2 2 2 2 2 2 2 2 2 2 2 2 2 2 2 2 2 2 2 2 2 2 2
left_child=4 2 -2 7 5 6 28 8 9 10 -4 12 -12 -14 20 -16 17 -17 19 -19 21 -3 -15 27 -25 26 -18 -13 -1 -8
right_child=1 14 3 -5 -6 -7 29 -9 -10 -11 11 23 13 22 15 16 25 18 -20 -21 -22 -23 -24 24 -26 -27 -28 -29 -30 -31
leaf_value=-0.74519079035385605 -1.0123047342748339 0.070103062561437932 -0.77760026797492343 -0.8770222819867366 0.92401978846821042 0.58370258637446193 -1.3409408527158795 -0.11751669252636443 -0.42199365335249017 -0.22617614627378979 -1.2368177306928376 -0.010170069519304901 0.17725120757645663 -0.70987399918913663 0.57133149289422691 0.031215248320537761 -0.75253293176612024 -0.65780652652641036 0.38367281152551608 -1.3522348654331839 -0.76515035382816299 -0.22938707540672987 -0.74237604752673736 -0.28361714669513044 -0.89851647477969676 -0.40894088790719335 -0.3285454878460371 -0.73788137128010123 -0.04508334353941737 -0.26008040035527447
leaf_weight=33 35 204 20 27 3587 1253 20 581 464 138 29 126 44 44 658 1205 46 46 54 21 154 29 29 38 37 24 201 20 624 25
leaf_count=33 35 204 20 27 3587 1253 20 581 464 138 29 126 44 44 658 1205 46 46 54 21 154 29 29 38 37 24 201 20 624 25
internal_value=0.000414629 -0.00240524 -0.00471201 -0.00429868 0.00260917 0.000959079 -0.00205128 -0.00394904 -0.00551567 -0.00823809 -0.0105039 -0.00944142 -0.0145205 -0.010812 -0.000980318 -0.000343681 -0.00141828 -0.000505279 -0.00780992 -0.0151493 -0.00468992 -0.00143777 -0.0182877 -0.00608597 -0.013 -0.00588561 -0.00451417 -0.00253425 -0.00108828 -0.0161111
internal_weight=9816 4274 1632 1597 5542 1955 702 1570 989 525 387 367 146 117 2642 2255 1597 1326 121 67 387 233 73 221 75 271 247 146 657 45
internal_count=9816 4274 1632 1597 5542 1955 702 1570 989 525 387 367 146 117 2642 2255 1597 1326 121 67 387 233 73 221 75 271 247 146 657 45
is_linear=0
shrinkage=0.05


Tree=17
num_leaves=31
num_cat=0
split_feature=104 34 70 47 102 28 0 6 3 25 29 29 0 117 134 37 28 38 0 47 46 102 68 121 77 27 119 92 50 50
split_gain=22.5965 4.6903 4.44999 4.07229 4.08005 3.41878 3.85189 4.22071 3.16616 2.23544 3.39623 3.33118 2.55063 3.15141 2.31936 2.31682 2.20299 2.10547 2.58269 2.24104 3.89727 4.83065 3.08082 3.45492 3.25818 3.07302 2.71096 2.57102 2.14323 2.8082
threshold=0.28233033072104824 36.908129322916672 -54.184999999999995 26.057626338859937 0.44981604946776804 88.993333333333325 12.500000000000002 10.500000000000002 2.5000000000000004 148.27000000000001 57.335591522885743 44.88253627846322 10.500000000000002 0.32513023352622256 0.17645681346946468 155.70500000000001 41.286731562500002 102.28500000000001 1.5000000000000002 52.488740856939408 29.001928125000003 0.44980372320052103 -17.399999999999991 0.86990353465080272 43.134999999999998 0.78627599318828423 0.54105990552273486 0.60151659156571491 217.83169000000001 134.36213125000003
decision_type=2 2 2 2 2 2 2 2 2 2 2 2 2 2 2 2 2 2 2 2 2 2 2 2 2 2 2 2 2 2
left_child=5 2 -2 8 17 6 7 -1 -4 12 11 -11 13 -3 -15 -16 -9 19 -19 20 -5 22 26 24 27 -23 -22 -24 29 -29
right_child=1 9 3 4 -6 -7 -8 16 -10 10 -12 -13 -14 14 15 -17 -18 18 -20 -21 21 25 23 -25 -26 -27 -28 28 -30 -31
leaf_value=-0.090898790124765497 -0.96168949756109212 0.051023301868926452 -0.51096615968904524 -0.18154994661262422 -0.83317116788739976 0.87579039615057774 0.54878801943538258 -1.1535878692989809 -0.77850932887950575 -0.13260338980896824 -0.26888150308312292 -0.92436950548144781 0.28522888073475211 0.11847151645164399 -0.45730367494122359 -0.75146850972542867 -0.39282759844270587 -0.73928312015417674 0.38272363347303706 -0.058466527785701411 -0.96353986852911577 -0.87843471302920195 0.022956725384080279 -0.74044996315841383 -0.8632935805580777 -1.0718767241902034 -0.10706102831347877 -0.25816034052423448 0.15516707105145075 -1.2367669456437032
leaf_weight=704 35 578 52 314 27 3611 1357 21 24 22 212 31 1049 155 381 100 29 22 236 300 60 36 278 23 35 20 32 26 22 24
leaf_count=704 35 578 52 314 27 3611 1357 21 24 22 212 31 1049 155 381 100 29 22 236 300 60 36 278 23 35 20 32 26 22 24
internal_value=0.000409535 -0.00236444 -0.00451469 -0.00411169 -0.00352234 0.00250087 0.000902416 -0.00196286 -0.0153947 -0.00103244 -0.00537736 -0.0166981 -0.000523641 -0.00208402 -0.00451258 -0.00622661 -0.016 -0.00315826 0.000930233 -0.00405983 -0.00534483 -0.00785971 -0.0063 -0.00443627 -0.00331169 -0.0217857 -0.0145652 -0.00185714 -0.0102778 -0.016
internal_weight=9816 4094 1566 1531 1455 5722 2111 754 76 2528 265 53 2263 1214 636 481 50 1428 258 1170 870 556 500 408 385 56 92 350 72 50
internal_count=9816 4094 1566 1531 1455 5722 2111 754 76 2528 265 53 2263 1214 636 481 50 1428 258 1170 870 556 500 408 385 56 92 350 72 50
is_linear=0
shrinkage=0.05


Tree=18
num_leaves=31
num_cat=0
split_feature=104 34 47 102 28 0 6 3 28 15 38 25 29 29 79 16 122 74 31 68 117 47 77 46 143 39 109 86 68 122
split_gain=21.4135 4.22737 4.35631 3.75556 3.19343 3.34746 3.79042 3.01571 2.57471 2.26241 2.5244 2.12412 3.51038 3.33118 2.43446 2.24163 2.88891 2.37705 2.06671 2.67578 2.13333 1.91629 3.21136 2.60591 3.92055 3.67317 2.53747 1.93934 1.88348 2.95403
threshold=0.28233033072104824 36.908129322916672 26.057626338859937 0.44981604946776804 88.993333333333325 12.500000000000002 10.500000000000002 2.5000000000000004 41.286731562500002 106.37280125000001 102.28500000000001 148.27000000000001 57.335591522885743 44.88253627846322 0.10924359038472171 20.926191250000006 0.42142218437851586 194.13000000000002 71.015156250000018 -3.5222437499999977 0.32667264302588395 52.488740856939408 -125.59999999999998 29.001928125000003 0.18316011540809188 0.78571770006851105 0.27590207755565649 0.62065494435116508 -35.654999999999994 0.52407594648047429
decision_type=2 2 2 2 2 2 2 2 2 2 2 2 2 2 2 2 2 2 2 2 2 2 2 2 2 2 2 2 2 2
left_child=4 2 7 9 5 6 -1 -2 -8 10 21 14 13 -13 -3 -16 17 -17 -18 20 -20 22 -4 27 26 -26 -25 -24 29 -27
right_child=1 11 3 -5 -6 -7 8 -9 -10 -11 -12 12 -14 -15 15 16 18 -19 19 -21 -22 -23 23 24 25 28 -28 -29 -30 -31
leaf_value=-0.086353850618527073 -0.47580097382081832 0.42614972373393062 -0.92142312615741107 -0.79081285968909676 0.83200087634304887 0.52134861846361336 -1.0959084758340318 -0.72632084005133735 -0.37318621852057055 -0.97127911332329475 0.26596810115875258 -0.1259732203185199 -0.25543742792896679 -0.87815103020737517 0.15452809558148561 -0.16057279519886752 -0.060222989691260033 -1.0752857601730679 -0.34873038576016002 -0.36892011581196454 -0.93206884823779346 -0.08753210410373756 0.012519282254271373 -0.83542393375035096 -0.72751385864415807 -0.79962845419201001 -1.0968796086914689 -0.83158122756299668 -0.44306855934729844 0.033823676560438345
leaf_weight=704 54 699 20 28 3611 1357 21 26 29 20 246 22 212 31 466 855 74 22 32 67 48 304 296 32 29 39 29 22 400 21
leaf_count=704 54 699 20 28 3611 1357 21 26 29 20 246 22 212 31 466 855 74 22 32 67 48 304 296 32 29 39 29 22 400 21
internal_value=0.000409535 -0.00221788 -0.00425926 -0.00364738 0.00251835 0.000973472 -0.00169761 -0.015625 -0.015 -0.00329904 -0.00306676 -0.000953323 -0.00518868 -0.0166981 -0.000457357 -0.00155371 -0.00278688 -0.00149943 -0.00789593 -0.0113265 -0.0175 -0.00401846 -0.00519144 -0.00473502 -0.00681818 -0.0053272 -0.0187705 -0.00113208 -0.00423913 -0.0125
internal_weight=9816 4094 1566 1486 5722 2111 754 80 50 1458 1438 2528 265 53 2263 1564 1098 877 221 147 80 1192 888 868 550 489 61 318 460 60
internal_count=9816 4094 1566 1486 5722 2111 754 80 50 1458 1438 2528 265 53 2263 1564 1098 877 221 147 80 1192 888 868 550 489 61 318 460 60
is_linear=0
shrinkage=0.05


Tree=19
num_leaves=31
num_cat=0
split_feature=104 79 12 36 120 10 92 135 112 101 47 67 29 58 1 6 73 143 92 20 77 106 70 41 67 95 148 130 137 38
split_gain=19.176 3.88097 3.16584 3.02095 2.77023 2.54845 2.42887 3.48061 3.47381 3.37741 2.69231 3.1825 3.51889 2.34932 2.14764 4.52575 2.01598 2.59174 3.8531 2.23503 2.35278 1.99481 1.97293 2.90976 1.95835 1.80303 1.78473 1.74682 1.73319 1.67178
threshold=0.27737428930125035 0.11046793311834331 1.0000000180025095e-35 4.7100000000000009 0.31423209782772421 1.0000000180025095e-35 0.24796395581269984 0.44926250343785318 0.26970070600509649 0.36415117519760648 33.939697198990501 55.45000000000001 23.441764399118199 17.500000000000004 1.0000000180025095e-35 10.500000000000002 61.661650000000009 0.52369593837807249 0.60259615834856761 56.692062499999999 -0.24999999999999997 0.11439749598503106 -17.279999999999998 24.959225996614418 149.47500000000002 0.23556665164536675 0.050584798678755712 0.18211685866117477 0.35494641174264641 47.952135000000006
decision_type=2 2 2 2 2 2 2 2 2 2 2 2 2 2 2 2 2 2 2 2 2 2 2 2 2 2 2 2 2 2
left_child=3 24 4 14 5 -3 7 8 -6 -8 11 12 22 16 -1 -16 -12 18 19 -18 -21 -17 -11 -24 -2 -15 -7 -28 -25 -4
right_child=1 2 29 -5 6 26 9 -9 -10 10 13 -13 -14 25 15 21 17 -19 -20 20 -22 -23 23 28 -26 -27 27 -29 -30 -31
leaf_value=0.54969071688811533 0.13342750361018824 0.53206997978159332 -0.80068983755206669 0.79087376958577238 -0.90021148620531233 -0.79947720433987191 -0.18152753180116088 -1.0383215744988745 -0.89761612845996197 0.14167034818306784 -0.37071695120580961 0.31012333347292625 -0.8430694956795064 -0.45489894044300822 0.02590347225166887 -0.98256646115820612 -1.0060538921719404 0.81074135053392826 0.45642472595550831 -0.66014378620476766 -0.93882489447304318 -0.54918833507763365 -0.22558147078122032 -0.60575526955971382 -1.1778960021220306 0.028757233197308649 0.1017032568414919 -0.27379886261701292 -0.68190436747655891 0.054243034757429746
leaf_weight=1670 1078 274 21 2775 31 35 689 20 107 36 197 42 116 32 1055 22 31 25 24 36 20 20 101 28 34 298 102 40 58 799
leaf_count=1670 1078 274 21 2775 31 35 689 20 107 36 197 42 116 32 1055 22 31 25 24 36 20 20 101 28 34 298 102 40 58 799
internal_value=0.000404442 -0.0019022 -0.0027957 0.00255503 -0.00373185 -0.000210643 -0.00457165 -0.0105063 -0.00768116 -0.00403058 -0.00582375 -0.00917323 -0.0107817 -0.00389894 0.00138598 -0.000332725 -0.00686186 -0.0115441 -0.0148198 -0.0197126 -0.01375 -0.0164286 -0.00710762 -0.00917112 0.000638489 -0.000909091 -0.00488701 -0.00239437 -0.0159302 -0.000121951
internal_weight=9816 4274 3162 5542 2342 451 1891 158 138 1733 1044 381 339 663 2767 1097 333 136 111 87 56 42 223 187 1112 330 177 142 86 820
internal_count=9816 4274 3162 5542 2342 451 1891 158 138 1733 1044 381 339 663 2767 1097 333 136 111 87 56 42 223 187 1112 330 177 142 86 820
is_linear=0
shrinkage=0.05


Tree=20
num_leaves=31
num_cat=0
split_feature=7 104 0 102 34 58 32 0 4 14 41 31 67 20 47 5 125 127 130 47 35 3 67 100 68 61 76 36 38 104
split_gain=18.6501 5.28205 4.19867 3.20657 3.45616 4.90627 2.70087 2.65644 2.59056 2.30659 2.20655 2.08891 2.06095 3.025 2.05359 2.45929 2.03758 2.03138 2.02901 1.84242 1.65007 1.62713 1.54296 2.15149 1.48568 2.60082 1.48566 1.45851 1.76903 1.98418
threshold=0.25000000000000011 0.46415860357915434 1.5000000000000002 0.44980136383090935 15.207569739583334 30.500000000000004 90.720000000000013 3.5000000000000004 -0.60785761079279388 62.985000000000007 39.072762991790491 97.208367500000023 19.05500000000001 47.918550000000003 43.116874769907909 -0.56174490092936669 0.41424283905001807 0.91540318727493297 0.017404452897608204 40.204717745747402 28.350108412355596 5.5000000000000009 -6.4000000000000155 0.71713128685951244 -5.4411900000000122 0.11011904761904763 -2.1649999999999987 53.800905000000007 52.965665000000008 0.32052212831979293
decision_type=2 2 2 2 2 2 2 2 2 2 2 2 2 2 2 2 2 2 2 2 2 2 2 2 2 2 2 2 2 2
left_child=1 3 10 17 5 -5 -6 8 26 -8 12 -9 13 -3 15 20 -7 27 -10 -11 -4 -16 23 -17 -20 -26 -2 28 29 -1
right_child=7 2 14 4 6 16 9 11 18 19 -12 -13 -14 -15 21 22 -18 -19 24 -21 -22 -23 -24 -25 25 -27 -28 -29 -30 -31
leaf_value=-0.05071280371703462 -1.3478847929413069 -0.66697577197734914 -0.493091620285872 -1.0848244346367193 0.027455880413177026 -0.48638782978836964 -0.94997091002045186 0.12257236919846821 1.1055337405217329 0.22388815721128696 -0.62169253385986134 0.89687923467101904 -0.37275237180598514 -0.73133686345309123 0.020651306913116212 -0.69750954025134115 -0.83844696595063584 -0.93284396425324523 0.27538541629543983 -0.70661164085524886 -0.39327454603221901 -0.72513746311244442 -0.18899623481653854 -0.31767836985977055 -0.52478144240495117 -0.18478846842688745 -0.30087785565755248 0.7673918554062592 -0.037429862071037233 -0.73875124606525899
leaf_weight=56 43 20 43 26 295 55 64 816 375 38 29 3460 52 20 283 26 20 22 89 22 20 38 146 41 40 92 111 211 3148 38
leaf_count=56 43 20 43 26 295 55 64 816 375 38 29 3460 52 20 283 26 20 22 89 22 20 38 146 41 40 92 111 211 3148 38
internal_value=0.000392237 -0.00156694 -0.00551532 -0.000857321 -0.00451923 -0.0128218 -0.0025179 0.00281138 6.66669e-05 -0.00870968 -0.0140083 0.0032928 -0.0102174 -0.01875 -0.00379397 -0.00695652 -0.00633333 -0.000309352 0.0015604 -0.00166667 -0.0156349 -0.00107477 -0.00438967 -0.0106716 -0.00223982 -0.00560606 -0.00571429 -0.000212858 -0.000475015 -0.00723404
internal_weight=9739 4713 718 3995 520 101 419 5026 750 124 121 4276 92 40 597 276 75 3475 596 60 63 321 213 67 221 132 154 3453 3242 94
internal_count=9739 4713 718 3995 520 101 419 5026 750 124 121 4276 92 40 597 276 75 3475 596 60 63 321 213 67 221 132 154 3453 3242 94
is_linear=0
shrinkage=0.05


Tree=21
num_leaves=31
num_cat=0
split_feature=111 1 102 121 7 58 124 1 31 49 37 136 97 136 139 51 98 125 115 79 82 58 29 37 135 118 49 79 121 118
split_gain=17.3209 3.90567 3.50328 4.05852 4.54378 3.34998 3.12963 2.42195 2.34295 2.25115 2.24151 2.50861 2.12798 2.09423 1.92589 1.90478 1.82435 1.78063 1.7048 1.67572 1.50976 1.70701 1.73126 1.6435 1.45367 1.43121 1.35693 1.64137 1.35506 1.96552
threshold=0.11689107652798816 -1.0000000180025095e-35 0.44980136383090935 0.78462550044059765 -0.5 16.500000000000004 0.82506006956100475 0.12940952255126045 97.208367500000023 247.08551625000004 227.93174125000004 0.16091374307870862 0.20380590111017227 0.66603788733482372 0.37061943113803869 1.142961955529419 0.48555952765572458 0.41066431773873496 0.46244522929191595 0.10718695446848867 0.13797526806592944 27.500000000000004 43.400394491681034 69.535000000000011 0.44926223811217286 0.13106306642293927 245.59500000000003 0.22871915251016614 0.12947665154933927 0.28360411524772644
decision_type=2 2 2 2 2 2 2 2 2 2 2 2 2 2 2 2 2 2 2 2 2 2 2 2 2 2 2 2 2 2
left_child=7 18 3 9 16 14 -6 -1 26 10 13 -12 17 24 -4 -15 -5 -7 -2 -20 23 22 -22 -21 28 -10 27 -9 -3 -30
right_child=1 2 5 4 6 12 -8 8 25 -11 11 -13 -14 15 -16 -17 -18 -19 19 20 21 -23 -24 -25 -26 -27 -28 -29 29 -31
leaf_value=0.80760712946058166 0.26085547654549773 0.43341768257330743 0.0066817317527778641 -0.55588267352860321 -0.89491262784887926 -0.50895482178528417 -0.60384044201787579 -0.40081143901678012 0.69592593495005173 0.027270099248290297 -0.11649692188955499 -1.4060040469520956 -0.90172958538502346 -0.77755803855756489 -0.90906726863425513 -0.040129004071092218 0.13455784848307223 -0.68481017511361053 0.34117408991842063 -0.94240675816975183 -0.29653206660448367 0.31697354322549964 -0.51286935276875389 -0.78146559544908234 -0.51167578795283242 -0.40922081093080975 -0.0065512118806117185 -0.74423642558766478 -0.50845668646443609 -0.14212823856512399
leaf_weight=2659 1500 208 103 22 27 57 27 30 1736 750 22 23 35 29 28 27 37 22 290 25 601 165 31 103 31 141 79 23 268 640
leaf_count=2659 1500 208 103 22 27 57 27 30 1736 750 22 23 35 29 28 27 37 22 290 25 601 165 31 103 31 141 79 23 268 640
internal_value=0.000387103 -0.00132025 -0.00280985 -0.00215301 -0.0113717 -0.00846939 -0.0218519 0.0029006 0.00159034 -0.00163163 -0.00293269 -0.0138889 -0.0147368 -0.00252286 -0.00301527 -0.0119643 -0.00177966 -0.0101899 -2.76241e-05 -0.00141975 -0.00245946 -0.00164994 -0.00283228 -0.0075 -0.0020619 0.00204315 -0.00484848 -0.0110377 -0.00176523 -0.00259912
internal_weight=9739 5071 2356 2111 113 245 54 4668 2009 1998 1248 45 114 1203 131 56 59 79 2715 1215 925 797 632 128 1147 1877 132 53 1116 908
internal_count=9739 5071 2356 2111 113 245 54 4668 2009 1998 1248 45 114 1203 131 56 59 79 2715 1215 925 797 632 128 1147 1877 132 53 1116 908
is_linear=0
shrinkage=0.05


Tree=22
num_leaves=31
num_cat=0
split_feature=7 104 0 88 102 34 59 32 77 1 121 29 49 49 47 128 44 104 32 125 97 40 146 84 44 36 87 95 41 21
split_gain=16.7627 4.24661 3.42754 2.87705 2.76167 2.92101 3.78124 2.42257 2.10124 2.09121 2.22859 3.80066 2.06103 2.04233 1.99951 2.20503 2.08312 1.89933 2.27924 1.87118 1.83437 2.20611 1.83333 1.66366 1.42088 1.40003 1.62351 2.7899 1.70856 2.86404
threshold=0.25000000000000011 0.46872069188599891 1.5000000000000002 0.022356412373483101 0.44980136383090935 15.207569739583334 0.61458333333333337 90.720000000000013 20.035 1.0000000180025095e-35 0.16517484188079834 22.413885220584842 247.08551625000004 107.01500000000001 32.813928522515205 0.51854523026805677 79.683295000000015 0.50371632226949048 62.765000000000008 0.41066431773873496 0.76272338628768932 20.824972838541672 0.51124409024616002 0.98281680564977791 102.72500000000001 53.800905000000007 0.32669754542775614 0.58346509172267391 26.569479166859928 61.32500000000001
decision_type=2 2 2 2 2 2 2 2 2 2 2 2 2 2 2 2 2 2 2 2 2 2 2 2 2 2 2 2 2 2
left_child=1 4 17 -2 20 6 -6 -7 24 -5 -11 -12 13 -4 16 -16 -15 -3 -19 -8 25 -22 -17 -20 -9 26 -1 28 29 -28
right_child=3 2 12 9 5 7 19 8 -10 10 11 -13 -14 14 15 22 -18 18 23 -21 21 -23 -24 -25 -26 -27 27 -29 -30 -31
leaf_value=0.00086411461502352194 1.1464713409558029 0.045355777016931671 0.040213697303289379 0.41933111700992365 -0.98582808991351412 0.017514991975594286 -0.44499059801705632 -0.84271393753126866 0.0063476451651389709 0.18488447047819598 -0.59196406617131891 -0.36842162428088687 0.13793090535123273 -0.30367969909727782 -0.13639620115677908 -0.77915104601971563 -0.56114696676537301 -0.088468185010448619 -0.64062293295810835 -1.0583404870953175 0.92657186657721169 -0.68792845819159831 -0.34473072753355488 -0.54378394942137087 -0.73895544864638518 0.716210332262326 -0.48545836389007357 -1.0407462147568562 0.0049304331219297594 -0.50819948898605538
leaf_weight=2869 2966 22 99 1061 21 296 57 23 40 758 25 216 163 61 160 33 31 31 36 23 22 50 33 29 62 211 61 27 233 20
leaf_count=2869 2966 22 99 1061 21 296 57 23 40 758 25 216 163 61 160 33 31 31 36 23 22 50 33 29 62 211 61 27 233 20
internal_value=0.000387103 -0.00142903 -0.00502865 0.00272185 -0.000803238 -0.0041954 -0.0118317 -0.00236342 -0.0082 0.00128641 -0.000355355 -0.00454357 -0.00344828 -0.00531175 -0.00726415 -0.00473451 -0.0134783 -0.0127966 -0.0158333 -0.006875 -0.000296307 -0.00819444 -0.0124242 -0.0211538 -0.0126471 -0.000130079 -0.000389408 -0.00365103 -0.00232484 -0.00858025
internal_weight=9739 4713 698 5026 4015 522 101 421 125 2060 999 241 580 417 318 226 92 118 96 80 3493 72 66 65 85 3421 3210 341 314 81
internal_count=9739 4713 698 5026 4015 522 101 421 125 2060 999 241 580 417 318 226 92 118 96 80 3493 72 66 65 85 3421 3210 341 314 81
is_linear=0
shrinkage=0.05


Tree=23
num_leaves=31
num_cat=0
split_feature=7 0 39 125 140 34 145 94 49 0 4 38 0 94 58 32 131 88 92 33 97 4 102 47 17 61 70 73 45 68
split_gain=16.0004 3.62949 3.74788 3.62644 2.89353 2.6882 2.92062 2.58901 2.52368 2.11832 2.66604 2.06477 2.55547 2.38379 2.05137 2.85435 3.00001 3.68286 2.0071 1.9528 1.78954 1.66229 1.61039 2.01042 1.553 1.86505 1.4407 1.42033 1.72517 2.38768
threshold=0.25000000000000011 11.500000000000002 0.97699548033406047 0.41228409710146169 0.29185285428116386 16.150680572916666 0.36037732660770422 0.35833914577960968 233.87914375000003 3.5000000000000004 -0.60785761079279388 174.33500000000004 3.5000000000000004 0.44192284345626837 19.500000000000004 186.93956750000004 0.52490086970901739 0.19323688745498657 0.1710039622970552 0.82492291921090521 0.77698311209678661 -0.60785761079279388 0.44980545694559954 35.327258854021814 45.185000000000009 0.30059523809523814 -0.33972750000001634 23.703736250000002 1.0121004114303329 -32.055000000000007
decision_type=2 2 2 2 2 2 2 2 2 2 2 2 2 2 2 2 2 2 2 2 2 2 2 2 2 2 2 2 2 2
left_child=1 3 -3 8 5 -5 -7 9 11 10 -2 22 -13 -14 15 16 24 -18 19 -16 -20 26 -1 -24 -4 -26 -10 -6 -29 -30
right_child=7 2 14 4 27 6 -8 -9 21 -11 -12 12 13 -15 18 -17 17 -19 20 -21 -22 -23 23 -25 25 -27 -28 28 29 -31
leaf_value=-0.22797239597776944 -0.70106203576121462 0.29404120965228708 0.058374248417060716 -0.63241418176282216 0.0061506327840017347 -0.40423338472627379 -0.60013377283925229 -0.0093953426242861307 -0.74095233713584696 0.66185195289871135 0.31258320224560532 0.10855421885653388 -1.7035402335720446 -0.21215223015761173 -0.72030673533560075 -1.2203647342222785 -1.0817989584135075 -0.51414011536051818 0.058203826636711975 -1.3157666275567479 -0.54964286265649398 0.10152115313318011 -0.62189940983885394 -0.70463416139988577 0.076611465918288213 -0.92369407296976735 0.098399574390078404 0.056534987722557786 -0.16838041579241866 -0.71007293694563767
leaf_weight=797 121 1516 218 37 142 138 39 680 27 3696 529 36 53 42 37 39 28 37 760 20 38 458 41 22 26 32 32 45 33 20
leaf_count=797 121 1516 218 37 142 138 39 680 27 3696 529 36 53 42 37 39 28 37 760 20 38 458 41 22 26 32 32 45 33 20
internal_value=0.000371701 -0.00133355 -0.000161759 -0.00297655 -0.00689427 -0.0111215 -0.00855932 0.00272185 -0.00179708 0.00317073 0.000538462 -0.00327447 -0.00912214 -0.0134211 -0.00220648 -0.00526316 -0.00379765 -0.0134615 -0.000847953 -0.00991228 -0.000200501 0.00103482 -0.00238372 -0.0100794 -0.00152174 -0.0087931 -0.00686441 -0.003125 -0.0077551 -0.0138679
internal_weight=9739 4713 2751 1962 454 214 177 5026 1508 4346 650 991 131 95 1235 380 341 65 855 57 798 517 860 63 276 58 59 240 98 53
internal_count=9739 4713 2751 1962 454 214 177 5026 1508 4346 650 991 131 95 1235 380 341 65 855 57 798 517 860 63 276 58 59 240 98 53
is_linear=0
shrinkage=0.05


Tree=24
num_leaves=31
num_cat=0
split_feature=40 0 8 102 127 47 125 46 87 27 109 33 109 7 27 77 0 3 69 3 80 116 139 77 145 68 91 46 0 49
split_gain=14.9084 3.35794 3.2455 3.20516 3.19522 2.45596 2.67726 2.30359 3.07677 3.33668 4 3.25952 2.25819 2.32301 2.08467 2.87247 1.94275 4.00789 1.86955 1.72082 2.081 1.5531 1.51875 2.22453 2.36136 1.51332 1.48616 1.4375 1.34796 1.33381
threshold=76.220104166666673 11.500000000000002 0.25000000000000017 0.44979225312504773 0.80392229557037365 26.057626338859937 0.43059093203710969 46.165958705357149 0.32669754542775614 0.0017380527063123586 0.21285853534936908 1.1973399209575943 0.57953748106956493 -0.93301270189221919 0.7264935846927344 -45.468645000000002 3.5000000000000004 4.5000000000000009 -37.629999999999988 3.5000000000000004 0.64024468566328074 0.34212922162098941 0.40282990038394934 -9.5134262499999966 0.192582331597805 11.272599999999992 0.6801208257675172 47.431101190476198 12.500000000000002 233.87914375000003
decision_type=2 2 2 2 2 2 2 2 2 2 2 2 2 2 2 2 2 2 2 2 2 2 2 2 2 2 2 2 2 2
left_child=1 3 21 4 5 6 25 14 9 10 -9 -12 13 -5 -4 -16 17 -2 -17 29 -21 -3 23 24 -15 -1 -18 -11 -20 -7
right_child=16 2 7 12 -6 19 -8 8 -10 27 11 -13 -14 22 15 18 26 -19 28 20 -22 -23 -24 -25 -26 -27 -28 -29 -30 -31
leaf_value=-0.05511526862021085 0.50068242302731425 0.45850446837690617 0.17804222678393405 -0.82725708545609167 -0.56020350208866432 -0.13486397239287454 -0.51210763756604261 0.84205767223967887 -1.0181524026196267 -1.1540897650175017 -1.2925265829031014 -1.237312464057359 -0.55627046623564602 -0.90443615782841913 -0.85641468295240564 -0.88365357184808158 0.70934795843160359 -0.79234493440195575 -0.37087865470874432 -0.283541319994012 -0.65585985796775736 -0.0060765261074962771 -0.79561954013664593 0.018027156827523171 -0.1339571974712617 -0.55184077046211299 -0.28659480935508952 -0.0074404271672790616 0.17724904226253771 0.11270380582849571
leaf_weight=60 540 873 436 20 21 656 22 24 26 38 28 20 24 25 26 21 3754 147 24 451 34 1142 40 153 37 21 75 252 153 596
leaf_count=60 540 873 436 20 21 656 22 24 26 38 28 20 24 25 26 21 3754 147 24 451 34 1142 40 153 37 21 75 252 153 596
internal_value=0.000376835 -0.00105974 4.89735e-06 -0.00256944 -0.00179742 -0.00157609 -0.00907767 -0.00225191 -0.00530928 -0.00411602 -0.01375 -0.0220833 -0.00737458 -0.00609091 -0.000454545 -0.004375 0.00286315 0.000414847 -0.00232323 -0.00113126 -0.00365979 0.00117866 -0.00480392 -0.00313953 -0.011129 -0.00487654 0.00330243 -0.00172414 -0.000649717 -0.000151757
internal_weight=9739 5223 3063 2160 1861 1840 103 1048 388 362 72 48 299 275 660 224 4516 687 198 1737 485 2015 255 215 62 81 3829 290 177 1252
internal_count=9739 5223 3063 2160 1861 1840 103 1048 388 362 72 48 299 275 660 224 4516 687 198 1737 485 2015 255 215 62 81 3829 290 177 1252
is_linear=0
shrinkage=0.05


end of trees

feature_importances:
hour=40
zero_risk_avg_t+9=33
cmg_mean_168h=19
cmg_std_168h=17
zero_risk_lgb_t+9=17
cmg_max_168h=15
cmg_mean_24h=14
zeros_count_48h=14
cmg_std_12h=13
month=12
cmg_std_24h=12
cmg_trend_24h=12
cmg_trend_48h=12
zero_risk_avg_t+5=12
hour_sin=11
cmg_cv_24h=11
zeros_ratio_168h=11
zero_risk_lgb_t+13=11
day_of_week=10
month_sin=10
cmg_cv_12h=10
cmg_mean_48h=10
cmg_change_1h=10
cmg_diff_vs_last_week=10
zero_risk_xgb_t+24=10
cmg_range_12h=9
cmg_max_24h=9
cmg_cv_168h=9
zero_risk_xgb_t+1=9
zero_risk_avg_t+7=9
dow_sin=8
cmg_max_12h=8
cmg_range_24h=8
zero_risk_xgb_t+8=8
zero_risk_avg_t+8=8
zero_risk_xgb_t+11=8
zero_risk_avg_t+23=8
month_cos=7
cmg_cv_6h=7
cmg_mean_12h=7
cmg_std_48h=7
cmg_max_48h=7
cmg_trend_12h=7
zero_risk_avg_t+6=7
zero_risk_xgb_t+15=7
zero_risk_avg_t+16=7
zero_risk_lgb_t+20=7
zero_risk_xgb_t+21=7
cmg_lag_48h=6
cmg_range_6h=6
cmg_range_168h=6
zero_risk_avg_t+3=6
zero_risk_xgb_t+6=6
zero_risk_xgb_t+7=6
zero_risk_lgb_t+14=6
zero_risk_xgb_t+14=6
zero_risk_xgb_t+17=6
cmg_lag_2h=5
cmg_range_48h=5
zero_risk_avg_t+11=5
zero_risk_avg_t+22=5
dow_cos=4
cmg_lag_6h=4
cmg_std_6h=4
zeros_count_24h=4
cmg_same_hour_yesterday=4
zero_risk_lgb_t+2=4
zero_risk_lgb_t+4=4
zero_risk_avg_t+15=4
zero_risk_xgb_t+18=4
zero_risk_avg_t+21=4
cmg_lag_168h=3
cmg_max_6h=3
cmg_min_24h=3
cmg_cv_48h=3
zeros_ratio_12h=3
cmg_diff_vs_yesterday=3
zero_risk_xgb_t+4=3
zero_risk_xgb_t+9=3
zero_risk_xgb_t+10=3
zero_risk_lgb_t+12=3
zero_risk_avg_t+13=3
zero_risk_lgb_t+15=3
zero_risk_avg_t+18=3
zero_risk_xgb_t+20=3
zero_risk_avg_t+20=3
zero_risk_xgb_t+23=3
hour_cos=2
is_night=2
is_afternoon=2
cmg_lag_1h=2
cmg_lag_3h=2
cmg_trend_6h=2
cmg_same_hour_last_week=2
zero_risk_xgb_t+2=2
zero_risk_avg_t+2=2
zero_risk_xgb_t+3=2
zero_risk_avg_t+4=2
zero_risk_xgb_t+5=2
zero_risk_avg_t+10=2
zero_risk_xgb_t+12=2
zero_risk_avg_t+14=2
zero_risk_xgb_t+19=2
zero_risk_avg_t+19=2
is_morning=1
cmg_lag_12h=1
cmg_lag_24h=1
cmg_mean_6h=1
cmg_min_12h=1
zeros_ratio_48h=1
cmg_change_24h=1
cmg_change_48h=1
zero_risk_avg_t+1=1
zero_risk_lgb_t+3=1
zero_risk_lgb_t+6=1
zero_risk_lgb_t+11=1
zero_risk_xgb_t+13=1
zero_risk_lgb_t+16=1
zero_risk_xgb_t+16=1
zero_risk_avg_t+17=1
zero_risk_lgb_t+18=1
zero_risk_xgb_t+22=1
zero_risk_lgb_t+24=1
zero_risk_avg_t+24=1

parameters:
[boosting: gbdt]
[objective: quantile]
[metric: quantile]
[tree_learner: serial]
[device_type: cuda]
[data_sample_strategy: bagging]
[data: ]
[valid: ]
[num_iterations: 25]
[learning_rate: 0.05]
[num_leaves: 31]
[num_threads: 0]
[seed: 44]
[deterministic: 0]
[force_col_wise: 0]
[force_row_wise: 1]
[histogram_pool_size: -1]
[max_depth: -1]
[min_data_in_leaf: 20]
[min_sum_hessian_in_leaf: 0.001]
[bagging_fraction: 0.8]
[pos_bagging_fraction: 1]
[neg_bagging_fraction: 1]
[bagging_freq: 5]
[bagging_seed: 21897]
[bagging_by_query: 0]
[feature_fraction: 0.8]
[feature_fraction_bynode: 1]
[feature_fraction_seed: 12646]
[extra_trees: 0]
[extra_seed: 20733]
[early_stopping_round: 0]
[early_stopping_min_delta: 0]
[first_metric_only: 0]
[max_delta_step: 0]
[lambda_l1: 0]
[lambda_l2: 0]
[linear_lambda: 0]
[min_gain_to_split: 0]
[drop_rate: 0.1]
[max_drop: 50]
[skip_drop: 0.5]
[xgboost_dart_mode: 0]
[uniform_drop: 0]
[drop_seed: 20829]
[top_rate: 0.2]
[other_rate: 0.1]
[min_data_per_group: 100]
[max_cat_threshold: 32]
[cat_l2: 10]
[cat_smooth: 10]
[max_cat_to_onehot: 4]
[top_k: 20]
[monotone_constraints: ]
[monotone_constraints_method: basic]
[monotone_penalty: 0]
[feature_contri: ]
[forcedsplits_filename: ]
[refit_decay_rate: 0.9]
[cegb_tradeoff: 1]
[cegb_penalty_split: 0]
[cegb_penalty_feature_lazy: ]
[cegb_penalty_feature_coupled: ]
[path_smooth: 0]
[interaction_constraints: ]
[verbosity: -1]
[saved_feature_importance_type: 0]
[use_quantized_grad: 0]
[num_grad_quant_bins: 4]
[quant_train_renew_leaf: 0]
[stochastic_rounding: 1]
[linear_tree: 0]
[max_bin: 255]
[max_bin_by_feature: ]
[min_data_in_bin: 3]
[bin_construct_sample_cnt: 200000]
[data_random_seed: 182]
[is_enable_sparse: 1]
[enable_bundle: 1]
[use_missing: 1]
[zero_as_missing: 0]
[feature_pre_filter: 1]
[pre_partition: 0]
[two_round: 0]
[header: 0]
[label_column: ]
[weight_column: ]
[group_column: ]
[ignore_column: ]
[categorical_feature: ]
[forcedbins_filename: ]
[precise_float_parser: 0]
[parser_config_file: ]
[objective_seed: 3944]
[num_class: 1]
[is_unbalance: 0]
[scale_pos_weight: 1]
[sigmoid: 1]
[boost_from_average: 1]
[reg_sqrt: 0]
[alpha: 0.1]
[fair_c: 1]
[poisson_max_delta_step: 0.7]
[tweedie_variance_power: 1.5]
[lambdarank_truncation_level: 30]
[lambdarank_norm: 1]
[label_gain: ]
[lambdarank_position_bias_regularization: 0]
[eval_at: ]
[multi_error_top_k: 1]
[auc_mu_weights: ]
[num_machines: 1]
[local_listen_port: 12400]
[time_out: 120]
[machine_list_filename: ]
[machines: ]
[gpu_platform_id: -1]
[gpu_device_id: -1]
[gpu_use_dp: 1]
[num_gpu: 1]

end of parameters

pandas_categorical:[]
