tree
version=v4
num_class=1
num_tree_per_iteration=1
label_index=0
max_feature_idx=149
objective=quantile
feature_names=hour hour_sin hour_cos day_of_week dow_sin dow_cos month month_sin month_cos is_weekend is_night is_morning is_afternoon is_evening cmg_lag_1h cmg_lag_2h cmg_lag_3h cmg_lag_6h cmg_lag_12h cmg_lag_24h cmg_lag_48h cmg_lag_168h cmg_mean_6h cmg_std_6h cmg_min_6h cmg_max_6h cmg_range_6h cmg_cv_6h cmg_mean_12h cmg_std_12h cmg_min_12h cmg_max_12h cmg_range_12h cmg_cv_12h cmg_mean_24h cmg_std_24h cmg_min_24h cmg_max_24h cmg_range_24h cmg_cv_24h cmg_mean_48h cmg_std_48h cmg_min_48h cmg_max_48h cmg_range_48h cmg_cv_48h cmg_mean_168h cmg_std_168h cmg_min_168h cmg_max_168h cmg_range_168h cmg_cv_168h zeros_count_6h zeros_ratio_6h zeros_count_12h zeros_ratio_12h zeros_count_24h zeros_ratio_24h zeros_count_48h zeros_ratio_48h zeros_count_168h zeros_ratio_168h hours_since_zero was_zero_1h_ago was_zero_2h_ago was_zero_24h_ago cmg_trend_6h cmg_trend_12h cmg_trend_24h cmg_trend_48h cmg_change_1h cmg_change_24h cmg_change_48h cmg_same_hour_yesterday cmg_same_hour_last_week cmg_7d_median_same_hour cmg_diff_vs_yesterday cmg_diff_vs_last_week zero_risk_lgb_t+1 zero_risk_xgb_t+1 zero_risk_avg_t+1 zero_risk_lgb_t+2 zero_risk_xgb_t+2 zero_risk_avg_t+2 zero_risk_lgb_t+3 zero_risk_xgb_t+3 zero_risk_avg_t+3 zero_risk_lgb_t+4 zero_risk_xgb_t+4 zero_risk_avg_t+4 zero_risk_lgb_t+5 zero_risk_xgb_t+5 zero_risk_avg_t+5 zero_risk_lgb_t+6 zero_risk_xgb_t+6 zero_risk_avg_t+6 zero_risk_lgb_t+7 zero_risk_xgb_t+7 zero_risk_avg_t+7 zero_risk_lgb_t+8 zero_risk_xgb_t+8 zero_risk_avg_t+8 zero_risk_lgb_t+9 zero_risk_xgb_t+9 zero_risk_avg_t+9 zero_risk_lgb_t+10 zero_risk_xgb_t+10 zero_risk_avg_t+10 zero_risk_lgb_t+11 zero_risk_xgb_t+11 zero_risk_avg_t+11 zero_risk_lgb_t+12 zero_risk_xgb_t+12 zero_risk_avg_t+12 zero_risk_lgb_t+13 zero_risk_xgb_t+13 zero_risk_avg_t+13 zero_risk_lgb_t+14 zero_risk_xgb_t+14 zero_risk_avg_t+14 zero_risk_lgb_t+15 zero_risk_xgb_t+15 zero_risk_avg_t+15 zero_risk_lgb_t+16 zero_risk_xgb_t+16 zero_risk_avg_t+16 zero_risk_lgb_t+17 zero_risk_xgb_t+17 zero_risk_avg_t+17 zero_risk_lgb_t+18 zero_risk_xgb_t+18 zero_risk_avg_t+18 zero_risk_lgb_t+19 zero_risk_xgb_t+19 zero_risk_avg_t+19 zero_risk_lgb_t+20 zero_risk_xgb_t+20 zero_risk_avg_t+20 zero_risk_lgb_t+21 zero_risk_xgb_t+21 zero_risk_avg_t+21 zero_risk_lgb_t+22 zero_risk_xgb_t+22 zero_risk_avg_t+22 zero_risk_lgb_t+23 zero_risk_xgb_t+23 zero_risk_avg_t+23 zero_risk_lgb_t+24 zero_risk_xgb_t+24 zero_risk_avg_t+24
feature_infos=[0:23] [-1:1] [-1:1] [0:6] [-0.97492791218182362:0.97492791218182362] [-0.90096886790241903:1] [1:12] [-1:1] [-1:1] [0:1] [0:1] [0:1] [0:1] [0:1] [0:371.66000000000003] [0:371.66000000000003] [0:371.66000000000003] [0:353.50999999999999] [0:371.66000000000003] [0:371.66000000000003] [0:353.50999999999999] [0:371.66000000000003] [0:349.44666666666666] [0:153.30693861227124] [0:339.83999999999997] [0:371.66000000000003] [0:329.93000000000001] [0:2.4494896874170573] [0:333.88333333333338] [0:139.67150019209095] [0:327.86000000000001] [0:371.66000000000003] [0:371.66000000000003] [0:3.464101428007337] [0:315.17583333333329] [0:133.58115591090203] [0:296.29000000000002] [0:371.66000000000003] [0:371.66000000000003] [0:4.8989787993545502] [1.1457525520833334:305.62479166666668] [4.3672780485322225:121.59284917311297] [0:289.70999999999998] [22.5037825:371.66000000000003] [19.819999999999993:371.66000000000003] [0.015935408718294956:6.9282012893730816] [15.913095238095238:269.83386904761909] [15.71430876621686:105.75616875003355] [0:120.59999999999999] [70.306545:371.66000000000003] [39.599999999999994:371.66000000000003] [0.11038429794768589:2.3481555595262882] [0:6] [0:1] [0:12] [0:1] [0:24] [0:1] [0:47] [0:0.97916666666666663] [0:127] [0:0.75595238095238093] [0:308] [0:1] [0:1] [0:1] [-292.45999999999998:314.30000000000001] [-334.23000000000002:338.87] [-371.66000000000003:329.93000000000001] [-328.94999999999999:335.49000000000001] [-329.93000000000001:329.93000000000001] [-371.66000000000003:329.93000000000001] [-328.94999999999999:335.49000000000001] [0:371.66000000000003] [0:371.66000000000003] [0:371.66000000000003] [-371.66000000000003:329.93000000000001] [-371.66000000000003:314.30000000000001] [0:0.32669745056921329] [0:0.99765104055404663] [0:0.65594157105835782] [0:0.44992488438738992] [0:0.99034565687179565] [0:0.65234544536850159] [0:1] [0:0.99445551633834839] [0:0.91830748319625843] [0:0.3267054404748142] [0:0.99411326646804798] [0:0.64654275560840868] [0:1] [0:0.99299073219299316] [0:0.84425145387649536] [0:1] [0:0.98114782571792603] [0:0.88434042521562106] [0:0.44992488049970181] [0:0.99315094947814941] [0:0.65380465799380105] [0:0.44992488177380208] [0:0.98150163888931286] [0:0.64798000269938272] [0:0.44982309247944291] [0:0.98505371809005737] [0:0.64969947531079386] [0:0.31423210000304258] [0:0.98909991979598999] [0:0.65166600989951629] [0:0.99958394666309602] [0:0.981048583984375] [0:0.64764034147082261] [0:0.71520320632648071] [0:0.97877067327499401] [0:0.83636402119493281] [0:0.44981409352920038] [0:0.99168819189071655] [0:0.64176026585842982] [0:0.99999831221257041] [0:0.99181115627288818] [0:0.69725304154041812] [0:0.44982899400120402] [0:0.99005705118179321] [0:0.65214457450475871] [0:0.44970526540987149] [0:0.98534667491912842] [0:0.64978938719368651] [0:0.44960946379120181] [0:0.9853386878967284] [0:0.64751093590122011] [0:0.4494850584872731] [0:0.99210077524185181] [0:0.65316643547081288] [0:0.31423209680738462] [0:0.98839068412780762] [0:0.65131139046759612] [0:0.44926397481766339] [0:0.99073618650436401] [0:0.65242757766679704] [0:0.32627491427323052] [0:0.98989325761795044] [0:0.65194954853722364] [0:0.32627491427323052] [0:0.98751729726791382] [0:0.65076156836220533] [0:0.44915255373655549] [0:0.98664319515228283] [0:0.63584162927101473] [0:0.3140058394564969] [0:0.9937611222267152] [0:0.65388348084160597]
tree_sizes=2665 2820 2820 2819 2843 2808 2790 2808 2824 2821 2817 2824 2821 2839 2831 2836 2822 2831 2823 2853 2838 2839 2855 2826 2838 2828 2830 2861 2836 2833 2848 2853 2800 2834 2839 2822 2820 2802 2833 2828

Tree=0
num_leaves=31
num_cat=0
split_feature=131 17 117 57 49 131 47 87 41 0 6 47 43 130 33 77 130 31 139 137 60 4 1 142 60 97 40 130 13 127
split_gain=58.6844 21.6388 9.48311 8.9797 9.67176 6.61054 6.54325 6.29119 5.32332 4.58041 5.03129 4.42279 6.73061 3.63383 3.5 3.01377 2.95997 2.90612 2.74678 2.70912 2.69508 2.64618 2.94253 2.47541 2.25402 2.16194 2.10521 2.04367 2.03786 2.45909
threshold=0.26336567439350317 48.135000000000005 0.28484897342685767 0.18750000000000003 188.51500000000001 0.54405713962579305 47.756368233404267 0.32669749268178017 35.595273395341728 1.5000000000000002 8.5000000000000018 25.572088325531574 62.715000000000011 0.21181446313858029 1.1794175416272363 54.240000000000002 0.6179354488849641 65.022987500000013 0.57130110263824474 0.53866953521207761 31.500000000000004 0.6078576107927941 -1.0000000180025095e-35 0.88812619447708141 60.500000000000007 0.27018733322620392 20.006070208333337 0.38882829248905187 1.0000000180025095e-35 0.58957505226135265
decision_type=2 2 2 2 2 2 2 2 2 2 2 2 2 2 2 2 2 2 2 2 2 2 2 2 2 2 2 2 2 2
left_child=13 2 28 4 16 9 8 19 26 10 27 12 -11 -1 -12 18 20 -9 -6 -3 -4 22 25 -13 -21 -19 -7 -5 29 -2
right_child=1 7 3 5 15 6 -8 17 -10 11 14 23 -14 -15 -16 -17 -18 21 -20 24 -22 -23 -24 -25 -26 -27 -28 -29 -30 -31
leaf_value=35.262990085264832 34.150689622862643 34.222789573669431 32.627081920207232 33.209789562791585 32.599602049273884 32.896489594052731 33.946348380377948 34.488897460241269 33.28655269623949 33.314503927401141 32.754146719101811 33.123539646599504 32.499039606619625 33.638669202761363 32.453989603686331 33.297589607757331 32.960889592172208 32.732504507818312 32.908975788889492 32.617864926066162 33.436589617919928 33.452366428998261 33.747883337018749 32.556971662350271 34.727289592474698 33.319616700374048 32.541648409410968 34.841289026912889 34.290989648978439 33.159389592805503
leaf_weight=5594 141 1469 35 20 87 27 38 33 26 32 28 1045 25 313 28 24 22 27 22 46 113 67 29 31 25 60 56 29 146 82
leaf_count=5594 141 1469 35 20 87 27 38 33 26 32 28 1045 25 313 28 24 22 27 22 46 113 67 29 31 25 60 56 29 146 82
internal_value=34.0171 34.0119 34.0084 34.0068 33.999 34.0085 33.9985 34.016 33.9923 34.0097 33.9997 34.0106 33.9971 34.0198 33.9895 33.9889 34.0069 34.008 33.9854 34.0171 34.0095 34.0055 34.0009 34.0114 34.0075 33.9963 33.9861 34.0114 34.0157 34.0127
internal_weight=9720 3813 2057 1688 303 1385 147 1756 109 1238 105 1133 57 5907 56 133 170 216 109 1540 148 183 116 1076 71 87 83 49 369 223
internal_count=9720 3813 2057 1688 303 1385 147 1756 109 1238 105 1133 57 5907 56 133 170 216 109 1540 148 183 116 1076 71 87 83 49 369 223
is_linear=0
shrinkage=1


Tree=1
num_leaves=31
num_cat=0
split_feature=128 17 114 2 56 49 134 7 23 114 95 41 1 81 130 31 101 66 73 27 76 40 45 106 51 81 35 41 6 113
split_gain=57.3447 19.4902 7.51008 8.29939 6.45535 6.39097 5.92688 8.34737 5.55375 4.75405 3.69792 3.68305 3.49419 4.26942 3.46954 3.03689 2.82278 3.79049 2.31873 4.0658 3.29252 2.26476 2.82353 2.14369 2.11046 4.94016 2.43053 2.24755 2.82 4.16383
threshold=0.2916505220462311 48.135000000000005 0.32668713720209869 0.91597561503675351 4.5000000000000009 188.51500000000001 0.57262052699104771 -0.86602540378443837 15.069830780226477 0.44981409332985445 0.41729965044803091 28.961956358735673 -0.25881904510252113 0.31463919678185176 0.59005793929100048 75.852623750000006 0.28654712490912498 -1.0000000180025095e-35 66.895000000000024 0.93636522343456563 -11.504999999999994 39.787604166666675 1.5329249515925565 0.3897590190172196 0.95402132338344448 0.44992487992919533 43.218871661806141 26.389043212512025 7.5000000000000009 0.3359831561295315
decision_type=2 2 2 2 2 2 2 2 2 2 2 2 2 2 2 2 2 2 2 2 2 2 2 2 2 2 2 2 2 2
left_child=9 2 -2 4 5 14 16 -8 -5 15 23 -9 13 -3 -4 -1 17 -6 19 -10 -20 22 -19 -7 25 26 -18 28 29 -26
right_child=1 12 3 8 6 10 7 11 18 -11 -12 -13 -14 -15 -16 -17 24 21 20 -21 -22 -23 -24 -25 27 -27 -28 -29 -30 -31
leaf_value=-0.19978988124589081 -0.36637512883299167 0.2363605616986412 -0.89563438591827271 -0.53956525914291087 -1.5025269686946681 -1.2617685965773062 -0.69625307103528855 -1.3834519717794649 -1.4759747791959956 -1.3004414665695427 -0.6500636186013462 -0.8063303248492325 0.16716061237131399 -0.69828892122530439 -1.1388444935426862 1.2282035532236799 -0.79312967139729973 -1.4390769875275009 -1.1927065342100076 -0.82677698383797527 -0.16152395129578145 0.38772671331677522 -0.33267695719171936 -1.2087980100454323 -1.3132251857671895 -1.6498769824998485 -1.3484446284843714 -0.2016769727336449 -0.6457214883797775 -0.78979604931780445
leaf_weight=395 353 200 122 51 43 52 49 30 84 22 30 23 1222 320 22 5527 155 48 21 41 28 42 54 22 20 36 21 440 218 29
leaf_count=395 353 200 122 51 43 52 49 30 84 22 30 23 1222 320 22 5527 155 48 21 41 28 42 54 22 20 36 21 440 218 29
internal_value=0.000454733 -0.00467955 -0.00800393 -0.00939619 -0.00801511 -0.0153629 -0.00650662 -0.0180392 -0.0183333 0.00319987 -0.0248077 -0.0317925 -0.000797933 -0.00423077 -0.00854167 0.00328605 -0.00544304 -0.0110428 -0.0225862 -0.0262 -0.0133673 -0.00715278 -0.0111765 -0.0308108 -0.00430359 -0.00867924 -0.00522727 -0.00299151 -0.00661049 -0.017449
internal_weight=9720 3776 2034 1681 1456 248 1208 102 225 5944 104 53 1742 520 144 5922 1106 187 174 125 49 144 102 74 919 212 176 707 267 49
internal_count=9720 3776 2034 1681 1456 248 1208 102 225 5944 104 53 1742 520 144 5922 1106 187 174 125 49 144 102 74 919 212 176 707 267 49
is_linear=0
shrinkage=0.05


Tree=2
num_leaves=31
num_cat=0
split_feature=128 17 114 2 57 50 26 133 7 114 1 81 130 95 17 133 73 129 13 30 2 137 1 37 45 39 94 31 17 123
split_gain=54.4569 17.6518 6.80355 8.19244 6.41066 6.28646 5.53143 4.96433 5.9738 3.89562 3.63285 4.04327 3.60262 3.46739 3.01233 2.97332 2.76645 3.69588 2.57119 2.43879 2.5674 3.52174 2.84526 2.71799 3.16481 2.43 2.12485 2.26274 1.96699 1.91255
threshold=0.2916505220462311 48.135000000000005 0.32668713720209869 0.91597561503675351 0.18750000000000003 187.02454500000002 40.41946500000001 0.86122897267341625 -0.86602540378443837 0.44981409332796329 -0.25881904510252113 0.31463919678185176 0.59005793929100048 0.42125994163318464 68.18723875000002 0.54555383324623119 66.895000000000024 0.44948267136408404 1.0000000180025095e-35 13.985000000000001 -0.60355339059327384 0.57217552313745035 -0.60355339059327362 64.635000000000005 1.4264407612238195 1.1596261438335338 0.17846866697072983 63.061841250000008 17.540000000000003 0.44970282132415712
decision_type=2 2 2 2 2 2 2 2 2 2 2 2 2 2 2 2 2 2 2 2 2 2 2 2 2 2 2 2 2 2
left_child=9 2 18 4 5 12 -5 19 -9 14 11 -3 -4 15 -1 -7 17 -8 -2 20 21 22 29 24 -24 -10 -13 -28 -18 -6
right_child=1 10 3 6 7 13 16 8 25 -11 -12 26 -14 -15 -16 -17 28 -19 -20 -21 -22 -23 23 -25 -26 -27 27 -29 -30 -31
leaf_value=0.23397139984657792 -0.65437673518412309 0.22454253361370924 -0.85085266662235925 -0.57845647083015828 -1.0785706166527342 -1.1630401941048969 -1.4021760400229342 -0.80168170272159378 -0.99750438214375903 -1.2160234176798006 0.15880258175274842 -0.04965596767282715 -1.081902268865552 -0.77813025282386528 1.414304253380178 -1.3388790515230591 -1.2508629235458297 -0.78983813162025807 0.28181935530615443 -0.94252051225861733 -0.62194681861598433 -1.43140836281595 -1.1962255292286412 -0.72558861330722602 -1.043006098226583 -0.97665189471927816 0.17126916219302546 -0.90787343009554022 -0.087693217493215084 -1.2929560729765075
leaf_weight=1442 214 200 122 63 22 50 94 45 20 26 1222 79 22 28 4476 26 23 20 139 20 643 36 36 285 51 30 38 203 25 20
leaf_count=1442 214 200 122 63 22 50 94 45 20 26 1222 79 22 28 4476 26 23 20 139 20 643 36 36 285 51 30 38 203 25 20
internal_value=0.000454733 -0.00452066 -0.00768437 -0.00900952 -0.00763736 -0.0149597 -0.0178889 -0.00613411 -0.0171053 0.00315781 -0.000826636 -0.00432692 -0.00819444 -0.0243269 0.00324265 -0.0298684 -0.0227778 -0.0270175 -0.00137394 -0.00519766 -0.00488106 -0.00777778 -0.00647343 -0.00508064 -0.0128161 -0.029 -0.0078125 -0.0101452 -0.0127083 -0.0188095
internal_weight=9720 3776 2034 1681 1456 248 225 1208 95 5944 1742 520 144 104 5918 76 162 114 353 1113 1093 450 414 372 87 50 320 241 48 42
internal_count=9720 3776 2034 1681 1456 248 225 1208 95 5944 1742 520 144 104 5918 76 162 114 353 1113 1093 450 414 372 87 50 320 241 48 42
is_linear=0
shrinkage=0.05


Tree=3
num_leaves=31
num_cat=0
split_feature=114 17 1 134 4 2 23 140 17 46 134 31 0 95 39 118 91 46 95 7 29 145 100 127 38 106 31 8 32 26
split_gain=52.1109 21.9892 7.91556 5.80949 4.48007 4.51115 4.63497 4.43447 4.10379 3.80598 5.46003 3.70259 3.57793 3.56887 3.24752 3.1098 3.41183 4.11429 2.92643 2.59694 2.84392 2.43231 2.35427 4.96833 4.35301 3.31429 2.45599 2.35342 3.7165 3.7823
threshold=0.32668573953891755 48.135000000000005 0.60355339059327384 0.30282538002429898 -0.8783796973249266 0.91597561503675351 16.435092364248792 0.16457923958295498 1.0000000180025095e-35 46.165958705357149 0.57262052699104771 71.445891250000003 15.500000000000002 0.38037479120059797 0.53954478818834872 0.25399251282215124 0.30740015208721166 51.043924077380957 0.35111224931003387 -0.93301270189221919 44.217107378072562 0.25060595571994787 0.32133293151855474 0.3883569091558457 71.956516250000021 0.17524469643831253 79.948773750000015 1.0000000180025095e-35 71.135000000000019 71.629791250000025
decision_type=2 2 2 2 2 2 2 2 2 2 2 2 2 2 2 2 2 2 2 2 2 2 2 2 2 2 2 2 2 2
left_child=11 2 4 12 7 8 -7 -2 9 10 -6 -1 -3 -9 -8 16 -4 -18 -12 -16 -21 -14 23 24 -10 -25 -24 -5 -29 -30
right_child=1 3 15 27 5 6 14 13 22 -11 18 -13 21 -15 19 -17 17 -19 -20 20 -22 -23 26 25 -26 -27 -28 28 29 -31
leaf_value=-0.1894290820017181 -0.50970517117730962 0.38895580874010599 0.78305645875832797 -0.45902206749942737 -0.78442106783715071 -0.6685971399137931 -0.002072545811826565 -1.4389320935972236 -1.4780049896333356 -0.1202132125712085 -0.88870541332279029 1.1317401159982552 -0.41358745342492909 -1.0984656876199368 -1.3433919370954845 -0.09224345708553415 -1.0679958136721772 -1.436716664146733 -0.6045633943534634 -1.1323476923422766 -0.048786465092806902 -0.76772429765577255 -0.51780852140744171 -0.68930918264186458 -0.89428660779023117 -1.243801646900718 -1.1806933835363955 -0.028503893524430904 -1.6273684794233743 -0.43581616241387233
leaf_weight=451 24 1319 46 250 307 58 20 48 21 217 34 5619 126 37 21 335 70 20 21 83 21 38 107 25 153 84 20 53 51 41
leaf_count=451 24 1319 46 250 307 58 20 48 21 217 34 5619 126 37 21 335 70 20 21 83 21 38 107 25 153 84 20 53 51 41
internal_value=0.000454733 -0.00452055 -0.0085158 -0.000750799 -0.0105265 -0.00963926 -0.0164286 -0.0202294 -0.0082457 -0.00553541 -0.00867403 0.00303954 0.000684424 -0.0255882 -0.0212069 -0.00296178 -0.00933823 -0.015 -0.0231818 -0.0242 -0.0209615 -0.00628049 -0.0120732 -0.0146113 -0.00936782 -0.0229817 -0.00641732 -0.00613924 -0.0112069 -0.0172826
internal_weight=9720 3650 1772 1878 1301 1192 203 109 989 579 362 6070 1483 85 145 471 136 90 55 125 104 164 410 283 174 109 127 395 145 92
internal_count=9720 3650 1772 1878 1301 1192 203 109 989 579 362 6070 1483 85 145 471 136 90 55 125 104 164 410 283 174 109 127 395 145 92
is_linear=0
shrinkage=0.05


Tree=4
num_leaves=31
num_cat=0
split_feature=128 17 114 112 1 38 1 145 0 114 16 131 101 92 91 148 17 134 67 127 121 44 17 39 130 100 15 143 121 13
split_gain=46.2658 13.9155 4.68864 5.43824 4.69457 3.68821 3.32876 2.97425 3.20774 2.89867 2.83847 3.76216 3.93392 3.14286 2.70037 2.8576 2.55778 2.55588 2.52715 2.39871 2.30656 3.6203 2.29004 3.24675 2.94401 3.46722 2.14613 2.49197 2.06118 2.02565
threshold=0.28614545730188262 48.135000000000005 0.32668713720209869 0.91244098544120789 0.60355339059327384 209.47000000000003 -0.25881904510252113 0.12009070441126816 21.500000000000004 0.44981409332796329 53.591726250000015 0.54405713962579305 0.30719108775138543 0.51029564673691075 0.31847380101680761 0.29133163392543798 68.18723875000002 0.57262052699104771 5.1050000000000013 0.14959882199764249 0.11737504601478571 252.56000000000003 1.0000000180025095e-35 1.5746352445465501 0.68499907851219188 0.31068225204944616 35.183636250000006 0.4066680211467586 0.13248270750045779 1.0000000180025095e-35
decision_type=2 2 2 2 2 2 2 2 2 2 2 2 2 2 2 2 2 2 2 2 2 2 2 2 2 2 2 2 2 2
left_child=9 2 29 4 10 28 7 -3 -9 16 11 17 -13 22 -14 -16 20 19 -10 -4 -1 -22 23 -12 25 -24 -21 -28 -6 -2
right_child=1 6 3 -5 5 -7 -8 8 18 -11 13 12 14 -15 15 -17 -18 -19 -20 26 21 -23 24 -25 -26 -27 27 -29 -30 -31
leaf_value=0.79132031037126538 -0.61276042832496447 0.58522837159158037 -1.1739639420187191 -1.0244547069242382 -1.3873836098949015 -1.0243085008978745 0.11911456416115285 -0.41846010931310912 -1.4269108548281859 -0.82163561417293085 -0.87840917854600598 -1.4029390482452326 0.016791511038430428 -0.84634044805858455 -0.56365541446088074 -0.84500424002631846 1.3223880320693646 -1.2503548944681144 -0.81487423954734595 -0.67731026588915988 -0.0041403532046637359 -1.2042459580251079 -1.2291223371190498 -0.98271945044694786 -1.057130663217265 -0.44938133844571193 -0.61772256668474623 -1.3610259275605181 -0.31411033776243258 0.26864972980992763
leaf_weight=893 221 113 22 21 20 27 1320 385 21 23 55 30 37 115 24 28 4399 26 36 578 423 45 40 22 22 50 161 35 389 139
leaf_count=893 221 113 22 21 20 27 1320 385 21 23 55 30 37 115 24 28 4399 26 36 578 423 45 40 22 22 50 161 35 389 139
internal_value=0.000454733 -0.00387732 -0.00671193 -0.00780846 -0.00749256 -0.00302752 -0.00076 -0.00400901 -0.00585973 0.00314975 -0.00905622 -0.00769926 -0.0160084 -0.0132566 -0.0107303 -0.0180769 0.00322049 -0.00649635 -0.0169298 -0.00599246 0.00132623 -0.00151709 -0.0172222 -0.0105844 -0.0217857 -0.0177778 -0.00552972 -0.010051 -0.00184597 -0.00152778
internal_weight=9720 3937 2062 1702 1681 436 1875 555 442 5783 1245 941 119 304 89 52 5760 822 57 796 1361 468 189 77 112 90 774 196 409 360
internal_count=9720 3937 2062 1702 1681 436 1875 555 442 5783 1245 941 119 304 89 52 5760 822 57 796 1361 468 189 77 112 90 774 196 409 360
is_linear=0
shrinkage=0.05


Tree=5
num_leaves=31
num_cat=0
split_feature=17 115 6 130 49 29 111 26 6 60 33 133 110 121 0 1 33 15 45 31 44 131 89 17 119 20 149 56 6 40
split_gain=44.2627 11.525 5.2863 4.4728 6.61574 5.06002 4.73761 4.38169 4.19365 4.91468 6.0032 4.14709 3.77828 3.69141 3.41054 3.32226 3.32102 3.26859 2.80402 2.66586 2.88361 2.61673 2.44358 2.73611 2.11976 2.00487 1.94536 2.23735 1.94523 1.93863
threshold=59.421102500000011 0.1962709650397301 5.5000000000000009 0.52310162782669078 182.63500000000002 30.691212430045343 0.45082703511838079 21.803218750000013 9.5000000000000018 65.500000000000014 1.0619020333307385 0.76407605409622203 0.24359165616602577 0.42004840075969702 2.5000000000000004 -0.25881904510252113 1.5380040150612326 47.015000000000008 1.2334971789632192 71.971463750000012 85.096546250000017 0.39186427582861744 0.28332683684437482 31.571388750000004 0.38365341322264274 102.60500000000002 0.56220661724081167 5.5000000000000009 10.500000000000002 38.275000000000006
decision_type=2 2 2 2 2 2 2 2 2 2 2 2 2 2 2 2 2 2 2 2 2 2 2 2 2 2 2 2 2 2
left_child=1 24 -2 8 5 11 16 -8 -3 10 12 -5 -10 -12 -11 19 22 -14 -13 21 -21 -4 25 26 -1 -6 27 -24 -18 -29
right_child=2 3 15 4 6 -7 7 -9 9 14 13 18 17 -15 -16 -17 28 -19 -20 20 -22 -23 23 -25 -26 -27 -28 29 -30 -31
leaf_value=0.1744716384049772 1.2652188536358491 -0.52080734909787674 -0.9371027513684892 -0.78769626473398169 0.087735983659425587 -1.0152340903552337 -1.3196056099727214 -0.6543901614067491 -1.3788323300375014 -0.93655096499148671 -1.502531633800074 -1.1940428692664751 0.048885345414992509 -0.81728471934774094 -0.089219858431069596 0.68497091905298424 0.37042233762601584 -0.80177049215314955 -0.57897758963191426 -0.76370225733686692 -0.098198092149319363 -0.217497410978508 -1.0916566100496004 -0.46554257550276268 -0.66044082899222156 -0.51819320754977738 -1.0893752717611587 -0.85520839294479056 -0.51985242895203754 -0.6580076205880897
leaf_weight=904 4092 965 22 204 118 48 23 37 21 46 41 37 76 23 220 1651 204 82 47 30 402 21 36 69 32 21 21 52 40 53
leaf_count=904 4092 965 22 204 118 48 23 37 21 46 41 37 76 23 220 1651 204 82 47 30 402 21 36 69 32 21 21 52 40 53
internal_value=0.000458601 -0.00426901 0.0028128 -0.00605072 -0.00861386 -0.0143452 -0.00575668 -0.0191667 -0.00429444 -0.0079666 -0.013107 -0.0118403 -0.00840782 -0.02625 -0.00327068 0.000790217 -0.00444625 -0.00575949 -0.0211905 -0.00289474 -0.00171296 -0.0147674 -0.00743243 -0.0105844 0.000459402 -0.00219424 -0.0141358 -0.0120213 8.19674e-05 -0.00833333
internal_weight=9638 3420 6218 2484 1010 336 674 60 1474 509 243 288 179 64 266 2126 614 158 84 475 432 43 370 231 936 139 162 141 244 105
internal_count=9638 3420 6218 2484 1010 336 674 60 1474 509 243 288 179 64 266 2126 614 158 84 475 432 43 370 231 936 139 162 141 244 105
is_linear=0
shrinkage=0.05


Tree=6
num_leaves=31
num_cat=0
split_feature=114 134 123 31 146 20 2 15 31 95 123 47 33 89 94 142 32 56 70 83 51 148 94 49 22 133 28 4 104 36
split_gain=38.2753 15.3854 6.31391 4.32016 4.12493 3.98414 3.7399 4.59375 3.27429 3.1094 2.94513 3.95428 5.3585 3.6877 3.15218 3.663 3.36568 2.85216 2.71084 3.24033 2.46728 3.36034 2.44801 2.44463 2.24956 2.15405 2.70223 2.12929 2.12785 2.53546
threshold=0.32668713720209869 0.30282538002429898 0.44970223674239934 80.625000000000014 0.61978854871223799 113.08000000000001 0.91597561503675351 16.535000000000004 77.659165000000016 0.17490565237707337 0.44970286534556697 33.062838189647088 0.95058333262050854 0.58994307899936949 0.63892018795013439 0.42601886391639715 55.486756250000006 5.5000000000000009 14.370000000000003 0.3030124308525971 1.0752811373300486 0.17336477339267733 0.40654776990413671 177.79089375000004 106.82666666666667 0.60615965723991405 25.771114583333325 -0.8783796973249266 0.358082225817484 5.8969300000000002
decision_type=2 2 2 2 2 2 2 2 2 2 2 2 2 2 2 2 2 2 2 2 2 2 2 2 2 2 2 2 2 2
left_child=3 2 -2 -1 6 8 10 -8 20 -7 11 12 23 14 15 -14 -17 28 24 -20 21 -4 -9 -3 -10 26 -12 -19 29 -13
right_child=1 4 5 -5 -6 9 7 22 18 -11 25 17 13 -15 -16 16 -18 27 19 -21 -22 -23 -24 -25 -26 -27 -28 -29 -30 -31
leaf_value=-0.1232254550777119 0.13678993933229799 -0.38910758901316767 -1.4835300273828791 1.0538591751143043 -1.0414906227431746 -0.41912050192492534 -0.31029101061030184 -0.84408025285208321 0.16447553018040043 -1.3292764015467515 -1.2493181972590994 -1.1579530338045798 0.030606004468556249 -0.43807279640265429 -1.0829422343611967 -0.66934872632529485 -1.1334654738456074 -1.2372930741380768 -0.075523450270701342 -1.3785896984571626 -0.83699020619113007 -1.0323964816428541 -0.97686057680279359 -0.90532536200358149 -1.085068866901201 -1.3148154045468041 0.54591200838534126 -0.14671733868126785 -0.36230971873479839 0.66346835766884571
leaf_weight=688 1485 160 20 5259 26 20 54 26 399 23 36 95 21 51 20 46 24 44 43 20 253 79 70 25 31 20 26 436 117 21
leaf_count=688 1485 160 20 5259 26 20 54 26 399 23 36 95 21 51 20 46 24 44 43 20 253 79 70 25 31 20 26 436 117 21
internal_value=0.000458601 -0.00364264 -0.00123683 0.00283925 -0.0079742 -0.00457207 -0.0075774 -0.015 -0.00381657 -0.0194186 -0.00660245 -0.00589623 -0.0102738 -0.0169136 -0.022027 -0.0180769 -0.0235714 -0.00376578 -0.00118661 -0.010873 -0.0075 -0.0141919 -0.0215625 -0.00445946 0.000232558 -0.0157317 -0.011129 -0.0015625 -0.00830472 -0.0131034
internal_weight=9638 3691 2373 5947 1318 888 1292 150 845 43 1142 1060 347 162 111 91 70 713 493 63 352 99 96 185 430 82 62 480 233 116
internal_count=9638 3691 2373 5947 1318 888 1292 150 845 43 1142 1060 347 162 111 91 70 713 493 63 352 99 96 185 430 82 62 480 233 116
is_linear=0
shrinkage=0.05


Tree=7
num_leaves=31
num_cat=0
split_feature=17 114 137 114 133 134 137 8 47 45 38 123 57 5 130 39 134 142 8 145 51 34 88 0 17 149 34 44 20 27
split_gain=39.6646 9.96872 6.58656 4.64689 4.06554 3.87844 3.56154 3.89118 3.41096 4.79415 4.87364 4.1931 3.81988 3.60619 3.33093 3.15231 3.05628 2.95348 2.72628 2.7216 2.64048 6.26827 2.42472 2.27386 2.969 2.24359 2.22315 2.14286 2.12422 1.92857
threshold=59.421102500000011 0.32649196472547748 0.60620301017701639 0.32644900785905678 0.51380884647369396 0.28614059533172365 0.30117402086921036 -0.24999999999999994 32.813928522515205 0.7032374859592837 72.946742500000013 0.44970279916496286 0.22916666666666671 -0.56174490092936669 0.53652662038803112 0.80750697548300443 0.60531708295636888 0.20834876596927637 1.0000000180025095e-35 0.69575011730194103 1.0598508154927544 29.302011875000002 0.37246911227703094 13.500000000000002 62.395000000000003 0.30506496134370287 45.8825 93.252330000000015 51.490172500000007 0.58191198464436533
decision_type=2 2 2 2 2 2 2 2 2 2 2 2 2 2 2 2 2 2 2 2 2 2 2 2 2 2 2 2 2 2
left_child=1 16 5 -2 23 18 7 -7 9 -8 28 12 15 -12 -6 -10 -1 -13 -3 25 21 -20 -4 -5 -25 -15 -23 29 -11 -19
right_child=3 2 22 4 14 6 8 -9 11 10 13 17 -14 19 -16 -17 -18 27 20 -21 -22 26 -24 24 -26 -27 -28 -29 -30 -31
leaf_value=0.096759461360055629 1.1148120779910533 -0.40175539793066878 -1.1716623192035547 0.60781261307290357 -1.4292359450026964 -0.37960807629211762 -0.36558325309436068 -1.0404726338033368 -0.77596078311880934 -0.43993025395176866 -1.0572630668292708 0.56336059674434613 -0.27069044965773276 -1.1106701499728677 -0.16308549518406684 -0.94997472038016295 -0.60055541250912714 -1.1396929733301975 -1.4016702018776339 -1.1822574311191945 -0.61534627059724289 0.16004583651812396 -0.92489727412930112 -1.3101626248364233 -0.30447541001200346 0.070296713293846388 -0.71527087244405196 -1.2405335801559065 -0.95120504744966528 -0.41653008965590949
leaf_weight=1106 4603 664 20 1270 26 20 92 34 133 132 31 23 487 28 35 46 28 21 42 22 289 45 23 21 263 24 27 28 34 21
leaf_count=1106 4603 664 20 1270 26 20 92 34 133 132 31 23 487 28 35 46 28 21 42 22 289 45 23 21 263 24 27 28 34 21
internal_value=0.000453414 -0.00394737 -0.00584864 0.00275651 0.000448917 -0.00547704 -0.00745748 -0.02 -0.00685383 -0.0108402 -0.0141882 -0.0049473 -0.00355856 -0.022619 -0.0122131 -0.00980447 -0.000114638 -0.0148925 -0.00329428 -0.0166216 -0.00653846 -0.0129825 -0.0252326 0.000945946 -0.00309859 -0.0103846 -0.00402778 -0.02 -0.00885542 -0.0128571
internal_weight=9638 3420 2286 6218 1615 2243 1176 54 1122 363 271 759 666 105 61 179 1134 93 1067 74 403 114 43 1554 284 52 72 70 166 42
internal_count=9638 3420 2286 6218 1615 2243 1176 54 1122 363 271 759 666 105 61 179 1134 93 1067 74 403 114 43 1554 284 52 72 70 166 42
is_linear=0
shrinkage=0.05


Tree=8
num_leaves=31
num_cat=0
split_feature=17 116 137 131 47 146 41 74 134 54 2 20 85 100 134 143 32 2 34 0 146 111 79 122 125 75 16 49 143 81
split_gain=36.6948 10.4073 4.97532 4.45809 6.34689 5.07653 3.28804 2.77204 2.92013 3.39795 3.78526 2.77762 3.47549 2.79046 2.53421 2.32038 2.22232 2.86815 2.1945 2.12208 2.4458 2.04788 2.05673 2.54268 1.93399 1.81985 2.19292 1.69751 1.7216 2.41285
threshold=59.421102500000011 0.23788783097932789 0.24217187731698928 0.54405713962579305 47.143539374866727 0.29251831580897075 35.595273395341728 70.985000000000014 0.29750475311657593 7.5000000000000009 0.91597561503675351 99.905000000000015 0.26356801390647894 0.099821794778108555 0.43927449351249631 0.6001015082890756 88.895000000000024 -0.70710678118654757 15.216736406250002 14.500000000000002 0.31452461114576052 0.45055478484271477 0.96941933035850536 0.37709344782703219 0.52470664652143439 74.045000000000016 50.263983750000001 267.49188375000006 0.17747537374272493 0.44992488057916108
decision_type=2 2 2 2 2 2 2 2 2 2 2 2 2 2 2 2 2 2 2 2 2 2 2 2 2 2 2 2 2 2
left_child=1 -1 -2 7 5 -5 15 8 11 10 14 13 -13 -3 18 -7 17 -16 -10 -4 -21 22 23 -11 -6 26 -22 28 29 -15
right_child=2 3 19 4 24 6 -8 -9 9 21 -12 12 -14 27 16 -17 -18 -19 -20 20 25 -23 -24 -25 -26 -27 -28 -29 -30 -31
leaf_value=0.42883420605548173 1.1381168092436356 -0.94239060155567445 0.50862466525940009 -0.23172791201704765 -0.76143522019897836 -1.1892115819247733 -0.41654526601879427 -0.26848572003649857 -1.0370437228866605 -1.1394721372252536 -0.91759759012517339 -1.1481817597454502 0.84315279321845993 -0.81629787773782958 -1.0554288546874053 -0.40987987054110464 -1.1635552856903479 -0.37626703631012082 -0.65895143450825855 0.0013124893575557142 -0.47864965258179881 -1.0791035517133067 -0.71985456045984841 0.37331906328377046 0.21945098028170296 -1.1107897195393541 0.018960601972608945 0.47919119519994968 -0.43035549073066148 -1.3816305995875042
leaf_weight=680 4220 31 1526 33 26 51 20 571 29 33 79 40 21 126 60 21 36 75 380 343 29 22 36 214 74 38 62 127 591 44
leaf_count=680 4220 31 1526 33 26 51 20 571 29 33 79 40 21 126 60 21 36 75 380 343 29 22 36 214 74 38 62 127 591 44
internal_value=0.00043785 -0.00377193 0.0026761 -0.00514599 -0.0118889 -0.0194 -0.0254348 -0.00454274 -0.00544239 -0.00739627 -0.00941578 -0.00352041 -0.0138525 -0.0028346 -0.00801724 -0.0304167 -0.0131287 -0.0101852 -0.0058802 0.000620621 -0.00230932 -0.00303279 -0.00189046 -0.000263158 -0.0025 -0.00817829 -0.00434066 -0.00231982 -0.00321288 -0.00764706
internal_weight=9638 3420 6218 2740 225 125 92 2515 1944 964 659 980 61 919 580 72 171 135 409 1998 472 305 283 247 100 129 91 888 761 170
internal_count=9638 3420 6218 2740 225 125 92 2515 1944 964 659 980 61 919 580 72 171 135 409 1998 472 305 283 247 100 129 91 888 761 170
is_linear=0
shrinkage=0.05


Tree=9
num_leaves=31
num_cat=0
split_feature=17 115 131 131 47 145 88 51 51 35 8 139 130 47 54 51 4 40 88 29 35 119 125 60 119 2 7 133 130 6
split_gain=34.6749 9.45961 4.57047 4.40256 5.92402 5.50203 3.89971 2.90012 3.72804 3.77016 3.63708 3.21111 2.83204 3.90089 2.86808 3.31262 3.13505 2.59922 3.94433 3.46197 4.56052 2.57936 2.20859 2.13895 2.29739 2.82586 2.09117 3.46487 2.76371 2.0767
threshold=59.261341250000008 0.17942231893539426 0.19903640732479641 0.54405713962579305 47.143539374866727 0.22942809015512464 0.32158002257347112 0.77873459988519389 0.86562544922633278 34.514082187093557 -0.68301270189221952 0.24177648872137067 0.37974467873573309 43.172735019502461 7.5000000000000009 1.0125555214133177 0.6078576107927941 39.022607526041675 0.098357219249010072 27.308846758749571 29.188314782151881 0.47511722589584521 0.52470664652143439 75.500000000000014 0.38750811270468838 0.78656609248549303 -0.24999999999999994 0.51380884647369396 0.53652662038803112 9.5000000000000018
decision_type=2 2 2 2 2 2 2 2 2 2 2 2 2 2 2 2 2 2 2 2 2 2 2 2 2 2 2 2 2 2
left_child=1 -1 -2 7 5 -5 21 -3 9 10 -9 -11 29 17 15 16 -15 18 -14 23 -21 -7 -6 24 -20 -26 27 -4 -29 -10
right_child=2 3 26 4 22 6 -8 8 12 11 -12 -13 13 14 -16 -17 -18 -19 19 20 -22 -23 -24 -25 25 -27 -28 28 -30 -31
leaf_value=0.14381366807450519 1.1073097743128384 -0.0092345328254084449 0.034418436232440945 -0.11414550222249727 -0.76321172031753282 -0.048814016264281224 -0.70384366717084423 -0.96407248687031299 -0.023849801993763738 -0.81314631771354429 -0.36859737368538714 -1.1095191788201892 -1.1398889207314113 -0.97915019498179223 0.15808802084024007 -0.65095314154945405 -1.1998636020184177 -0.23975242842804262 -1.1092405538515011 -1.0441719962937979 -0.74424588484175236 -1.1385818773530321 0.20847843126761798 -0.53184175959276092 -0.481681379612376 -0.87747099999136913 0.61091821374784638 -1.3889137996235716 -0.21310845788874322 -0.65262013610276981
leaf_weight=866 3972 314 1236 35 24 23 42 22 486 36 77 24 23 78 229 261 31 84 30 28 33 27 74 145 55 28 986 25 32 312
leaf_count=866 3972 314 1236 35 24 23 42 22 486 36 77 24 23 78 229 261 31 84 30 28 33 27 74 145 55 28 986 25 32 312
internal_value=0.00043785 -0.00366549 0.00261638 -0.0052142 -0.0118889 -0.0190157 -0.0254348 -0.0045601 -0.00526741 -0.0126101 -0.00661616 -0.0225 -0.00462699 -0.00636585 -0.00376461 -0.00648649 -0.0138073 -0.0100235 -0.0119591 -0.0105172 -0.0212295 -0.016 -0.00265306 -0.0079845 -0.0131416 -0.00885542 0.000831505 -0.000491106 -0.0125439 -0.00239348
internal_weight=9638 3387 6251 2521 225 127 92 2296 1982 159 99 60 1823 1025 599 370 109 426 342 319 61 50 98 258 113 83 2279 1293 57 798
internal_count=9638 3387 6251 2521 225 127 92 2296 1982 159 99 60 1823 1025 599 370 109 426 342 319 61 50 98 258 113 83 2279 1293 57 798
is_linear=0
shrinkage=0.05


Tree=10
num_leaves=31
num_cat=0
split_feature=128 131 123 47 149 122 114 40 40 40 103 111 137 37 6 60 11 146 37 126 133 39 40 29 47 56 49 7 8 119
split_gain=35.2489 6.19948 4.70643 4.67416 5.0433 3.12708 3.12022 2.904 2.96024 3.66861 3.68875 2.79271 2.74709 2.61592 2.60731 4.95146 4.11545 3.66844 4.64675 3.14125 2.64969 2.68963 3.30268 2.60627 2.50804 2.50464 2.48686 2.45518 2.37761 2.3294
threshold=0.30782374574553506 0.48963152837503976 0.4497017975443654 50.476627019435547 0.25441824647754158 0.6050758722130869 0.44981409332646405 45.405950963541677 21.206537708333336 24.115755911458336 0.28236830234527593 0.32669677724584628 0.57217552313745035 83.475000000000009 9.5000000000000018 59.500000000000007 1.0000000180025095e-35 0.33979326670070403 94.120000000000019 0.44959026956245601 0.20045107603073123 1.0441469800260934 58.107812500000001 19.789119081414309 43.42245144574742 5.5000000000000009 249.15404750000002 -0.24999999999999994 -0.24999999999999994 0.30932280137809703
decision_type=2 2 2 2 2 2 2 2 2 2 2 2 2 2 2 2 2 2 2 2 2 2 2 2 2 2 2 2 2 2
left_child=2 5 13 4 -3 12 -4 8 11 -10 -11 -6 14 -1 19 16 20 -18 -19 -2 -16 22 23 -22 -12 -9 -21 -14 -13 -5
right_child=1 3 6 29 7 -7 -8 25 9 10 24 28 27 -15 15 -17 17 18 -20 26 21 -23 -24 -25 -26 -27 -28 -29 -30 -31
leaf_value=-0.17726901067881484 -0.12258408088840776 -0.40849102993550918 -0.49140235019617534 -0.87764782489620419 0.17987444089567439 -1.0436391978223469 -1.3458505794150459 -0.50751840769852563 -0.92401998831787058 -1.2605571685603776 -0.44077505751990237 -0.71759211612777185 -0.83704478868620569 0.89062697423518067 0.087787058584350749 -0.10994036619565591 -1.3544463798195316 0.1255770580217008 -1.2973239960604384 -0.90603003991705366 -0.98338740193302643 -0.39846332452007394 -0.97044271050566389 -0.4110701030726242 0.15631011744010281 1.0376335452339929 -1.2705177445876279 -0.10970563772755954 -0.86258977052282726 -0.29980313015173388
leaf_weight=397 1634 122 296 31 24 39 20 22 28 34 26 21 33 5558 83 499 26 37 38 165 21 82 43 89 28 27 21 28 32 228
leaf_count=397 1634 122 296 31 24 39 20 22 28 34 26 21 33 5558 83 499 26 37 38 165 21 82 43 89 28 27 21 28 32 228
internal_value=0.00041307 -0.0037258 0.0025602 -0.00824238 -0.0118956 -0.00273432 -0.00338608 -0.0160744 -0.0188342 -0.0238793 -0.0188636 -0.0112338 -0.00253841 0.00287573 -0.0023046 -0.00447712 -0.00848449 -0.0172772 -0.0116667 -0.00120879 -0.00569182 -0.00840425 -0.0123203 -0.00772727 -0.0107407 -0.00520408 -0.00736559 -0.0130328 -0.0176415 -0.00310811
internal_weight=9732 3461 6271 623 364 2838 316 242 193 116 88 77 2799 5955 2738 918 419 101 75 1820 318 235 153 110 54 49 186 61 53 259
internal_count=9732 3461 6271 623 364 2838 316 242 193 116 88 77 2799 5955 2738 918 419 101 75 1820 318 235 153 110 54 49 186 61 53 259
is_linear=0
shrinkage=0.05


Tree=11
num_leaves=31
num_cat=0
split_feature=131 128 25 123 143 109 130 46 46 37 2 122 56 49 32 95 136 136 134 108 2 15 114 39 60 60 51 26 5 52
split_gain=32.5394 6.91503 3.97504 3.7746 5.20342 3.97006 3.96943 5.22227 3.60319 3.53708 3.45319 2.79475 2.89398 3.22405 3.2036 3.07706 2.45495 3.6 2.42675 2.30137 2.17862 3.27071 3.32308 2.12639 2.11113 2.71473 2.52283 2.09664 2.07727 2.02519
threshold=0.26336567439350317 0.39788256362841262 50.061215000000011 0.44970284059999827 0.23853002748320912 0.29096171259880071 0.8021516501903535 38.799407351190482 29.328897976190479 82.851316250000011 -0.60355339059327384 0.6050758722130869 7.5000000000000009 247.15551625000003 94.980000000000004 0.43046888905330488 0.17773058265447614 0.14964596182107928 0.30282538002429898 0.3160555593814019 0.78656609248549303 61.155000000000008 0.44981409320929711 0.88430412237226952 44.500000000000007 53.500000000000007 1.0035324154439906 77.627147500000007 -0.56174490092936669 1.5000000000000002
decision_type=2 2 2 2 2 2 2 2 2 2 2 2 2 2 2 2 2 2 2 2 2 2 2 2 2 2 2 2 2 2
left_child=9 2 16 6 18 28 11 8 -8 -1 -9 12 13 14 -3 27 17 -2 -5 20 -4 22 -22 -15 -21 26 -26 -16 -6 -12
right_child=1 3 19 4 5 -7 7 10 -10 -11 29 -13 -14 23 15 -17 -18 -19 -20 24 21 -23 -24 -25 25 -27 -28 -29 -30 -31
leaf_value=-0.30461130405865772 -0.088052098679396992 -0.66002340652244285 0.44048493034091102 -0.099700352136159173 0.13378238282705573 -1.1110563652049759 -0.49557577940387754 -0.81653522643843324 -0.61210105284577732 0.85052154957838866 -0.68677343845257077 -0.77176572827615808 -0.20523196543968233 0.17494720141333808 -1.3194600927531648 -0.43463721003496181 -0.70903399859102567 -1.2328116692487159 -0.7805568609149387 0.085695258001382862 0.24193804763360363 0.064163451983284783 -1.3236630183438252 -0.67249263863055808 -1.0080259718586333 -0.36991494504624889 -0.26572225189970788 -0.62818009739115066 -1.1500161239934685 0.1799697915385807
leaf_weight=453 20 242 897 99 21 38 49 26 38 5435 25 36 688 144 31 30 365 20 25 201 26 199 39 37 47 263 56 34 32 116
leaf_count=453 20 242 897 99 21 38 49 26 38 5435 25 36 688 144 31 30 365 20 25 201 26 199 39 37 47 263 56 34 32 116
internal_value=0.00041307 -0.00318158 -0.00128223 -0.00554939 -0.0117442 -0.0208242 -0.00465909 -0.0103543 -0.0202874 0.00273268 -0.00517964 -0.00349436 -0.00308458 -0.00590734 -0.00879822 -0.0165789 -0.00574074 -0.0175 -0.00508064 -0.000237268 0.0010379 -0.00295455 -0.0126923 -0.000524862 -0.00284832 -0.00510929 -0.0119903 -0.0226923 -0.0119811 -0.0020922
internal_weight=9732 3844 2133 1711 215 91 1496 254 87 5888 167 1242 1206 518 337 95 405 40 124 1728 1161 264 65 181 567 366 103 65 53 141
internal_count=9732 3844 2133 1711 215 91 1496 254 87 5888 167 1242 1206 518 337 95 405 40 124 1728 1161 264 65 181 567 366 103 65 53 141
is_linear=0
shrinkage=0.05


Tree=12
num_leaves=31
num_cat=0
split_feature=128 17 17 17 128 134 17 95 38 116 51 110 38 103 81 93 24 7 1 101 124 137 124 128 51 128 92 86 118 116
split_gain=30.9943 6.96475 4.6787 4.56726 3.42338 2.82767 2.77052 2.57259 2.31264 3.37427 2.28741 1.99704 2.37002 2.13891 3.36284 1.95745 2.56247 1.89354 3.8547 3.47752 3.10421 2.13576 1.89862 1.86 1.83496 2.75087 2.27051 1.74251 1.73238 2.00207
threshold=0.30782374574553506 44.360000000000007 1.0000000180025095e-35 70.359322500000005 0.58887807035308637 0.54848788376146074 5.4500000000000011 0.39069798997423361 63.636295000000004 0.36841861015706995 1.3422493628698506 0.56739485476838303 66.685788750000015 0.14820822328329084 0.44992488019852478 0.70817519717047139 48.633241250000005 -0.5 1.0000000180025095e-35 0.33790447932428941 0.45683167874813085 0.4686870678877112 0.15454830974340436 0.62846648876423505 1.0035324154439906 0.36489124442034898 0.40438986774588354 0.54960592122135277 0.63851726055145275 0.51057324365644863
decision_type=2 2 2 2 2 2 2 2 2 2 2 2 2 2 2 2 2 2 2 2 2 2 2 2 2 2 2 2 2 2
left_child=3 2 8 15 5 6 7 -4 9 -2 17 13 -13 14 -8 -1 -17 18 19 -3 -21 22 -20 -10 25 -15 -27 -28 -22 -30
right_child=1 10 4 -5 -6 -7 11 -9 23 -11 -12 12 -14 24 -16 16 -18 -19 21 20 28 -23 -24 -25 -26 26 27 -29 29 -31
leaf_value=0.10222472511309769 -0.95467365957150108 -0.36217660395252071 -1.1660640373368008 0.95198555688251274 -0.93275980923218038 -0.85184808114114419 -0.5843708231450534 -0.0075588583280232951 -0.36018503388567846 -0.62363958775939776 0.73807745922834234 -0.17834852070462923 -1.0257310470032552 0.14194162562104254 -1.0959623713414623 -1.1409749852694342 0.072880797369514513 0.032988891797146279 -1.2345378218501253 -0.78601484517973264 -0.21620384234476006 -1.2923471427332205 0.36246270541978631 -0.20943447070714552 -0.24577468479587 -0.39509960134082034 -1.0035312274314998 -0.79835747658111877 -0.94388907398781985 -0.20262794410911522
leaf_weight=1768 32 182 48 4438 23 33 62 21 931 185 230 23 28 65 24 29 36 591 30 39 44 30 400 20 266 48 31 32 20 23
leaf_count=1768 32 182 48 4438 23 33 62 21 931 185 230 23 28 65 24 29 36 591 30 39 44 30 400 20 266 48 31 32 20 23
internal_value=0.00041307 -0.00335019 -0.00541667 0.00254425 -0.00863636 -0.00799559 -0.00726852 -0.0167391 -0.00347603 -0.00813364 -0.00091567 -0.0061399 -0.0155882 -0.00522727 -0.0124419 0.000444626 -0.00807692 -0.0016961 -0.00333333 -0.00766234 -0.0140476 -0.000434782 0.000465116 -0.00241325 -0.00382353 -0.00778409 -0.0125676 -0.0188095 -0.0087931 -0.0159302
internal_weight=9732 3461 1872 6271 704 681 648 69 1168 217 1589 579 51 528 86 1833 65 1359 768 308 126 460 430 951 442 176 111 63 87 43
internal_count=9732 3461 1872 6271 704 681 648 69 1168 217 1589 579 51 528 86 1833 65 1359 768 308 126 460 430 951 442 176 111 63 87 43
is_linear=0
shrinkage=0.05


Tree=13
num_leaves=31
num_cat=0
split_feature=131 17 17 146 112 133 88 52 17 24 112 109 124 61 8 123 142 47 39 39 137 61 118 107 114 68 66 38 47 80
split_gain=29.2948 9.08989 3.351 2.83576 4.12531 2.97583 5.58581 2.54493 3.33147 2.70437 2.45012 2.2272 2.18591 2.90717 2.75011 2.09691 5.80043 2.27625 2.0368 2.38095 2.21645 2.43567 2.0018 2.26902 2.23297 1.98841 1.87897 1.87439 2.71029 3.56828
threshold=0.26336567439350317 53.558151250000002 74.85490375000002 0.23025271078994466 0.91244098544120789 0.89616647362709057 0.29852709174156195 1.5000000000000002 21.355736250000003 18.772735000000004 0.13670083135366437 0.14200849086046216 0.36210156977176672 0.37797619047619052 -0.9330127018922193 0.44970223674239934 0.36230687797069555 26.023428866906723 1.6984889688934774 1.2831470248052532 0.43203911259849781 0.34226190476190482 0.31385555863380438 0.20512751507518559 0.32669428066180467 -14.194999999999995 2.7891562499999911 79.189812500000002 33.723635903610997 0.20348824768808527
decision_type=2 2 2 2 2 2 2 2 2 2 2 2 2 2 2 2 2 2 2 2 2 2 2 2 2 2 2 2 2 2
left_child=2 3 -1 -2 5 7 -7 8 9 11 -10 -5 -12 14 -14 17 27 -9 19 20 25 -22 23 -19 -25 -13 -3 28 -17 -30
right_child=1 26 -4 4 -6 6 -8 15 10 -11 12 18 13 -15 -16 16 -18 22 -20 -21 21 -23 -24 24 -26 -27 -28 -29 29 -31
leaf_value=0.16542650551839566 0.10573985486714342 0.097670289227968596 1.05793974105366 0.6991198985189071 -0.72157748523672882 0.048119621681469868 -0.7122939062506467 -0.67278191906721863 -1.1683646768443439 -0.48570498433152098 0.019746746951213336 -0.79712365626056636 -0.88446412197039259 -0.18673148669455161 -0.64927041457648516 -0.051357096406315778 -0.8913262365888186 0.60224367801244272 -1.1838002275736861 0.65460056372676323 -1.0838352955969321 -0.56575337867997133 0.020161917538359077 -0.91703828994003223 -1.3292460244557303 -0.69993468365656586 -0.54189512877680179 -0.35566757371780411 -1.0379711912969507 0.27009588729714457
leaf_weight=1856 193 1193 4032 23 37 24 38 57 21 27 185 28 23 116 107 63 36 45 23 35 32 23 592 116 23 92 378 235 55 24
leaf_count=1856 193 1193 4032 23 37 24 38 57 21 27 185 28 23 116 107 63 36 45 23 35 32 23 592 116 23 92 378 235 55 24
internal_value=0.00041307 -0.00292144 0.00269022 -0.00494281 -0.00548077 -0.00518111 -0.0159677 -0.00484351 -0.00717687 -0.0114311 -0.00451327 -0.00984375 -0.0037007 -0.00678862 -0.0119231 -0.00346709 -0.00638014 -0.00202281 -0.011309 -0.0097619 -0.0121429 -0.0204545 -0.00131443 -0.00586956 -0.00902878 -0.00833333 3.18287e-06 -0.00454907 -0.00908451 -0.0152532
internal_weight=9732 3844 5888 2273 2080 2043 62 1981 735 283 452 256 431 246 130 1246 413 833 233 210 175 55 776 184 139 120 1571 377 142 79
internal_count=9732 3844 5888 2273 2080 2043 62 1981 735 283 452 256 431 246 130 1246 413 833 233 210 175 55 776 184 139 120 1571 377 142 79
is_linear=0
shrinkage=0.05


Tree=14
num_leaves=31
num_cat=0
split_feature=128 17 17 17 130 104 2 39 17 51 123 93 125 51 58 19 118 31 2 116 131 6 88 135 90 6 35 17 127 70
split_gain=27.3319 6.5823 4.57201 4.21292 4.14977 3.52721 2.70223 2.50331 3.61942 2.15585 2.10367 2.63377 2.07977 2.65028 2.94471 2.18355 2.07924 2.07801 2.29964 2.82348 2.78256 4.23206 2.16443 1.84133 2.19402 2.26639 2.24542 2.47451 2.0583 1.8418
threshold=0.30782374574553506 41.455000000000005 1.0000000180025095e-35 70.359322500000005 0.68499907851219188 0.34414423979513131 0.60355339059327384 1.6984889688934774 7.6277962500000012 1.3422493628698506 0.4497017975443654 0.70817519717047139 0.43446335168634359 1.0008272165820766 12.500000000000002 23.177915000000002 0.093881189823150621 78.210000000000022 -0.37940952255126015 0.61311923543305591 0.49713249415469712 8.5000000000000018 0.29252788424491888 0.44926178983920823 0.30215032808591374 9.5000000000000018 26.062679234050602 61.214993750000012 0.4827730804681778 1.5000000000000073
decision_type=2 2 2 2 2 2 2 2 2 2 2 2 2 2 2 2 2 2 2 2 2 2 2 2 2 2 2 2 2 2
left_child=3 2 17 10 7 -6 -7 12 -9 16 -1 -12 -4 14 -14 -15 -3 18 20 -20 -2 22 -22 24 25 -18 -27 -28 -25 -29
right_child=1 9 4 -5 5 6 -8 8 -10 -11 11 -13 13 15 -16 -17 23 -19 19 -21 21 -23 -24 28 -26 26 27 29 -30 -31
leaf_value=0.14243714872265242 -0.8215980925949995 -1.2207806066084623 -0.34068280254715444 0.8711193242075983 -0.8681970503190215 0.28777756202596361 -0.63178241428651349 -1.12482699835563 -1.0278152058144427 0.67654491437407083 -0.43970064707431028 -0.93143122320695726 -0.89918080969877989 -0.75042773852343436 -0.6081572423149848 0.051949314024871754 -0.063504498443070642 0.00019886574957917827 -0.29565270923808767 -0.27111988821825744 -0.7246509234281352 -0.48676919341708047 -0.72197460143704517 -0.31598402358548183 0.17707379239577425 0.14926070346877449 -1.0514473864474321 -0.26143578033222958 -1.381695671263073 -0.85166919986050349
leaf_weight=1644 243 20 342 4438 33 26 36 21 46 232 165 24 26 35 27 52 593 355 429 29 23 57 32 61 471 69 48 105 20 30
leaf_count=1644 243 20 342 4438 33 26 36 21 46 232 165 24 26 35 27 52 593 355 429 29 23 57 32 61 471 69 48 105 20 30
internal_value=0.00041307 -0.00304681 -0.00512693 0.00248844 -0.00850932 -0.0181579 -0.011129 -0.00683971 -0.0158955 -0.000761067 0.000471904 -0.00452381 -0.00558091 -0.0107143 -0.0195283 -0.00534483 -0.00149259 -0.00326199 -0.0046556 -0.00231441 -0.00767606 -0.0141964 -0.0240909 -0.00126342 -0.00081307 -0.00233728 -0.00630952 -0.00920765 -0.00858025 -0.00574074
internal_weight=9732 3461 1812 6271 644 95 62 549 67 1649 1833 189 482 140 53 87 1417 1168 813 458 355 112 55 1397 1316 845 252 183 81 135
internal_count=9732 3461 1812 6271 644 95 62 549 67 1649 1833 189 482 140 53 87 1417 1168 813 458 355 112 55 1397 1316 845 252 183 81 135
is_linear=0
shrinkage=0.05


Tree=15
num_leaves=31
num_cat=0
split_feature=130 17 133 88 114 52 17 131 67 44 113 80 60 116 81 94 100 143 111 74 74 49 128 25 72 33 92 32 136 72
split_gain=26.9252 6.06452 4.2536 6.53475 3.69468 2.53225 5.68803 3.25609 3.02721 2.55404 3.70519 2.53391 2.36057 2.03485 1.90594 1.90446 1.85294 1.80319 1.70207 1.9976 2.02657 1.62001 1.59955 2.08939 3.2471 2.81493 1.96364 2.41174 1.5547 1.54198
threshold=0.33518493175506597 68.477311250000014 0.89616647362709057 0.38075339794158941 0.32668713720209869 2.5000000000000004 44.360000000000007 0.4774300812637981 -62.305341249999991 120.92000000000002 0.3359831561295315 0.48831286116984535 88.500000000000014 0.22442492478368309 0.44992487992919533 0.012345648836344451 0.057189490646123858 0.16963397748985798 0.45062453023781684 41.345000000000006 60.103411250000008 188.51500000000001 0.43549149060513376 55.430000000000007 60.757303750000005 1.2768630396786691 0.38374435361529119 77.153998750000014 0.8178408443927766 -62.014999999999993
decision_type=2 2 2 2 2 2 2 2 2 2 2 2 2 2 2 2 2 2 2 2 2 2 2 2 2 2 2 2 2 2
left_child=1 13 4 -4 15 6 8 17 -6 10 -9 12 14 -1 22 -2 -15 -7 19 -12 -21 -3 -10 -24 25 26 27 -25 -19 -18
right_child=2 21 3 -5 5 7 -8 9 11 -11 18 -13 -14 16 -16 -17 29 28 -20 20 -22 -23 23 24 -26 -27 -28 -29 -30 -31
leaf_value=0.55653504133920328 -0.64789648672222377 0.29961409925605909 0.013049181338401959 -0.58228189138905384 -0.87543592332385856 -1.078014736621745 -0.29140725262416212 -0.90472756592693249 -0.46384760199569142 -0.05648811639253707 0.098184001603540655 -0.91984642474354317 -0.93382384337925017 -1.3626823762001323 -1.0229895554859387 0.094493524748582969 -0.6742542007956841 0.083396711326856943 -0.83078889320373761 -0.86636192127078404 -0.54371353669933942 0.85581343241550878 -0.41864107551504448 -0.54314757236374211 0.041732133216723394 0.083793397261668401 -0.67039840705841636 -0.97290934425963216 -0.62397259307613362 -0.057682971068167811
leaf_weight=896 33 706 38 43 38 20 444 26 155 108 80 35 25 22 23 493 150 448 27 20 53 4269 53 25 36 24 40 23 33 1433
leaf_count=896 33 706 38 43 38 20 444 26 155 108 80 35 25 22 23 493 150 448 27 20 53 4269 53 25 36 24 40 23 33 1433
internal_value=0.000419595 0.0020305 -0.00411225 -0.0153704 -0.00370911 -0.00482143 -0.00661781 -0.00279141 -0.0104088 -0.00678344 -0.0100485 -0.0092369 -0.00811881 2.19914e-05 -0.0071372 -3.80226e-05 -0.00104361 -0.000289421 -0.0075 -0.00545752 -0.0114384 0.0030402 -0.00623595 -0.0091791 -0.0122297 -0.0164286 -0.0205682 -0.01375 0.000322246 -0.000843335
internal_weight=9819 7476 2343 81 2262 1736 921 815 477 314 206 439 404 2501 379 526 1605 501 180 153 73 4975 356 201 148 112 88 48 481 1583
internal_count=9819 7476 2343 81 2262 1736 921 815 477 314 206 439 404 2501 379 526 1605 501 180 153 73 4975 356 201 148 112 88 48 481 1583
is_linear=0
shrinkage=0.05


Tree=16
num_leaves=31
num_cat=0
split_feature=130 125 133 89 84 2 104 17 8 35 0 28 142 94 38 0 38 125 17 2 38 56 1 46 74 107 103 54 17 87
split_gain=24.2261 6.96508 4.34041 6.53475 3.33317 4.21029 2.79448 2.34982 2.2903 2.28308 2.6447 4.00079 3.33999 1.943 2.03688 1.88274 2.09359 1.95841 2.00119 2.11874 1.6473 1.62897 1.56538 2.89547 1.62236 2.17315 1.56385 1.42483 2.59538 3.94385
threshold=0.34687291085720068 0.2593453764733904 0.89616647362709057 0.34958962882026945 0.29321915359195133 0.91597561503675351 0.33886835384666125 59.261341250000008 -0.68301270189221952 38.825381949785239 8.5000000000000018 39.592499999999994 0.15787629783153531 0.012345648836344451 51.26396625000001 22.500000000000004 80.450000000000017 0.29317550677255833 55.623709999999996 0.1294095225512602 135.06000000000003 21.500000000000004 -1.0000000180025095e-35 71.527529761904773 56.397657500000001 0.17728566388442057 0.10887899622321122 1.5000000000000002 47.285117500000005 0.32669747159557649
decision_type=2 2 2 2 2 2 2 2 2 2 2 2 2 2 2 2 2 2 2 2 2 2 2 2 2 2 2 2 2 2
left_child=1 22 4 -4 13 27 -7 9 -8 15 11 -11 -13 -2 21 16 17 18 19 -3 -12 -15 23 24 25 -1 -27 28 29 -6
right_child=2 7 3 -5 5 6 8 -9 -10 10 20 12 -14 14 -16 -17 -18 -19 -20 -21 -22 -23 -24 -25 -26 26 -28 -29 -30 -31
leaf_value=0.49171250703536451 -0.68408168030893401 -1.2120512601704678 0.012396722271481827 -0.55316779681960104 -0.94908403230211036 -0.80665116075347554 0.05557300139348921 0.24973029186884865 -0.72113520215090643 -1.0773543729122836 -1.0553158573854406 -1.0980771090509542 0.27877451752356142 -0.77118641691673051 -0.0072148604693045007 -0.82290905474990217 0.15927408482192518 -0.20639252316259277 0.66224474281731105 -0.36942435823303521 -0.079414471078445778 -0.1478809127277079 0.82073615483306017 0.80376048952142343 0.032532574954316509 -1.3258916233169566 -0.93456648248870666 -0.31943594083326415 -0.28806769628750845 -0.37362733749893184
leaf_weight=25 29 38 38 43 57 22 45 1582 108 20 38 27 43 31 794 23 344 316 24 22 185 36 3103 1678 72 22 20 761 204 69
leaf_count=25 29 38 38 43 57 22 45 1582 108 20 38 27 43 31 794 23 344 316 24 22 185 36 3103 1678 72 22 20 761 204 69
internal_value=0.000414503 0.00191374 -0.0040076 -0.0153704 -0.0035807 -0.00522907 -0.0124286 -0.000146506 -0.0100327 -0.00194444 -0.00554313 -0.0127778 -0.00714286 -0.00123595 -0.000807201 -0.00047588 -4.03224e-05 -0.0025 -0.00928571 -0.0141667 -0.00262332 -0.0091791 0.00302846 0.00186296 -0.00507194 -0.0106716 -0.017619 -0.00407424 -0.00681818 -0.0124603
internal_weight=9819 7582 2237 81 2156 1266 175 2662 153 1080 313 90 70 890 861 767 744 400 84 60 223 67 4920 1817 139 67 42 1091 330 126
internal_count=9819 7582 2237 81 2156 1266 175 2662 153 1080 313 90 70 890 861 767 744 400 84 60 223 67 4920 1817 139 67 42 1091 330 126
is_linear=0
shrinkage=0.05


Tree=17
num_leaves=31
num_cat=0
split_feature=131 17 133 89 17 131 18 46 28 46 136 29 0 66 0 148 146 22 72 95 101 34 66 37 111 60 146 111 46 50
split_gain=23.1697 6.32099 3.94044 6.84611 4.04179 2.73793 3.39579 2.49983 2.10633 2.06273 2.41242 1.93299 1.93219 1.88436 2.26773 2.21678 1.86474 2.47189 2.61728 2.77849 1.72444 1.69746 3.13863 1.66743 1.61255 2.07833 1.55972 1.49609 1.95887 1.61955
threshold=0.25745324444597995 41.455000000000005 0.89616647362709057 0.34958962882026945 1.0000000180025095e-35 0.39919536129916527 72.898006250000023 124.7044047619048 86.198333333333338 26.993478526785719 0.33766649663448339 19.789119081414309 12.500000000000002 32.860000000000014 22.500000000000004 0.10797281563282012 0.2807276860480567 77.089999999999989 181.51500000000001 0.26457763296670161 0.39224236003093088 16.107916666666668 -12.169999999999996 82.851316250000011 0.15512903706523082 39.500000000000007 0.47883608079384182 0.14372356800777622 34.552102596726193 180.57500000000002
decision_type=2 2 2 2 2 2 2 2 2 2 2 2 2 2 2 2 2 2 2 2 2 2 2 2 2 2 2 2 2 2
left_child=7 2 4 -4 -2 8 9 12 21 11 -11 -7 23 14 27 -16 20 -18 19 -19 -15 22 -6 24 25 -1 -23 -3 -29 -30
right_child=1 13 3 -5 5 6 -8 -9 -10 10 -12 -13 -14 16 15 -17 17 18 -20 -21 -22 26 -24 -25 -26 -27 -28 28 29 -31
leaf_value=-1.0471727814040763 -0.39178816124939531 0.61314193397866934 0.048308243347322935 -0.52550940697862103 0.45033997507276946 -0.21989979660110764 -0.78215743547550121 2.599125614621753 -0.8022612955673547 -0.7707512587728208 -0.43634039363790822 -0.80385278930437831 -0.023025740234143027 0.51203827647617417 0.32648557167404874 -0.77791881986423239 -0.5157328437854346 -0.4151936856563323 0.046405241954852232 -1.4683396096828785 -1.2385267508836371 -0.059610905413777476 -0.96732610101951555 0.56977465412173045 0.30842541431761844 0.850823441232055 -0.56981740919928703 0.38294479445332613 0.12429905984387364 -0.56503531259603879
leaf_weight=45 1201 313 36 43 20 28 26 2575 23 42 187 22 964 131 20 29 73 22 20 25 22 302 26 1888 305 29 53 441 404 504
leaf_count=45 1201 313 36 43 20 28 26 2575 23 42 187 22 964 131 20 29 73 22 20 25 22 302 26 1888 305 29 53 441 404 504
internal_value=0.000414503 -0.00232619 -0.00430811 -0.0152532 -0.0038601 -0.00679698 -0.0104098 0.00261454 -0.00419811 -0.00879928 -0.00679039 -0.018 0.00168833 -0.000339321 0.000295149 -0.0103061 -0.00404437 -0.00821429 -0.0151493 -0.0215957 -0.000228758 -0.00335411 -0.0123913 0.00248566 -0.000540897 -0.00716216 -0.0021831 0.000607702 -0.0001149 -0.00144273
internal_weight=9819 4013 2009 79 1930 729 305 5806 424 279 229 50 3231 2004 1711 49 293 140 67 47 153 401 46 2267 379 74 355 1662 1349 908
internal_count=9819 4013 2009 79 1930 729 305 5806 424 279 229 50 3231 2004 1711 49 293 140 67 47 153 401 46 2267 379 74 355 1662 1349 908
is_linear=0
shrinkage=0.05


Tree=18
num_leaves=31
num_cat=0
split_feature=131 133 89 128 46 143 47 16 60 101 110 14 8 73 4 98 89 127 1 111 134 114 127 25 82 15 126 66 1 35
split_gain=21.2945 5.69992 6.53475 4.02231 2.62306 1.85895 1.85887 2.07037 2.00184 1.99883 1.9163 2.11542 1.97228 2.95008 3.07445 2.10663 3.21165 1.84434 1.78664 1.75766 2.93188 1.75261 1.74807 1.70909 2.07985 2.33127 2.35937 1.77818 1.70462 3.21788
threshold=0.26336567439350317 0.89616647362709057 0.34958962882026945 0.39598274731498512 124.7044047619048 0.18506705053368122 25.572088325531574 58.130448750000006 75.500000000000014 0.43876517188496217 0.5045323542200203 78.825000000000003 -0.24999999999999994 55.931280000000008 0.6078576107927941 0.28964132901780854 0.24459015954702784 0.57112917304039013 1.0000000180025095e-35 0.45196249015966444 0.30667208983675465 0.44981409332448169 0.81350252032279979 67.306896250000008 0.28762640058994299 1.2400000000000002 0.44957628739780731 9.4499999999999904 0.12940952255126045 34.97499683718361
decision_type=2 2 2 2 2 2 2 2 2 2 2 2 2 2 2 2 2 2 2 2 2 2 2 2 2 2 2 2 2 2
left_child=4 3 -3 5 18 23 8 19 -5 10 12 -12 -9 15 17 16 -14 -15 -1 -8 -21 -7 -11 24 25 26 -2 -25 -29 -30
right_child=1 2 -4 6 -6 21 7 9 -10 22 11 -13 13 14 -16 -17 -18 -19 -20 20 -22 -23 -24 27 -26 -27 -28 28 29 -31
leaf_value=0.0089833452554595374 -1.233251364055143 0.0037131386833969674 -0.49923393662969001 -0.85191830141834279 2.4691693338906653 0.038376019460818388 -0.21150310140195672 -0.16548308280111768 -0.22176569427617854 0.099089755177557623 -0.72195489045844063 -0.33130215819253084 -0.19352489689838259 -1.181404323318106 -0.15796929838177953 0.17120375711159902 -0.95366776106486972 -0.61157944362811578 0.48577735234625785 -0.96158587040261245 -0.98415569786353341 -1.1298832249405355 -0.65334296240198109 0.70319412272670978 0.8633356206229762 -0.74942234236758232 -0.85761061511561776 -0.050541435861920593 0.072306312929271796 -1.2767035810158072
leaf_weight=1163 25 38 43 36 2575 1597 1063 102 32 106 22 21 30 20 26 58 22 23 2203 46 24 21 25 199 29 85 33 88 31 33
leaf_count=1163 25 38 43 36 2575 1597 1063 102 32 106 22 21 30 20 26 58 22 23 2203 46 24 21 25 199 29 85 33 88 31 33
internal_value=0.00040941 -0.002246 -0.0153704 -0.00196603 0.00251725 -0.000534797 -0.00381642 -0.00346977 -0.0119118 -0.00631868 -0.00842593 -0.0182558 -0.00692171 -0.0100838 -0.0181884 -0.005 -0.0123077 -0.0263953 0.00159834 -0.00232568 -0.01 0.000302843 -0.00110687 -0.00312619 -0.0072093 -0.00968531 -0.0174138 -0.00112536 -0.00519737 -0.0114062
internal_weight=9819 3878 81 3797 5941 2141 1656 1588 68 455 324 43 281 179 69 110 52 43 3366 1133 70 1618 131 523 172 143 58 351 152 64
internal_count=9819 3878 81 3797 5941 2141 1656 1588 68 455 324 43 281 179 69 110 52 43 3366 1133 70 1618 131 523 172 143 58 351 152 64
is_linear=0
shrinkage=0.05


Tree=19
num_leaves=31
num_cat=0
split_feature=130 6 133 89 114 94 10 70 53 17 67 121 131 41 113 60 37 2 109 8 22 126 139 60 119 80 58 31 41 72
split_gain=19.4893 6.0545 3.82674 5.51034 2.45641 2.55662 2.11984 2.21416 1.94581 3.63598 4.00679 3.0535 2.32045 1.99358 2.69786 1.94684 1.93068 1.91138 1.82879 1.81937 1.75185 2.39776 1.70122 1.98864 2.85687 1.61656 1.66844 1.78897 2.57389 1.57778
threshold=0.35080070793628698 5.5000000000000009 0.89616647362709057 0.34958962882026945 0.32668713720209869 0.012345648836344451 1.0000000180025095e-35 57.515000000000015 0.41666666666666669 44.360000000000007 -62.305341249999991 0.20660413801670072 0.4774300812637981 35.358651427594211 0.3359831561295315 88.500000000000014 82.851316250000011 0.91597561503675351 0.89479985833168041 -0.24999999999999994 22.455833333333324 0.44957594565598952 0.44267088174819952 61.500000000000007 0.24946417803237889 0.48831286116984535 25.500000000000004 76.27500000000002 28.689482265312488 -55.496756249999997
decision_type=2 2 2 2 2 2 2 2 2 2 2 2 2 2 2 2 2 2 2 2 2 2 2 2 2 2 2 2 2 2
left_child=1 16 4 -4 5 -2 17 18 9 10 -6 -12 -10 14 -14 25 -1 20 -8 -20 21 22 23 24 -3 26 27 -13 -29 -16
right_child=2 6 3 -5 8 -7 7 -9 12 -11 11 15 13 -15 29 -17 -18 -19 19 -21 -22 -23 -24 -25 -26 -27 -28 28 -30 -31
leaf_value=-0.21230047853182055 -0.61546084075007579 -0.78855181577913647 0.0035274817492272252 -0.47427223979820554 -0.73340987488095088 0.1086987167968001 0.54110500061814049 -1.0888857854862337 0.017209207119187563 -0.19699420197190548 -0.96004162743040278 -0.44240376797050002 -0.80342750384079731 0.015043995877895802 -0.514342782792644 -0.72910002301133647 0.72076711377611091 -0.75079025354539741 -0.87340274977968468 0.04765225980404162 0.008032786093978575 0.32256357015931214 0.2869674886191047 -0.63603861561828001 -0.96064777347250807 -0.72429963921326079 0.074622472847671692 -0.84305519558781317 -0.53015900492171653 -0.54067799191424226
leaf_weight=173 28 42 38 43 35 465 1040 25 465 408 21 179 24 109 33 21 4581 76 26 51 1310 120 38 88 41 30 57 27 77 148
leaf_count=173 28 42 38 43 35 465 1040 25 465 408 21 179 24 109 33 21 4581 76 26 51 1310 120 38 88 41 30 57 27 77 148
internal_value=0.000404318 0.00186638 -0.0034692 -0.0141358 -0.003063 3.04261e-05 4.72525e-05 0.00171629 -0.00399633 -0.00564327 -0.00875839 -0.00737864 -0.0021887 -0.00550955 -0.00841463 -0.00638107 0.00295961 -0.00106414 0.00204566 -0.00538961 -0.000704698 -0.00396657 -0.00720096 -0.00932748 -0.0148795 -0.00554054 -0.00455882 -0.00613074 -0.0113462 -0.00632597
internal_weight=9819 7611 2208 81 2127 493 2857 1142 1634 855 447 412 779 314 205 391 4754 1715 1117 77 1639 329 209 171 83 370 340 283 104 181
internal_count=9819 7611 2208 81 2127 493 2857 1142 1634 855 447 412 779 314 205 391 4754 1715 1117 77 1639 329 209 171 83 370 340 283 104 181
is_linear=0
shrinkage=0.05


Tree=20
num_leaves=31
num_cat=0
split_feature=131 17 133 88 114 7 17 51 38 82 20 76 86 116 135 92 47 43 67 126 135 83 133 47 61 86 72 20 1 5
split_gain=19.9869 4.50804 2.46253 4.64222 2.28446 2.22379 2.10733 2.02299 2.77353 2.92478 3.08599 2.53773 2.53675 2.38095 1.95424 2.38095 1.87766 1.85553 2.94972 1.54352 1.96864 1.51309 1.50101 3.89806 4.15817 1.7648 1.47605 1.41116 1.40144 2.05607
threshold=0.24315895388265749 54.595000000000006 0.89616647362709057 0.31371557712554937 0.44981409332985445 0.25000000000000011 111.43500000000002 1.0008272165820766 130.30500000000004 0.17331192642450327 45.420000000000009 47.515000000000008 0.70947052538394939 0.36841861015706995 0.44926219317765742 0.59946567565202724 71.411273643224689 243.76500000000001 118.26500000000003 0.44959397958355823 0.4492614062477302 0.37043530228098964 0.6527356505393983 33.240802496622095 0.44345238095238099 0.58086315977091996 -17.356517499999985 240.05268750000002 -0.25881904510252113 1.0000000180025095e-35
decision_type=2 2 2 2 2 2 2 2 2 2 2 2 2 2 2 2 2 2 2 2 2 2 2 2 2 2 2 2 2 2
left_child=6 2 5 -4 17 7 28 8 11 -10 -11 14 16 -13 -2 -16 19 18 -3 22 -21 -18 -9 24 -24 -25 -27 -7 29 -1
right_child=1 4 3 -5 -6 27 -8 12 9 10 -12 13 -14 -15 15 -17 21 -19 -20 20 -22 -23 23 25 -26 26 -28 -29 -30 -31
leaf_value=-0.54961967703471626 -0.25267545853667123 -0.039667252435591299 0.30916002145685484 -0.48356677748266741 -1.2613448047221334 0.12614798695540458 1.4808537142871137 -0.082445521358860782 -0.068302613863371817 -1.0257916983958839 -0.76702594453272199 -0.27173557637914653 -0.969285741776578 -0.77673752879176439 -0.87896607552271433 -0.095390328997448592 -0.28923588952529949 0.40533864418949578 -0.9685329535755165 -0.37851714234675216 -0.9082200246076465 -0.81509878847686967 -0.7850826608492143 0.19295987931943664 -0.3181374055984314 -0.92345242705770658 -0.15482257680683892 -0.65021482868119052 0.43175064860835 0.34103807711311324
leaf_weight=281 511 1377 27 53 25 306 2914 993 27 29 30 21 23 21 21 21 23 438 35 36 26 20 20 111 32 31 34 21 1826 416
leaf_count=281 511 1377 27 53 25 306 2914 993 27 29 30 21 23 21 21 21 23 438 35 36 26 20 20 111 32 31 34 21 1826 416
internal_value=0.000391835 -0.00182978 -0.00324785 -0.011875 1.33335e-05 -0.00295503 0.00272853 -0.00357143 -0.00579295 -0.014186 -0.0204237 -0.00457983 -0.00244996 -0.0164286 -0.00367993 -0.0140476 -0.0021644 0.000216216 -0.000665722 -0.00181995 -0.00951613 -0.0124419 -0.00142916 -0.00508772 -0.0171154 -0.00153409 -0.00807692 0.00087156 0.00167063 -0.000236729
internal_weight=9749 4312 2437 80 1875 2357 5437 2030 681 86 59 595 1349 42 553 42 1326 1850 1412 1283 62 43 1221 228 52 176 65 327 2523 697
internal_count=9749 4312 2437 80 1875 2357 5437 2030 681 86 59 595 1349 42 553 42 1326 1850 1412 1283 62 43 1221 228 52 176 65 327 2523 697
is_linear=0
shrinkage=0.05


Tree=21
num_leaves=31
num_cat=0
split_feature=131 17 149 20 47 4 140 17 49 40 58 58 94 28 74 118 28 58 47 52 114 45 43 67 47 94 133 34 1 5
split_gain=18.9898 4.3953 2.22099 4.08004 2.63472 2.15658 2.17779 2.13582 2.00284 2.89871 4.28645 2.91813 3.48512 2.95779 2.74351 2.31386 1.73989 2.19034 1.72746 2.39146 1.71635 1.62603 1.60211 2.96431 1.48205 1.87261 1.39078 1.37141 1.36153 1.75709
threshold=0.24315895388265749 54.595000000000006 0.51844909045070142 67.235000000000014 47.756368233404267 -0.8783796973249266 0.26737924795815265 111.43500000000002 107.01500000000001 39.41875000000001 12.500000000000002 34.500000000000007 0.11909415200352666 6.5608708333333254 47.947360000000003 0.74958381056785595 54.712083333333332 5.5000000000000009 32.249686579821834 5.5000000000000009 0.44981409332985445 1.8654789325922227 243.76500000000001 118.26500000000003 44.460739950789716 0.32165125012397772 0.89616647362709057 69.686406354166678 -0.25881904510252113 1.0000000180025095e-35
decision_type=2 2 2 2 2 2 2 2 2 2 2 2 2 2 2 2 2 2 2 2 2 2 2 2 2 2 2 2 2 2
left_child=7 2 4 18 8 6 -6 28 -2 10 -10 12 -12 14 -14 16 24 -18 19 -4 22 -15 23 -3 -11 -26 -20 -7 29 -1
right_child=1 20 3 -5 5 27 -8 -9 9 15 11 -13 13 21 -16 -17 17 -19 26 -21 -22 -23 -24 -25 25 -27 -28 -29 -30 -31
leaf_value=-0.52213869318298023 0.013554264664744551 -0.03768388981381169 -0.6474904972104859 -0.88452091252605602 0.22010459021345144 0.1021683676981561 -0.86305463994007892 1.406811028572758 -0.72448313657983721 0.12047403795545747 -0.85746249062296964 0.074452994732739794 -0.65820062998985007 -0.45307439782261255 -0.81989718451807903 -0.87417650154558957 -0.71069960768696283 -0.10394521734710192 -0.36275679468620392 -0.35747260524197272 -1.1982775644860266 -0.88590447192090049 0.38507171198002083 -0.92010630589674069 -0.51659457651762419 0.75548067311696787 -0.44358853728328063 -0.41524981581080117 0.41016311617793244 0.32398617325745765
leaf_weight=281 244 1377 34 33 21 654 22 2914 39 322 26 132 35 348 20 22 20 41 181 33 25 21 438 35 28 23 27 111 1826 416
leaf_count=281 244 1377 34 33 21 654 22 2914 39 322 26 132 35 348 20 22 20 41 181 33 25 21 438 35 28 23 27 111 1826 416
internal_value=0.000386706 -0.00180659 -0.00320681 -0.00717532 -0.00263269 -0.000383663 -0.0112791 0.00263656 -0.00400833 -0.004935 -0.00715781 -0.00608247 -0.008 -0.00691038 -0.0177273 -0.00190789 -0.00110599 -0.00893443 -0.00518182 -0.0121642 1.33335e-05 -0.0052981 0.000189189 -0.000630311 0.000174263 -0.0077451 -0.00293269 0.000228758 0.00157154 -0.000308465
internal_weight=9749 4312 2437 308 2129 808 43 5437 1321 1077 621 582 450 424 55 456 434 61 275 67 1875 369 1850 1412 373 51 208 765 2523 697
internal_count=9749 4312 2437 308 2129 808 43 5437 1321 1077 621 582 450 424 55 456 434 61 275 67 1875 369 1850 1412 373 51 208 765 2523 697
is_linear=0
shrinkage=0.05


Tree=22
num_leaves=31
num_cat=0
split_feature=131 128 90 47 95 5 135 79 72 16 107 100 91 37 111 94 134 137 101 77 1 37 106 74 15 72 122 47 93 113
split_gain=17.7201 3.27356 2.29531 2.24344 1.95316 3.89331 2.09339 2.07752 3.06321 2.24811 1.97861 1.89659 2.70791 2.06098 1.79395 1.72894 2.23961 1.71958 2.9281 1.718 1.69028 1.87548 2.33447 2.79189 1.65974 1.62702 1.61257 1.49317 1.4856 1.54417
threshold=0.25556703950927612 0.39598274731498512 0.18546391016411468 60.638605419099534 0.16356256580712134 -0.22252093395631442 0.44926248157671461 0.96553498506546032 -12.907838750000002 59.545000000000009 0.25611637653363423 0.43531802296638494 0.30249902606010443 91.375000000000014 0.13732971486315992 0.25997112691402435 0.2843343510776114 0.60620301017701639 0.33286496173291474 25.487612500000001 1.0000000180025095e-35 77.627147500000007 0.71922296285629284 50.672607500000005 90.430000000000021 -79.729999999999976 0.6050758722130869 60.15864091338829 0.3018411628167878 0.27579394462208201
decision_type=2 2 2 2 2 2 2 2 2 2 2 2 2 2 2 2 2 2 2 2 2 2 2 2 2 2 2 2 2 2
left_child=3 2 -2 20 5 -3 7 9 -9 17 -11 12 -12 -14 -4 25 -17 24 -19 -15 27 22 23 -22 28 -16 -13 -1 29 -6
right_child=1 4 14 -5 6 -7 -8 8 -10 10 11 26 13 19 15 16 -18 18 -20 -21 21 -23 -24 -25 -26 -27 -28 -29 -30 -31
leaf_value=-0.062300799174936007 -0.48480372664075971 -0.57899138212478796 0.32027193280202781 0.68772496838838171 -0.62327723745924779 -0.41466680356622315 -0.8897560479555795 -0.63347568899512696 -0.33840442672108378 0.17001696343306402 -0.42663100988936908 -0.18026332583341256 -0.65656343926916927 -0.74554506452892411 -1.0364050212156735 0.3769602328880865 -0.34526078149963402 -0.81230854435957667 -0.037327404291977978 -0.7358114064535749 -0.028351800390117129 0.45641639634370468 0.3687861654824704 -1.4574227906230428 -0.77406686449911044 -0.39614197707403664 -0.75748143273727786 -1.6827823814489431 0.64409845403207056 -0.078783278947440527
leaf_weight=623 20 32 428 3824 20 57 21 30 62 89 90 144 41 21 21 610 301 20 53 20 31 1116 82 24 24 918 21 25 156 825
leaf_count=623 20 32 428 3824 20 57 21 30 62 89 90 144 41 21 21 610 301 20 53 20 31 1116 82 24 24 918 21 25 156 825
internal_value=0.000381578 -0.00187127 -0.000635335 0.00245852 -0.0035168 -0.0107303 -0.00312462 -0.00292079 -0.0102174 -0.00248031 -0.00556338 -0.00731454 -0.0109884 -0.017561 -0.000487269 -0.00116216 0.000389682 -0.00128415 -0.00869863 -0.0254878 0.00105471 0.0021269 -0.00339416 -0.0113636 -0.000756097 -0.00266773 -0.00348485 -0.00101852 -0.000444555 -0.00127219
internal_weight=9749 4024 2298 5725 1726 89 1637 1616 92 1524 426 337 172 82 2278 1850 911 1098 73 41 1901 1253 137 55 1025 939 165 648 1001 845
internal_count=9749 4024 2298 5725 1726 89 1637 1616 92 1524 426 337 172 82 2278 1850 911 1098 73 41 1901 1253 137 55 1025 939 165 648 1001 845
is_linear=0
shrinkage=0.05


Tree=23
num_leaves=31
num_cat=0
split_feature=131 17 148 20 8 134 2 7 17 100 90 32 70 47 114 49 72 44 17 40 58 72 2 94 58 86 126 134 86 127
split_gain=16.4524 3.85426 2.34549 4.18552 2.38458 3.79457 2.27091 3.15151 2.21003 1.93623 1.87589 4.14568 2.26891 1.79935 1.74314 1.59294 2.22185 1.553 1.95161 1.4932 3.3302 3.29035 2.94167 2.35739 2.88782 1.56695 1.55987 1.77927 2.01238 1.49096
threshold=0.24315895388265749 55.090000000000011 0.74203708767890941 67.235000000000014 -0.5 0.54848788376146074 0.91597561503675351 -0.93301270189221919 122.84000000000002 0.47762815654277807 0.30215032808591374 75.926100000000019 -0.094438750000001889 47.756368233404267 0.44981409332985445 188.51500000000001 93.535000000000011 252.35500000000002 20.062353750000003 39.41875000000001 12.500000000000002 -58.527546249999993 -0.37940952255126015 0.11909415200352666 31.500000000000004 0.60431546345353138 0.44959406562288035 0.2541284340061824 0.58958515899464348 0.14959882199764249
decision_type=2 2 2 2 2 2 2 2 2 2 2 2 2 2 2 2 2 2 2 2 2 2 2 2 2 2 2 2 2 2
left_child=8 2 6 4 5 -4 13 9 15 -8 11 -9 -13 19 -3 16 -1 -15 -19 20 -2 22 -22 24 -23 26 27 -25 -29 -21
right_child=1 14 3 -5 -6 -7 7 10 -10 -11 -12 12 -14 17 -16 -17 -18 18 -20 29 21 23 -24 25 -26 -27 -28 28 -30 -31
leaf_value=-0.027587707100031906 -0.67555621519460485 0.027139013391953338 -0.32708987974647957 -0.80793326133483845 -0.17416649171560855 -0.61145362060150732 -0.84956829332467609 -0.10374038568946908 1.5133862472619173 -0.37740130361897012 0.024280584745736133 -0.80799471749916774 -0.33947571470473781 0.10628091212805908 -1.1185565874080234 0.35473745044183819 -2.1909911239134754 -0.44138567052921407 0.32236451584559916 -0.48065842725141028 -1.0653938406959331 -0.72491428273650216 -0.78485467092193595 0.29278096924879543 -0.2287820875468817 0.13686558784819775 -0.64808812994986487 -0.25579730753566066 -0.85132805269400036 0.034626323724587731
leaf_weight=431 32 1827 72 33 178 31 29 90 2765 22 141 30 21 607 25 2221 20 31 31 52 20 20 49 130 23 167 21 221 26 383
leaf_count=431 32 1827 72 33 178 31 29 90 2765 22 141 30 21 607 25 2221 20 31 31 52 20 20 49 130 23 167 21 221 26 383
internal_value=0.000376449 -0.00160946 -0.0029065 -0.00694267 -0.00496441 -0.0110194 -0.00231594 -0.00611111 0.00252621 -0.017549 -0.00404255 -0.00812057 -0.0195098 -0.00161886 0.000113391 0.00150075 -0.00120843 0.000440957 -0.00709677 -0.00282343 -0.00423836 -0.00349335 -0.0138406 -0.00231908 -0.0136047 -0.00146018 -0.00316583 -0.00242706 -0.00491903 -0.000517241
internal_weight=9749 4312 2460 314 281 103 2146 333 5437 51 282 141 51 1813 1852 2672 451 669 62 1144 709 677 69 608 43 565 398 377 247 435
internal_count=9749 4312 2460 314 281 103 2146 333 5437 51 282 141 51 1813 1852 2672 451 669 62 1144 709 677 69 608 43 565 398 377 247 435
is_linear=0
shrinkage=0.05


Tree=24
num_leaves=31
num_cat=0
split_feature=128 17 149 20 2 7 97 8 97 1 47 18 103 145 28 17 62 22 135 111 26 49 114 128 102 83 27 27 47 98
split_gain=15.4277 4.4132 2.3875 4.2881 2.01761 3.07775 2.00887 1.8691 3.99434 1.82787 2.16441 1.65414 1.97712 4.43875 1.63761 2.08713 1.73144 1.54359 1.3454 3.1412 1.32105 1.30361 1.28605 1.26881 2.01712 1.49663 1.3307 1.3241 1.20968 1.10221
threshold=0.24079336369703261 55.090000000000011 0.51844909045070142 67.235000000000014 0.91597561503675351 -0.93301270189221919 0.39274387061595922 -0.24999999999999994 0.37295337021350866 1.0000000180025095e-35 60.638605419099534 74.620000000000019 0.319991946220398 0.15881391614675525 53.359583333333333 55.090000000000011 115.50000000000001 68.462499999999991 0.44926248250985462 0.45062453023781684 12.554999999999994 349.13500000000005 0.44981409332985445 0.44260929228020574 0.44980305285026806 0.26342710086677557 0.3362598966145956 0.080203749057363466 36.646662432041232 0.28964132901780854
decision_type=2 2 2 2 2 2 2 2 2 2 2 2 2 2 2 2 2 2 2 2 2 2 2 2 2 2 2 2 2 2
left_child=9 2 4 7 18 6 -6 8 20 10 14 12 13 -7 15 -1 28 -14 29 -20 -4 -12 23 -3 25 26 27 -25 -16 -2
right_child=1 22 3 -5 5 11 -8 -9 -10 -11 21 -13 17 -15 16 -17 -18 -19 19 -21 -22 -23 -24 24 -26 -27 -28 -29 -30 -31
leaf_value=0.27231864705895564 -0.37093694327390647 0.10998205404486659 -0.47422322929503791 -0.79045691493048453 -0.81582080727802753 0.081779407987066843 -0.39043209900981862 -0.12945839812410628 -0.26966785869258891 0.64680172063943697 0.88213950975031497 -0.5153515519387698 0.097902294388397412 -0.73991423936860201 -0.94170861752325541 -0.89105928718243532 -1.2556204914632616 -0.50875677020344068 0.11841370114917099 -0.79733400989973635 -0.6714937676874978 -0.86085182623364964 -1.0626287580376224 -0.30651575118942764 -1.1717185620401795 0.17079443532453004 0.031192468056542546 -0.87496820457532309 0.23702972116944296 -0.031785699816598907
leaf_weight=22 526 2183 22 33 25 45 28 171 73 2745 1413 20 166 31 22 23 29 34 37 20 21 109 25 21 26 152 32 20 341 1334
leaf_count=22 526 2183 22 33 25 45 28 171 73 2745 1413 20 166 31 22 23 29 34 37 20 21 109 25 21 26 152 32 20 341 1334
internal_value=0.000366191 -0.00123389 -0.00267595 -0.00671875 -0.00210503 -0.00560172 -0.0166981 -0.0047561 -0.00965517 0.0027466 0.00157989 -0.00361486 -0.0026087 -0.00947368 -0.00152174 -0.0105556 -0.000484694 1.86265e-10 -0.00146844 -0.00903509 -0.0217442 0.00247043 0.000282635 0.000398521 -0.00296813 -0.00144444 -0.00732877 -0.0132927 0.000454546 -0.00123656
internal_weight=9749 5045 2586 320 2266 349 53 287 116 4704 1959 296 276 76 437 45 392 200 1917 57 43 1522 2459 2434 251 225 73 41 363 1860
internal_count=9749 5045 2586 320 2266 349 53 287 116 4704 1959 296 276 76 437 45 392 200 1917 57 43 1522 2459 2434 251 225 73 41 363 1860
is_linear=0
shrinkage=0.05


Tree=25
num_leaves=31
num_cat=0
split_feature=128 17 134 113 31 116 81 93 16 76 67 98 72 38 122 47 104 85 94 122 0 143 89 70 0 76 29 131 130 73
split_gain=16.4305 5.27047 2.82714 3.14028 2.73709 2.11258 1.48335 1.95347 1.80005 2.17269 2.25674 1.9178 1.69283 1.56251 1.76764 2.28251 2.16689 2.23184 1.86082 1.85204 1.46833 2.31539 1.85608 1.59707 1.36883 3.41515 1.79719 1.36838 2.23292 1.28891
threshold=0.24079336369703261 61.411849999999994 0.60531708295636888 0.4450953420973654 83.595000000000013 0.23410527998683348 0.44992488008179138 0.16093573462436073 59.545000000000009 -20.974999999999998 -83.589999999999975 0.30252565475305448 -62.014999999999993 199.42500000000004 0.39956248219917873 39.319205998329913 0.2977761714219857 0.20465807616710663 0.18567088991403582 0.45373150996767958 14.500000000000002 0.39452349403450554 0.14113077330802057 0.29000000000000276 2.5000000000000004 57.731381250000005 52.541833416305131 0.31544314622143155 0.070155814290046664 59.944478750000009
decision_type=2 2 2 2 2 2 2 2 2 2 2 2 2 2 2 2 2 2 2 2 2 2 2 2 2 2 2 2 2 2
left_child=4 2 5 -4 29 -2 8 12 -7 11 -11 -10 -8 14 16 -16 17 -9 -18 -17 -3 22 27 -23 25 26 -12 28 -22 -1
right_child=1 20 3 -5 -6 6 7 13 9 10 24 -13 -14 -15 15 19 18 -19 -20 -21 21 23 -24 -25 -26 -27 -28 -29 -30 -31
leaf_value=0.29436476389389066 0.46513448267818502 0.35174937697563263 -0.4405056990269966 -0.064876384433309245 0.64003181698282385 -0.22074454899885587 -0.9894241260438158 -0.89662768519673985 -0.93452061939899034 -0.72085761637095902 -0.12447467396943908 -0.2368779061898133 0.093985616411146278 0.58713427597663859 0.25636303208806932 -0.5057370791156649 0.32764191706858015 -0.88601999267017006 -1.0085557014364652 -0.87853994140182123 -0.78802190329823063 -0.15702955401142135 0.10460446193609288 -0.92799268090508269 -0.14361278835101493 -0.79380125515114552 -0.9604322583398055 -0.4595383326252635 0.45018725730015596 -0.60470105043054645
leaf_weight=132 170 1465 25 27 4367 1795 30 27 29 33 110 52 108 25 40 28 23 20 34 21 21 43 308 26 365 27 28 26 50 178
leaf_count=132 170 1465 25 27 4367 1795 30 27 29 33 110 52 108 25 40 28 23 20 34 21 21 43 308 26 365 27 28 26 50 178
internal_value=0.000401744 -0.00136602 -0.00267319 -0.0142308 0.00276566 -0.00247049 -0.00279964 -0.00581461 -0.00235957 -0.00462733 -0.00352575 -0.012284 -0.00115942 -0.00876147 -0.010285 -0.00511236 -0.0147115 -0.0226596 -0.00815789 -0.0123469 0.00066787 -0.00175105 -0.000308642 -0.0102174 -0.00273585 -0.00651515 -0.00333333 -0.00634021 -0.00274648 -0.00177419
internal_weight=9633 4956 3017 52 4677 2965 2795 356 2439 644 563 81 138 218 193 89 104 47 57 49 1939 474 405 69 530 165 138 97 71 310
internal_count=9633 4956 3017 52 4677 2965 2795 356 2439 644 563 81 138 218 193 89 104 47 57 49 1939 474 405 69 530 165 138 97 71 310
is_linear=0
shrinkage=0.05


Tree=26
num_leaves=31
num_cat=0
split_feature=128 17 31 139 90 143 72 91 20 81 22 89 145 71 134 95 70 86 72 49 4 49 8 115 146 111 37 73 130 71
split_gain=14.8558 4.49388 2.71137 2.12551 2.01234 3.57286 2.66858 2.09402 1.6734 1.6254 1.36705 2.36071 1.85845 1.62819 1.33817 2.43759 1.70276 2.35574 3.16052 1.41753 1.80796 4.40439 1.35741 2.58983 1.24947 1.2423 1.28544 3.93534 1.37507 1.47659
threshold=0.24079336369703261 61.411849999999994 83.595000000000013 0.91071727871894848 0.26740825039579602 0.1628490986395302 -60.704337499999994 0.16014205664396289 8.5900000000000016 0.44992487971049416 66.926666666666662 0.42578739230525414 0.11639377847313877 -15.931427500000011 0.25818910147243262 0.15235956016412947 -13.530373750000001 0.43139078768175138 3.1250000000000004 226.67946750000002 -0.8783796973249266 160.68000000000004 -0.9330127018922193 0.35319685935974121 0.39746964457600714 0.15512903706523082 77.208998750000021 60.289466250000011 0.022889171727001601 -12.799999999999995
decision_type=2 2 2 2 2 2 2 2 2 2 2 2 2 2 2 2 2 2 2 2 2 2 2 2 2 2 2 2 2 2
left_child=2 3 25 4 5 -2 7 -7 -5 -9 12 13 -6 -12 -14 -16 17 18 -17 20 21 -18 23 -22 -24 26 27 -1 29 -28
right_child=1 -3 -4 8 10 6 -8 9 -10 -11 11 -13 14 -15 15 16 19 -19 -20 -21 22 -23 24 -25 -26 -27 28 -29 -30 -31
leaf_value=0.03962895131766505 -0.88275246058659373 0.11117845724932912 0.60803022613368252 -0.17012739355400303 0.33402655375829249 0.11015777270837179 -0.36697991018763343 -0.58759326703126724 -0.5968980587725905 -0.93308625048679561 -1.049992325910156 -1.0383249662260341 0.011240783461668768 -0.24269968249890908 -0.62796601960530363 -0.67553182754007302 0.22574826938259696 -0.40041100988673811 -0.22285087776384344 0.011822196894471546 -0.59120338776484938 -0.85470515253781221 -0.2225776410348424 -0.10176703833694048 0.026071631667436854 0.39382554677463827 -1.5485477031700139 -1.2558710634954484 0.15019140923561664 0.42317346998982264
leaf_weight=23 21 1939 4367 31 188 20 217 21 33 24 27 21 663 230 37 28 31 143 22 568 33 22 249 49 339 67 24 20 155 21
leaf_count=23 21 1939 4367 31 188 20 217 21 33 24 27 21 663 230 37 28 31 143 22 568 33 22 249 49 339 67 24 20 155 21
internal_value=0.000396554 -0.00118442 0.00274428 -0.00239145 -0.00219607 -0.00605611 -0.00457447 -0.0134615 -0.0114062 -0.0194444 -0.00175472 -0.00507194 -0.00136594 -0.00375486 -0.00177656 -0.00259369 -0.00227763 -0.00665803 -0.016 -0.00162277 -0.00309129 -0.0119811 -0.00238806 -0.00841463 -0.00154762 -0.00177419 -0.00343621 -0.0112791 -0.00175 -0.00944444
internal_weight=9633 4956 4677 3017 2953 303 282 65 64 45 2650 278 2372 257 2184 1521 1484 193 50 1291 723 53 670 82 588 310 243 43 200 45
internal_count=9633 4956 4677 3017 2953 303 282 65 64 45 2650 278 2372 257 2184 1521 1484 193 50 1291 723 53 670 82 588 310 243 43 200 45
is_linear=0
shrinkage=0.05


Tree=27
num_leaves=31
num_cat=0
split_feature=128 17 140 31 90 143 72 91 81 134 1 47 33 116 22 91 145 134 95 51 137 38 123 58 93 97 47 31 127 1
split_gain=14.2383 4.01893 2.34501 2.30245 2.11018 3.57286 2.66858 2.09402 1.6254 1.48633 1.41284 1.74973 1.53742 1.34288 1.32603 2.5427 1.54886 1.26259 2.38264 1.36558 2.87781 1.65997 1.24176 1.35657 3.20606 1.88787 1.24113 2.0428 1.35394 1.201
threshold=0.24079336369703261 61.411849999999994 0.62557514765808653 83.595000000000013 0.26740825039579602 0.1628490986395302 -60.704337499999994 0.16014205664396289 0.44992487971049416 0.59691149099842533 -0.37940952255126059 62.219521887319978 0.80801590090414577 0.23410527998683348 66.926666666666662 0.48575264215469366 0.11639377847313877 0.25818910147243262 0.15235956016412947 0.89551377265288401 0.30251719055151316 133.80000000000004 0.44970134360717601 32.500000000000007 0.16093573462436073 0.18694099783897397 32.813928522515205 84.604796250000007 0.61033627390861522 -0.25881904510252113
decision_type=2 2 2 2 2 2 2 2 2 2 2 2 2 2 2 2 2 2 2 2 2 2 2 2 2 2 2 2 2 2
left_child=3 2 4 -1 5 -2 7 -7 -9 -4 11 12 -5 -6 16 -16 -15 -18 -19 20 -20 -22 -8 24 -24 -25 27 28 -21 -3
right_child=1 29 9 10 13 6 22 8 -10 -11 -12 -13 -14 14 15 -17 17 18 19 26 21 -23 23 25 -26 -27 -28 -29 -30 -31
leaf_value=-0.22046424679021698 -0.83861483755726407 -0.12602113009604149 -0.38378001020894881 -0.0086226046261677729 0.38801089094590735 0.10464988407295334 1.2101662928337131 -0.55821360367970396 -0.88643193796245578 -0.34324597999246836 0.63790312512237779 0.68147259522652304 -0.88748553335998182 0.28711180117109475 -0.38090223313375432 -1.236145000378311 -0.018014979069124915 -0.59656771862503843 -0.50940195054041837 0.0044775345999696712 -0.42068280781013778 -0.83795355209910738 0.21988828595796553 0.4421632143221696 -0.81846862795108566 -0.76302834505717998 -0.081870686545321217 -0.54679666451211373 -0.37172880924060392 0.33968248477020824
leaf_weight=310 21 533 22 271 170 20 50 21 24 24 3040 1019 37 162 230 20 640 37 27 176 265 23 33 86 27 21 780 37 101 1406
leaf_count=310 21 533 22 271 170 20 50 21 24 24 3040 1019 37 162 230 20 640 37 27 176 265 23 33 86 27 21 780 37 101 1406
internal_value=0.000396554 -0.00113398 -0.00227544 0.00271221 -0.00210199 -0.00605611 -0.00457447 -0.0134615 -0.0194444 -0.0134783 0.00300779 0.00164657 -0.00165584 -0.00165292 -0.00194556 -0.0054 -0.00156139 -0.00192713 -0.0027455 -0.00241661 -0.00531746 -0.00385417 -0.00191244 -0.00398204 -0.01 -0.000607476 -0.00158135 -0.00423567 -0.00276173 0.000642084
internal_weight=9633 4956 3017 4677 2971 303 282 65 45 46 4367 1327 308 2668 2498 250 2248 2086 1446 1409 315 288 217 167 60 107 1094 314 277 1939
internal_count=9633 4956 3017 4677 2971 303 282 65 45 46 4367 1327 308 2668 2498 250 2248 2086 1446 1409 315 288 217 167 60 107 1094 314 277 1939
is_linear=0
shrinkage=0.05


Tree=28
num_leaves=31
num_cat=0
split_feature=128 17 31 139 90 143 72 91 86 47 1 47 33 30 0 4 22 89 68 133 95 47 31 7 79 20 76 5 16 25
split_gain=13.5566 4.02404 2.2554 1.84517 1.9992 3.63237 2.32493 1.86154 1.70142 1.69 1.39604 1.71003 1.53742 1.53214 1.4384 1.93631 1.34333 2.41368 1.68319 1.3333 2.00935 2.42933 3.09729 2.38423 2.00243 1.92419 2.43753 1.51447 1.50609 1.79862
threshold=0.24079336369703261 61.411849999999994 83.595000000000013 0.91071727871894848 0.26740825039579602 0.1628490986395302 -60.704337499999994 0.16014205664396289 0.49926730035321881 45.666176403160783 -0.37940952255126059 62.219521887319978 0.80801590090414577 117.08000000000001 15.500000000000002 -0.8783796973249266 66.926666666666662 0.42578739230525414 -15.931427500000011 0.39088265597820288 0.1656345476992043 32.813928522515205 76.27500000000002 -0.86602540378443837 0.96553498506546032 55.665000000000006 -6.38499999999999 1.0000000180025095e-35 26.570000000000004 71.639650000000003
decision_type=2 2 2 2 2 2 2 2 2 2 2 2 2 2 2 2 2 2 2 2 2 2 2 2 2 2 2 2 2 2
left_child=2 3 -1 4 5 -2 7 -7 -5 -9 11 12 13 -4 15 -13 19 18 -18 -6 23 22 25 -21 28 -22 -27 -24 -23 -30
right_child=1 -3 10 8 16 6 -8 9 -10 -11 -12 14 -14 -15 -16 -17 17 -19 -20 20 21 24 27 -25 -26 26 -28 -29 29 -31
leaf_value=-0.20944103445070625 -0.79668409567940079 0.10849169770285461 0.18496382216157103 0.01464947783465388 -0.00081749482133727986 0.099417389869305553 -0.30770748328069752 -0.80103736650371948 -0.38497001410161313 -0.075814680823041047 0.60600796886625885 -0.87507624955225194 -0.84311125669198295 -1.9151230148356089 1.1566056467532266 0.086306865667693022 -0.97844759795796044 -0.92460146789581676 -0.211519586717276 -0.55640847906074054 -0.15586670820361598 0.15565996851254571 -0.6486077833483852 -0.16066247631631259 -0.822260019483953 -0.69899401010584084 0.052310218276910972 -0.35589071160579122 -0.52170282313459226 0.14126305771214986
leaf_weight=310 21 1939 239 26 1199 20 217 25 38 20 3040 23 37 32 776 220 27 21 230 22 178 493 39 23 30 28 22 20 200 118
leaf_count=310 21 1939 239 26 1199 20 217 25 38 20 3040 23 37 32 776 220 27 21 230 22 178 493 39 23 30 28 22 20 200 118
internal_value=0.000396554 -0.00108353 0.00266945 -0.00222572 -0.00204368 -0.00589109 -0.00439716 -0.0126923 -0.010625 -0.0183333 0.00296199 0.00160889 -0.00165584 -0.000350553 0.00259568 -0.000761317 -0.00160377 -0.00489209 -0.00356031 -0.00121838 -0.00241688 -0.00200355 -0.00597561 -0.0127778 -0.000648038 -0.00333333 -0.012 -0.0161864 -0.000178791 -0.00286163
internal_weight=9633 4956 4677 3017 2953 303 282 65 64 45 4367 1327 308 271 1019 243 2650 278 257 2372 1173 1128 287 45 841 228 50 59 811 318
internal_count=9633 4956 4677 3017 2953 303 282 65 64 45 4367 1327 308 271 1019 243 2650 278 257 2372 1173 1128 287 45 841 228 50 59 811 318
is_linear=0
shrinkage=0.05


Tree=29
num_leaves=31
num_cat=0
split_feature=116 17 140 90 143 72 118 1 40 94 91 37 73 28 145 136 77 135 94 33 70 104 83 80 123 58 93 37 80 72
split_gain=13.0544 4.89313 2.43808 1.88511 3.63237 2.32493 2.00381 1.74632 1.62779 1.61218 2.14297 1.5188 2.14566 1.44993 1.59481 1.38827 1.65997 1.65021 1.38135 1.34132 1.30662 1.27201 1.2517 2.81686 1.24176 1.35657 3.20606 1.39156 1.2304 1.42452
threshold=0.23182131564917088 61.411849999999994 0.62557514765808653 0.26740825039579602 0.1628490986395302 -60.704337499999994 0.37046916782855993 -0.25881904510252113 118.28854166666669 0.06397674977779387 0.067445266991853714 83.475000000000009 60.289466250000011 101.17250000000001 0.11639377847313877 0.39044089615345007 76.670000000000016 0.44926219317765742 0.48411740362644201 0.08665416949135632 -0.56874374999999933 0.36121287443881339 0.24933833688558552 0.19678802883120222 0.44970134360717601 32.500000000000007 0.16093573462436073 61.970000000000006 0.13502593133783977 6.7491099999999955
decision_type=2 2 2 2 2 2 2 2 2 2 2 2 2 2 2 2 2 2 2 2 2 2 2 2 2 2 2 2 2 2
left_child=7 2 3 4 -2 6 -6 8 19 10 -5 12 -9 14 -11 28 17 22 -4 -1 -15 -8 23 -17 -7 26 -26 -27 29 -3
right_child=1 15 18 9 5 24 21 11 -10 13 -12 -13 -14 20 -16 16 -18 -19 -20 -21 -22 -23 -24 -25 25 27 -28 -29 -30 -31
leaf_value=-0.72329873284088975 -0.75684989089543075 -0.64706069025188917 -0.39075664501194862 -0.11233338258344394 -0.80205847273914699 1.1650433523560624 -0.50703466631370409 0.080571279068547955 0.75782380405738303 0.30422022733738457 -0.80212210359481928 0.59647532574009732 -1.2274279582237491 -0.96428217276509176 -0.23916942640349748 0.3331012632799546 -0.34978104695051904 -1.6056554643015439 -0.29953635205247409 -0.020708512873996766 -0.2989337220647264 0.27083364530169701 0.17832120729310966 -0.64954791209136264 0.22427924582410222 -0.7981480260739533 -0.76215982238949653 0.24261447423166294 0.26251416848591475 -0.044120292932757293
leaf_weight=27 21 22 24 36 24 50 20 62 1101 240 25 2832 24 20 2239 38 26 20 21 543 21 21 226 36 33 20 27 87 1685 62
leaf_count=27 21 22 24 36 24 50 20 62 1101 240 25 2832 24 20 2239 38 26 20 21 543 21 21 226 36 33 20 27 87 1685 62
internal_value=0.000391363 -0.00101705 -0.00234039 -0.00216019 -0.00589109 -0.00439716 -0.0126923 0.00266834 0.00137941 -0.0017222 -0.0097541 0.00340644 -0.00313953 -0.00152778 -0.00137354 0.000815603 -0.00208092 -0.00109375 -0.0138889 -0.000789473 -0.0108537 -0.00597561 -0.000166666 -0.00581081 -0.00191244 -0.00398204 -0.01 -0.000607476 0.00138214 -0.00452381
internal_weight=9633 5044 2929 2884 303 282 65 4589 1671 2581 61 2918 86 2520 2479 2115 346 320 45 570 41 41 300 74 217 167 60 107 1769 84
internal_count=9633 5044 2929 2884 303 282 65 4589 1671 2581 61 2918 86 2520 2479 2115 346 320 45 570 41 41 300 74 217 167 60 107 1769 84
is_linear=0
shrinkage=0.05


Tree=30
num_leaves=31
num_cat=0
split_feature=128 90 123 59 61 1 73 17 51 22 1 5 102 73 61 74 50 126 68 72 25 66 47 43 51 134 41 33 22 134
split_gain=11.9729 2.42768 2.39553 4.38056 4.02381 2.55849 2.59837 2.28113 1.98015 3.17979 1.95056 2.32097 1.6348 2.20511 1.6056 1.57001 3.13888 1.64119 1.50763 2.06622 3.47315 2.63116 1.56366 1.50683 1.55594 1.58441 2.02955 2.14688 1.83203 1.50576
threshold=0.24079336369703261 0.30215032808591374 0.44970240925558691 0.67708333333333337 0.44940476190476197 1.0000000180025095e-35 66.895000000000024 140.61000000000004 1.0598508154927544 24.10843854166664 -0.25881904510252113 1.0000000180025095e-35 0.44981242666287374 75.990000000000023 0.050595238095238103 242.12500000000003 256.83500000000009 0.44959397958355823 -35.474999999999987 25.930000000000007 70.303933750000013 41.535000000000004 62.650900645236099 226.67946750000002 1.3067119195578105 0.3443750891766072 45.598239454787731 0.43017756387409639 47.058333333333316 0.18768030243000192
decision_type=2 2 2 2 2 2 2 2 2 2 2 2 2 2 2 2 2 2 2 2 2 2 2 2 2 2 2 2 2 2
left_child=7 2 5 4 8 6 18 10 9 -4 11 14 15 -14 -1 17 -17 -3 -2 20 -20 22 -22 24 25 -7 27 28 -27 -13
right_child=1 12 3 -5 -6 23 -8 -9 -10 -11 -12 29 13 -15 -16 16 -18 -19 19 -21 21 -23 -24 -25 -26 26 -28 -29 -30 -31
leaf_value=-1.3122368495514023 0.05103625910894264 0.066836464798958592 -0.66310704043849211 -0.013904968309533396 -0.86258259154923655 -0.12132490636613508 0.018595922420327503 1.9739199037159993 0.27037439381012723 -0.043925236063995815 0.27324599230922458 0.45667280426964751 -0.28338253211372022 -1.0249846133670801 -0.48426878615957342 0.30898243721148355 -0.95215533190626567 -0.79415326942007869 -0.28265541540007494 -0.080452827292399873 -0.41372281802340072 -0.85832622063604447 -0.9295092638592799 0.51843475209827949 0.53022829057037435 -0.87629956620035099 -1.1431808329401663 -0.25975783395603985 -0.87869417923286464 -0.50755961774201575
leaf_weight=37 80 2225 20 124 30 642 308 2359 34 21 1623 310 79 25 263 43 28 37 292 198 78 35 22 269 185 20 22 158 22 114
leaf_count=37 80 2225 20 124 30 642 308 2359 34 21 1623 310 79 25 263 43 28 37 292 198 78 35 22 269 185 20 22 158 22 114
internal_value=0.000367927 -0.00105363 -0.00212891 -0.00700873 -0.0145238 -0.00164951 -0.00353899 0.00246069 -0.00833333 -0.0157317 0.00135705 -0.000801105 7.59132e-05 -0.00605769 -0.00416667 0.000349336 -0.00697183 0.000579134 -0.00521277 -0.00604 -0.00799766 -0.0146296 -0.0105 -0.000197268 -0.00105338 -0.00194444 -0.00558559 -0.004 -0.0140476 0.00158019
internal_weight=9703 4997 2560 229 105 2331 1013 4706 75 41 2347 724 2437 104 300 2333 71 2262 705 625 427 135 100 1318 1049 864 222 200 42 424
internal_count=9703 4997 2560 229 105 2331 1013 4706 75 41 2347 724 2437 104 300 2333 71 2262 705 625 427 135 100 1318 1049 864 222 200 42 424
is_linear=0
shrinkage=0.05


Tree=31
num_leaves=31
num_cat=0
split_feature=6 17 111 44 17 26 66 1 97 123 72 15 47 22 79 32 139 2 102 66 135 37 72 125 98 66 125 34 75 73
split_gain=10.8963 3.11366 3.10628 2.20204 2.52766 1.84811 1.90454 1.84568 1.61781 1.54587 1.58313 2.89138 2.7454 1.29095 1.32858 1.19683 1.94686 2.1482 2.71454 2.22603 2.98397 1.94089 2.05214 2.92396 1.72858 1.69735 1.64505 1.4557 1.48616 1.42015
threshold=5.5000000000000009 40.604815000000009 0.11152862745488841 253.21500000000003 56.775806250000009 24.691968750000001 -8.5599999999999969 0.37940952255126054 0.58786895871162426 0.4497033355138807 -14.949999999999994 90.430000000000021 43.816674395874024 12.643333333333311 0.25002653896808624 96.630000000000024 0.086310017853975254 -0.37940952255126015 0.44981168294515578 -1.0000000180025095e-35 0.44926118906784274 77.915000000000006 -50.124859999999991 0.3769776537972731 0.26452187108000652 48.555000000000014 0.43923861945129244 22.596040364583338 59.261341250000008 107.92500000000003
decision_type=2 2 2 2 2 2 2 2 2 2 2 2 2 2 2 2 2 2 2 2 2 2 2 2 2 2 2 2 2 2
left_child=2 15 -1 -4 -5 -3 13 9 -6 10 11 12 -8 14 -7 16 -2 19 25 20 24 22 -21 -24 -18 -19 -26 28 -27 -23
right_child=1 5 3 4 8 6 7 -9 -10 -11 -12 -13 -14 -15 -16 -17 17 18 -20 21 -22 29 23 -25 26 27 -28 -29 -30 -31
leaf_value=0.87628389481602498 -0.66633142774434673 0.24756238376275747 0.12363251227201658 -1.0194056354057912 0.047866470573337427 -0.75397961252016366 -0.72751309952760179 0.18286837785383811 -0.50157156686525972 -1.2008874347112504 -0.44125615541944119 -1.3201773943873427 0.3206413436316618 0.034839804138998842 -0.20676214118867559 -0.022160284159824059 -0.57933065329955569 0.018701711851931459 -0.60668237517352075 -0.79029343270686925 -0.6686844994630734 0.1393542461044788 -0.76499695913235044 -0.23522554059205622 0.028571676217106996 -0.6608917190651894 -0.60875868549730461 -0.048566996715429911 -0.34091083920372017 -0.86864848817912721
leaf_weight=3123 28 841 1665 39 171 20 24 231 20 22 363 23 38 1283 38 375 20 596 24 29 38 198 28 183 72 22 29 110 26 24
leaf_count=3123 28 841 1665 39 171 20 24 231 20 22 363 23 38 1283 38 375 20 596 24 29 38 198 28 183 72 22 29 110 26 24
internal_value=0.000367927 -0.00108324 0.00226983 0.000672823 -0.00391304 -6.41691e-05 -0.000876591 -0.00298859 -0.0015445 -0.00478723 -0.00415179 -0.0102941 -0.00467742 0.000227442 -0.00706897 -0.00271365 -0.00337421 -0.00311294 -0.00136247 -0.00530596 -0.0104088 -0.00354978 -0.00666667 -0.00495261 -0.00657025 -0.000835544 -0.00391089 -0.00544304 -0.0127083 -0.00018018
internal_weight=9703 4685 5018 1895 230 2883 2042 701 191 470 448 85 62 1341 58 1802 1427 1399 778 621 159 462 240 211 121 754 101 158 48 222
internal_count=9703 4685 5018 1895 230 2883 2042 701 191 470 448 85 62 1341 58 1802 1427 1399 778 621 159 462 240 211 121 754 101 158 48 222
is_linear=0
shrinkage=0.05


Tree=32
num_leaves=31
num_cat=0
split_feature=125 90 17 117 58 1 1 32 1 56 73 41 131 41 17 8 145 8 142 41 31 25 145 142 1 5 1 1 76 60
split_gain=10.3938 2.47495 2.07154 2.06306 3.01467 2.74491 2.53941 2.44382 2.04573 2.0037 1.89433 1.83054 1.96355 1.66806 1.82736 2.02444 3.57653 1.6662 2.03658 1.54405 1.53102 1.50037 1.40958 2.10974 1.36884 1.79678 1.52701 1.40625 3.1552 1.63078
threshold=0.2593453764733904 0.30215032808591374 140.61000000000004 0.3517824862731655 32.500000000000007 1.0000000180025095e-35 -0.5 78.081107500000016 -0.25881904510252113 5.5000000000000009 54.355926250000003 28.469489783661761 0.33196018810243927 29.461859087976631 62.900000000000013 -0.68301270189221952 0.74985551834106456 -0.24999999999999994 0.19697318971157071 34.279704341737457 101.36000000000001 59.680000000000007 0.46402579545974737 0.39212526381015783 -0.25881904510252113 1.0000000180025095e-35 -0.70710678118654735 -0.60355339059327362 -9.1600000000000126 34.500000000000007
decision_type=2 2 2 2 2 2 2 2 2 2 2 2 2 2 2 2 2 2 2 2 2 2 2 2 2 2 2 2 2 2
left_child=2 3 24 5 -5 6 13 10 9 -9 11 21 -13 14 15 16 22 -10 -19 -14 -7 -8 23 -2 25 26 -1 28 -28 -29
right_child=1 -3 -4 4 -6 20 7 8 17 -11 -12 12 19 -15 -16 -17 -18 18 -20 -21 -22 -23 -24 -25 -26 -27 27 29 -30 -31
leaf_value=-0.0019120759489478795 -0.51856239837533114 0.013721430185330341 1.8738222087029688 -0.72933655231579353 0.78367556265040683 -0.24853383689524919 0.033421745068752458 -0.93759151878095315 0.091211041321510228 -0.49019393565600633 0.12532276878028675 0.1207307334165886 -0.56397132100640257 0.0074389636307112712 -0.37268621467344731 0.070090373130625966 -0.385752819696487 -0.86783295668035354 -0.35137233653828032 -0.31313878011526008 0.35871478149218217 -0.65101914465106692 0.12881039826713747 -0.54825626716451692 0.22754814972915055 0.17120272550658405 -1.6250194114875105 0.044301969964645915 -0.84014924306475691 -1.1873427786037316
leaf_weight=157 35 2479 2338 23 22 937 84 26 41 34 99 25 27 353 24 131 20 22 20 30 271 20 42 20 1836 444 23 67 27 26
leaf_count=157 35 2479 2338 23 22 937 84 26 41 34 99 25 27 353 24 131 20 22 20 30 271 20 42 20 1836 444 23 67 27 26
internal_value=0.000362774 -0.00099791 0.00227532 -0.00217693 -0.0127778 -0.00196594 -0.00383191 -0.00679907 -0.0121329 -0.0191667 -0.00412281 -0.00709677 -0.0126829 -0.0018 -0.00474265 -0.00346774 -0.00824786 -0.00704819 -0.0140476 -0.017807 -0.000339404 -0.00269231 -0.00427835 -0.00954545 0.00129845 -0.000510752 -0.0035 -0.00723776 -0.014 -0.00360215
internal_weight=9703 4785 4918 2306 45 2261 1053 428 143 60 285 186 82 625 272 248 117 83 42 57 1208 104 97 55 2580 744 300 143 50 93
internal_count=9703 4785 4918 2306 45 2261 1053 428 143 60 285 186 82 625 272 248 117 83 42 57 1208 104 97 55 2580 744 300 143 50 93
is_linear=0
shrinkage=0.05


Tree=33
num_leaves=31
num_cat=0
split_feature=111 37 133 93 111 4 67 137 98 80 2 90 38 29 113 17 46 34 67 58 7 127 58 60 119 68 0 82 32 35
split_gain=10.1508 2.78763 2.88646 2.5804 2.64418 2.54061 3.61739 3.13374 2.26039 2.22946 1.65637 2.26198 1.54062 1.97377 2.8008 1.64206 1.53412 1.65952 1.50417 1.77041 1.49658 1.50637 1.63111 1.49113 1.47659 1.37321 1.41404 1.88216 1.94904 1.75026
