tree
version=v4
num_class=1
num_tree_per_iteration=1
label_index=0
max_feature_idx=77
objective=binary sigmoid:1
feature_names=hour hour_sin hour_cos day_of_week dow_sin dow_cos month month_sin month_cos is_weekend is_night is_morning is_afternoon is_evening cmg_lag_1h cmg_lag_2h cmg_lag_3h cmg_lag_6h cmg_lag_12h cmg_lag_24h cmg_lag_48h cmg_lag_168h cmg_mean_6h cmg_std_6h cmg_min_6h cmg_max_6h cmg_range_6h cmg_cv_6h cmg_mean_12h cmg_std_12h cmg_min_12h cmg_max_12h cmg_range_12h cmg_cv_12h cmg_mean_24h cmg_std_24h cmg_min_24h cmg_max_24h cmg_range_24h cmg_cv_24h cmg_mean_48h cmg_std_48h cmg_min_48h cmg_max_48h cmg_range_48h cmg_cv_48h cmg_mean_168h cmg_std_168h cmg_min_168h cmg_max_168h cmg_range_168h cmg_cv_168h zeros_count_6h zeros_ratio_6h zeros_count_12h zeros_ratio_12h zeros_count_24h zeros_ratio_24h zeros_count_48h zeros_ratio_48h zeros_count_168h zeros_ratio_168h hours_since_zero was_zero_1h_ago was_zero_2h_ago was_zero_24h_ago cmg_trend_6h cmg_trend_12h cmg_trend_24h cmg_trend_48h cmg_change_1h cmg_change_24h cmg_change_48h cmg_same_hour_yesterday cmg_same_hour_last_week cmg_7d_median_same_hour cmg_diff_vs_yesterday cmg_diff_vs_last_week
feature_infos=[0:23] [-1:1] [-1:1] [0:6] [-0.97492791218182362:0.97492791218182362] [-0.90096886790241903:1] [1:12] [-1:1] [-1:1] [0:1] [0:1] [0:1] [0:1] [0:1] [0:371.66000000000003] [0:371.66000000000003] [0:371.66000000000003] [0:371.66000000000003] [0:371.66000000000003] [0:371.66000000000003] [0:371.66000000000003] [0:371.66000000000003] [0:349.44666666666666] [0:153.30693861227124] [0:339.83999999999997] [0:371.66000000000003] [0:371.66000000000003] [0:2.4494896874170573] [0:333.88333333333338] [0:141.231575175367] [0:327.86000000000001] [0:371.66000000000003] [0:371.66000000000003] [0:3.464101428007337] [0:315.17583333333329] [0:133.58115591090203] [0:296.29000000000002] [0:371.66000000000003] [0:371.66000000000003] [0:4.8989787993545502] [0:305.62479166666668] [0:121.59284917311297] [0:289.70999999999998] [0:371.66000000000003] [0:371.66000000000003] [0:6.9282012893730816] [0:269.83386904761909] [0:105.75616875003355] [0:120.59999999999999] [0:371.66000000000003] [0:371.66000000000003] [0:2.3481555595262882] [0:6] [0:1] [0:12] [0:1] [0:24] [0:1] [0:48] [0:1] [0:127] [0:0.75595238095238093] [0:308] [0:1] [0:1] [0:1] [-295.41000000000003:371.66000000000003] [-334.23000000000002:338.87] [-371.66000000000003:329.93000000000001] [-330.44:335.49000000000001] [-329.93000000000001:329.93000000000001] [-371.66000000000003:329.93000000000001] [-330.44:335.49000000000001] [0:371.66000000000003] [0:371.66000000000003] [0:371.66000000000003] [-371.66000000000003:329.93000000000001] [-371.66000000000003:314.30000000000001]
tree_sizes=3515 472 3334 992

Tree=0
num_leaves=31
num_cat=0
split_feature=56 54 54 56 17 54 54 17 17 56 54 54 17 54 56 17 54 56 54 56 70 56 56 56 17 56 37 54 56 56
split_gain=7.27596e-12 3.63798e-12 1.81899e-12 1.81899e-12 9.09495e-13 9.09495e-13 9.09495e-13 9.09495e-13 9.09495e-13 9.09495e-13 1.81899e-12 4.54747e-13 4.54747e-13 4.54747e-13 4.54747e-13 4.54747e-13 4.54747e-13 4.54747e-13 4.54747e-13 4.54747e-13 4.54747e-13 4.54747e-13 4.54747e-13 4.54747e-13 4.54747e-13 4.54747e-13 4.54747e-13 4.54747e-13 4.54747e-13 2.27374e-13
threshold=5.5000000000000009 1.5000000000000002 7.5000000000000009 9.5000000000000018 148.92500000000004 1.5000000000000002 5.5000000000000009 140.10500000000002 148.92500000000004 12.500000000000002 9.5000000000000018 4.5000000000000009 79.085000000000022 5.5000000000000009 19.500000000000004 83.115000000000009 2.5000000000000004 6.5000000000000009 1.0000000180025095e-35 2.5000000000000004 1.0000000180025095e-35 23.500000000000004 21.500000000000004 19.500000000000004 12.315000000000003 13.500000000000002 118.61000000000001 6.5000000000000009 15.500000000000002 14.500000000000002
decision_type=2 2 2 2 2 2 2 2 2 2 2 2 2 2 2 2 2 2 2 2 2 2 2 2 2 2 2 2 2 2
left_child=4 8 3 7 5 -1 11 13 17 -4 14 12 29 -3 -11 16 -7 -2 -19 -6 21 22 23 24 25 -12 -27 -8 -29 -5
right_child=1 2 9 6 19 15 27 -9 -10 10 20 -13 -14 -15 -16 -17 -18 18 -20 -21 -22 -23 -24 -25 -26 26 -28 28 -30 -31
leaf_value=-0.82644734643327245 -0.82644734643327245 -0.82644734643327245 -0.82644734643327245 -0.82644734643327245 -0.82644734643327245 -0.82644734643327245 -0.82644734643327245 -0.82644734643327245 -0.82644734643327245 -0.82644734643327245 -0.82644734643327245 -0.82644734643327245 -0.82644734643327245 -0.82644734643327245 -0.82644734643327245 -0.82644734643327245 -0.82644734643327245 -0.82644734643327245 -0.82644734643327245 -0.82644734643327245 -0.82644734643327245 -0.82644734643327245 -0.82644734643327245 -0.82644734643327245 -0.82644734643327245 -0.82644734643327245 -0.82644734643327245 -0.82644734643327245 -0.82644734643327245 -0.82644734643327245
leaf_weight=329.05894184112549 25.312226295471191 127.6382474899292 122.79122543334961 99.633231163024902 85.630722999572754 41.468966484069824 93.170535087585449 11.309718132019041 10.77116012573242 106.63448524475098 9.6940441131591779 57.625706672668457 47.393104553222656 57.625706672668457 32.313480377197266 19.92664623260498 60.318496704101562 93.170535087585449 81.322258949279785 14.54106616973877 43.623198509216309 24.77366828918457 43.084640502929688 40.391850471496582 4.8470220565795898 87.246397018432617 14.541066169738768 41.468966484069824 46.315988540649414 18.849530220031738
leaf_count=3348 106 878 541 373 2076 382 363 78 49 411 43 227 175 397 124 180 555 366 319 352 164 93 171 165 21 385 64 172 193 71
internal_value=-1.01069 -0.826447 -0.826447 -0.826447 -0.826447 -0.826447 -0.826447 -0.826447 -0.826447 -0.826447 -0.826447 -0.826447 -0.826447 -0.826447 -0.826447 -0.826447 -0.826447 -0.826447 -0.826447 -0.826447 -0.826447 -0.826447 -0.826447 -0.826447 -0.826447 -0.826447 -0.826447 -0.826447 -0.826447 -0.826447
internal_weight=1892.49 1341.55 1130.97 601.031 550.945 450.773 404.457 196.574 210.576 529.941 407.15 223.502 165.876 185.264 138.948 121.714 101.787 199.805 174.493 100.172 268.202 224.579 199.805 156.72 116.329 111.482 101.787 180.955 87.785 118.483
internal_count=13260 6246 5282 2945 7014 4586 1585 1360 964 2337 1545 880 614 1275 535 1100 937 839 685 2428 1010 846 792 640 511 494 449 705 365 444
is_linear=0
shrinkage=1


Tree=1
num_leaves=3
num_cat=0
split_feature=14 29
split_gain=3.63798e-12 2.27374e-13
threshold=136.09500000000003 84.737160547849285
decision_type=2 2
left_child=-1 -2
right_child=1 -3
leaf_value=0.16425929674732137 0.16425929674732137 0.16425929674732137
leaf_weight=1935.5286338925362 95.754659414291382 20.435445606708527
leaf_count=12509 2509 535
internal_value=0.00317861 0.164259
internal_weight=2051.72 116.19
internal_count=13260 3044
is_linear=0
shrinkage=0.05


Tree=2
num_leaves=30
num_cat=0
split_feature=14 54 54 14 54 54 54 54 14 14 14 14 14 54 14 40 14 40 40 14 14 65 54 14 40 40 71 40 70
split_gain=3.63798e-12 3.63798e-12 1.81899e-12 1.81899e-12 1.81899e-12 9.09495e-13 9.09495e-13 4.54747e-13 4.54747e-13 4.54747e-13 4.54747e-13 4.54747e-13 2.27374e-13 2.27374e-13 2.27374e-13 1.13687e-13 1.13687e-13 1.13687e-13 1.13687e-13 1.13687e-13 1.13687e-13 1.13687e-13 5.68434e-14 5.68434e-14 5.68434e-14 5.68434e-14 5.68434e-14 2.84217e-14 2.84217e-14
threshold=253.31500000000003 3.5000000000000004 1.5000000000000002 128.84500000000006 5.5000000000000009 9.5000000000000018 7.5000000000000009 10.500000000000002 79.085000000000022 75.801546250000015 69.699743750000025 53.505000000000003 17.990000000000006 8.5000000000000018 39.485000000000007 48.230312500000004 38.914306250000003 54.051073776041669 40.606751901041669 16.515000000000004 1.0858287500000003 1.0000000180025095e-35 2.5000000000000004 1.0000000180025095e-35 35.018464348958339 72.823410677083345 -62.754999999999988 54.051073776041669 48.476966250000004
decision_type=2 2 2 2 2 2 2 2 2 2 2 2 2 2 2 2 2 2 2 2 2 2 2 2 2 2 2 2 2
left_child=1 2 -1 4 -3 6 8 12 -6 10 -4 13 15 14 19 23 17 18 -15 20 21 25 -11 24 -7 26 -8 -5 -14
right_child=-2 3 9 27 5 7 11 -9 -10 22 -12 -13 28 16 -16 -17 -18 -19 -20 -21 -22 -23 -24 -25 -26 -27 -28 -29 -30
leaf_value=0.14695152277257145 0.14695152277257145 0.14695152277257145 0.14695152277257145 0.14695152277257142 0.14695152277257145 0.14695152277257145 0.14695152277257145 0.14695152277257145 0.14695152277257145 0.14695152277257145 0.14695152277257145 0.14695152277257145 0.14695152277257142 0.14695152277257145 0.14695152277257145 0.14695152277257148 0.14695152277257145 0.14695152277257148 0.14695152277257148 0.14695152277257145 0.14695152277257145 0.14695152277257145 0.14695152277257145 0.14695152277257145 0.14695152277257145 0.14695152277257145 0.14695152277257145 0.14695152277257145 0.14695152277257145
leaf_weight=705.6604278087616 14.237008631229401 258.12315648794174 255.02815461158752 16.713010132312778 250.69515198469162 41.473025143146515 16.713010132312775 255.02815461158752 19.808012008666992 19.189011633396149 12.38000750541687 59.424036026000977 16.713010132312778 58.805035650730133 6.1900037527084351 9.9040060043334943 6.1900037527084351 13.618008255958555 8.0470048785209638 6.8090041279792786 6.1900037527084351 39.616024017333984 15.475009381771088 8.6660052537918091 6.8090041279792786 6.8090041279792786 16.713010132312775 12.38000750541687 11.761007130146027
leaf_count=5255 87 1051 1208 146 1045 165 53 898 83 189 59 246 69 224 23 39 24 52 31 25 23 147 153 32 27 22 53 109 48
internal_value=0.00284368 0.146952 0.146952 0.146952 0.146952 0.146952 0.146952 0.146952 0.146952 0.146952 0.146952 0.146952 0.146952 0.146952 0.146952 0.146952 0.146952 0.146952 0.146952 0.146952 0.146952 0.146952 0.146952 0.146952 0.146952 0.146952 0.146952 0.146952 0.146952
internal_weight=2175.17 2160.93 1007.73 1153.2 1124.1 865.982 515.627 350.354 270.503 302.072 267.408 245.124 95.3261 185.7 99.0401 66.852 86.6601 80.47 66.852 92.8501 86.0411 79.851 34.664 56.948 48.282 40.235 33.426 29.093 28.474
internal_count=13260 12335 7504 4831 4576 3375 2141 1234 1128 1609 1267 1013 382 707 375 265 332 310 255 345 318 297 342 211 192 131 106 255 117
is_linear=0
shrinkage=0.05


Tree=3
num_leaves=8
num_cat=0
split_feature=29 29 29 17 29 54 29
split_gain=3.63798e-12 1.81899e-12 3.63798e-12 1.81899e-12 5.68434e-14 2.84217e-14 1.42109e-14
threshold=90.80531471598961 83.756699196682206 28.543359797100216 13.795000000000002 105.84584717919891 3.5000000000000004 116.128445174894
decision_type=2 2 2 2 2 2 2
left_child=1 2 -1 -4 -2 -6 -7
right_child=4 -3 3 -5 5 6 -8
leaf_value=0.13370171744651069 0.13370171744651069 0.13370171744651069 0.13370171744651069 0.13370171744651069 0.13370171744651069 0.13370171744651069 0.13370171744651069
leaf_weight=1174.941486120224 41.962195932865143 20.012739598751068 293.735371530056 709.48389738798141 16.139306128025058 5.8101502060890207 6.455722451210022
leaf_count=6665 362 115 1845 4456 138 34 38
internal_value=0.00258728 0.133702 0.133702 0.133702 0.133702 0.133702 0.133702
internal_weight=2268.54 2198.17 2178.16 1003.22 70.3674 28.4052 12.2659
internal_count=13260 12653 12355 6301 607 243 72
is_linear=0
shrinkage=0.05


end of trees

feature_importances:
zeros_count_12h=19
cmg_lag_1h=13
zeros_count_24h=12
cmg_lag_6h=7
cmg_std_12h=6
cmg_mean_48h=6
cmg_change_1h=2
cmg_max_24h=1
was_zero_24h_ago=1
cmg_change_24h=1

parameters:
[boosting: gbdt]
[objective: binary]
[metric: binary_logloss]
[tree_learner: serial]
[device_type: cuda]
[data_sample_strategy: bagging]
[data: ]
[valid: ]
[num_iterations: 4]
[learning_rate: 0.05]
[num_leaves: 31]
[num_threads: 0]
[seed: 44]
[deterministic: 0]
[force_col_wise: 0]
[force_row_wise: 1]
[histogram_pool_size: -1]
[max_depth: -1]
[min_data_in_leaf: 20]
[min_sum_hessian_in_leaf: 0.001]
[bagging_fraction: 0.8]
[pos_bagging_fraction: 1]
[neg_bagging_fraction: 1]
[bagging_freq: 5]
[bagging_seed: 21897]
[bagging_by_query: 0]
[feature_fraction: 0.8]
[feature_fraction_bynode: 1]
[feature_fraction_seed: 12646]
[extra_trees: 0]
[extra_seed: 20733]
[early_stopping_round: 0]
[early_stopping_min_delta: 0]
[first_metric_only: 0]
[max_delta_step: 0]
[lambda_l1: 0]
[lambda_l2: 0]
[linear_lambda: 0]
[min_gain_to_split: 0]
[drop_rate: 0.1]
[max_drop: 50]
[skip_drop: 0.5]
[xgboost_dart_mode: 0]
[uniform_drop: 0]
[drop_seed: 20829]
[top_rate: 0.2]
[other_rate: 0.1]
[min_data_per_group: 100]
[max_cat_threshold: 32]
[cat_l2: 10]
[cat_smooth: 10]
[max_cat_to_onehot: 4]
[top_k: 20]
[monotone_constraints: ]
[monotone_constraints_method: basic]
[monotone_penalty: 0]
[feature_contri: ]
[forcedsplits_filename: ]
[refit_decay_rate: 0.9]
[cegb_tradeoff: 1]
[cegb_penalty_split: 0]
[cegb_penalty_feature_lazy: ]
[cegb_penalty_feature_coupled: ]
[path_smooth: 0]
[interaction_constraints: ]
[verbosity: -1]
[saved_feature_importance_type: 0]
[use_quantized_grad: 0]
[num_grad_quant_bins: 4]
[quant_train_renew_leaf: 0]
[stochastic_rounding: 1]
[linear_tree: 0]
[max_bin: 255]
[max_bin_by_feature: ]
[min_data_in_bin: 3]
[bin_construct_sample_cnt: 200000]
[data_random_seed: 182]
[is_enable_sparse: 1]
[enable_bundle: 1]
[use_missing: 1]
[zero_as_missing: 0]
[feature_pre_filter: 1]
[pre_partition: 0]
[two_round: 0]
[header: 0]
[label_column: ]
[weight_column: ]
[group_column: ]
[ignore_column: ]
[categorical_feature: ]
[forcedbins_filename: ]
[precise_float_parser: 0]
[parser_config_file: ]
[objective_seed: 3944]
[num_class: 1]
[is_unbalance: 0]
[scale_pos_weight: 2.75749]
[sigmoid: 1]
[boost_from_average: 1]
[reg_sqrt: 0]
[alpha: 0.9]
[fair_c: 1]
[poisson_max_delta_step: 0.7]
[tweedie_variance_power: 1.5]
[lambdarank_truncation_level: 30]
[lambdarank_norm: 1]
[label_gain: ]
[lambdarank_position_bias_regularization: 0]
[eval_at: ]
[multi_error_top_k: 1]
[auc_mu_weights: ]
[num_machines: 1]
[local_listen_port: 12400]
[time_out: 120]
[machine_list_filename: ]
[machines: ]
[gpu_platform_id: -1]
[gpu_device_id: -1]
[gpu_use_dp: 1]
[num_gpu: 1]

end of parameters

pandas_categorical:[]
