tree
version=v4
num_class=1
num_tree_per_iteration=1
label_index=0
max_feature_idx=77
objective=binary sigmoid:1
feature_names=hour hour_sin hour_cos day_of_week dow_sin dow_cos month month_sin month_cos is_weekend is_night is_morning is_afternoon is_evening cmg_lag_1h cmg_lag_2h cmg_lag_3h cmg_lag_6h cmg_lag_12h cmg_lag_24h cmg_lag_48h cmg_lag_168h cmg_mean_6h cmg_std_6h cmg_min_6h cmg_max_6h cmg_range_6h cmg_cv_6h cmg_mean_12h cmg_std_12h cmg_min_12h cmg_max_12h cmg_range_12h cmg_cv_12h cmg_mean_24h cmg_std_24h cmg_min_24h cmg_max_24h cmg_range_24h cmg_cv_24h cmg_mean_48h cmg_std_48h cmg_min_48h cmg_max_48h cmg_range_48h cmg_cv_48h cmg_mean_168h cmg_std_168h cmg_min_168h cmg_max_168h cmg_range_168h cmg_cv_168h zeros_count_6h zeros_ratio_6h zeros_count_12h zeros_ratio_12h zeros_count_24h zeros_ratio_24h zeros_count_48h zeros_ratio_48h zeros_count_168h zeros_ratio_168h hours_since_zero was_zero_1h_ago was_zero_2h_ago was_zero_24h_ago cmg_trend_6h cmg_trend_12h cmg_trend_24h cmg_trend_48h cmg_change_1h cmg_change_24h cmg_change_48h cmg_same_hour_yesterday cmg_same_hour_last_week cmg_7d_median_same_hour cmg_diff_vs_yesterday cmg_diff_vs_last_week
feature_infos=[0:23] [-1:1] [-1:1] [0:6] [-0.97492791218182362:0.97492791218182362] [-0.90096886790241903:1] [1:12] [-1:1] [-1:1] [0:1] [0:1] [0:1] [0:1] [0:1] [0:371.66000000000003] [0:371.66000000000003] [0:371.66000000000003] [0:371.66000000000003] [0:371.66000000000003] [0:371.66000000000003] [0:371.66000000000003] [0:371.66000000000003] [0:349.44666666666666] [0:153.30693861227124] [0:339.83999999999997] [0:371.66000000000003] [0:371.66000000000003] [0:2.4494896874170573] [0:333.88333333333338] [0:141.231575175367] [0:327.86000000000001] [0:371.66000000000003] [0:371.66000000000003] [0:3.464101428007337] [0:315.17583333333329] [0:133.58115591090203] [0:296.29000000000002] [0:371.66000000000003] [0:371.66000000000003] [0:4.8989787993545502] [0:305.62479166666668] [0:121.59284917311297] [0:289.70999999999998] [0:371.66000000000003] [0:371.66000000000003] [0:6.9282012893730816] [0:269.83386904761909] [0:105.75616875003355] [0:120.59999999999999] [0:371.66000000000003] [0:371.66000000000003] [0:2.3481555595262882] [0:6] [0:1] [0:12] [0:1] [0:24] [0:1] [0:48] [0:1] [0:127] [0:0.75595238095238093] [0:308] [0:1] [0:1] [0:1] [-295.41000000000003:371.66000000000003] [-334.23000000000002:338.87] [-371.66000000000003:329.93000000000001] [-330.44:335.49000000000001] [-329.93000000000001:329.93000000000001] [-371.66000000000003:329.93000000000001] [-330.44:335.49000000000001] [0:371.66000000000003] [0:371.66000000000003] [0:371.66000000000003] [-371.66000000000003:329.93000000000001] [-371.66000000000003:314.30000000000001]
tree_sizes=3503 3456

Tree=0
num_leaves=31
num_cat=0
split_feature=62 66 72 18 0 2 49 37 7 47 18 37 62 2 7 45 59 28 62 76 30 37 3 19 2 37 33 45 30 45
split_gain=1.65826e-07 3.63751e-07 4.14391e-07 2.29466e-07 2.09395e-07 5.65528e-08 1.79044e-07 4.28467e-07 4.79334e-08 2.52715e-07 3.85335e-08 3.20388e-08 1.04981e-07 3.01889e-08 1.26313e-07 1.72553e-08 2.52101e-08 1.65637e-08 8.75345e-08 1.54387e-08 7.86812e-08 9.97679e-08 2.18472e-08 5.2748e-08 1.10267e-08 1.65389e-08 3.92537e-08 9.78457e-09 6.94145e-08 9.49467e-09
threshold=21.500000000000004 114.91000000000001 -103.98027749999999 290.81000000000006 22.500000000000004 -0.37940952255126015 291.21000000000009 334.03000000000003 0.25000000000000011 67.350045268573339 50.830335000000012 296.5800000000001 106.50000000000001 -0.98296291314453399 -0.5 0.73514285992037032 1.0000000180025095e-35 244.3741666666667 125.50000000000001 70.500000000000014 59.026537500000011 362.58500000000009 1.5000000000000002 79.097581250000019 -0.60355339059327384 267.06000000000006 1.3415037432356736 0.21145620374643917 52.975870000000008 0.8763582033695998
decision_type=2 2 2 2 2 2 2 2 2 2 2 2 2 2 2 2 2 2 2 2 2 2 2 2 2 2 2 2 2 2
left_child=10 3 -3 5 -5 6 8 -8 15 -10 -1 17 -13 14 -12 -2 -17 27 -19 24 22 -22 23 -21 25 -15 -27 28 -7 -29
right_child=1 2 -4 4 -6 11 7 -9 9 -11 13 12 -14 19 -16 16 -18 18 -20 20 21 -23 -24 -25 -26 26 -28 29 -30 -31
leaf_value=-0.82724753354219294 -0.82724660772234704 -0.8272477135435542 -0.82718569909019124 -0.82720083536068167 -0.82724491778226061 -0.82724771354355386 -0.82719129313765771 -0.8272459045285101 -0.82720823831986379 -0.82724484730009473 -0.82724592508564287 -0.82722139807975159 -0.82724557561393841 -0.82724672681124334 -0.82722024665474048 -0.8272477135435542 -0.8272324183383013 -0.82722468780845593 -0.82724722017834895 -0.82722814193265382 -0.82721728580003717 -0.82724771354355386 -0.8272470322291996 -0.82724730240601507 -0.82724724272908545 -0.82723060910718449 -0.8272471379506301 -0.82724680355736246 -0.82722764849204133 -0.82724294426695189
leaf_weight=1310.958213766475 15.625832623352872 0.53882414102554421 0.53869370600895627 0.53872553630478237 0.53881825934044514 2.1552965641021733 0.53870546937915342 1.0776406704586066 0.53874110547121823 3.7717267774386869 4.3105630278159035 0.53876878398932726 2.6940982163317528 100.22090411542345 0.53876636211899065 0.53882414102554421 0.53879196474824198 0.53877570361885441 2.1552924123244566 0.53878296922986368 0.53876013445241788 0.53882414102554321 15.087035814863953 1.0776465521437046 322.21624401298737 0.53878815895200283 1.0776458601807519 113.15266758488855 0.53878193128542762 1.6164423226881866
leaf_count=7118 298 190 189 152 152 102 123 245 46 324 234 38 193 1394 29 48 47 31 126 42 93 94 245 85 2831 38 76 1441 25 21
internal_value=-1.01185 -0.827246 -0.827217 -0.827246 -0.827223 -0.827246 -0.827244 -0.827228 -0.827245 -0.82724 -0.827247 -0.827246 -0.827242 -0.827247 -0.827243 -0.827246 -0.82724 -0.827247 -0.827243 -0.827247 -0.827246 -0.827233 -0.827246 -0.827241 -0.827247 -0.827247 -0.827242 -0.827247 -0.827244 -0.827247
internal_weight=1905.82 148.175 1.07752 147.098 1.07754 146.02 22.6303 1.61635 21.0139 4.31047 1757.64 123.39 3.23287 446.684 4.84933 16.7034 1.07762 120.157 2.69407 441.835 17.781 1.07758 16.7035 1.61643 424.054 101.837 1.61643 117.463 2.69408 114.769
internal_count=13260 3717 379 3338 304 3034 1057 368 689 370 9543 1977 231 4447 263 319 95 1746 157 4184 458 187 271 127 3726 1416 114 1589 127 1462
is_linear=0
shrinkage=1


Tree=1
num_leaves=31
num_cat=0
split_feature=34 40 36 62 69 3 71 37 30 46 66 7 11 39 36 59 44 26 27 32 46 49 37 30 61 65 39 45 62 46
split_gain=2.73241e-07 4.7946e-07 2.89182e-07 7.17228e-08 7.93102e-08 1.87573e-07 3.02421e-08 2.8651e-07 4.53746e-08 5.256e-08 2.47205e-08 1.10858e-07 1.56665e-08 9.62852e-08 1.15205e-07 3.00364e-08 3.82569e-08 2.39858e-08 2.83242e-08 1.13716e-08 2.84361e-08 1.15633e-07 1.11477e-08 2.23377e-08 9.9717e-09 1.00204e-08 3.84777e-08 9.84932e-09 2.60467e-08 7.31126e-09
threshold=227.76541666666671 240.86354166666672 139.26500000000001 13.500000000000002 165.99500000000003 5.5000000000000009 75.559092500000006 241.36500000000004 57.295000000000009 46.776517857142856 97.670000000000016 0.93301270189221952 1.0000000180025095e-35 0.29021192299387272 3.5372437500000005 0.30208333333333343 72.13014625000001 70.595000000000013 0.18405853366554123 69.657315000000011 56.385171041666673 244.32500000000002 297.18500000000006 81.750000000000014 0.13392857142857148 1.0000000180025095e-35 1.0067133370343702 0.77948562566606294 155.50000000000003 205.72755952380956
decision_type=2 2 2 2 2 2 2 2 2 2 2 2 2 2 2 2 2 2 2 2 2 2 2 2 2 2 2 2 2 2
left_child=3 -2 -3 24 6 -6 10 8 -8 -10 12 -12 22 14 -14 17 -17 19 -19 20 -15 -22 -5 -24 25 -1 -27 28 -25 -21
right_child=1 2 -4 4 5 -7 7 -9 9 -11 11 -13 13 15 -16 16 -18 18 -20 29 21 -23 23 27 -26 26 -28 -29 -30 -31
leaf_value=0.16435135111035684 0.16440559677216623 0.16435174124471541 0.16438973995393419 0.16435142035746195 0.16438561831021309 0.16435091821766634 0.16435131257983482 0.16438845049151934 0.16435115921543561 0.16437236876454694 0.16437540317179766 0.16434872708341308 0.16435098056907077 0.1643515537515236 0.16438238154255436 0.16435099023587055 0.1643690851592057 0.16435118619509911 0.1643667558931432 0.16435135098761128 0.16435269277070896 0.1643770613634119 0.16436297020526855 0.16436418368719807 0.16435097093909898 0.16436577483083181 0.16435171806052348 0.16435082216515484 0.16435125336838105 0.16434842104094705
leaf_weight=127.94587643970539 0.58409360844598346 3.5053592194682617 0.58413178175950975 203.31119142728622 0.58414293074977863 1.1684576343725723 9.3476455154912212 0.58413599973027885 0.58422822467591196 0.58417576474050747 0.58416826133574851 1.1684650501416911 0.58422865942173974 10.51609048991679 0.58415100562515931 0.58422842807959896 0.58418389886750788 0.58422816505168462 0.58418964488805614 23.953337395939716 2.9211220160013354 0.58416413558663294 0.5841989462181808 0.58419594520634799 1663.2991089978877 0.5841920922815701 2.9211342692275934 2.9211453270178538 1.1684557832790006 2.3369344475738387
leaf_count=1240 88 292 49 2215 79 158 204 25 74 74 63 125 107 275 106 64 64 56 55 220 207 41 22 34 7712 23 114 69 69 21
internal_value=0.00297385 0.164363 0.164357 0.164351 0.164352 0.164362 0.164352 0.164354 0.164352 0.164362 0.164352 0.164358 0.164352 0.164353 0.164367 0.164352 0.16436 0.164352 0.164359 0.164352 0.164353 0.164357 0.164351 0.164354 0.164351 0.164351 0.164354 0.164353 0.164356 0.164351
internal_weight=2066.42 4.67358 4.08949 2061.74 266.991 1.7526 265.239 11.1002 10.516 1.1684 254.139 1.75263 252.386 43.8169 1.16838 42.6485 1.16841 41.4801 1.16842 40.3116 14.0214 3.50529 208.569 5.258 1794.75 131.451 3.50533 4.6738 1.75265 26.2903
internal_count=13260 704 341 12556 4235 237 3998 479 229 148 3519 188 3331 1059 213 846 128 718 111 607 366 248 2272 194 8321 1274 137 111 103 241
is_linear=0
shrinkage=0.05


end of trees

feature_importances:
cmg_max_24h=6
hours_since_zero=5
cmg_min_12h=4
cmg_cv_48h=4
hour_cos=3
month_sin=3
cmg_mean_168h=3
day_of_week=2
cmg_lag_12h=2
cmg_min_24h=2
cmg_cv_24h=2
cmg_max_168h=2
zeros_ratio_48h=2
cmg_trend_6h=2
hour=1
is_morning=1
cmg_lag_24h=1
cmg_range_6h=1
cmg_cv_6h=1
cmg_mean_12h=1
cmg_range_12h=1
cmg_cv_12h=1
cmg_mean_24h=1
cmg_mean_48h=1
cmg_range_48h=1
cmg_std_168h=1
zeros_ratio_168h=1
was_zero_24h_ago=1
cmg_trend_48h=1
cmg_change_24h=1
cmg_change_48h=1
cmg_diff_vs_yesterday=1

parameters:
[boosting: gbdt]
[objective: binary]
[metric: binary_logloss]
[tree_learner: serial]
[device_type: cuda]
[data_sample_strategy: bagging]
[data: ]
[valid: ]
[num_iterations: 2]
[learning_rate: 0.05]
[num_leaves: 31]
[num_threads: 0]
[seed: 44]
[deterministic: 0]
[force_col_wise: 0]
[force_row_wise: 1]
[histogram_pool_size: -1]
[max_depth: -1]
[min_data_in_leaf: 20]
[min_sum_hessian_in_leaf: 0.001]
[bagging_fraction: 0.8]
[pos_bagging_fraction: 1]
[neg_bagging_fraction: 1]
[bagging_freq: 5]
[bagging_seed: 21897]
[bagging_by_query: 0]
[feature_fraction: 0.8]
[feature_fraction_bynode: 1]
[feature_fraction_seed: 12646]
[extra_trees: 0]
[extra_seed: 20733]
[early_stopping_round: 0]
[early_stopping_min_delta: 0]
[first_metric_only: 0]
[max_delta_step: 0]
[lambda_l1: 0]
[lambda_l2: 0]
[linear_lambda: 0]
[min_gain_to_split: 0]
[drop_rate: 0.1]
[max_drop: 50]
[skip_drop: 0.5]
[xgboost_dart_mode: 0]
[uniform_drop: 0]
[drop_seed: 20829]
[top_rate: 0.2]
[other_rate: 0.1]
[min_data_per_group: 100]
[max_cat_threshold: 32]
[cat_l2: 10]
[cat_smooth: 10]
[max_cat_to_onehot: 4]
[top_k: 20]
[monotone_constraints: ]
[monotone_constraints_method: basic]
[monotone_penalty: 0]
[feature_contri: ]
[forcedsplits_filename: ]
[refit_decay_rate: 0.9]
[cegb_tradeoff: 1]
[cegb_penalty_split: 0]
[cegb_penalty_feature_lazy: ]
[cegb_penalty_feature_coupled: ]
[path_smooth: 0]
[interaction_constraints: ]
[verbosity: -1]
[saved_feature_importance_type: 0]
[use_quantized_grad: 0]
[num_grad_quant_bins: 4]
[quant_train_renew_leaf: 0]
[stochastic_rounding: 1]
[linear_tree: 0]
[max_bin: 255]
[max_bin_by_feature: ]
[min_data_in_bin: 3]
[bin_construct_sample_cnt: 200000]
[data_random_seed: 182]
[is_enable_sparse: 1]
[enable_bundle: 1]
[use_missing: 1]
[zero_as_missing: 0]
[feature_pre_filter: 1]
[pre_partition: 0]
[two_round: 0]
[header: 0]
[label_column: ]
[weight_column: ]
[group_column: ]
[ignore_column: ]
[categorical_feature: ]
[forcedbins_filename: ]
[precise_float_parser: 0]
[parser_config_file: ]
[objective_seed: 3944]
[num_class: 1]
[is_unbalance: 0]
[scale_pos_weight: 2.76005]
[sigmoid: 1]
[boost_from_average: 1]
[reg_sqrt: 0]
[alpha: 0.9]
[fair_c: 1]
[poisson_max_delta_step: 0.7]
[tweedie_variance_power: 1.5]
[lambdarank_truncation_level: 30]
[lambdarank_norm: 1]
[label_gain: ]
[lambdarank_position_bias_regularization: 0]
[eval_at: ]
[multi_error_top_k: 1]
[auc_mu_weights: ]
[num_machines: 1]
[local_listen_port: 12400]
[time_out: 120]
[machine_list_filename: ]
[machines: ]
[gpu_platform_id: -1]
[gpu_device_id: -1]
[gpu_use_dp: 1]
[num_gpu: 1]

end of parameters

pandas_categorical:[]
