tree
version=v4
num_class=1
num_tree_per_iteration=1
label_index=0
max_feature_idx=77
objective=binary sigmoid:1
feature_names=hour hour_sin hour_cos day_of_week dow_sin dow_cos month month_sin month_cos is_weekend is_night is_morning is_afternoon is_evening cmg_lag_1h cmg_lag_2h cmg_lag_3h cmg_lag_6h cmg_lag_12h cmg_lag_24h cmg_lag_48h cmg_lag_168h cmg_mean_6h cmg_std_6h cmg_min_6h cmg_max_6h cmg_range_6h cmg_cv_6h cmg_mean_12h cmg_std_12h cmg_min_12h cmg_max_12h cmg_range_12h cmg_cv_12h cmg_mean_24h cmg_std_24h cmg_min_24h cmg_max_24h cmg_range_24h cmg_cv_24h cmg_mean_48h cmg_std_48h cmg_min_48h cmg_max_48h cmg_range_48h cmg_cv_48h cmg_mean_168h cmg_std_168h cmg_min_168h cmg_max_168h cmg_range_168h cmg_cv_168h zeros_count_6h zeros_ratio_6h zeros_count_12h zeros_ratio_12h zeros_count_24h zeros_ratio_24h zeros_count_48h zeros_ratio_48h zeros_count_168h zeros_ratio_168h hours_since_zero was_zero_1h_ago was_zero_2h_ago was_zero_24h_ago cmg_trend_6h cmg_trend_12h cmg_trend_24h cmg_trend_48h cmg_change_1h cmg_change_24h cmg_change_48h cmg_same_hour_yesterday cmg_same_hour_last_week cmg_7d_median_same_hour cmg_diff_vs_yesterday cmg_diff_vs_last_week
feature_infos=[0:23] [-1:1] [-1:1] [0:6] [-0.97492791218182362:0.97492791218182362] [-0.90096886790241903:1] [1:12] [-1:1] [-1:1] [0:1] [0:1] [0:1] [0:1] [0:1] [0:371.66000000000003] [0:371.66000000000003] [0:371.66000000000003] [0:371.66000000000003] [0:371.66000000000003] [0:371.66000000000003] [0:371.66000000000003] [0:371.66000000000003] [0:349.44666666666666] [0:153.30693861227124] [0:339.83999999999997] [0:371.66000000000003] [0:371.66000000000003] [0:2.4494896874170573] [0:333.88333333333338] [0:141.231575175367] [0:327.86000000000001] [0:371.66000000000003] [0:371.66000000000003] [0:3.464101428007337] [0:315.17583333333329] [0:133.58115591090203] [0:296.29000000000002] [0:371.66000000000003] [0:371.66000000000003] [0:4.8989787993545502] [0:305.62479166666668] [0:121.59284917311297] [0:289.70999999999998] [0:371.66000000000003] [0:371.66000000000003] [0:6.9282012893730816] [0:269.83386904761909] [0:105.75616875003355] [0:120.59999999999999] [0:371.66000000000003] [0:371.66000000000003] [0:2.3481555595262882] [0:6] [0:1] [0:12] [0:1] [0:24] [0:1] [0:48] [0:1] [0:127] [0:0.75595238095238093] [0:308] [0:1] [0:1] [0:1] [-295.41000000000003:371.66000000000003] [-334.23000000000002:338.87] [-371.66000000000003:329.93000000000001] [-330.44:335.49000000000001] [-329.93000000000001:329.93000000000001] [-371.66000000000003:329.93000000000001] [-330.44:335.49000000000001] [0:371.66000000000003] [0:371.66000000000003] [0:371.66000000000003] [-371.66000000000003:329.93000000000001] [-371.66000000000003:314.30000000000001]
tree_sizes=3338 3406 3385 3411

Tree=0
num_leaves=31
num_cat=0
split_feature=54 30 46 0 0 1 3 4 32 46 1 0 2 8 18 5 22 8 72 43 1 4 3 9 0 20 46 51 47 71
split_gain=4461 895.894 795.254 708.016 407.527 312.412 293.389 257.56 246.634 230.905 217.575 204.042 163.06 143.18 112.091 111.281 102.673 95.4564 95.1437 93.4479 97.5242 125.907 87.5737 109.566 145.302 113.665 84.0847 82.5052 80.9949 89.876
threshold=4.5000000000000009 37.565000000000005 49.901696428571434 16.500000000000004 2.5000000000000004 0.25881904510252091 3.5000000000000004 -0.8783796973249266 56.874746250000008 75.734231026785736 0.78656609248549325 16.500000000000004 -0.5 0.25000000000000017 40.295000000000009 1.0000000180025095e-35 18.762499999999971 -0.68301270189221952 -64.13926124999999 76.247460000000004 0.25881904510252091 -0.8783796973249266 3.5000000000000004 1.0000000180025095e-35 2.5000000000000004 82.565310000000011 51.459077380952387 0.57112916775792721 57.855474396102018 -61.324999999999996
decision_type=2 2 2 2 2 2 2 2 2 2 2 2 2 2 2 2 2 2 2 2 2 2 2 2 2 2 2 2 2 2
left_child=1 5 3 4 17 6 -1 11 16 12 13 18 -8 -10 -7 -5 -6 -2 -4 -3 21 -21 -9 -24 -25 28 -16 -13 -26 -30
right_child=2 19 7 15 8 14 9 22 10 -11 -12 27 -14 -15 26 -17 -18 -19 -20 20 -22 -23 23 24 25 -27 -28 -29 29 -31
leaf_value=-1.0204502025221325 -0.96441295591536935 -0.95590125834323858 -1.0647391633672501 -0.86115489165930859 -0.92949232618395838 -1.0566710132953734 -0.98913823384749189 -1.0284733743144647 -1.0097525571877783 -1.0120871043415338 -1.048978632792908 -0.97240919058760877 -0.91728500815914171 -0.93732933184036749 -1.0029639005366904 -0.90777131718978388 -1.0412327428365331 -0.87391090502666979 -0.938848661687949 -0.99378707161238311 -1.0750627996722644 -1.0580048561955606 -0.91637171572877374 -0.858299303480905 -1.0374619864311534 -1.0567165926178437 -1.0399824915905185 -0.83793856014334822 -1.0620626781786284 -0.90880932683725746
leaf_weight=757.19136521220207 35.565658658742905 20.359840750694275 27.441450923681259 300.24059662222862 283.73742642998695 426.18199548125267 131.36253586411476 281.76004564762115 128.7725151181221 220.23765453696251 134.72280436754227 14.746101915836332 197.92196395993233 145.18845784664154 278.38218206167221 223.18800050020218 22.16351455450058 161.16227966547012 33.125570088624954 83.446502178907394 942.69088178873062 894.65786224603653 44.291090995073318 15.859827756881712 34.973605573177338 88.318255752325058 341.66463324427605 50.372969388961792 12.111719489097593 45.528730362653732
leaf_count=1567 69 44 57 576 565 901 263 586 262 448 278 28 396 295 584 429 44 311 68 178 2025 1910 91 33 71 185 717 96 24 91
internal_value=-1.02045 -1.03731 -0.948147 -0.927378 -0.953997 -1.01657 -1.00027 -0.994096 -0.971541 -0.972456 -0.996954 -0.929829 -0.94595 -0.971371 -1.03693 -0.881032 -0.937588 -0.890272 -0.995887 -1.06246 -1.06359 -1.05253 -1.00954 -0.987423 -1.00341 -1.01613 -1.02336 -0.868389 -0.977434 -0.941012
internal_weight=6377.37 4294.1 2083.27 1434.74 911.313 2352.94 1306.71 648.529 714.585 549.522 408.684 125.686 329.284 273.961 1046.23 523.429 305.901 196.728 60.567 1941.16 1920.8 978.104 522.843 241.083 196.792 180.932 620.047 65.1191 92.6141 57.6404
internal_count=13260 9085 4175 2838 1833 4917 2704 1337 1453 1118 844 249 659 557 2213 1005 609 380 125 4168 4127 2088 1088 495 408 378 1301 124 189 115
is_linear=0
shrinkage=1


Tree=1
num_leaves=31
num_cat=0
split_feature=54 30 46 0 0 1 3 4 32 51 1 0 51 45 61 1 4 22 62 0 62 69 31 4 3 61 61 16 61 44
split_gain=3917.67 834.931 660.147 560.291 330.116 282.322 257.465 219.874 208.073 198.455 193.329 163.883 100.602 97.0496 92.1112 88.0359 113.583 86.9137 85.1237 135.441 90.4337 83.904 82.5094 78.738 77.8771 104.018 77.4425 76.7371 92.8374 76.7091
threshold=4.5000000000000009 37.565000000000005 49.901696428571434 16.500000000000004 2.5000000000000004 0.25881904510252091 3.5000000000000004 -0.8783796973249266 56.874746250000008 0.84352073497882774 0.78656609248549325 16.500000000000004 0.76018310512504017 0.43177335611008 0.53273809523809534 0.25881904510252091 -0.8783796973249266 19.353086041666643 8.5000000000000018 7.5000000000000009 10.500000000000002 -64.13926124999999 264.07500000000005 -0.8783796973249266 3.5000000000000004 0.13392857142857148 0.21130952380952384 50.830335000000012 0.53273809523809534 295.46000000000009
decision_type=2 2 2 2 2 2 2 2 2 2 2 2 2 2 2 2 2 2 2 2 2 2 2 2 2 2 2 2 2 2
left_child=1 5 3 4 27 6 14 11 17 13 -10 21 26 29 -1 16 -3 -6 -7 -20 -21 -4 -18 -14 -9 -26 -5 28 -2 -8
right_child=2 15 7 12 8 18 9 24 10 -11 -12 -13 23 -15 -16 -17 22 -19 19 20 -22 -23 -24 -25 25 -27 -28 -29 -30 -31
leaf_value=-0.0069711958557540782 0.032784834547767989 0.021622678558811139 -0.046626770449954669 0.10440575256689928 0.079400702578049098 -0.0063224774561369398 0.09265702085407157 -0.011153671583197078 0.042231292317995245 0.071997848457903038 -0.0310540977699378 0.13187383505818437 0.16598441945145476 -0.0034197405368811711 0.08366070275417492 -0.055353225518277697 -0.028343577000634404 -0.027131471144665312 -0.052454370546883171 0.10848901534831282 -0.0095370882407315831 0.071413561139945084 -0.060767676160923705 0.11702604233093927 -0.017443314592774605 0.051175361411607868 -0.051254167571707504 0.13444199655008793 0.1635678783970253 -0.038683826605506538
leaf_weight=726.73541882634163 48.329914718866348 84.342635214328766 26.819793105125427 18.129224956035614 296.58563086390495 568.59164008498192 53.095116049051285 280.21506422758102 279.70767605304718 270.98691743612289 132.6794006228447 69.478023588657379 102.00780689716339 222.60284572839737 29.159161984920502 929.96550458669662 591.27444651722908 20.466677665710449 330.51480749249458 18.808798640966415 118.36681577563286 34.316996574401855 293.64453360438347 421.31454986333847 84.376155108213425 159.87691926956177 14.287455916404724 140.85876387357712 18.86644372344017 14.061091482639311
leaf_count=1525 91 183 55 35 570 1214 105 581 572 540 272 132 184 456 61 2041 1290 39 714 39 248 70 641 759 171 324 27 257 36 28
internal_value=-0.00351998 -0.0197025 0.0631368 0.0814948 0.0579137 0.000203156 0.0155686 0.0212905 0.0420679 0.0412396 0.0186528 0.0793364 0.121275 0.012474 -0.00347501 -0.0443632 -0.0338187 0.0725237 -0.0193192 -0.03512 0.00664603 0.019631 -0.0391029 0.126569 0.0068346 0.0274713 0.0357996 0.113469 0.0695042 0.065157
internal_weight=6400.47 4252.15 2148.32 1493.23 937.495 2352.92 1316.64 655.083 729.439 560.746 412.387 130.615 555.739 289.759 755.895 1899.23 969.262 317.052 1036.28 467.69 137.176 61.1368 884.919 523.322 524.468 244.253 32.4167 208.055 67.1964 67.1562
internal_count=13260 9085 4175 2838 1833 4917 2704 1337 1453 1118 844 249 1005 593 1586 4168 2103 609 2213 1011 287 125 1931 943 1088 495 62 380 127 133
is_linear=0
shrinkage=0.05


Tree=2
num_leaves=31
num_cat=0
split_feature=54 62 1 46 2 7 4 13 31 1 31 61 3 38 2 6 46 40 5 66 46 51 25 47 40 1 4 51 3 6
split_gain=3460.59 709.76 567.173 546.866 350.286 245.195 210.164 206.837 176.378 171.345 154.704 147.721 140.364 127.971 118.686 118.374 103.186 97.4401 91.434 91.4026 90.8067 87.3183 126.483 82.9661 80.7782 80.7314 121.699 77.5476 88.0246 75.3022
threshold=4.5000000000000009 8.5000000000000018 0.78656609248549325 50.172619047619058 -0.5 0.25000000000000011 -0.8783796973249266 1.0000000180025095e-35 57.115000000000009 0.60355339059327384 77.576271250000005 0.53869047619047628 3.5000000000000004 81.682566250000022 -0.5 9.5000000000000018 66.79794642857145 10.005729166666669 -0.22252093395631442 -34.634999999999984 51.459077380952387 1.0525925045980782 32.470616250000006 32.399822354093772 105.4126041666667 0.25881904510252091 -0.8783796973249266 0.58899190415326796 3.5000000000000004 7.5000000000000009
decision_type=2 2 2 2 2 2 2 2 2 2 2 2 2 2 2 2 2 2 2 2 2 2 2 2 2 2 2 2 2 2
left_child=1 7 3 4 13 9 14 16 -4 18 -7 17 -9 21 -5 -15 -1 -6 20 -19 -3 -2 -23 -17 -14 26 -12 -8 -29 -21
right_child=2 5 8 6 11 10 27 12 -10 -11 25 -13 24 15 -16 23 -18 19 -20 29 -22 22 -24 -25 -26 -27 -28 28 -30 -31
leaf_value=0.012493915685688728 0.11623747399360423 0.058667444450895223 0.060944442172860741 0.0098236046952481643 0.010075207288828915 0.031739439979240884 -0.03038995129307431 0.01557333070146236 -0.033926512025676495 -0.038878554664365197 0.013321143249228312 0.13609843332085456 0.10910218592067605 -0.0072838314859504415 0.11943332932903905 -0.043104458645294691 -0.019609240203489291 0.016975192348312337 -0.01412787144391855 0.075320341418496958 -7.2681908146996532e-05 0.070768074874876699 -0.056866235852008874 0.083265448278804555 0.010353847206761337 -0.059370720424670877 -0.044028900598986037 -0.00038767696255266002 0.048608321910575916 0.11501101364629074
leaf_weight=712.76698267459869 88.084857523441315 110.62584814429283 65.090824127197266 35.276054054498672 35.113283395767212 63.820093095302582 88.534454107284546 137.27012687921524 198.06948241591454 433.92154750227928 104.44835957884789 259.24696722626686 99.965768784284592 128.38685888051987 82.349782586097717 15.236091703176497 385.77669861912727 34.393196642398834 383.53373044729233 183.89641433954239 162.35303285717964 167.67547911405563 21.951795041561127 88.039637804031372 26.121208608150482 780.32892540097237 808.87816217541695 203.34528803825378 166.91546505689621 341.26128301024437
leaf_count=1485 165 227 137 64 62 142 182 272 417 937 230 452 187 252 150 29 804 60 809 321 333 317 41 166 49 1746 1778 415 340 597
internal_value=-0.00337048 -0.0189275 0.0584189 0.0677638 0.0850269 -0.0331247 0.0269351 0.0107608 -0.0104609 -0.0144992 -0.044681 0.104602 0.0505576 0.0522116 0.0865613 0.0247721 0.00122022 0.0908707 0.00161432 0.0959408 0.023732 0.0751012 0.0559928 0.0646223 0.0886447 -0.0475606 -0.0374703 0.0116481 0.0217 0.101112
internal_weight=6412.68 4209.81 2202.87 1939.71 1363.29 2847.91 576.421 1361.9 263.16 1090.43 1757.48 853.911 263.357 509.375 117.626 231.663 1098.54 594.664 656.513 559.551 272.979 277.712 189.627 103.276 126.087 1693.66 913.327 458.795 370.261 525.158
internal_count=13260 9085 4175 3621 2462 6275 1159 2810 554 2354 3921 1489 521 973 214 454 2289 1050 1384 984 560 519 358 195 236 3789 2008 945 755 918
is_linear=0
shrinkage=0.05


Tree=3
num_leaves=31
num_cat=0
split_feature=54 30 46 0 0 5 0 4 32 0 7 51 6 0 62 51 47 3 43 33 3 49 51 66 59 51 51 33 51 66
split_gain=3070.18 732.589 477.33 386.351 238.019 256.913 231.07 165.572 157.157 133.287 129.514 126.155 96.7914 94.8441 100.059 88.8308 115.99 87.7039 86.615 84.3326 81.8693 101.083 100.113 77.3237 76.6562 93.7043 100.23 76.5465 74.7424 73.5959
threshold=4.5000000000000009 37.565000000000005 49.901696428571434 16.500000000000004 16.500000000000004 -0.22252093395631442 2.5000000000000004 -0.8783796973249266 56.874746250000008 1.5000000000000002 0.25000000000000011 0.61767567441684201 9.5000000000000018 8.5000000000000018 7.5000000000000009 0.84352073497882774 60.8230461772784 3.5000000000000004 76.247460000000004 0.50284342361565904 3.5000000000000004 347.03000000000003 1.2357918099632441 -40.104274999999987 0.28125000000000006 1.1754687270944306 1.3558845478550252 0.81816093306117488 0.76018310512504017 -40.104274999999987
decision_type=2 2 2 2 2 2 2 2 2 2 2 2 2 2 2 2 2 2 2 2 2 2 2 2 2 2 2 2 2 2
left_child=1 4 3 6 9 20 -2 11 -8 17 13 -4 -10 14 19 -15 24 -1 -3 -11 22 27 -6 -13 -17 -26 -27 -22 -5 -9
right_child=2 18 7 28 5 -7 8 29 12 10 -12 23 -14 15 -16 16 -18 -19 -20 -21 21 -23 -24 -25 25 26 -28 -29 -30 -31
leaf_value=-0.0031316025036518987 0.094294135003970242 0.060420125692048049 -0.0010125916738510782 0.028547859103217933 0.0042328773163641635 -0.0036007413596037354 0.062133463391025406 -0.040166323250282646 -0.0078821533741096402 0.074584134128680576 -0.03390668087140019 -0.0089746398488084623 0.040160269584980909 -0.02744510322938816 -0.039010201049428567 0.065377705105653577 -0.026849662930031323 0.068758585341081299 -0.04315768272087514 -0.0083004433358714238 0.068251362885187974 -0.057753769237373256 0.14401965935562328 0.11982747784595323 -0.022767894849032334 0.11235613513141254 0.007834551868028658 0.14018978465777676 0.1050053046673871 0.013578282112968534
leaf_weight=85.395187109708786 225.25290957093239 20.412624537944794 45.152246475219727 33.864540219306946 89.771430283784866 338.4931383728981 334.68750128149986 74.10750949382782 209.23467040061951 37.833129286766052 537.46010828018188 13.66230672597885 210.12715211510658 115.66972309350967 277.69627374410629 133.88800585269928 93.021923154592514 84.310818046331406 1799.2309031188488 162.52956163883209 132.47046121954918 12.656905084848402 14.940202891826628 79.195811867713928 84.951007157564163 38.059427559375763 57.723428905010223 51.297177970409393 569.6935441493988 453.46655806899071
leaf_count=171 422 47 81 56 184 680 645 153 421 79 1150 24 423 238 607 269 189 168 4121 341 240 23 31 136 173 75 115 93 949 935
internal_value=-0.00323328 -0.0181826 0.0543107 0.0692496 0.000270755 0.0262879 0.0498568 0.0187837 0.0365823 -0.00946933 -0.014107 0.067542 0.0161902 -0.00348012 -0.0195798 0.0112273 0.0222007 0.0325838 -0.0419958 0.00735009 0.0598843 0.0789191 0.0241776 0.100877 0.0367031 0.0154608 0.0493663 0.0883324 0.100715 0.00602886
internal_weight=6416.26 4167.81 2248.44 1582.86 2348.17 639.629 979.302 665.584 754.049 1708.54 1538.83 138.01 419.362 1001.37 478.059 523.314 407.644 169.706 1819.64 200.363 301.136 196.425 104.712 92.8581 314.622 180.734 95.7829 183.768 603.558 527.574
internal_count=13260 9085 4175 2838 4917 1285 1833 1337 1453 3632 3293 249 844 2120 1045 1075 829 339 4168 420 575 360 215 160 633 369 190 333 1005 1088
is_linear=0
shrinkage=0.05


end of trees

feature_importances:
hour=13
cmg_cv_168h=11
hour_sin=9
day_of_week=8
dow_sin=8
cmg_mean_168h=8
zeros_ratio_168h=5
zeros_count_12h=4
hours_since_zero=4
hour_cos=3
dow_cos=3
month=3
cmg_min_12h=3
cmg_max_12h=3
cmg_range_12h=3
cmg_std_168h=3
cmg_trend_6h=3
month_sin=2
month_cos=2
cmg_mean_6h=2
cmg_cv_12h=2
cmg_mean_48h=2
cmg_max_48h=2
is_weekend=1
is_evening=1
cmg_lag_3h=1
cmg_lag_12h=1
cmg_lag_48h=1
cmg_max_6h=1
cmg_range_24h=1
cmg_range_48h=1
cmg_cv_48h=1
cmg_max_168h=1
zeros_ratio_48h=1
cmg_trend_48h=1
cmg_change_24h=1
cmg_change_48h=1

parameters:
[boosting: gbdt]
[objective: binary]
[metric: binary_logloss]
[tree_learner: serial]
[device_type: cuda]
[data_sample_strategy: bagging]
[data: ]
[valid: ]
[num_iterations: 4]
[learning_rate: 0.05]
[num_leaves: 31]
[num_threads: 0]
[seed: 44]
[deterministic: 0]
[force_col_wise: 0]
[force_row_wise: 1]
[histogram_pool_size: -1]
[max_depth: -1]
[min_data_in_leaf: 20]
[min_sum_hessian_in_leaf: 0.001]
[bagging_fraction: 0.8]
[pos_bagging_fraction: 1]
[neg_bagging_fraction: 1]
[bagging_freq: 5]
[bagging_seed: 21897]
[bagging_by_query: 0]
[feature_fraction: 0.8]
[feature_fraction_bynode: 1]
[feature_fraction_seed: 12646]
[extra_trees: 0]
[extra_seed: 20733]
[early_stopping_round: 0]
[early_stopping_min_delta: 0]
[first_metric_only: 0]
[max_delta_step: 0]
[lambda_l1: 0]
[lambda_l2: 0]
[linear_lambda: 0]
[min_gain_to_split: 0]
[drop_rate: 0.1]
[max_drop: 50]
[skip_drop: 0.5]
[xgboost_dart_mode: 0]
[uniform_drop: 0]
[drop_seed: 20829]
[top_rate: 0.2]
[other_rate: 0.1]
[min_data_per_group: 100]
[max_cat_threshold: 32]
[cat_l2: 10]
[cat_smooth: 10]
[max_cat_to_onehot: 4]
[top_k: 20]
[monotone_constraints: ]
[monotone_constraints_method: basic]
[monotone_penalty: 0]
[feature_contri: ]
[forcedsplits_filename: ]
[refit_decay_rate: 0.9]
[cegb_tradeoff: 1]
[cegb_penalty_split: 0]
[cegb_penalty_feature_lazy: ]
[cegb_penalty_feature_coupled: ]
[path_smooth: 0]
[interaction_constraints: ]
[verbosity: -1]
[saved_feature_importance_type: 0]
[use_quantized_grad: 0]
[num_grad_quant_bins: 4]
[quant_train_renew_leaf: 0]
[stochastic_rounding: 1]
[linear_tree: 0]
[max_bin: 255]
[max_bin_by_feature: ]
[min_data_in_bin: 3]
[bin_construct_sample_cnt: 200000]
[data_random_seed: 182]
[is_enable_sparse: 1]
[enable_bundle: 1]
[use_missing: 1]
[zero_as_missing: 0]
[feature_pre_filter: 1]
[pre_partition: 0]
[two_round: 0]
[header: 0]
[label_column: ]
[weight_column: ]
[group_column: ]
[ignore_column: ]
[categorical_feature: ]
[forcedbins_filename: ]
[precise_float_parser: 0]
[parser_config_file: ]
[objective_seed: 3944]
[num_class: 1]
[is_unbalance: 0]
[scale_pos_weight: 2.76433]
[sigmoid: 1]
[boost_from_average: 1]
[reg_sqrt: 0]
[alpha: 0.9]
[fair_c: 1]
[poisson_max_delta_step: 0.7]
[tweedie_variance_power: 1.5]
[lambdarank_truncation_level: 30]
[lambdarank_norm: 1]
[label_gain: ]
[lambdarank_position_bias_regularization: 0]
[eval_at: ]
[multi_error_top_k: 1]
[auc_mu_weights: ]
[num_machines: 1]
[local_listen_port: 12400]
[time_out: 120]
[machine_list_filename: ]
[machines: ]
[gpu_platform_id: -1]
[gpu_device_id: -1]
[gpu_use_dp: 1]
[num_gpu: 1]

end of parameters

pandas_categorical:[]
