tree
version=v4
num_class=1
num_tree_per_iteration=1
label_index=0
max_feature_idx=77
objective=binary sigmoid:1
feature_names=hour hour_sin hour_cos day_of_week dow_sin dow_cos month month_sin month_cos is_weekend is_night is_morning is_afternoon is_evening cmg_lag_1h cmg_lag_2h cmg_lag_3h cmg_lag_6h cmg_lag_12h cmg_lag_24h cmg_lag_48h cmg_lag_168h cmg_mean_6h cmg_std_6h cmg_min_6h cmg_max_6h cmg_range_6h cmg_cv_6h cmg_mean_12h cmg_std_12h cmg_min_12h cmg_max_12h cmg_range_12h cmg_cv_12h cmg_mean_24h cmg_std_24h cmg_min_24h cmg_max_24h cmg_range_24h cmg_cv_24h cmg_mean_48h cmg_std_48h cmg_min_48h cmg_max_48h cmg_range_48h cmg_cv_48h cmg_mean_168h cmg_std_168h cmg_min_168h cmg_max_168h cmg_range_168h cmg_cv_168h zeros_count_6h zeros_ratio_6h zeros_count_12h zeros_ratio_12h zeros_count_24h zeros_ratio_24h zeros_count_48h zeros_ratio_48h zeros_count_168h zeros_ratio_168h hours_since_zero was_zero_1h_ago was_zero_2h_ago was_zero_24h_ago cmg_trend_6h cmg_trend_12h cmg_trend_24h cmg_trend_48h cmg_change_1h cmg_change_24h cmg_change_48h cmg_same_hour_yesterday cmg_same_hour_last_week cmg_7d_median_same_hour cmg_diff_vs_yesterday cmg_diff_vs_last_week
feature_infos=[0:23] [-1:1] [-1:1] [0:6] [-0.97492791218182362:0.97492791218182362] [-0.90096886790241903:1] [1:12] [-1:1] [-1:1] [0:1] [0:1] [0:1] [0:1] [0:1] [0:371.66000000000003] [0:371.66000000000003] [0:371.66000000000003] [0:371.66000000000003] [0:371.66000000000003] [0:371.66000000000003] [0:371.66000000000003] [0:371.66000000000003] [0:349.44666666666666] [0:153.30693861227124] [0:339.83999999999997] [0:371.66000000000003] [0:371.66000000000003] [0:2.4494896874170573] [0:333.88333333333338] [0:141.231575175367] [0:327.86000000000001] [0:371.66000000000003] [0:371.66000000000003] [0:3.464101428007337] [0:315.17583333333329] [0:133.58115591090203] [0:296.29000000000002] [0:371.66000000000003] [0:371.66000000000003] [0:4.8989787993545502] [0:305.62479166666668] [0:121.59284917311297] [0:289.70999999999998] [0:371.66000000000003] [0:371.66000000000003] [0:6.9282012893730816] [0:269.83386904761909] [0:105.75616875003355] [0:120.59999999999999] [0:371.66000000000003] [0:371.66000000000003] [0:2.3481555595262882] [0:6] [0:1] [0:12] [0:1] [0:24] [0:1] [0:48] [0:1] [0:127] [0:0.75595238095238093] [0:308] [0:1] [0:1] [0:1] [-295.41000000000003:371.66000000000003] [-334.23000000000002:338.87] [-371.66000000000003:329.93000000000001] [-330.44:335.49000000000001] [-329.93000000000001:329.93000000000001] [-371.66000000000003:329.93000000000001] [-330.44:335.49000000000001] [0:371.66000000000003] [0:371.66000000000003] [0:371.66000000000003] [-371.66000000000003:329.93000000000001] [-371.66000000000003:314.30000000000001]
tree_sizes=244 3434 3441 365 1209 1528 366 471 367 2534

Tree=0
num_leaves=1
num_cat=0
split_feature=
split_gain=
threshold=
decision_type=
left_child=
right_child=
leaf_value=-1.0155600062592871
leaf_weight=
leaf_count=16548
internal_value=
internal_weight=
internal_count=
is_linear=0
shrinkage=1


Tree=1
num_leaves=31
num_cat=0
split_feature=29 29 29 29 29 29 29 29 29 29 37 29 29 29 29 29 14 29 29 29 29 29 29 14 14 29 29 29 29 14
split_gain=3.63798e-12 3.63798e-12 3.63798e-12 7.27596e-12 3.63798e-12 1.81899e-12 1.81899e-12 1.81899e-12 1.81899e-12 1.81899e-12 1.81899e-12 9.09495e-13 1.81899e-12 9.09495e-13 9.09495e-13 9.09495e-13 4.54747e-13 4.54747e-13 4.54747e-13 4.54747e-13 4.54747e-13 4.54747e-13 4.54747e-13 2.27374e-13 2.27374e-13 2.27374e-13 2.27374e-13 2.27374e-13 2.27374e-13 2.27374e-13
threshold=77.695092240379338 74.912201233724616 73.661650444625693 53.054956954765437 30.187990860073047 29.632804436141228 29.067209733876307 26.204201738980888 17.828731842959517 30.858652872595062 93.177330000000026 15.838604705213859 12.905496748455617 3.4553722883902798 18.199031684234399 48.731507878453336 58.110480000000003 28.387976194126026 27.47080318936656 57.088513592708473 38.829169404309305 6.9156933895232067 100.79738158953135 69.065000000000012 67.78049750000001 28.709136072221757 37.616682950390448 34.15845671340751 32.440106397063083 68.340000000000018
decision_type=2 2 2 2 2 2 2 2 2 2 2 2 2 2 2 2 2 2 2 2 2 2 2 2 2 2 2 2 2 2
left_child=1 2 3 4 5 6 7 8 11 -6 20 12 13 16 -10 -12 -1 18 -9 -5 26 -15 -2 -17 -13 -19 27 28 -11 -23
right_child=22 -3 -4 19 9 -7 -8 17 14 10 15 24 -14 21 -16 23 -18 25 -20 -21 -22 29 -24 -25 -26 -27 -28 -29 -30 -31
leaf_value=0.1880454665658422 0.1880454665658422 0.1880454665658422 0.1880454665658422 0.1880454665658422 0.1880454665658422 0.1880454665658422 0.1880454665658422 0.1880454665658422 0.18804546656584226 0.1880454665658422 0.1880454665658422 0.1880454665658422 0.1880454665658422 0.1880454665658422 0.1880454665658422 0.1880454665658422 0.18804546656584226 0.1880454665658422 0.1880454665658422 0.1880454665658422 0.1880454665658422 0.1880454665658422 0.1880454665658422 0.1880454665658422 0.1880454665658422 0.1880454665658422 0.1880454665658422 0.1880454665658422 0.1880454665658422 0.18804546656584226
leaf_weight=197.24209678173065 102.39343822002411 18.861949145793915 7.5447796583175659 43.651939451694489 33.412595629692078 40.418462455272675 33.951508462429047 80.29801207780838 12.394995152950285 38.262811124324799 321.19204831123352 37.72389829158783 66.825191259384155 43.651939451694489 336.28160762786865 23.712164640426636 8.0836924910545331 19.939774811267853 53.891283273696899 102.39343822002411 16.16738498210907 67.364104092121124 43.651939451694489 18.861949145793915 4.8502154946327209 18.861949145793915 11.317169487476349 47.424329280853271 37.72389829158783 11.856082320213316
leaf_count=700 879 128 51 489 208 256 217 452 87 167 2312 346 396 394 2370 232 29 109 304 1148 62 685 375 185 44 104 44 186 165 121
internal_value=0.00378651 0.188045 0.188045 0.188045 0.188045 0.188045 0.188045 0.188045 0.188045 0.188045 0.188045 0.188045 0.188045 0.188045 0.188045 0.188045 0.188045 0.188045 0.188045 0.188045 0.188045 0.188045 0.188045 0.188045 0.188045 0.188045 0.188045 0.188045 0.188045 0.188045
internal_weight=1900.21 1754.16 1735.3 1727.75 1581.71 1033.63 993.216 959.265 786.274 548.074 514.662 437.597 395.023 328.198 348.677 363.766 205.326 172.991 134.189 146.045 150.896 122.872 146.045 42.5741 42.5741 38.8017 134.728 123.411 75.9867 79.2202
internal_count=13144 11890 11696 11600 9963 6554 6351 6159 5190 3409 3194 2733 2343 1838 2457 2619 729 969 756 1637 575 1109 1254 417 390 213 521 485 332 806
is_linear=0
shrinkage=0.05


Tree=2
num_leaves=31
num_cat=0
split_feature=14 14 14 14 54 14 40 14 54 14 54 14 54 54 14 40 54 14 54 54 54 14 14 54 40 54 40 14 14 54
split_gain=3.63798e-12 3.63798e-12 3.63798e-12 3.63798e-12 9.09495e-13 9.09495e-13 9.09495e-13 4.54747e-13 4.54747e-13 4.54747e-13 2.27374e-13 2.27374e-13 2.27374e-13 2.27374e-13 2.27374e-13 1.13687e-13 1.13687e-13 1.13687e-13 1.13687e-13 1.13687e-13 1.13687e-13 2.27374e-13 1.13687e-13 1.13687e-13 5.68434e-14 5.68434e-14 5.68434e-14 5.68434e-14 5.68434e-14 2.84217e-14
threshold=259.92000000000002 244.31274125000002 152.43274500000004 76.864698750000017 10.500000000000002 146.07000000000002 196.08208333333337 132.08000000000001 3.5000000000000004 81.445000000000007 2.5000000000000004 114.68000000000002 1.0000000180025095e-35 7.5000000000000009 82.565310000000011 13.155423437500003 8.5000000000000018 94.155000000000015 3.5000000000000004 2.5000000000000004 1.5000000000000002 156.53000000000003 163.07500000000002 6.5000000000000009 37.848125000000003 9.5000000000000018 50.817235598958348 241.29500000000004 189.465 6.5000000000000009
decision_type=2 2 2 2 2 2 2 2 2 2 2 2 2 2 2 2 2 2 2 2 2 2 2 2 2 2 2 2 2 2
left_child=1 2 3 -1 5 6 7 8 9 24 11 12 -11 14 -10 -15 -17 -14 19 20 21 -4 -23 -16 -5 -18 -20 28 -24 -7
right_child=-2 -3 18 4 -6 29 -8 -9 13 10 -12 -13 17 15 23 16 25 -19 26 -21 -22 22 27 -25 -26 -27 -28 -29 -30 -31
leaf_value=0.16438129287262526 0.16438129287262526 0.16438129287262526 0.16438129287262535 0.16438129287262515 0.16438129287262526 0.16438129287262526 0.16438129287262526 0.16438129287262526 0.16438129287262526 0.16438129287262526 0.16438129287262526 0.16438129287262526 0.16438129287262526 0.16438129287262529 0.16438129287262526 0.16438129287262526 0.16438129287262526 0.16438129287262529 0.16438129287262523 0.16438129287262526 0.16438129287262526 0.16438129287262529 0.16438129287262526 0.16438129287262526 0.16438129287262526 0.16438129287262526 0.16438129287262529 0.16438129287262529 0.16438129287262526 0.16438129287262526
leaf_weight=1595.2728688716888 21.620914340019226 8.7652355432510376 2.9217451810836783 2.9217451810836819 3.506094217300415 13.440027832984924 7.5965374708175659 30.386149883270264 22.205263376235962 50.838366150856018 12.271329760551453 17.530471086502075 25.127008557319641 7.0121884346008292 35.06094217300415 22.789612412452698 18.69916915893555 15.19307494163513 9.9339336156845128 4.0904432535171509 7.5965374708175659 7.0121884346008292 25.127008557319641 18.699169158935547 22.789612412452698 12.271329760551453 15.777423977851866 1.7530471086502073 19.867867231369019 2.3373961448669434
leaf_count=8696 138 53 65 27 24 129 52 201 82 444 109 164 118 21 135 70 59 71 59 81 156 157 571 72 208 39 93 40 451 22
internal_value=0.00331 0.164381 0.164381 0.164381 0.164381 0.164381 0.164381 0.164381 0.164381 0.164381 0.164381 0.164381 0.164381 0.164381 0.164381 0.164381 0.164381 0.164381 0.164381 0.164381 0.164381 0.164381 0.164381 0.164381 0.164381 0.164381 0.164381 0.164381 0.164381 0.164381
internal_weight=2060.41 2038.79 2030.03 1935.95 340.675 337.169 321.392 313.795 283.409 146.672 120.96 108.689 91.1584 136.738 75.9654 60.7723 53.7601 40.3201 94.0802 68.3688 64.2784 56.6819 53.7601 53.7601 25.7114 30.9705 25.7114 46.7479 44.9949 15.7774
internal_count=13144 12358 12062 10553 2380 2371 2220 2073 1778 1310 1075 1019 797 468 282 186 164 189 1509 1357 1317 1259 1200 207 235 98 152 1080 1022 151
is_linear=0
shrinkage=0.05


Tree=3
num_leaves=2
num_cat=0
split_feature=29
split_gain=3.63798e-12
threshold=123.69360483638182
decision_type=2
left_child=-1
right_child=-2
leaf_value=0.14704320206995289 0.14704320206995289
leaf_weight=2179.0625478029251 5.5762192010879517
leaf_count=13110 34
internal_value=0.00296088
internal_weight=2184.64
internal_count=13144
is_linear=0
shrinkage=0.05


Tree=4
num_leaves=10
num_cat=0
split_feature=14 29 29 29 29 29 29 29 54
split_gain=3.63798e-12 1.81899e-12 3.63798e-12 9.09495e-13 9.09495e-13 1.13687e-13 1.13687e-13 1.13687e-13 1.42109e-14
threshold=168.99860750000002 80.447674520523179 30.858652872595062 76.99745719022637 74.912201233724616 111.69977949230315 84.737160547849285 27.828087489666832 4.5000000000000009
decision_type=2 2 2 2 2 2 2 2 2
left_child=1 2 -1 4 -4 6 -3 -2 -6
right_child=7 5 3 -5 8 -7 -8 -9 -10
leaf_value=0.13377319120563419 0.13377319120563419 0.13377319120563419 0.13377319120563419 0.13377319120563419 0.13377319120563419 0.13377319120563419 0.13377319120563419 0.13377319120563419 0.13377319120563419
leaf_weight=1263.385092318058 12.278422892093657 21.325681865215302 770.30947828292847 19.386983513832092 9.0472589731216431 12.278422892093657 71.731839001178741 96.288684785366058 2.5849311351776123
leaf_count=6347 250 113 3901 99 72 66 382 1958 20
internal_value=0.00269367 0.133773 0.133773 0.133773 0.133773 0.133773 0.133773 0.133773 0.133773
internal_weight=2278.62 2170.05 2064.71 801.329 781.942 105.336 93.0575 108.567 11.6322
internal_count=13144 10936 10373 4111 3960 563 495 2208 92
is_linear=0
shrinkage=0.05


Tree=5
num_leaves=13
num_cat=0
split_feature=29 29 29 29 29 29 29 29 40 40 40 40
split_gain=1.81899e-12 1.81899e-12 1.81899e-12 1.81899e-12 9.09495e-13 2.27374e-13 2.27374e-13 2.27374e-13 1.13687e-13 1.13687e-13 5.68434e-14 5.68434e-14
threshold=75.666337012843371 28.387976194126026 2.6844950228676039 53.054956954765437 27.217997800536033 74.912201233724616 73.661650444625693 92.400638204889376 201.33322916666671 67.068229166666683 52.444776484375005 105.4126041666667
decision_type=2 2 2 2 2 2 2 2 2 2 2 2
left_child=1 2 -1 -3 -4 6 -5 -2 9 10 -9 -11
right_child=7 3 4 5 -6 -7 -8 8 -10 11 -12 -13
leaf_value=0.12328381288608609 0.12328381288608609 0.12328381288608609 0.12328381288608609 0.12328381288608609 0.12328381288608609 0.12328381288608609 0.12328381288608609 0.12328381288608609 0.12328381288608609 0.12328381288608609 0.12328381288608609 0.12328381288608609
leaf_weight=242.94665485620499 109.15959286689758 816.70012468099594 801.39115738868713 180.37957113981247 92.519411027431488 9.3185018301010132 9.3185018301010132 19.30261093378067 7.9872872829437256 19.30261093378067 19.30261093378067 19.30261093378067
leaf_count=1271 784 4665 4723 1648 545 84 85 76 51 150 76 150
internal_value=0.00248246 0.123284 0.123284 0.123284 0.123284 0.123284 0.123284 0.123284 0.123284 0.123284 0.123284 0.123284
internal_weight=2346.93 2152.57 1136.86 1015.72 893.911 199.017 189.698 194.357 85.1977 77.2104 38.6052 38.6052
internal_count=13144 11748 5946 5802 5268 1785 1733 1396 540 452 152 300
is_linear=0
shrinkage=0.05


Tree=6
num_leaves=2
num_cat=0
split_feature=29
split_gain=1.81899e-12
threshold=78.224850258647081
decision_type=2
left_child=-1
right_child=-2
leaf_value=0.11478383416638911 0.11478383416638911
leaf_weight=2230.4621337652206 179.19720125198364
leaf_count=12278 986
internal_value=0.00223101
internal_weight=2409.66
internal_count=13264
is_linear=0
shrinkage=0.05


Tree=7
num_leaves=3
num_cat=0
split_feature=29 29
split_gain=1.81899e-12 9.09495e-13
threshold=26.932049647285904 26.493596998917656
decision_type=2 2
left_child=1 -1
right_child=-2 -3
leaf_value=0.10775859606993402 0.10775859606993402 0.10775859606993402
leaf_weight=1036.1535578370094 1376.7315331101418 24.719369173049927
leaf_count=5383 7491 128
internal_value=0.00209446 0.107759
internal_weight=2437.6 1060.87
internal_count=13264 5511
is_linear=0
shrinkage=0.05


Tree=8
num_leaves=2
num_cat=0
split_feature=70
split_gain=3.63798e-12
threshold=-44.657132499999989
decision_type=2
left_child=-1
right_child=-2
leaf_value=0.10185822889957862 0.10185822889957862
leaf_weight=126.95954990386963 2322.5317661762238
leaf_count=687 12577
internal_value=0.00197978
internal_weight=2449.49
internal_count=13264
is_linear=0
shrinkage=0.05


Tree=9
num_leaves=22
num_cat=0
split_feature=29 29 29 29 29 29 29 29 29 29 14 29 29 29 29 29 29 14 29 29 29
split_gain=1.81899e-12 1.81899e-12 1.81899e-12 9.09495e-13 9.09495e-13 4.54747e-13 4.54747e-13 4.54747e-13 4.54747e-13 4.54747e-13 4.54747e-13 1.13687e-13 5.68434e-14 5.68434e-14 5.68434e-14 5.68434e-14 5.68434e-14 2.84217e-14 2.84217e-14 1.42109e-14 1.42109e-14
threshold=123.69360483638182 78.224850258647081 27.345208018024234 76.277579542785304 29.632804436141228 73.661650444625693 30.858652872595062 61.994500588774756 52.501056011777642 48.731507878453336 128.84500000000006 92.400638204889376 81.938395151033802 53.054956954765437 60.839627219544788 53.51571227962868 30.187990860073047 40.295000000000009 84.737160547849285 78.820283693555908 37.616682950390448
decision_type=2 2 2 2 2 2 2 2 2 2 2 2 2 2 2 2 2 2 2 2 2
left_child=1 2 -1 4 -4 6 16 8 9 10 -8 12 19 -10 15 -15 -6 -18 -14 -3 -12
right_child=-2 11 3 -5 5 -7 7 -9 13 -11 20 -13 18 14 -16 -17 17 -19 -20 -21 -22
leaf_value=0.096836147036959974 0.096836147036959974 0.096836147036959988 0.096836147036959974 0.096836147036959974 0.096836147036959974 0.096836147036959974 0.096836147036959974 0.096836147036959974 0.096836147036959988 0.096836147036959974 0.096836147036959988 0.096836147036959974 0.096836147036959988 0.096836147036960002 0.096836147036959974 0.096836147036959974 0.096836147036959988 0.096836147036959974 0.096836147036959974 0.096836147036959974 0.096836147036959974
leaf_weight=1107.3217383623123 5.5159239768981934 6.8949049711227408 168.2356812953949 13.100319445133209 56.538220763206482 26.200638890266418 579.86150807142258 84.117840647697449 5.5159239768981925 45.506372809410095 5.5159239768981925 84.117840647697449 15.16879093647003 8.2738859653472883 13.789809942245483 84.117840647697449 13.789809942245482 26.890129387378693 43.437901318073273 26.890129387378693 26.890129387378693
leaf_count=5885 30 51 916 72 240 147 2680 478 41 220 99 559 116 63 103 635 71 137 332 197 482
internal_value=0.00188217 0.0968361 0.0968361 0.0968361 0.0968361 0.0968361 0.0968361 0.0968361 0.0968361 0.0968361 0.0968361 0.0968361 0.0968361 0.0968361 0.0968361 0.0968361 0.0968361 0.0968361 0.0968361 0.0968361 0.0968361
internal_weight=2447.69 2442.18 2265.67 1158.34 1145.24 977.008 950.807 853.589 769.471 657.774 612.268 176.51 92.3917 111.697 106.182 92.3917 97.2182 40.6799 58.6067 33.785 32.4061
internal_count=13264 13214 12041 6381 6238 5464 5259 4846 4018 3180 2830 1173 696 838 796 698 413 208 448 248 581
is_linear=0
shrinkage=0.05


end of trees

feature_importances:
cmg_std_12h=63
cmg_lag_1h=21
zeros_count_12h=13
cmg_mean_48h=8
cmg_max_24h=1
cmg_change_1h=1

parameters:
[boosting: gbdt]
[objective: binary]
[metric: binary_logloss]
[tree_learner: serial]
[device_type: cuda]
[data_sample_strategy: bagging]
[data: ]
[valid: ]
[num_iterations: 10]
[learning_rate: 0.05]
[num_leaves: 31]
[num_threads: 0]
[seed: 44]
[deterministic: 0]
[force_col_wise: 0]
[force_row_wise: 1]
[histogram_pool_size: -1]
[max_depth: -1]
[min_data_in_leaf: 20]
[min_sum_hessian_in_leaf: 0.001]
[bagging_fraction: 0.8]
[pos_bagging_fraction: 1]
[neg_bagging_fraction: 1]
[bagging_freq: 5]
[bagging_seed: 21897]
[bagging_by_query: 0]
[feature_fraction: 0.8]
[feature_fraction_bynode: 1]
[feature_fraction_seed: 12646]
[extra_trees: 0]
[extra_seed: 20733]
[early_stopping_round: 0]
[early_stopping_min_delta: 0]
[first_metric_only: 0]
[max_delta_step: 0]
[lambda_l1: 0]
[lambda_l2: 0]
[linear_lambda: 0]
[min_gain_to_split: 0]
[drop_rate: 0.1]
[max_drop: 50]
[skip_drop: 0.5]
[xgboost_dart_mode: 0]
[uniform_drop: 0]
[drop_seed: 20829]
[top_rate: 0.2]
[other_rate: 0.1]
[min_data_per_group: 100]
[max_cat_threshold: 32]
[cat_l2: 10]
[cat_smooth: 10]
[max_cat_to_onehot: 4]
[top_k: 20]
[monotone_constraints: ]
[monotone_constraints_method: basic]
[monotone_penalty: 0]
[feature_contri: ]
[forcedsplits_filename: ]
[refit_decay_rate: 0.9]
[cegb_tradeoff: 1]
[cegb_penalty_split: 0]
[cegb_penalty_feature_lazy: ]
[cegb_penalty_feature_coupled: ]
[path_smooth: 0]
[interaction_constraints: ]
[verbosity: -1]
[saved_feature_importance_type: 0]
[use_quantized_grad: 0]
[num_grad_quant_bins: 4]
[quant_train_renew_leaf: 0]
[stochastic_rounding: 1]
[linear_tree: 0]
[max_bin: 255]
[max_bin_by_feature: ]
[min_data_in_bin: 3]
[bin_construct_sample_cnt: 200000]
[data_random_seed: 182]
[is_enable_sparse: 1]
[enable_bundle: 1]
[use_missing: 1]
[zero_as_missing: 0]
[feature_pre_filter: 1]
[pre_partition: 0]
[two_round: 0]
[header: 0]
[label_column: ]
[weight_column: ]
[group_column: ]
[ignore_column: ]
[categorical_feature: ]
[forcedbins_filename: ]
[precise_float_parser: 0]
[parser_config_file: ]
[objective_seed: 3944]
[num_class: 1]
[is_unbalance: 0]
[scale_pos_weight: 2.76091]
[sigmoid: 1]
[boost_from_average: 1]
[reg_sqrt: 0]
[alpha: 0.9]
[fair_c: 1]
[poisson_max_delta_step: 0.7]
[tweedie_variance_power: 1.5]
[lambdarank_truncation_level: 30]
[lambdarank_norm: 1]
[label_gain: ]
[lambdarank_position_bias_regularization: 0]
[eval_at: ]
[multi_error_top_k: 1]
[auc_mu_weights: ]
[num_machines: 1]
[local_listen_port: 12400]
[time_out: 120]
[machine_list_filename: ]
[machines: ]
[gpu_platform_id: -1]
[gpu_device_id: -1]
[gpu_use_dp: 1]
[num_gpu: 1]

end of parameters

pandas_categorical:[]
