tree
version=v4
num_class=1
num_tree_per_iteration=1
label_index=0
max_feature_idx=77
objective=binary sigmoid:1
feature_names=hour hour_sin hour_cos day_of_week dow_sin dow_cos month month_sin month_cos is_weekend is_night is_morning is_afternoon is_evening cmg_lag_1h cmg_lag_2h cmg_lag_3h cmg_lag_6h cmg_lag_12h cmg_lag_24h cmg_lag_48h cmg_lag_168h cmg_mean_6h cmg_std_6h cmg_min_6h cmg_max_6h cmg_range_6h cmg_cv_6h cmg_mean_12h cmg_std_12h cmg_min_12h cmg_max_12h cmg_range_12h cmg_cv_12h cmg_mean_24h cmg_std_24h cmg_min_24h cmg_max_24h cmg_range_24h cmg_cv_24h cmg_mean_48h cmg_std_48h cmg_min_48h cmg_max_48h cmg_range_48h cmg_cv_48h cmg_mean_168h cmg_std_168h cmg_min_168h cmg_max_168h cmg_range_168h cmg_cv_168h zeros_count_6h zeros_ratio_6h zeros_count_12h zeros_ratio_12h zeros_count_24h zeros_ratio_24h zeros_count_48h zeros_ratio_48h zeros_count_168h zeros_ratio_168h hours_since_zero was_zero_1h_ago was_zero_2h_ago was_zero_24h_ago cmg_trend_6h cmg_trend_12h cmg_trend_24h cmg_trend_48h cmg_change_1h cmg_change_24h cmg_change_48h cmg_same_hour_yesterday cmg_same_hour_last_week cmg_7d_median_same_hour cmg_diff_vs_yesterday cmg_diff_vs_last_week
feature_infos=[0:23] [-1:1] [-1:1] [0:6] [-0.97492791218182362:0.97492791218182362] [-0.90096886790241903:1] [1:12] [-1:1] [-1:1] [0:1] [0:1] [0:1] [0:1] [0:1] [0:371.66000000000003] [0:371.66000000000003] [0:371.66000000000003] [0:371.66000000000003] [0:371.66000000000003] [0:371.66000000000003] [0:371.66000000000003] [0:371.66000000000003] [0:349.44666666666666] [0:153.30693861227124] [0:339.83999999999997] [0:371.66000000000003] [0:371.66000000000003] [0:2.4494896874170573] [0:333.88333333333338] [0:141.231575175367] [0:327.86000000000001] [0:371.66000000000003] [0:371.66000000000003] [0:3.464101428007337] [0:315.17583333333329] [0:133.58115591090203] [0:296.29000000000002] [0:371.66000000000003] [0:371.66000000000003] [0:4.8989787993545502] [0:305.62479166666668] [0:121.59284917311297] [0:289.70999999999998] [0:371.66000000000003] [0:371.66000000000003] [0:6.9282012893730816] [0:269.83386904761909] [0:105.75616875003355] [0:120.59999999999999] [0:371.66000000000003] [0:371.66000000000003] [0:2.3481555595262882] [0:6] [0:1] [0:12] [0:1] [0:24] [0:1] [0:48] [0:1] [0:127] [0:0.75595238095238093] [0:308] [0:1] [0:1] [0:1] [-295.41000000000003:371.66000000000003] [-334.23000000000002:338.87] [-371.66000000000003:329.93000000000001] [-330.44:335.49000000000001] [-329.93000000000001:329.93000000000001] [-371.66000000000003:329.93000000000001] [-330.44:335.49000000000001] [0:371.66000000000003] [0:371.66000000000003] [0:371.66000000000003] [-371.66000000000003:329.93000000000001] [-371.66000000000003:314.30000000000001]
tree_sizes=3517 3443 3420 3449

Tree=0
num_leaves=31
num_cat=0
split_feature=15 71 62 3 28 15 47 62 37 17 0 12 15 47 1 37 75 72 70 15 51 7 76 3 54 62 1 28 24 56
split_gain=0.000141649 0.000478511 5.68959e-05 6.40863e-05 6.97816e-05 3.78357e-05 0.000174981 4.35729e-05 2.76215e-05 2.95951e-05 2.72198e-05 1.37588e-05 1.3078e-05 8.08471e-05 9.92546e-06 3.29363e-05 9.33883e-05 1.13886e-05 5.19801e-05 6.83389e-06 6.22621e-06 6.0138e-05 5.84593e-06 2.62273e-05 3.55444e-05 5.32012e-06 2.28301e-05 3.90387e-06 1.16788e-05 3.761e-06
threshold=271.24000000000007 -1.5099999999999942 25.500000000000004 1.0000000180025095e-35 59.307731875000002 186.87954500000004 74.940996493823164 57.500000000000007 311.48000000000008 70.985000000000014 17.500000000000004 1.0000000180025095e-35 148.92500000000004 56.115912832802486 0.25881904510252091 246.57000000000002 297.26000000000005 23.294400000000003 28.254999999999999 130.39500000000001 0.69380248684614176 0.25000000000000011 38.970000000000013 1.5000000000000002 9.5000000000000018 64.500000000000014 1.0000000180025095e-35 210.92166666666671 69.355000000000004 7.5000000000000009
decision_type=2 2 2 2 2 2 2 2 2 2 2 2 2 2 2 2 2 2 2 2 2 2 2 2 2 2 2 2 2 2
left_child=2 10 11 4 -4 8 -7 -8 14 -10 -2 19 22 -14 15 17 -17 20 -19 29 21 -5 -13 24 -24 -9 -27 -16 -29 -1
right_child=1 -3 3 5 -6 6 7 25 9 -11 -12 12 13 -15 27 16 -18 18 -20 -21 -22 -23 23 -25 -26 26 -28 28 -30 -31
leaf_value=-0.82643875849085613 -0.82602010293835393 -0.82475156670638516 -0.82642225387598289 -0.82642368786890819 -0.82561668669249366 -0.82543256733825832 -0.82593016457570811 -0.82643812933071459 -0.82642583882817744 -0.82590137097407124 -0.82640432760899452 -0.82643209233780524 -0.82642379029635926 -0.82576811644183601 -0.82642907515712705 -0.82563472341194033 -0.82644196987076957 -0.82586897044489271 -0.82641866882339321 -0.82642624357453709 -0.82643278438737333 -0.82586897044489227 -0.8258725709078244 -0.8264198009561099 -0.82644734643327245 -0.82605246531243104 -0.82640432760899452 -0.82644555427086386 -0.82616028092381899 -0.82644423741314299
leaf_weight=447.52669061730876 0.53766071838208729 0.53501409607542882 0.53850522464517769 5.3850824073897563 0.53681621211899255 0.53643166015990651 0.53747221251978672 3.7697703197854944 0.53851276487967048 0.53741189064385253 3.2308051408363099 193.86933062394201 3.7695591932197212 0.53713290196765229 77.546818373156384 0.53685391329145304 1.0770933918697665 0.53734402853342667 2.1539907376427436 66.77568840836193 17.232875970687928 0.53734402853342544 0.53735156876791723 10.231501245209984 0.53855800628662109 0.53772858049251349 3.2308051408363099 1.0771084723387512 0.53795478752726922 1043.7127410492908
leaf_count=1933 28 83 120 216 120 40 24 107 80 80 170 2097 213 30 942 77 155 40 158 313 298 22 81 296 81 27 162 56 28 4508
internal_value=-1.01057 -0.826151 -0.826438 -0.826404 -0.82602 -0.826408 -0.826307 -0.826365 -0.826416 -0.826164 -0.82635 -0.82644 -0.826428 -0.826342 -0.826418 -0.826393 -0.826173 -0.826406 -0.826309 -0.826442 -0.826418 -0.826373 -0.82643 -0.826395 -0.82616 -0.826396 -0.826354 -0.826427 -0.826351 -0.826443
internal_weight=1889.19 4.30348 1884.88 117.386 1.07532 116.311 8.61221 8.07578 107.698 1.07592 3.76847 1767.5 209.483 4.30669 106.622 27.4606 1.61395 25.8466 2.69133 1558.02 23.1553 5.92243 205.177 11.3074 1.07591 7.5383 3.76853 79.1619 1.61506 1491.24
internal_count=13260 669 12591 2834 240 2594 642 359 1952 160 198 9757 2462 243 1792 830 232 598 198 7295 400 238 2219 327 162 214 189 962 84 6441
is_linear=0
shrinkage=1


Tree=1
num_leaves=31
num_cat=0
split_feature=16 71 36 44 24 76 27 22 26 3 14 69 35 25 29 46 14 1 34 37 22 14 21 9 59 70 7 41 21 36
split_gain=0.000105961 0.000460829 4.55954e-05 7.91248e-05 0.000117236 4.67721e-05 0.000116795 2.92008e-05 1.66452e-05 0.000194043 1.52584e-05 1.4433e-05 1.73136e-05 8.10382e-06 2.3565e-05 7.891e-06 1.17546e-05 6.75356e-06 7.08944e-06 6.64703e-06 2.71434e-05 6.09623e-06 3.55104e-05 5.16134e-06 1.70056e-05 6.49633e-05 9.40184e-06 5.33073e-05 4.18116e-06 3.98447e-06
threshold=271.24000000000007 -3.4880637500000016 37.640000000000008 270.16793250000006 262.81000000000006 33.835000000000022 0.5758045013853087 282.935 84.665000000000006 3.5000000000000004 147.38000000000002 -15.114999999999997 96.856934316090147 276.98500000000007 29.385909341358051 191.86154761904763 277.24500000000006 0.37940952255126054 32.724375000000009 118.61000000000001 64.974166666666648 181.45500000000001 277.39500000000004 1.0000000180025095e-35 0.072916666666666671 97.220000000000013 0.68301270189221941 57.282976507735121 275.90000000000003 21.778317500000004
decision_type=2 2 2 2 2 2 2 2 2 2 2 2 2 2 2 2 2 2 2 2 2 2 2 2 2 2 2 2 2 2
left_child=2 7 10 5 -5 8 -7 -2 15 -10 17 28 -13 23 -15 19 -17 18 -1 20 -4 -21 -23 24 25 -12 -26 -28 -11 -20
right_child=1 -3 3 4 -6 6 -8 -9 9 11 13 12 -14 14 -16 16 -18 -19 29 21 -22 22 -24 -25 26 -27 27 -29 -30 -31
leaf_value=0.16426368567729066 0.16465766363491402 0.16582089139355388 0.16427926197634471 0.16521639429687884 0.1642134379060024 0.16513289597497049 0.16426572118731658 0.16427937040516558 0.16524014957752181 0.16428522031075132 0.16489048275937673 0.1646429028195715 0.16425769316504935 0.16426846464377276 0.16465772379237728 0.16457176161950032 0.16425438623355382 0.16426196755200315 0.16427243360039323 0.1642745797688715 0.1646606776895817 0.16469782919438147 0.16426154059874343 0.16427198283529484 0.16427893928772663 0.16428086808423237 0.16426832622111526 0.16480296721780224 0.16419289446412094 0.164331075041738
leaf_weight=453.07430617326099 0.58288544659262864 0.58003446111979429 2.3352776618430657 0.58151190686385335 0.58395530572306598 0.58171665946883955 1.1677046989771043 4.0867066105365666 0.5814538345657646 4.0866340939164747 0.58231246595278618 0.58292268943660119 0.58387153286184912 1.1676921593752931 0.58288532676851901 0.58309735469629331 0.58387970924377441 1072.5562165686215 388.83532438862767 57.215362425126841 0.5828778719615002 0.58276634209141898 2.3354553764975208 23.937310905981576 19.849856071384242 1.7514474182680713 2.3353854256429272 0.58252725081092649 1.7520078420639038 2.9184271274825733
leaf_count=3055 24 73 123 147 148 91 182 170 37 48 54 59 60 87 44 48 49 5267 3668 783 31 31 124 450 405 162 147 37 21 28
internal_value=0.00327805 0.164492 0.164267 0.164305 0.164714 0.164299 0.164554 0.164327 0.164292 0.164362 0.164265 0.16429 0.16445 0.164292 0.164398 0.164284 0.164413 0.164265 0.164268 0.164282 0.164355 0.164278 0.164349 0.164289 0.164304 0.164433 0.164291 0.164375 0.164258 0.164273
internal_weight=2048.14 5.24963 2042.89 74.7205 1.16547 73.555 1.74942 4.66959 71.8056 7.58689 1968.17 7.00544 1.16679 50.7894 1.75058 64.2187 1.16698 1917.38 844.828 63.0517 2.91816 60.1336 2.91822 49.0388 25.1015 2.33376 22.7678 2.91791 5.83864 391.754
internal_count=13260 664 12596 2127 295 1832 273 194 1559 485 10469 188 119 1053 131 1074 97 9416 5697 977 154 823 155 922 680 216 464 184 69 3696
is_linear=0
shrinkage=0.05


Tree=2
num_leaves=31
num_cat=0
split_feature=14 42 42 36 76 66 26 3 69 18 3 14 2 5 2 20 69 66 12 3 23 67 31 14 32 17 6 50 9 38
split_gain=0.000101052 0.000338879 5.05531e-05 4.05026e-05 7.6097e-05 0.000161308 3.65111e-05 0.000243422 2.3786e-05 1.03858e-05 2.83296e-05 9.91462e-06 9.59175e-06 5.05365e-05 7.86615e-06 5.67458e-05 7.49664e-06 1.13157e-05 7.32484e-06 5.55437e-06 2.09325e-05 4.05833e-06 5.92014e-06 3.84098e-06 5.8918e-06 1.82183e-05 5.06561e-06 1.84825e-05 5.40192e-06 1.00856e-05
threshold=275.65500000000003 84.695000000000007 128.68000000000004 37.640000000000008 30.084999999999997 160.54000000000005 84.665000000000006 3.5000000000000004 -10.278521249999995 263.69500000000005 5.5000000000000009 147.38000000000002 -0.5 1.0000000180025095e-35 -0.5 64.204025000000016 136.26500000000001 -18.449999999999999 1.0000000180025095e-35 1.5000000000000002 10.80810359470591 -55.925000000000004 64.360000000000014 28.180000000000003 136.25000000000003 235.14500000000001 4.5000000000000009 314.97500000000008 1.0000000180025095e-35 169.80000000000004
decision_type=2 2 2 2 2 2 2 2 2 2 2 2 2 2 2 2 2 2 2 2 2 2 2 2 2 2 2 2 2 2
left_child=3 -2 -3 11 6 -6 9 -8 -9 14 -11 18 13 16 15 21 17 -13 -1 20 -16 -5 -23 -20 26 -26 27 -25 -28 -30
right_child=1 2 -4 4 5 -7 7 8 -10 10 -12 12 -14 -15 19 -17 -18 -19 23 -21 -22 22 -24 24 25 -27 28 -29 29 -31
leaf_value=0.14695497517279943 0.1482866260328943 0.14693727342971843 0.14743270038331799 0.14695618367867963 0.14797080596119702 0.14698069279264606 0.14804282115559608 0.146975283183438 0.14730059024910785 0.14736748328518687 0.14695294769860642 0.14695136259846933 0.14696933271771465 0.14746351002001382 0.14697725857417085 0.14747907161290291 0.14696641270619848 0.14725379537589128 0.14696115564021014 0.1469608271506917 0.14728830344496119 0.14694810509551051 0.14716683570203368 0.14727984691606963 0.14728610800149461 0.14695372193795922 0.14696512564337036 0.14697419955326074 0.14721728743268744 0.14697000073893712
leaf_weight=1794.4518697733156 0.61528133070533009 3.0950685992438607 0.61766364138020435 4.9518806558890001 0.61611708586133396 1.2378333324877531 0.6159116420722065 6.1893000707150359 0.61802894648008078 0.61784455991619425 1.2379879713107584 0.61899838269437424 47.658847574073661 0.61757802060856193 4.3324276241146435 0.6175141819021519 5.5705685081984484 0.61815870361988257 191.88125108943677 55.707247249965803 0.61806314308796573 0.61900734901428323 0.61840020476211066 0.61808726087838328 0.61806991673893308 1.2379802409686818 40.232390313167343 2.475740353049332 0.61826063706939871 1.237893067896948
leaf_count=8333 90 163 32 80 125 252 50 199 20 47 93 51 885 29 181 25 147 50 1847 702 26 36 36 29 39 77 505 115 34 69
internal_value=0.00293266 0.1472 0.14702 0.146958 0.146993 0.14731 0.146986 0.147091 0.147005 0.146974 0.147091 0.146957 0.146978 0.14703 0.146971 0.147022 0.146991 0.147102 0.146956 0.146965 0.147016 0.146976 0.147057 0.146964 0.146977 0.147064 0.146974 0.147035 0.146969 0.147052
internal_weight=2171.38 4.32801 3.71273 2167.05 78.5976 1.85395 76.7436 7.42324 6.80733 69.3204 1.85583 2088.46 55.0842 7.4253 67.4645 6.8068 6.80773 1.23716 2033.37 60.6577 4.95049 6.18929 1.23741 238.92 47.0384 1.85605 45.1824 3.09383 42.0885 1.85615
internal_count=13260 635 195 12625 2160 377 1783 599 219 1184 140 10465 1023 346 1044 280 180 101 9442 764 207 100 72 2300 788 116 672 144 528 103
is_linear=0
shrinkage=0.05


Tree=3
num_leaves=31
num_cat=0
split_feature=15 69 62 15 3 40 37 47 34 3 49 43 62 34 0 31 22 12 23 64 51 62 37 28 38 40 23 62 12 7
split_gain=8.04891e-05 0.00035827 2.79064e-05 2.59596e-05 3.60137e-05 9.14398e-05 2.56746e-05 2.48748e-05 8.46123e-05 1.43357e-05 7.15815e-05 1.27939e-05 1.25159e-05 9.41292e-06 2.62345e-05 6.63729e-06 1.56076e-05 6.37285e-06 8.51998e-06 2.75634e-05 4.81806e-06 1.60836e-05 4.69218e-06 5.77681e-06 3.49574e-06 3.65216e-05 3.40073e-06 5.28675e-06 2.98502e-06 1.12211e-05
threshold=271.24000000000007 -1.444999999999993 19.500000000000004 173.82500000000002 1.5000000000000002 57.99302083333334 299.87500000000006 69.855982145877462 73.604750937500015 1.0000000180025095e-35 226.42723250000003 333.69500000000005 153.50000000000003 214.15250000000003 4.5000000000000009 291.42500000000007 287.96916666666669 1.0000000180025095e-35 87.041460806251834 1.0000000180025095e-35 1.2664901984779575 56.500000000000007 171.86760000000001 48.018333333333338 222.45455750000002 196.08208333333337 12.474600052662035 158.50000000000003 1.0000000180025095e-35 0.25000000000000011
decision_type=2 2 2 2 2 2 2 2 2 2 2 2 2 2 2 2 2 2 2 2 2 2 2 2 2 2 2 2 2 2
left_child=2 6 17 9 5 -5 11 8 -6 10 22 12 -2 20 -15 24 -17 -1 -19 -20 28 -22 23 -4 25 -9 -27 -28 -11 -30
right_child=1 -3 3 4 7 -7 -8 15 -10 13 -12 -13 -14 14 -16 16 -18 18 19 -21 21 -23 -24 -25 -26 26 27 -29 29 -31
leaf_value=0.13370477526465388 0.13397037827427535 0.13501083620495047 0.13369853168804452 0.13361631170912147 0.1336983374282748 0.13445857856845808 0.13404038335650437 0.13411483991298542 0.13440016959915121 0.1337127138969027 0.134295784787928 0.13360872329288079 0.13370063090298245 0.13372012871238567 0.13408843191024741 0.13402423692294088 0.13367642914518005 0.13371242125975227 0.13408700889871281 0.13370949701061269 0.13399997632181176 0.13371164684531334 0.13368750937515311 0.13391010547176546 0.13370457784178505 0.13370538338607652 0.13389635626322713 0.13369395959324018 0.13371627045147425 0.13383097732469693
leaf_weight=1821.7750057762632 0.6447570895006759 0.64159466000819521 0.64557844400406095 0.6457382440567051 1.2911544036123865 0.64321592205305933 0.6445439894869196 0.64431907322796167 0.64346409583231434 151.05473110710318 0.64377545501974964 1.9372458493089653 1.291142257955471 1.9364899652464385 0.64440248680512013 0.64459461512069616 0.64560849398822029 240.78492865641329 0.64440523197663546 1.9366359014911723 0.64467067803707467 1.9366200643762566 2.5823768503341853 0.64494174338506127 6.4555184033115438 5.8099118506397653 0.64498454254862814 0.64558732509613037 12.264919009087862 2.5806522111415688
leaf_count=8104 32 83 36 139 159 139 31 23 79 1707 40 52 64 128 43 57 58 2280 36 109 29 87 55 36 149 106 33 34 288 60
internal_value=0.00266822 0.133905 0.133707 0.133726 0.133782 0.134037 0.133748 0.133763 0.133932 0.13372 0.133808 0.1337 0.13379 0.133717 0.133812 0.133742 0.13385 0.133706 0.133713 0.133804 0.133716 0.133784 0.133726 0.133804 0.133732 0.133754 0.133722 0.133795 0.133715 0.133736
internal_weight=2264.59 5.15928 2259.43 194.293 18.7141 1.28895 4.51769 17.4251 1.93462 175.579 4.51667 3.87315 1.9359 171.062 2.58089 15.4905 1.2902 2065.14 243.366 2.58104 168.482 2.58129 3.8729 1.29052 14.2003 7.7448 7.10048 1.29057 165.9 14.8456
internal_count=13260 669 12591 3404 958 278 219 680 238 2446 284 103 96 2162 171 442 115 9187 2304 145 1991 116 83 72 327 271 130 67 1875 348
is_linear=0
shrinkage=0.05


end of trees

feature_importances:
day_of_week=8
hours_since_zero=7
cmg_lag_1h=6
cmg_lag_2h=6
cmg_max_24h=5
is_afternoon=4
cmg_trend_48h=4
hour_sin=3
month_sin=3
cmg_mean_6h=3
cmg_std_6h=3
cmg_mean_12h=3
cmg_mean_24h=3
cmg_min_24h=3
cmg_std_168h=3
cmg_diff_vs_yesterday=3
hour=2
hour_cos=2
is_weekend=2
cmg_lag_6h=2
cmg_lag_168h=2
cmg_min_6h=2
cmg_range_6h=2
cmg_max_12h=2
cmg_range_24h=2
cmg_mean_48h=2
cmg_min_48h=2
cmg_cv_168h=2
cmg_trend_6h=2
cmg_change_1h=2
cmg_change_24h=2
dow_cos=1
month=1
cmg_lag_3h=1
cmg_lag_12h=1
cmg_lag_48h=1
cmg_max_6h=1
cmg_cv_6h=1
cmg_std_12h=1
cmg_range_12h=1
cmg_std_24h=1
cmg_std_48h=1
cmg_max_48h=1
cmg_range_48h=1
cmg_mean_168h=1
cmg_max_168h=1
cmg_range_168h=1
zeros_count_12h=1
zeros_count_24h=1
zeros_ratio_48h=1
was_zero_2h_ago=1
cmg_trend_12h=1
cmg_change_48h=1
cmg_7d_median_same_hour=1

parameters:
[boosting: gbdt]
[objective: binary]
[metric: binary_logloss]
[tree_learner: serial]
[device_type: cuda]
[data_sample_strategy: bagging]
[data: ]
[valid: ]
[num_iterations: 4]
[learning_rate: 0.05]
[num_leaves: 31]
[num_threads: 0]
[seed: 44]
[deterministic: 0]
[force_col_wise: 0]
[force_row_wise: 1]
[histogram_pool_size: -1]
[max_depth: -1]
[min_data_in_leaf: 20]
[min_sum_hessian_in_leaf: 0.001]
[bagging_fraction: 0.8]
[pos_bagging_fraction: 1]
[neg_bagging_fraction: 1]
[bagging_freq: 5]
[bagging_seed: 21897]
[bagging_by_query: 0]
[feature_fraction: 0.8]
[feature_fraction_bynode: 1]
[feature_fraction_seed: 12646]
[extra_trees: 0]
[extra_seed: 20733]
[early_stopping_round: 0]
[early_stopping_min_delta: 0]
[first_metric_only: 0]
[max_delta_step: 0]
[lambda_l1: 0]
[lambda_l2: 0]
[linear_lambda: 0]
[min_gain_to_split: 0]
[drop_rate: 0.1]
[max_drop: 50]
[skip_drop: 0.5]
[xgboost_dart_mode: 0]
[uniform_drop: 0]
[drop_seed: 20829]
[top_rate: 0.2]
[other_rate: 0.1]
[min_data_per_group: 100]
[max_cat_threshold: 32]
[cat_l2: 10]
[cat_smooth: 10]
[max_cat_to_onehot: 4]
[top_k: 20]
[monotone_constraints: ]
[monotone_constraints_method: basic]
[monotone_penalty: 0]
[feature_contri: ]
[forcedsplits_filename: ]
[refit_decay_rate: 0.9]
[cegb_tradeoff: 1]
[cegb_penalty_split: 0]
[cegb_penalty_feature_lazy: ]
[cegb_penalty_feature_coupled: ]
[path_smooth: 0]
[interaction_constraints: ]
[verbosity: -1]
[saved_feature_importance_type: 0]
[use_quantized_grad: 0]
[num_grad_quant_bins: 4]
[quant_train_renew_leaf: 0]
[stochastic_rounding: 1]
[linear_tree: 0]
[max_bin: 255]
[max_bin_by_feature: ]
[min_data_in_bin: 3]
[bin_construct_sample_cnt: 200000]
[data_random_seed: 182]
[is_enable_sparse: 1]
[enable_bundle: 1]
[use_missing: 1]
[zero_as_missing: 0]
[feature_pre_filter: 1]
[pre_partition: 0]
[two_round: 0]
[header: 0]
[label_column: ]
[weight_column: ]
[group_column: ]
[ignore_column: ]
[categorical_feature: ]
[forcedbins_filename: ]
[precise_float_parser: 0]
[parser_config_file: ]
[objective_seed: 3944]
[num_class: 1]
[is_unbalance: 0]
[scale_pos_weight: 2.75749]
[sigmoid: 1]
[boost_from_average: 1]
[reg_sqrt: 0]
[alpha: 0.9]
[fair_c: 1]
[poisson_max_delta_step: 0.7]
[tweedie_variance_power: 1.5]
[lambdarank_truncation_level: 30]
[lambdarank_norm: 1]
[label_gain: ]
[lambdarank_position_bias_regularization: 0]
[eval_at: ]
[multi_error_top_k: 1]
[auc_mu_weights: ]
[num_machines: 1]
[local_listen_port: 12400]
[time_out: 120]
[machine_list_filename: ]
[machines: ]
[gpu_platform_id: -1]
[gpu_device_id: -1]
[gpu_use_dp: 1]
[num_gpu: 1]

end of parameters

pandas_categorical:[]
