tree
version=v4
num_class=1
num_tree_per_iteration=1
label_index=0
max_feature_idx=77
objective=binary sigmoid:1
feature_names=hour hour_sin hour_cos day_of_week dow_sin dow_cos month month_sin month_cos is_weekend is_night is_morning is_afternoon is_evening cmg_lag_1h cmg_lag_2h cmg_lag_3h cmg_lag_6h cmg_lag_12h cmg_lag_24h cmg_lag_48h cmg_lag_168h cmg_mean_6h cmg_std_6h cmg_min_6h cmg_max_6h cmg_range_6h cmg_cv_6h cmg_mean_12h cmg_std_12h cmg_min_12h cmg_max_12h cmg_range_12h cmg_cv_12h cmg_mean_24h cmg_std_24h cmg_min_24h cmg_max_24h cmg_range_24h cmg_cv_24h cmg_mean_48h cmg_std_48h cmg_min_48h cmg_max_48h cmg_range_48h cmg_cv_48h cmg_mean_168h cmg_std_168h cmg_min_168h cmg_max_168h cmg_range_168h cmg_cv_168h zeros_count_6h zeros_ratio_6h zeros_count_12h zeros_ratio_12h zeros_count_24h zeros_ratio_24h zeros_count_48h zeros_ratio_48h zeros_count_168h zeros_ratio_168h hours_since_zero was_zero_1h_ago was_zero_2h_ago was_zero_24h_ago cmg_trend_6h cmg_trend_12h cmg_trend_24h cmg_trend_48h cmg_change_1h cmg_change_24h cmg_change_48h cmg_same_hour_yesterday cmg_same_hour_last_week cmg_7d_median_same_hour cmg_diff_vs_yesterday cmg_diff_vs_last_week
feature_infos=[0:23] [-1:1] [-1:1] [0:6] [-0.97492791218182362:0.97492791218182362] [-0.90096886790241903:1] [1:12] [-1:1] [-1:1] [0:1] [0:1] [0:1] [0:1] [0:1] [0:371.66000000000003] [0:371.66000000000003] [0:371.66000000000003] [0:371.66000000000003] [0:371.66000000000003] [0:371.66000000000003] [0:371.66000000000003] [0:371.66000000000003] [0:349.44666666666666] [0:153.30693861227124] [0:339.83999999999997] [0:371.66000000000003] [0:371.66000000000003] [0:2.4494896874170573] [0:333.88333333333338] [0:141.231575175367] [0:327.86000000000001] [0:371.66000000000003] [0:371.66000000000003] [0:3.464101428007337] [0:315.17583333333329] [0:133.58115591090203] [0:296.29000000000002] [0:371.66000000000003] [0:371.66000000000003] [0:4.8989787993545502] [0:305.62479166666668] [0:121.59284917311297] [0:289.70999999999998] [0:371.66000000000003] [0:371.66000000000003] [0:6.9282012893730816] [0:269.83386904761909] [0:105.75616875003355] [0:120.59999999999999] [0:371.66000000000003] [0:371.66000000000003] [0:2.3481555595262882] [0:6] [0:1] [0:12] [0:1] [0:24] [0:1] [0:48] [0:1] [0:127] [0:0.75595238095238093] [0:308] [0:1] [0:1] [0:1] [-295.41000000000003:371.66000000000003] [-334.23000000000002:338.87] [-371.66000000000003:329.93000000000001] [-330.44:335.49000000000001] [-329.93000000000001:329.93000000000001] [-371.66000000000003:329.93000000000001] [-330.44:335.49000000000001] [0:371.66000000000003] [0:371.66000000000003] [0:371.66000000000003] [-371.66000000000003:329.93000000000001] [-371.66000000000003:314.30000000000001]
tree_sizes=3446 3553 3577 3582

Tree=0
num_leaves=31
num_cat=0
split_feature=54 0 4 51 51 8 49 46 62 67 8 49 71 2 3 56 66 75 38 59 45 51 51 49 49 66 56 4 28 47
split_gain=0.0162859 0.0081805 0.0454179 0.271311 0.0160391 0.0607228 0.0753508 0.00448439 0.0040617 0.00387377 0.00608554 0.0141305 0.028463 0.00362062 0.00364745 0.00579706 0.00964313 0.0278038 0.00326037 0.00391328 0.00964306 0.0180626 0.00295728 0.0102089 0.00268798 0.00590395 0.0111942 0.00247853 0.011341 0.0256452
threshold=7.5000000000000009 17.500000000000004 -0.8783796973249266 0.82265405444199924 1.5979998080235864 0.93301270189221952 112.16785625000001 47.091934523809535 9.5000000000000018 -21.454999999999995 -0.68301270189221952 99.795000000000002 4.9300000000000042 0.60355339059327384 3.5000000000000004 15.500000000000002 -20.404999999999998 85.430912500000019 8.453635000000002 0.67708333333333337 3.3156173667923698 1.0462075850840338 1.3283359156678956 128.53500000000003 167.15000000000001 156.11000000000004 8.5000000000000018 0.6078576107927941 16.721436354166659 45.357034388040212
decision_type=2 2 2 2 2 2 2 2 2 2 2 2 2 2 2 2 2 2 2 2 2 2 2 2 2 2 2 2 2 2
left_child=8 18 3 24 7 6 -6 9 13 10 -4 -12 -13 -1 -15 22 -17 -18 19 -2 21 -21 -16 -24 -3 26 -26 -11 29 -29
right_child=1 2 4 -5 5 -7 -8 -9 -10 27 11 12 -14 14 15 16 17 -19 -20 20 -22 -23 23 -25 25 -27 -28 28 -30 -31
leaf_value=-1.0845820422740533 -1.0845818928954845 -1.0845817252115126 -1.0845817843940659 -1.0845404224567978 -1.084581547664017 -1.0845813109344056 -1.0845531432330831 -1.0845819703965538 -1.0845821045364792 -1.0845816378812096 -1.0845813503893105 -1.0845646817737034 -1.0845821394899591 -1.0845819775290901 -1.0845817478040194 -1.0845816660289869 -1.0845664570260338 -1.0845813997079587 -1.0845819022701417 -1.0845821394899591 -1.0845817449390274 -1.0845682323029617 -1.0845821394899591 -1.0845769117887083 -1.0845818435766463 -1.0845819915332173 -1.084570895264475 -1.0845670487822767 -1.0845818106974316 -1.0845813997079587
leaf_weight=1230852824.1790886 2801639.3208954334 2334700.9617536068 2334700.4225745201 467015.46175122261 466940.51585817337 4669409.4720144272 466992.27705049515 71908720.822759628 2494390815.3470039 38289108.820893049 1400822.6259326935 466971.24906611443 466939.4375 226932710.04663706 112532576.43562865 2334701.5009326935 466968.01399159431 933881.57089543343 338998345.42722845 466939.4375 1400820.4692163467 466964.7789170742 2801636.625 1400846.8889915943 466939.97667908669 933879.41417908669 466959.92630529404 466966.93563342094 4202460.3292908669 933881.57089543343
leaf_count=3860 37 31 41 20 51 117 51 372 6690 261 43 31 30 946 600 46 20 41 1354 24 34 25 41 21 20 22 21 20 58 39
internal_value=-1.02322 -1.08458 -1.08458 -1.08458 -1.08458 -1.08458 -1.08457 -1.08458 -1.08458 -1.08458 -1.08458 -1.08458 -1.08457 -1.08458 -1.08458 -1.08458 -1.08458 -1.08458 -1.08458 -1.08458 -1.08458 -1.08458 -1.08458 -1.08458 -1.08458 -1.08458 -1.08458 -1.08458 -1.08458 -1.08458
internal_weight=4.54753e+09 4.74878e+08 1.30743e+08 4.6695e+06 1.26074e+08 5.60334e+06 933933 1.20471e+08 4.07265e+09 4.85619e+07 4.66943e+06 2.33473e+06 933911 1.57826e+09 3.47403e+08 1.20471e+08 3.73555e+06 1.40085e+06 3.44135e+08 5.13636e+06 2.33472e+06 933904 1.16735e+08 4.20248e+06 4.20248e+06 1.86778e+06 933900 4.38924e+07 5.60331e+06 1.40085e+06
internal_count=13260 2337 962 198 764 140 102 624 10923 382 83 72 61 4950 1448 696 74 61 1375 67 56 49 622 62 56 44 41 299 78 59
is_linear=0
shrinkage=1


Tree=1
num_leaves=31
num_cat=0
split_feature=54 61 0 40 56 7 39 0 31 41 0 4 45 17 62 46 4 14 61 28 0 3 45 54 37 49 61 0 4 45
split_gain=0.0162935 0.00864959 0.0216129 0.0312781 0.0540834 0.0186813 0.0743515 0.00934809 0.013393 0.0211235 0.00437927 0.0362736 0.120489 0.164203 0.00398064 0.00370428 0.00291041 0.0110492 0.0106717 0.0247921 0.00288534 0.00696814 0.0195767 0.0567903 0.00246537 0.00282931 0.00428083 0.0019455 0.00594938 0.0118375
threshold=7.5000000000000009 0.56250000000000011 17.500000000000004 26.379992031250001 8.5000000000000018 -0.5 1.1859136320420316 5.5000000000000009 71.595963750000024 91.989651007956965 17.500000000000004 -0.8783796973249266 0.76603787767645282 7.5200000000000005 9.5000000000000018 47.091934523809535 0.6078576107927941 64.196543750000004 0.50892857142857151 16.721436354166659 2.5000000000000004 5.5000000000000009 0.90138277111495968 2.5000000000000004 79.791086250000021 163.78084500000003 0.31250000000000006 17.500000000000004 -0.8783796973249266 0.67440257889728439
decision_type=2 2 2 2 2 2 2 2 2 2 2 2 2 2 2 2 2 2 2 2 2 2 2 2 2 2 2 2 2 2
left_child=14 10 7 5 -5 6 -4 8 9 -3 -2 12 -12 -14 20 16 24 18 19 -18 21 -1 -23 -24 -13 26 -26 -22 29 -29
right_child=1 2 3 4 -6 -7 -8 -9 -10 -11 11 15 13 -15 -16 -17 17 -19 -20 -21 27 22 23 -25 25 -27 -28 28 -30 -31
leaf_value=-0.066901892608192903 -0.066901947408527673 -0.066886257535989715 -0.066901425926635019 -0.066902154857332946 -0.066877692425496724 -0.066901585368597347 -0.066878007314883414 -0.066901777455722275 -0.06690080302869271 -0.066901545634379819 -0.066901546288779326 -0.066901833469378238 -0.066859535886454213 -0.066902159484073506 -0.066902116498215092 -0.066901980174252598 -0.066884978487342414 -0.06690172677449506 -0.066900943233705892 -0.066901541007692064 -0.066902063917353913 -0.06690144000117261 -0.066902159484073506 -0.066880450816392392 -0.066901541007674412 -0.066901376404083265 -0.0668975674595923 -0.066901638598278537 -0.0669019669910456 -0.066897928817582539
leaf_weight=147762128.38256609 286034889.47437292 451898.63259238005 1355636.0208900571 451871.5625 451913.18039894104 4518726.1638647318 451912.78365588188 42927854.163858473 3163116.6751804352 451872.54356002808 3163107.867456615 26660458.903438151 451947.01916354895 451871.53125 2413897548.3681512 69588252.10413599 451904.55414581299 4518722.7424432039 903747.42427051067 451872.57481002808 1132390296.3009326 7681836.9024505615 903743.0625 451908.57773172855 1355617.7244304419 9941203.5635036826 1355638.1364098787 10393064.818169177 225032155.62396657 2711272.4327636957
leaf_count=698 1288 28 70 41 41 88 24 280 73 28 127 174 71 71 6690 359 31 68 35 30 3478 111 49 25 28 106 29 120 903 31
internal_value=-0.00660846 -0.0669018 -0.0669012 -0.0668986 -0.0668899 -0.0668999 -0.0668956 -0.0669016 -0.0668993 -0.0668939 -0.0669018 -0.0669016 -0.0668969 -0.0668808 -0.0669021 -0.0669018 -0.0669014 -0.0669004 -0.0668971 -0.0668933 -0.066902 -0.0669018 -0.0669005 -0.0668949 -0.0669016 -0.066901 -0.0668996 -0.066902 -0.0669019 -0.0669009
internal_weight=4.40078e+09 4.59554e+08 5.42248e+07 7.23006e+06 903785 6.32627e+06 1.80755e+06 4.69947e+07 4.06689e+06 903771 4.05329e+08 1.19294e+08 4.06693e+06 903819 3.94122e+09 1.15227e+08 4.56392e+07 6.32625e+06 1.80752e+06 903777 1.52733e+09 1.568e+08 9.03749e+06 1.35565e+06 3.93129e+07 1.26525e+07 2.71126e+06 1.37053e+09 2.38136e+08 1.31043e+07
internal_count=13260 2337 512 205 82 123 94 307 94 56 1825 757 163 142 10923 594 352 95 71 61 4950 741 131 74 257 135 57 4209 956 151
is_linear=0
shrinkage=0.05


Tree=2
num_leaves=31
num_cat=0
split_feature=54 61 2 7 45 51 57 8 1 47 13 4 45 17 62 2 39 53 16 75 46 67 39 3 51 54 19 18 31 33
split_gain=0.0160952 0.00879276 0.0279076 0.0202988 0.0405937 0.0203302 0.0346244 0.00548063 0.0240253 0.0394293 0.00439751 0.0364533 0.120907 0.16484 0.00368977 0.00367355 0.00400782 0.00481479 0.0136566 0.0261722 0.00358388 0.0042326 0.00557158 0.00308275 0.0034506 0.00877278 0.0201896 0.0925235 0.00442306 0.0123273
threshold=7.5000000000000009 0.56250000000000011 0.1294095225512602 -0.93301270189221919 0.95979120492596137 1.6527805634332893 0.39583333333333343 0.93301270189221952 0.78656609248549325 26.779691744182674 1.0000000180025095e-35 -0.8783796973249266 0.76603787767645282 7.5200000000000005 9.5000000000000018 0.60355339059327384 1.7954075586095659 0.41666666666666669 84.320000000000007 80.980000000000004 47.091934523809535 -39.555 0.87630489084457819 3.5000000000000004 0.83181412893657225 3.5000000000000004 63.165000000000006 64.758138750000015 84.155000000000015 1.3564199358937166
decision_type=2 2 2 2 2 2 2 2 2 2 2 2 2 2 2 2 2 2 2 2 2 2 2 2 2 2 2 2 2 2
left_child=14 10 -3 4 -4 6 -5 8 9 -7 -2 12 -12 -14 15 -1 23 18 19 -18 21 22 -13 -17 -25 -26 28 -28 29 -27
right_child=1 2 3 5 -6 7 -8 -9 -10 -11 11 20 13 -15 -16 16 17 -19 -20 -21 -22 -23 -24 24 25 26 27 -29 -30 -31
leaf_value=-0.065808256301870635 -0.065808147772873998 -0.065807896678617514 -0.065808426502240391 -0.065808360125304721 -0.065786870638095435 -0.065808431394462644 -0.065788452065108513 -0.065807379229359059 -0.065807964040779751 -0.065787186926756072 -0.065807735494113603 -0.065807953654501442 -0.065764928115753185 -0.065808364833487093 -0.065808315420991942 -0.065808210143732476 -0.065791597651055175 -0.065808237113213958 -0.065807575832489293 -0.065806587165220198 -0.065808176916165001 -0.06580772009123366 -0.065803342896457326 -0.065808103772948351 -0.065807975264538951 -0.065800617287823243 -0.065781481425107674 -0.065808052575545353 -0.065807855994806111 -0.065807891600745669
leaf_weight=1151392314.7229733 276491556.40155119 42806022.366100192 436801.12937891483 436795.1875 436829.73541003466 436801.19187760353 436827.21341896057 5241563.6037662029 1747188.0574905872 436829.2310757637 3057574.0924860239 1310387.8925077915 436877.89601427317 436795.15625 2333359709.0706682 205730629.83164108 436821.85686326027 4367953.6112446785 3494371.5249748826 873599.89620602131 67266498.447162628 41495664.307853937 1310411.4600648284 67703327.41206491 30575710.130340695 873615.08932727575 436838.05920761824 1310387.1381149292 7425540.1581031084 1747183.8074939847
leaf_count=3860 1288 418 35 32 36 35 33 87 53 35 127 29 71 71 6690 872 23 52 70 45 359 331 29 394 257 20 23 69 79 41
internal_value=-0.00650042 -0.065808 -0.0658074 -0.0658049 -0.0657976 -0.0658056 -0.0657984 -0.0658064 -0.0658046 -0.0657978 -0.065808 -0.0658078 -0.065803 -0.0657866 -0.0658083 -0.0658082 -0.0658081 -0.065807 -0.0658059 -0.0658016 -0.0658079 -0.0658076 -0.0658056 -0.0658081 -0.0658079 -0.0658075 -0.0658064 -0.0658014 -0.0658072 -0.0658055
internal_weight=4.25395e+09 4.44221e+08 5.24157e+07 9.60964e+06 873631 8.736e+06 873622 7.86238e+06 2.62082e+06 873630 3.91806e+08 1.15314e+08 3.93125e+06 873673 3.80973e+09 1.47637e+09 3.24976e+08 9.17275e+06 4.80479e+06 1.31042e+06 1.11383e+08 4.41165e+07 2.6208e+06 3.15803e+08 1.10073e+08 4.23693e+07 1.17936e+07 1.74723e+06 1.00463e+07 2.6208e+06
internal_count=13260 2337 512 266 71 195 65 130 80 70 1825 757 163 142 10923 4950 1448 110 96 68 594 352 58 1338 641 356 199 92 107 61
is_linear=0
shrinkage=0.05


Tree=3
num_leaves=31
num_cat=0
split_feature=54 61 0 40 61 8 39 0 31 41 0 4 18 70 46 62 0 3 33 40 4 69 8 75 37 8 51 61 0 4
split_gain=0.0165758 0.00876367 0.0227547 0.0325622 0.0565805 0.0198667 0.0770915 0.00899991 0.0144447 0.0220399 0.00438368 0.036763 0.0640844 0.142257 0.0037089 0.00368881 0.00304747 0.00723514 0.0210835 0.0608412 0.00299594 0.0115276 0.0180492 0.0304675 0.00250886 0.00383702 0.0143237 0.0456497 0.00208521 0.00622129
threshold=7.5000000000000009 0.56250000000000011 17.500000000000004 26.379992031250001 0.56845238095238104 0.93301270189221952 1.1859136320420316 5.5000000000000009 71.595963750000024 91.989651007956965 17.500000000000004 -0.8783796973249266 58.125000000000007 -3.8499999999999974 47.091934523809535 9.5000000000000018 2.5000000000000004 5.5000000000000009 0.88998624509387658 118.03010416666667 0.6078576107927941 12.181998750000004 0.6830127018922193 148.68500000000003 79.791086250000021 -0.68301270189221952 1.3419364409374108 0.51488095238095244 17.500000000000004 -0.8783796973249266
decision_type=2 2 2 2 2 2 2 2 2 2 2 2 2 2 2 2 2 2 2 2 2 2 2 2 2 2 2 2 2 2
left_child=15 10 7 5 -5 6 -4 8 9 -3 -2 12 13 -12 20 16 17 -1 -19 -20 24 22 23 -22 -13 -26 27 -27 -18 -30
right_child=1 2 3 4 -6 -7 -8 -9 -10 -11 11 14 -14 -15 -16 -17 28 18 19 -21 21 -23 -24 -25 25 26 -28 -29 29 -31
leaf_value=-0.06480125389351761 -0.064801310157262329 -0.064784737083652913 -0.064800695013447235 -0.064801557418738456 -0.064775659661762727 -0.0648009438385687 -0.064776013035172261 -0.064801135971093327 -0.064800237345398012 -0.064800900647273049 -0.064798768716560151 -0.064801197844932795 -0.064800694621604385 -0.064763206637031459 -0.064801345166515908 -0.064801485843910683 -0.064801437073115434 -0.064800795548902099 -0.064778290777255151 -0.064801548010278973 -0.064781568810559881 -0.064801346201960985 -0.064800512500924071 -0.06480057305621667 -0.064801151910083551 -0.064781249074889719 -0.064800744538834054 -0.064801394644791649 -0.064800172429894123 -0.064801332426788885
leaf_weight=137923254.05054712 266988992.39231166 421812.1701194346 1265371.6387788057 421789.14329847693 421821.63348445296 4217845.1912752986 421827.19605770707 40069472.251671046 2952513.8482773304 421784.44282418489 843575.1550270319 24885255.589631706 2530732.1161495447 421840.14319717884 64954653.734232664 2253165594.1326232 1056988892.3478377 7170341.4815649092 421817.95528706908 843566.75 421813.11590078473 3796061.0967923105 1265357.5579416752 421784.92987877131 6326764.066214025 421813.69643947482 4217848.0509855449 843567.48703712225 12231779.60621807 210048175.86419302
leaf_count=698 1288 28 70 41 41 88 24 280 73 28 91 174 109 46 359 6690 3478 111 25 49 33 61 47 33 72 22 78 44 53 903
internal_value=-0.00640097 -0.0648011 -0.0648005 -0.0647978 -0.0647886 -0.0647991 -0.0647945 -0.0648009 -0.0647986 -0.0647928 -0.0648012 -0.0648009 -0.0647961 -0.0647869 -0.0648011 -0.0648014 -0.0648014 -0.0648012 -0.0647997 -0.0647938 -0.0648007 -0.0647997 -0.0647967 -0.0647911 -0.0648009 -0.0648003 -0.0647993 -0.0647947 -0.0648014 -0.0648013
internal_weight=4.10775e+09 4.28954e+08 5.06142e+07 6.74865e+06 843611 5.90504e+06 1.6872e+06 4.38656e+07 3.79611e+06 843597 3.7834e+08 1.11351e+08 3.79615e+06 1.26542e+06 1.07555e+08 3.67879e+09 1.42563e+09 1.46359e+08 8.43573e+06 1.26538e+06 4.26003e+07 5.90502e+06 2.10896e+06 843598 3.66952e+07 1.181e+07 5.48323e+06 1.26538e+06 1.27927e+09 2.2228e+08
internal_count=13260 2337 512 205 82 123 94 307 94 56 1825 757 163 137 594 10923 4950 741 131 74 352 95 79 66 257 135 101 66 4209 956
is_linear=0
shrinkage=0.05


end of trees

feature_importances:
hour=11
dow_sin=9
cmg_cv_168h=7
zeros_ratio_168h=7
month_cos=6
cmg_cv_48h=6
zeros_count_12h=6
cmg_max_168h=5
day_of_week=4
cmg_cv_24h=4
cmg_mean_168h=4
hours_since_zero=4
hour_cos=3
cmg_max_12h=3
cmg_mean_48h=3
zeros_count_24h=3
cmg_7d_median_same_hour=3
month_sin=2
cmg_lag_6h=2
cmg_lag_12h=2
cmg_mean_12h=2
cmg_cv_12h=2
cmg_max_24h=2
cmg_std_48h=2
cmg_std_168h=2
cmg_trend_6h=2
cmg_trend_12h=2
hour_sin=1
is_evening=1
cmg_lag_1h=1
cmg_lag_3h=1
cmg_lag_24h=1
cmg_range_24h=1
zeros_ratio_6h=1
zeros_ratio_24h=1
zeros_ratio_48h=1
cmg_trend_48h=1
cmg_change_1h=1
cmg_change_24h=1

parameters:
[boosting: gbdt]
[objective: binary]
[metric: binary_logloss]
[tree_learner: serial]
[device_type: cuda]
[data_sample_strategy: bagging]
[data: ]
[valid: ]
[num_iterations: 4]
[learning_rate: 0.05]
[num_leaves: 31]
[num_threads: 0]
[seed: 44]
[deterministic: 0]
[force_col_wise: 0]
[force_row_wise: 1]
[histogram_pool_size: -1]
[max_depth: -1]
[min_data_in_leaf: 20]
[min_sum_hessian_in_leaf: 0.001]
[bagging_fraction: 0.8]
[pos_bagging_fraction: 1]
[neg_bagging_fraction: 1]
[bagging_freq: 5]
[bagging_seed: 21897]
[bagging_by_query: 0]
[feature_fraction: 0.8]
[feature_fraction_bynode: 1]
[feature_fraction_seed: 12646]
[extra_trees: 0]
[extra_seed: 20733]
[early_stopping_round: 0]
[early_stopping_min_delta: 0]
[first_metric_only: 0]
[max_delta_step: 0]
[lambda_l1: 0]
[lambda_l2: 0]
[linear_lambda: 0]
[min_gain_to_split: 0]
[drop_rate: 0.1]
[max_drop: 50]
[skip_drop: 0.5]
[xgboost_dart_mode: 0]
[uniform_drop: 0]
[drop_seed: 20829]
[top_rate: 0.2]
[other_rate: 0.1]
[min_data_per_group: 100]
[max_cat_threshold: 32]
[cat_l2: 10]
[cat_smooth: 10]
[max_cat_to_onehot: 4]
[top_k: 20]
[monotone_constraints: ]
[monotone_constraints_method: basic]
[monotone_penalty: 0]
[feature_contri: ]
[forcedsplits_filename: ]
[refit_decay_rate: 0.9]
[cegb_tradeoff: 1]
[cegb_penalty_split: 0]
[cegb_penalty_feature_lazy: ]
[cegb_penalty_feature_coupled: ]
[path_smooth: 0]
[interaction_constraints: ]
[verbosity: -1]
[saved_feature_importance_type: 0]
[use_quantized_grad: 0]
[num_grad_quant_bins: 4]
[quant_train_renew_leaf: 0]
[stochastic_rounding: 1]
[linear_tree: 0]
[max_bin: 255]
[max_bin_by_feature: ]
[min_data_in_bin: 3]
[bin_construct_sample_cnt: 200000]
[data_random_seed: 182]
[is_enable_sparse: 1]
[enable_bundle: 1]
[use_missing: 1]
[zero_as_missing: 0]
[feature_pre_filter: 1]
[pre_partition: 0]
[two_round: 0]
[header: 0]
[label_column: ]
[weight_column: ]
[group_column: ]
[ignore_column: ]
[categorical_feature: ]
[forcedbins_filename: ]
[precise_float_parser: 0]
[parser_config_file: ]
[objective_seed: 3944]
[num_class: 1]
[is_unbalance: 0]
[scale_pos_weight: 2.76348]
[sigmoid: 1]
[boost_from_average: 1]
[reg_sqrt: 0]
[alpha: 0.9]
[fair_c: 1]
[poisson_max_delta_step: 0.7]
[tweedie_variance_power: 1.5]
[lambdarank_truncation_level: 30]
[lambdarank_norm: 1]
[label_gain: ]
[lambdarank_position_bias_regularization: 0]
[eval_at: ]
[multi_error_top_k: 1]
[auc_mu_weights: ]
[num_machines: 1]
[local_listen_port: 12400]
[time_out: 120]
[machine_list_filename: ]
[machines: ]
[gpu_platform_id: -1]
[gpu_device_id: -1]
[gpu_use_dp: 1]
[num_gpu: 1]

end of parameters

pandas_categorical:[]
