tree
version=v4
num_class=1
num_tree_per_iteration=1
label_index=0
max_feature_idx=77
objective=binary sigmoid:1
feature_names=hour hour_sin hour_cos day_of_week dow_sin dow_cos month month_sin month_cos is_weekend is_night is_morning is_afternoon is_evening cmg_lag_1h cmg_lag_2h cmg_lag_3h cmg_lag_6h cmg_lag_12h cmg_lag_24h cmg_lag_48h cmg_lag_168h cmg_mean_6h cmg_std_6h cmg_min_6h cmg_max_6h cmg_range_6h cmg_cv_6h cmg_mean_12h cmg_std_12h cmg_min_12h cmg_max_12h cmg_range_12h cmg_cv_12h cmg_mean_24h cmg_std_24h cmg_min_24h cmg_max_24h cmg_range_24h cmg_cv_24h cmg_mean_48h cmg_std_48h cmg_min_48h cmg_max_48h cmg_range_48h cmg_cv_48h cmg_mean_168h cmg_std_168h cmg_min_168h cmg_max_168h cmg_range_168h cmg_cv_168h zeros_count_6h zeros_ratio_6h zeros_count_12h zeros_ratio_12h zeros_count_24h zeros_ratio_24h zeros_count_48h zeros_ratio_48h zeros_count_168h zeros_ratio_168h hours_since_zero was_zero_1h_ago was_zero_2h_ago was_zero_24h_ago cmg_trend_6h cmg_trend_12h cmg_trend_24h cmg_trend_48h cmg_change_1h cmg_change_24h cmg_change_48h cmg_same_hour_yesterday cmg_same_hour_last_week cmg_7d_median_same_hour cmg_diff_vs_yesterday cmg_diff_vs_last_week
feature_infos=[0:23] [-1:1] [-1:1] [0:6] [-0.97492791218182362:0.97492791218182362] [-0.90096886790241903:1] [1:12] [-1:1] [-1:1] [0:1] [0:1] [0:1] [0:1] [0:1] [0:371.66000000000003] [0:371.66000000000003] [0:371.66000000000003] [0:371.66000000000003] [0:371.66000000000003] [0:371.66000000000003] [0:371.66000000000003] [0:371.66000000000003] [0:349.44666666666666] [0:153.30693861227124] [0:339.83999999999997] [0:371.66000000000003] [0:371.66000000000003] [0:2.4494896874170573] [0:333.88333333333338] [0:141.231575175367] [0:327.86000000000001] [0:371.66000000000003] [0:371.66000000000003] [0:3.464101428007337] [0:315.17583333333329] [0:133.58115591090203] [0:296.29000000000002] [0:371.66000000000003] [0:371.66000000000003] [0:4.8989787993545502] [0:305.62479166666668] [0:121.59284917311297] [0:289.70999999999998] [0:371.66000000000003] [0:371.66000000000003] [0:6.9282012893730816] [0:269.83386904761909] [0:105.75616875003355] [0:120.59999999999999] [0:371.66000000000003] [0:371.66000000000003] [0:2.3481555595262882] [0:6] [0:1] [0:12] [0:1] [0:24] [0:1] [0:48] [0:1] [0:127] [0:0.75595238095238093] [0:308] [0:1] [0:1] [0:1] [-295.41000000000003:371.66000000000003] [-334.23000000000002:338.87] [-371.66000000000003:329.93000000000001] [-330.44:335.49000000000001] [-329.93000000000001:329.93000000000001] [-371.66000000000003:329.93000000000001] [-330.44:335.49000000000001] [0:371.66000000000003] [0:371.66000000000003] [0:371.66000000000003] [-371.66000000000003:329.93000000000001] [-371.66000000000003:314.30000000000001]
tree_sizes=3372

Tree=0
num_leaves=31
num_cat=0
split_feature=62 66 41 18 62 32 71 2 72 8 19 66 62 51 2 7 59 28 37 19 37 72 17 3 24 66 32 62 22 46
split_gain=5.40861 5.69622 10.2335 4.47279 8.6757 1.56969 4.78874 1.50774 3.77979 5.87619 2.12508 4.99479 1.24803 4.17615 1.2098 1.3388 1.68392 6.8586 1.36281 4.25295 0.798431 1.51663 4.32313 0.637476 1.71121 4.31939 0.574865 0.80825 4.06918 0.481875
threshold=22.500000000000004 92.700000000000017 64.430374749049946 290.81000000000006 153.50000000000003 198.06715125000002 -29.599999999999984 -0.5 45.810000000000002 -0.9330127018922193 230.15281875000002 85.64500000000001 99.500000000000014 0.28988050188528686 -0.78656609248549325 0.25000000000000011 0.26041666666666669 4.0096172916666566 264.25000000000006 328.49500000000006 296.5800000000001 2.2970587500000055 328.49500000000006 1.0000000180025095e-35 67.822857500000012 53.368026250000007 71.445891250000003 81.500000000000014 40.180833333333318 104.18642444196429
decision_type=2 2 2 2 2 2 2 2 2 2 2 2 2 2 2 2 2 2 2 2 2 2 2 2 2 2 2 2 2 2
left_child=14 3 5 7 -5 6 -3 8 10 -10 12 -12 26 -14 15 -1 18 -18 -17 -20 23 -22 -23 24 -9 -26 -2 28 -28 -16
right_child=1 2 -4 4 -6 -7 -8 20 9 -11 11 -13 13 -15 29 16 17 -19 19 -21 21 22 -24 -25 25 -27 27 -29 -30 -31
leaf_value=-0.83147837915697331 -0.83352322906256782 -0.82891922437632837 -1.0830621106880496 -1.0830621106880494 -0.8399598371733904 -0.83114386224643388 -1.0830621106880491 -0.83566073947337727 -0.83818683647722581 -1.0830621106880496 -1.0830621106880494 -0.83082844431392744 -0.82698088126820268 -1.0830621106880496 -0.82825405733099 -0.83818683647722558 -0.83502105077850175 -1.0830621106880496 -1.0830621106880491 -0.82891922437632759 -0.84112764251667949 -1.0830621106880494 -0.83818683647722547 -0.83314458464838481 -1.0830621106880494 -0.83907655780492396 -0.82891922437632815 -0.83593388284544612 -1.0830621106880496 -0.83159478548040422
leaf_weight=129.96279513440095 13.26863565598615 0.54284431459382398 0.64510120684280992 0.54237808473408322 1.1349957277998326 1.6429141808766872 0.28146135457791521 2.7881822208873932 0.5633889390155683 0.43349157529883087 0.30611490388400953 0.54695323947817087 0.53873538970947366 0.22599086863920093 1500.8363078646362 15.211501353420319 1.1123966409359134 0.37185770203359425 0.23626318085007469 0.54284431459382176 3.4214228829368958 0.26502565504051845 0.5633889390155673 118.13274941779673 0.267080117482693 0.56544340145774186 0.54284431459382354 1.1165055658202618 0.22188194375485182 116.30745430942625
leaf_count=1778 281 92 97 95 199 104 48 150 127 97 55 99 78 33 7087 446 150 50 36 82 193 45 97 1740 46 98 79 78 32 549
internal_value=-1.01162 -0.838823 -0.905754 -0.837391 -0.918567 -0.859393 -0.915697 -0.836444 -0.850081 -0.94467 -0.844458 -0.92134 -0.840336 -0.902658 -0.82889 -0.833225 -0.846219 -0.897164 -0.84149 -0.905988 -0.834522 -0.855825 -0.916527 -0.833778 -0.854444 -0.917349 -0.837191 -0.863057 -0.902658 -0.828494
internal_weight=1913.14 148.558 3.11232 145.445 1.67737 2.46722 0.824306 143.768 17.7645 0.996881 16.7677 0.853068 15.9146 0.764726 1764.58 147.438 17.4749 1.48425 15.9906 0.779107 126.003 4.24984 0.828415 121.753 3.62071 0.832524 15.1499 1.88123 0.764726 1617.14
internal_count=13260 3607 470 3137 294 156 140 2843 810 224 586 154 432 111 9653 2017 669 200 469 118 2033 240 142 1793 195 144 321 132 111 7636
is_linear=0
shrinkage=1


end of trees

feature_importances:
hours_since_zero=4
cmg_trend_6h=3
hour_cos=2
cmg_lag_24h=2
cmg_range_12h=2
cmg_max_24h=2
cmg_change_48h=2
day_of_week=1
month_sin=1
month_cos=1
cmg_lag_6h=1
cmg_lag_12h=1
cmg_mean_6h=1
cmg_min_6h=1
cmg_mean_12h=1
cmg_std_48h=1
cmg_mean_168h=1
cmg_cv_168h=1
zeros_ratio_48h=1
cmg_change_24h=1

parameters:
[boosting: gbdt]
[objective: binary]
[metric: binary_logloss]
[tree_learner: serial]
[device_type: cuda]
[data_sample_strategy: bagging]
[data: ]
[valid: ]
[num_iterations: 1]
[learning_rate: 0.05]
[num_leaves: 31]
[num_threads: 0]
[seed: 44]
[deterministic: 0]
[force_col_wise: 0]
[force_row_wise: 1]
[histogram_pool_size: -1]
[max_depth: -1]
[min_data_in_leaf: 20]
[min_sum_hessian_in_leaf: 0.001]
[bagging_fraction: 0.8]
[pos_bagging_fraction: 1]
[neg_bagging_fraction: 1]
[bagging_freq: 5]
[bagging_seed: 21897]
[bagging_by_query: 0]
[feature_fraction: 0.8]
[feature_fraction_bynode: 1]
[feature_fraction_seed: 12646]
[extra_trees: 0]
[extra_seed: 20733]
[early_stopping_round: 0]
[early_stopping_min_delta: 0]
[first_metric_only: 0]
[max_delta_step: 0]
[lambda_l1: 0]
[lambda_l2: 0]
[linear_lambda: 0]
[min_gain_to_split: 0]
[drop_rate: 0.1]
[max_drop: 50]
[skip_drop: 0.5]
[xgboost_dart_mode: 0]
[uniform_drop: 0]
[drop_seed: 20829]
[top_rate: 0.2]
[other_rate: 0.1]
[min_data_per_group: 100]
[max_cat_threshold: 32]
[cat_l2: 10]
[cat_smooth: 10]
[max_cat_to_onehot: 4]
[top_k: 20]
[monotone_constraints: ]
[monotone_constraints_method: basic]
[monotone_penalty: 0]
[feature_contri: ]
[forcedsplits_filename: ]
[refit_decay_rate: 0.9]
[cegb_tradeoff: 1]
[cegb_penalty_split: 0]
[cegb_penalty_feature_lazy: ]
[cegb_penalty_feature_coupled: ]
[path_smooth: 0]
[interaction_constraints: ]
[verbosity: -1]
[saved_feature_importance_type: 0]
[use_quantized_grad: 0]
[num_grad_quant_bins: 4]
[quant_train_renew_leaf: 0]
[stochastic_rounding: 1]
[linear_tree: 0]
[max_bin: 255]
[max_bin_by_feature: ]
[min_data_in_bin: 3]
[bin_construct_sample_cnt: 200000]
[data_random_seed: 182]
[is_enable_sparse: 1]
[enable_bundle: 1]
[use_missing: 1]
[zero_as_missing: 0]
[feature_pre_filter: 1]
[pre_partition: 0]
[two_round: 0]
[header: 0]
[label_column: ]
[weight_column: ]
[group_column: ]
[ignore_column: ]
[categorical_feature: ]
[forcedbins_filename: ]
[precise_float_parser: 0]
[parser_config_file: ]
[objective_seed: 3944]
[num_class: 1]
[is_unbalance: 0]
[scale_pos_weight: 2.7592]
[sigmoid: 1]
[boost_from_average: 1]
[reg_sqrt: 0]
[alpha: 0.9]
[fair_c: 1]
[poisson_max_delta_step: 0.7]
[tweedie_variance_power: 1.5]
[lambdarank_truncation_level: 30]
[lambdarank_norm: 1]
[label_gain: ]
[lambdarank_position_bias_regularization: 0]
[eval_at: ]
[multi_error_top_k: 1]
[auc_mu_weights: ]
[num_machines: 1]
[local_listen_port: 12400]
[time_out: 120]
[machine_list_filename: ]
[machines: ]
[gpu_platform_id: -1]
[gpu_device_id: -1]
[gpu_use_dp: 1]
[num_gpu: 1]

end of parameters

pandas_categorical:[]
