tree
version=v4
num_class=1
num_tree_per_iteration=1
label_index=0
max_feature_idx=77
objective=binary sigmoid:1
feature_names=hour hour_sin hour_cos day_of_week dow_sin dow_cos month month_sin month_cos is_weekend is_night is_morning is_afternoon is_evening cmg_lag_1h cmg_lag_2h cmg_lag_3h cmg_lag_6h cmg_lag_12h cmg_lag_24h cmg_lag_48h cmg_lag_168h cmg_mean_6h cmg_std_6h cmg_min_6h cmg_max_6h cmg_range_6h cmg_cv_6h cmg_mean_12h cmg_std_12h cmg_min_12h cmg_max_12h cmg_range_12h cmg_cv_12h cmg_mean_24h cmg_std_24h cmg_min_24h cmg_max_24h cmg_range_24h cmg_cv_24h cmg_mean_48h cmg_std_48h cmg_min_48h cmg_max_48h cmg_range_48h cmg_cv_48h cmg_mean_168h cmg_std_168h cmg_min_168h cmg_max_168h cmg_range_168h cmg_cv_168h zeros_count_6h zeros_ratio_6h zeros_count_12h zeros_ratio_12h zeros_count_24h zeros_ratio_24h zeros_count_48h zeros_ratio_48h zeros_count_168h zeros_ratio_168h hours_since_zero was_zero_1h_ago was_zero_2h_ago was_zero_24h_ago cmg_trend_6h cmg_trend_12h cmg_trend_24h cmg_trend_48h cmg_change_1h cmg_change_24h cmg_change_48h cmg_same_hour_yesterday cmg_same_hour_last_week cmg_7d_median_same_hour cmg_diff_vs_yesterday cmg_diff_vs_last_week
feature_infos=[0:23] [-1:1] [-1:1] [0:6] [-0.97492791218182362:0.97492791218182362] [-0.90096886790241903:1] [1:12] [-1:1] [-1:1] [0:1] [0:1] [0:1] [0:1] [0:1] [0:371.66000000000003] [0:371.66000000000003] [0:371.66000000000003] [0:371.66000000000003] [0:371.66000000000003] [0:371.66000000000003] [0:371.66000000000003] [0:371.66000000000003] [0:349.44666666666666] [0:153.30693861227124] [0:339.83999999999997] [0:371.66000000000003] [0:371.66000000000003] [0:2.4494896874170573] [0:333.88333333333338] [0:141.231575175367] [0:327.86000000000001] [0:371.66000000000003] [0:371.66000000000003] [0:3.464101428007337] [0:315.17583333333329] [0:133.58115591090203] [0:296.29000000000002] [0:371.66000000000003] [0:371.66000000000003] [0:4.8989787993545502] [0:305.62479166666668] [0:121.59284917311297] [0:289.70999999999998] [0:371.66000000000003] [0:371.66000000000003] [0:6.9282012893730816] [0:269.83386904761909] [0:105.75616875003355] [0:120.59999999999999] [0:371.66000000000003] [0:371.66000000000003] [0:2.3481555595262882] [0:6] [0:1] [0:12] [0:1] [0:24] [0:1] [0:48] [0:1] [0:127] [0:0.75595238095238093] [0:308] [0:1] [0:1] [0:1] [-295.41000000000003:371.66000000000003] [-334.23000000000002:338.87] [-371.66000000000003:329.93000000000001] [-330.44:335.49000000000001] [-329.93000000000001:329.93000000000001] [-371.66000000000003:329.93000000000001] [-330.44:335.49000000000001] [0:371.66000000000003] [0:371.66000000000003] [0:371.66000000000003] [-371.66000000000003:329.93000000000001] [-371.66000000000003:314.30000000000001]
tree_sizes=790 3470 1406 3245

Tree=0
num_leaves=6
num_cat=0
split_feature=56 54 54 70 37
split_gain=3.63798e-12 3.63798e-12 4.54747e-13 2.27374e-13 2.27374e-13
threshold=19.500000000000004 9.5000000000000018 11.500000000000002 8.6850000000000076 130.36500000000004
decision_type=2 2 2 2 2
left_child=1 -1 3 -3 -4
right_child=-2 2 4 -5 -6
leaf_value=-0.82991724738928097 -0.82991724738928097 -0.82991724738928097 -0.82991724738928097 -0.82991724738928097 -0.82991724738928097
leaf_weight=1546.2738892436028 128.99108535051346 125.75281542539597 75.01991993188858 11.873656392097471 18.350196242332458
leaf_count=11120 897 547 220 52 54
internal_value=-1.01509 -0.829917 -0.829917 -0.829917 -0.829917
internal_weight=1906.26 1777.27 230.997 137.626 93.3701
internal_count=13260 12781 873 599 274
is_linear=0
shrinkage=1


Tree=1
num_leaves=31
num_cat=0
split_feature=29 29 29 29 29 29 29 29 29 29 29 54 29 29 29 54 40 40 29 29 40 29 14 29 29 29 29 40 29 40
split_gain=3.63798e-12 3.63798e-12 3.63798e-12 3.63798e-12 1.81899e-12 1.81899e-12 1.81899e-12 9.09495e-13 9.09495e-13 9.09495e-13 9.09495e-13 9.09495e-13 9.09495e-13 4.54747e-13 9.09495e-13 4.54747e-13 9.09495e-13 4.54747e-13 4.54747e-13 4.54747e-13 4.54747e-13 4.54747e-13 4.54747e-13 4.54747e-13 4.54747e-13 4.54747e-13 4.54747e-13 2.27374e-13 2.27374e-13 4.54747e-13
threshold=96.219253895340458 52.501056011777642 26.368012394984373 19.442538010115182 15.640004219078191 27.217997800536033 33.693343994467533 10.894493591570912 20.692438478346769 86.807134338406655 29.632804436141228 1.0000000180025095e-35 43.875838372664553 10.314269678821923 0.37612085358159603 9.5000000000000018 33.625104166666667 30.925104166666674 30.858652872595062 78.224850258647081 23.645208333333336 24.910683381874716 113.08000000000001 16.38411677314696 74.272932510151705 42.601852052613495 42.289269626412995 25.436770833333338 1.0000000180025095e-35 22.551875000000003
decision_type=2 2 2 2 2 2 2 2 2 2 2 2 2 2 2 2 2 2 2 2 2 2 2 2 2 2 2 2 2 2
left_child=1 2 3 4 7 -4 10 13 -5 19 -7 -12 25 14 15 -1 17 27 -13 20 -3 -10 23 -6 -22 26 -8 28 29 -17
right_child=-2 9 5 8 22 6 12 -9 21 -11 11 18 -14 -15 -16 16 -18 -19 -20 -21 24 -23 -24 -25 -26 -27 -28 -29 -30 -31
leaf_value=0.16465645061430814 0.16465645061430811 0.16465645061430811 0.16465645061430811 0.16465645061430811 0.16465645061430811 0.16465645061430811 0.16465645061430811 0.16465645061430811 0.16465645061430811 0.16465645061430811 0.16465645061430811 0.16465645061430811 0.16465645061430811 0.16465645061430811 0.16465645061430811 0.16465645061430811 0.16465645061430811 0.16465645061430811 0.16465645061430811 0.16465645061430811 0.16465645061430811 0.16465645061430811 0.16465645061430811 0.16465645061430811 0.16465645061430811 0.16465645061430811 0.16465645061430811 0.16465645061430811 0.16465645061430811 0.16465645061430811
leaf_weight=8.1960011720657331 40.394577205181122 6.4397152066230765 70.836867272853851 60.299151480197906 30.442290067672729 164.50545209646225 210.7543158531189 108.88972985744476 221.29203164577484 20.490002930164337 12.879430413246153 76.105725169181824 104.20630061626434 15.806573688983917 133.47773337364197 118.84201699495316 29.856861412525177 9.9522871375083923 131.72144740819931 31.613147377967834 144.60087782144547 94.839442133903503 6.4397152066230774 126.45258951187134 25.173432171344757 19.319145619869232 4.6834292411804199 11.70857310295105 9.9522871375083923 17.562859654426575
leaf_count=22 259 75 415 337 143 826 1390 548 1219 256 65 330 744 70 576 282 77 23 570 387 1690 522 34 594 294 129 31 28 23 42
internal_value=0.00284373 0.164656 0.164656 0.164656 0.164656 0.164656 0.164656 0.164656 0.164656 0.164656 0.164656 0.164656 0.164656 0.164656 0.164656 0.164656 0.164656 0.164656 0.164656 0.164656 0.164656 0.164656 0.164656 0.164656 0.164656 0.164656 0.164656 0.164656 0.164656 0.164656
internal_weight=2067.73 2027.34 1799.02 1004.01 627.58 795.012 724.175 464.245 376.431 228.317 385.212 220.707 338.963 355.355 339.549 206.071 197.875 168.018 207.827 207.827 176.214 316.131 163.335 156.895 169.774 234.757 215.438 158.066 146.357 136.405
internal_count=13260 12804 9956 5294 3188 4662 4354 2335 2106 2848 1934 1118 2420 1568 1465 548 513 395 900 2546 2044 1741 853 737 1984 1572 1421 373 342 324
is_linear=0
shrinkage=0.05


Tree=2
num_leaves=12
num_cat=0
split_feature=54 14 14 54 65 57 40 40 40 40 40
split_gain=3.63798e-12 1.81899e-12 1.81899e-12 1.81899e-12 2.27374e-13 4.54747e-13 2.27374e-13 1.13687e-13 5.68434e-14 5.68434e-14 5.68434e-14
threshold=3.5000000000000004 294.91500000000002 263.69500000000005 11.500000000000002 1.0000000180025095e-35 0.72916666666666685 29.348792291666673 14.923437500000002 20.682816692708336 27.369995651041673 7.0411615104166678
decision_type=2 2 2 2 2 2 2 2 2 2 2
left_child=1 2 -1 -2 9 -6 7 10 -9 -5 -7
right_child=3 -3 -4 4 5 6 -8 8 -10 -11 -12
leaf_value=0.14724989428079502 0.14724989428079502 0.14724989428079502 0.14724989428079502 0.14724989428079502 0.14724989428079502 0.14724989428079502 0.14724989428079502 0.14724989428079502 0.14724989428079502 0.14724989428079502 0.14724989428079502
leaf_weight=977.89605706930161 991.55555754899979 10.555068552494049 16.143046021461487 29.802546501159668 21.110137104988098 11.7968413233757 14.901273250579832 24.835455417633057 30.423432886600494 24.21456903219223 39.736728668212891
leaf_count=7960 4058 88 131 96 47 32 34 44 54 78 107
internal_value=0.0025431 0.14725 0.14725 0.14725 0.14725 0.14725 0.14725 0.14725 0.14725 0.14725 0.14725
internal_weight=2192.97 1004.59 994.039 1188.38 196.821 142.804 121.694 106.792 55.2589 54.0171 51.5336
internal_count=13260 8396 8091 4864 491 317 274 237 98 174 139
is_linear=0
shrinkage=0.05


Tree=3
num_leaves=29
num_cat=0
split_feature=29 40 29 29 29 29 29 29 29 70 29 29 29 40 29 29 29 29 29 29 29 29 29 29 29 29 29 40
split_gain=3.63798e-12 1.81899e-12 3.63798e-12 1.81899e-12 1.81899e-12 1.81899e-12 9.09495e-13 1.81899e-12 9.09495e-13 1.81899e-12 9.09495e-13 9.09495e-13 4.54747e-13 9.09495e-13 4.54747e-13 2.27374e-13 1.13687e-13 1.13687e-13 1.13687e-13 5.68434e-14 5.68434e-14 5.68434e-14 5.68434e-14 5.68434e-14 5.68434e-14 5.68434e-14 5.68434e-14 5.68434e-14
threshold=105.84584717919891 194.9707291666667 15.838604705213859 82.770328682570266 77.695092240379338 29.067209733876307 30.341388410301544 31.043890103713832 76.99745719022637 23.435000000000002 76.277579542785304 28.387976194126026 14.188643987452345 57.99302083333334 0.37612085358159603 11.543470401872305 81.159443870350813 43.015683917081603 29.200177177772566 28.543359797100216 77.695092240379338 69.057860180036414 34.70158472167433 1.0000000180025095e-35 8.6426660297100106 14.816259345068557 30.701510062882065 48.230312500000004
decision_type=2 2 2 2 2 2 2 2 2 2 2 2 2 2 2 2 2 2 2 2 2 2 2 2 2 2 2 2
left_child=1 2 12 4 5 11 18 26 9 10 -9 -4 13 14 -1 -16 17 -3 -7 -13 21 -19 -11 -15 -25 -14 -8 -24
right_child=-2 16 3 -5 -6 6 7 8 -10 22 -12 19 25 23 15 -17 -18 20 -20 -21 -22 -23 27 24 -26 -27 -28 -29
leaf_value=0.13393426396924701 0.13393426396924701 0.13393426396924701 0.13393426396924701 0.13393426396924701 0.13393426396924701 0.13393426396924704 0.13393426396924701 0.13393426396924701 0.13393426396924701 0.13393426396924704 0.13393426396924701 0.13393426396924704 0.13393426396924701 0.13393426396924704 0.13393426396924701 0.13393426396924701 0.13393426396924701 0.13393426396924701 0.13393426396924701 0.13393426396924701 0.13393426396924701 0.13393426396924704 0.13393426396924704 0.13393426396924701 0.13393426396924701 0.13393426396924701 0.13393426396924701 0.13393426396924701
leaf_weight=219.57788121700287 23.318005084991455 16.840781450271606 751.35794162750244 47.93145489692688 23.318005084991455 12.954447269439695 20.079393267631531 571.29112458229065 5.8295012712478638 12.306724905967711 3.2386118173599243 12.306724905967711 16.193059086799622 4.5340565443038932 147.03297650814056 36.920174717903137 11.011280179023743 36.920174717903137 93.919742703437805 29.147506356239319 1.9431670904159546 14.249891996383665 14.249891996383665 24.613449811935425 26.556616902351379 44.045120716094971 29.147506356239319 36.920174717903137
leaf_count=722 135 274 3490 276 129 52 80 3684 39 116 21 58 80 45 669 168 172 429 380 139 23 166 141 252 271 219 117 366
internal_value=0.00231313 0.133934 0.133934 0.133934 0.133934 0.133934 0.133934 0.133934 0.133934 0.133934 0.133934 0.133934 0.133934 0.133934 0.133934 0.133934 0.133934 0.133934 0.133934 0.133934 0.133934 0.133934 0.133934 0.133934 0.133934 0.133934 0.133934 0.133934
internal_weight=2287.76 2264.44 2183.47 1664 1616.07 1592.75 799.937 693.063 643.836 638.007 574.53 792.812 519.473 459.235 403.531 183.953 80.9653 69.954 106.874 41.4542 53.1132 51.1701 63.4768 55.7041 51.1701 60.2382 49.2269 51.1701
internal_count=13260 13017 11753 9571 8966 8661 4978 4546 4349 4304 3705 3683 2182 1883 1327 837 1264 1139 432 197 633 595 599 556 523 299 197 507
is_linear=0
shrinkage=0.05


end of trees

feature_importances:
cmg_std_12h=46
cmg_mean_48h=13
zeros_count_12h=6
cmg_lag_1h=3
cmg_change_1h=2
cmg_max_24h=1
zeros_count_24h=1
zeros_ratio_24h=1
was_zero_24h_ago=1

parameters:
[boosting: gbdt]
[objective: binary]
[metric: binary_logloss]
[tree_learner: serial]
[device_type: cuda]
[data_sample_strategy: bagging]
[data: ]
[valid: ]
[num_iterations: 4]
[learning_rate: 0.05]
[num_leaves: 31]
[num_threads: 0]
[seed: 44]
[deterministic: 0]
[force_col_wise: 0]
[force_row_wise: 1]
[histogram_pool_size: -1]
[max_depth: -1]
[min_data_in_leaf: 20]
[min_sum_hessian_in_leaf: 0.001]
[bagging_fraction: 0.8]
[pos_bagging_fraction: 1]
[neg_bagging_fraction: 1]
[bagging_freq: 5]
[bagging_seed: 21897]
[bagging_by_query: 0]
[feature_fraction: 0.8]
[feature_fraction_bynode: 1]
[feature_fraction_seed: 12646]
[extra_trees: 0]
[extra_seed: 20733]
[early_stopping_round: 0]
[early_stopping_min_delta: 0]
[first_metric_only: 0]
[max_delta_step: 0]
[lambda_l1: 0]
[lambda_l2: 0]
[linear_lambda: 0]
[min_gain_to_split: 0]
[drop_rate: 0.1]
[max_drop: 50]
[skip_drop: 0.5]
[xgboost_dart_mode: 0]
[uniform_drop: 0]
[drop_seed: 20829]
[top_rate: 0.2]
[other_rate: 0.1]
[min_data_per_group: 100]
[max_cat_threshold: 32]
[cat_l2: 10]
[cat_smooth: 10]
[max_cat_to_onehot: 4]
[top_k: 20]
[monotone_constraints: ]
[monotone_constraints_method: basic]
[monotone_penalty: 0]
[feature_contri: ]
[forcedsplits_filename: ]
[refit_decay_rate: 0.9]
[cegb_tradeoff: 1]
[cegb_penalty_split: 0]
[cegb_penalty_feature_lazy: ]
[cegb_penalty_feature_coupled: ]
[path_smooth: 0]
[interaction_constraints: ]
[verbosity: -1]
[saved_feature_importance_type: 0]
[use_quantized_grad: 0]
[num_grad_quant_bins: 4]
[quant_train_renew_leaf: 0]
[stochastic_rounding: 1]
[linear_tree: 0]
[max_bin: 255]
[max_bin_by_feature: ]
[min_data_in_bin: 3]
[bin_construct_sample_cnt: 200000]
[data_random_seed: 182]
[is_enable_sparse: 1]
[enable_bundle: 1]
[use_missing: 1]
[zero_as_missing: 0]
[feature_pre_filter: 1]
[pre_partition: 0]
[two_round: 0]
[header: 0]
[label_column: ]
[weight_column: ]
[group_column: ]
[ignore_column: ]
[categorical_feature: ]
[forcedbins_filename: ]
[precise_float_parser: 0]
[parser_config_file: ]
[objective_seed: 3944]
[num_class: 1]
[is_unbalance: 0]
[scale_pos_weight: 2.76862]
[sigmoid: 1]
[boost_from_average: 1]
[reg_sqrt: 0]
[alpha: 0.9]
[fair_c: 1]
[poisson_max_delta_step: 0.7]
[tweedie_variance_power: 1.5]
[lambdarank_truncation_level: 30]
[lambdarank_norm: 1]
[label_gain: ]
[lambdarank_position_bias_regularization: 0]
[eval_at: ]
[multi_error_top_k: 1]
[auc_mu_weights: ]
[num_machines: 1]
[local_listen_port: 12400]
[time_out: 120]
[machine_list_filename: ]
[machines: ]
[gpu_platform_id: -1]
[gpu_device_id: -1]
[gpu_use_dp: 1]
[num_gpu: 1]

end of parameters

pandas_categorical:[]
