tree
version=v4
num_class=1
num_tree_per_iteration=1
label_index=0
max_feature_idx=77
objective=binary sigmoid:1
feature_names=hour hour_sin hour_cos day_of_week dow_sin dow_cos month month_sin month_cos is_weekend is_night is_morning is_afternoon is_evening cmg_lag_1h cmg_lag_2h cmg_lag_3h cmg_lag_6h cmg_lag_12h cmg_lag_24h cmg_lag_48h cmg_lag_168h cmg_mean_6h cmg_std_6h cmg_min_6h cmg_max_6h cmg_range_6h cmg_cv_6h cmg_mean_12h cmg_std_12h cmg_min_12h cmg_max_12h cmg_range_12h cmg_cv_12h cmg_mean_24h cmg_std_24h cmg_min_24h cmg_max_24h cmg_range_24h cmg_cv_24h cmg_mean_48h cmg_std_48h cmg_min_48h cmg_max_48h cmg_range_48h cmg_cv_48h cmg_mean_168h cmg_std_168h cmg_min_168h cmg_max_168h cmg_range_168h cmg_cv_168h zeros_count_6h zeros_ratio_6h zeros_count_12h zeros_ratio_12h zeros_count_24h zeros_ratio_24h zeros_count_48h zeros_ratio_48h zeros_count_168h zeros_ratio_168h hours_since_zero was_zero_1h_ago was_zero_2h_ago was_zero_24h_ago cmg_trend_6h cmg_trend_12h cmg_trend_24h cmg_trend_48h cmg_change_1h cmg_change_24h cmg_change_48h cmg_same_hour_yesterday cmg_same_hour_last_week cmg_7d_median_same_hour cmg_diff_vs_yesterday cmg_diff_vs_last_week
feature_infos=[0:23] [-1:1] [-1:1] [0:6] [-0.97492791218182362:0.97492791218182362] [-0.90096886790241903:1] [1:12] [-1:1] [-1:1] [0:1] [0:1] [0:1] [0:1] [0:1] [0:371.66000000000003] [0:371.66000000000003] [0:371.66000000000003] [0:371.66000000000003] [0:371.66000000000003] [0:371.66000000000003] [0:371.66000000000003] [0:371.66000000000003] [0:349.44666666666666] [0:153.30693861227124] [0:339.83999999999997] [0:371.66000000000003] [0:371.66000000000003] [0:2.4494896874170573] [0:333.88333333333338] [0:141.231575175367] [0:327.86000000000001] [0:371.66000000000003] [0:371.66000000000003] [0:3.464101428007337] [0:315.17583333333329] [0:133.58115591090203] [0:296.29000000000002] [0:371.66000000000003] [0:371.66000000000003] [0:4.8989787993545502] [0:305.62479166666668] [0:121.59284917311297] [0:289.70999999999998] [0:371.66000000000003] [0:371.66000000000003] [0:6.9282012893730816] [0:269.83386904761909] [0:105.75616875003355] [0:120.59999999999999] [0:371.66000000000003] [0:371.66000000000003] [0:2.3481555595262882] [0:6] [0:1] [0:12] [0:1] [0:24] [0:1] [0:48] [0:1] [0:127] [0:0.75595238095238093] [0:308] [0:1] [0:1] [0:1] [-295.41000000000003:371.66000000000003] [-334.23000000000002:338.87] [-371.66000000000003:329.93000000000001] [-330.44:335.49000000000001] [-329.93000000000001:329.93000000000001] [-371.66000000000003:329.93000000000001] [-330.44:335.49000000000001] [0:371.66000000000003] [0:371.66000000000003] [0:371.66000000000003] [-371.66000000000003:329.93000000000001] [-371.66000000000003:314.30000000000001]
tree_sizes=3515

Tree=0
num_leaves=31
num_cat=0
split_feature=54 23 54 56 17 17 54 17 54 54 54 17 56 54 54 70 56 70 56 56 54 17 54 56 56 54 54 37 56 54
split_gain=3.63798e-12 7.27596e-12 3.63798e-12 3.63798e-12 3.63798e-12 1.81899e-12 1.81899e-12 3.63798e-12 3.63798e-12 1.81899e-12 9.09495e-13 9.09495e-13 9.09495e-13 9.09495e-13 9.09495e-13 1.81899e-12 9.09495e-13 6.82121e-13 4.54747e-13 4.54747e-13 4.54747e-13 9.09495e-13 4.54747e-13 4.54747e-13 4.54747e-13 4.54747e-13 4.54747e-13 4.54747e-13 4.54747e-13 2.27374e-13
threshold=11.500000000000002 8.9935369923428414 10.500000000000002 21.500000000000004 277.24500000000006 72.415296250000011 9.5000000000000018 76.435000000000016 7.5000000000000009 1.5000000000000002 3.5000000000000004 71.685000000000016 2.5000000000000004 3.5000000000000004 5.5000000000000009 3.3325675000000072 14.500000000000002 -1.4092262500000101 7.5000000000000009 5.5000000000000009 6.5000000000000009 70.985000000000014 5.5000000000000009 7.5000000000000009 15.500000000000002 9.5000000000000018 2.5000000000000004 76.727998750000012 7.5000000000000009 4.5000000000000009
decision_type=2 2 2 2 2 2 2 2 2 2 2 2 2 2 2 2 2 2 2 2 2 2 2 2 2 2 2 2 2 2
left_child=1 5 3 4 6 10 7 8 9 18 17 12 -11 26 -12 16 27 -1 -3 -19 21 22 23 -15 29 -18 -14 -16 -29 -25
right_child=-2 2 -4 -5 -6 -7 -8 -9 -10 11 14 -13 13 20 15 -17 25 19 -20 -21 -22 -23 -24 24 -26 -27 -28 28 -30 -31
leaf_value=-0.82644734643327245 -0.82644734643327245 -0.82644734643327245 -0.82644734643327245 -0.82644734643327245 -0.82644734643327245 -0.82644734643327245 -0.82644734643327245 -0.82644734643327245 -0.82644734643327245 -0.82644734643327245 -0.82644734643327245 -0.82644734643327245 -0.82644734643327245 -0.82644734643327245 -0.82644734643327245 -0.82644734643327245 -0.82644734643327245 -0.82644734643327245 -0.82644734643327245 -0.82644734643327245 -0.82644734643327245 -0.82644734643327245 -0.82644734643327245 -0.82644734643327245 -0.82644734643327245 -0.82644734643327245 -0.82644734643327245 -0.82644734643327245 -0.82644734643327245 -0.82644734643327245
leaf_weight=41.468966484069824 135.71661758422852 152.95047378540039 14.54106616973877 5.924138069152832 5.3855800628662109 59.779938697814941 26.389342308044434 307.51662158966064 123.32978343963623 16.695298194885254 24.235110282897949 22.619436264038086 70.012540817260742 49.00877857208252 43.084640502929688 19.388088226318359 93.70909309387207 40.391850471496582 69.473982810974121 61.395612716674805 61.395612716674805 4.3084640502929688 66.242634773254395 47.931662559509277 9.1554861068725586 93.170535087585449 79.706584930419922 16.156740188598633 85.630722999572754 44.700314521789551
leaf_count=269 951 1169 113 46 42 375 199 2325 727 89 96 120 340 257 225 74 244 264 531 402 327 22 347 182 34 243 387 90 480 169
internal_value=-1.01031 -0.826447 -0.826447 -0.826447 -0.826447 -0.826447 -0.826447 -0.826447 -0.826447 -0.826447 -0.826447 -0.826447 -0.826447 -0.826447 -0.826447 -0.826447 -0.826447 -0.826447 -0.826447 -0.826447 -0.826447 -0.826447 -0.826447 -0.826447 -0.826447 -0.826447 -0.826447 -0.826447 -0.826447 -0.826447
internal_weight=1891.42 1755.7 1177.29 1162.75 1156.82 578.411 1151.44 1125.05 817.531 694.201 518.631 471.777 449.157 432.462 375.375 351.14 331.752 143.256 222.424 101.787 282.743 221.347 217.039 150.796 101.787 186.88 149.719 144.872 101.787 92.632
internal_count=13260 12769 9137 9044 9031 3632 8671 8505 4821 4194 2414 2494 2391 2234 1485 1336 1242 929 1700 666 1507 1148 1138 790 383 487 727 755 570 351
is_linear=0
shrinkage=1


end of trees

feature_importances:
zeros_count_12h=13
zeros_count_24h=8
cmg_lag_6h=5
cmg_change_1h=2
cmg_std_6h=1
cmg_max_24h=1

parameters:
[boosting: gbdt]
[objective: binary]
[metric: binary_logloss]
[tree_learner: serial]
[device_type: cuda]
[data_sample_strategy: bagging]
[data: ]
[valid: ]
[num_iterations: 1]
[learning_rate: 0.05]
[num_leaves: 31]
[num_threads: 0]
[seed: 44]
[deterministic: 0]
[force_col_wise: 0]
[force_row_wise: 1]
[histogram_pool_size: -1]
[max_depth: -1]
[min_data_in_leaf: 20]
[min_sum_hessian_in_leaf: 0.001]
[bagging_fraction: 0.8]
[pos_bagging_fraction: 1]
[neg_bagging_fraction: 1]
[bagging_freq: 5]
[bagging_seed: 21897]
[bagging_by_query: 0]
[feature_fraction: 0.8]
[feature_fraction_bynode: 1]
[feature_fraction_seed: 12646]
[extra_trees: 0]
[extra_seed: 20733]
[early_stopping_round: 0]
[early_stopping_min_delta: 0]
[first_metric_only: 0]
[max_delta_step: 0]
[lambda_l1: 0]
[lambda_l2: 0]
[linear_lambda: 0]
[min_gain_to_split: 0]
[drop_rate: 0.1]
[max_drop: 50]
[skip_drop: 0.5]
[xgboost_dart_mode: 0]
[uniform_drop: 0]
[drop_seed: 20829]
[top_rate: 0.2]
[other_rate: 0.1]
[min_data_per_group: 100]
[max_cat_threshold: 32]
[cat_l2: 10]
[cat_smooth: 10]
[max_cat_to_onehot: 4]
[top_k: 20]
[monotone_constraints: ]
[monotone_constraints_method: basic]
[monotone_penalty: 0]
[feature_contri: ]
[forcedsplits_filename: ]
[refit_decay_rate: 0.9]
[cegb_tradeoff: 1]
[cegb_penalty_split: 0]
[cegb_penalty_feature_lazy: ]
[cegb_penalty_feature_coupled: ]
[path_smooth: 0]
[interaction_constraints: ]
[verbosity: -1]
[saved_feature_importance_type: 0]
[use_quantized_grad: 0]
[num_grad_quant_bins: 4]
[quant_train_renew_leaf: 0]
[stochastic_rounding: 1]
[linear_tree: 0]
[max_bin: 255]
[max_bin_by_feature: ]
[min_data_in_bin: 3]
[bin_construct_sample_cnt: 200000]
[data_random_seed: 182]
[is_enable_sparse: 1]
[enable_bundle: 1]
[use_missing: 1]
[zero_as_missing: 0]
[feature_pre_filter: 1]
[pre_partition: 0]
[two_round: 0]
[header: 0]
[label_column: ]
[weight_column: ]
[group_column: ]
[ignore_column: ]
[categorical_feature: ]
[forcedbins_filename: ]
[precise_float_parser: 0]
[parser_config_file: ]
[objective_seed: 3944]
[num_class: 1]
[is_unbalance: 0]
[scale_pos_weight: 2.75749]
[sigmoid: 1]
[boost_from_average: 1]
[reg_sqrt: 0]
[alpha: 0.9]
[fair_c: 1]
[poisson_max_delta_step: 0.7]
[tweedie_variance_power: 1.5]
[lambdarank_truncation_level: 30]
[lambdarank_norm: 1]
[label_gain: ]
[lambdarank_position_bias_regularization: 0]
[eval_at: ]
[multi_error_top_k: 1]
[auc_mu_weights: ]
[num_machines: 1]
[local_listen_port: 12400]
[time_out: 120]
[machine_list_filename: ]
[machines: ]
[gpu_platform_id: -1]
[gpu_device_id: -1]
[gpu_use_dp: 1]
[num_gpu: 1]

end of parameters

pandas_categorical:[]
