{"learner":{"attributes":{},"feature_names":["hour","hour_sin","hour_cos","day_of_week","dow_sin","dow_cos","month","month_sin","month_cos","is_weekend","is_night","is_morning","is_afternoon","is_evening","cmg_lag_1h","cmg_lag_2h","cmg_lag_3h","cmg_lag_6h","cmg_lag_12h","cmg_lag_24h","cmg_lag_48h","cmg_lag_168h","cmg_mean_6h","cmg_std_6h","cmg_min_6h","cmg_max_6h","cmg_range_6h","cmg_cv_6h","cmg_mean_12h","cmg_std_12h","cmg_min_12h","cmg_max_12h","cmg_range_12h","cmg_cv_12h","cmg_mean_24h","cmg_std_24h","cmg_min_24h","cmg_max_24h","cmg_range_24h","cmg_cv_24h","cmg_mean_48h","cmg_std_48h","cmg_min_48h","cmg_max_48h","cmg_range_48h","cmg_cv_48h","cmg_mean_168h","cmg_std_168h","cmg_min_168h","cmg_max_168h","cmg_range_168h","cmg_cv_168h","zeros_count_6h","zeros_ratio_6h","zeros_count_12h","zeros_ratio_12h","zeros_count_24h","zeros_ratio_24h","zeros_count_48h","zeros_ratio_48h","zeros_count_168h","zeros_ratio_168h","hours_since_zero","was_zero_1h_ago","was_zero_2h_ago","was_zero_24h_ago","cmg_trend_6h","cmg_trend_12h","cmg_trend_24h","cmg_trend_48h","cmg_change_1h","cmg_change_24h","cmg_change_48h","cmg_same_hour_yesterday","cmg_same_hour_last_week","cmg_7d_median_same_hour","cmg_diff_vs_yesterday","cmg_diff_vs_last_week"],"feature_types":["int","float","float","int","float","float","int","float","float","int","int","int","int","int","float","float","float","float","float","float","float","float","float","float","float","float","float","float","float","float","float","float","float","float","float","float","float","float","float","float","float","float","float","float","float","float","float","float","float","float","float","float","float","float","float","float","float","float","float","float","float","float","int","int","int","int","float","float","float","float","float","float","float","float","float","float","float","float"],"gradient_booster":{"model":{"gbtree_model_param":{"num_parallel_tree":"1","num_trees":"41"},"iteration_indptr":[0,1,2,3,4,5,6,7,8,9,10,11,12,13,14,15,16,17,18,19,20,21,22,23,24,25,26,27,28,29,30,31,32,33,34,35,36,37,38,39,40,41],"tree_info":[0,0,0,0,0,0,0,0,0,0,0,0,0,0,0,0,0,0,0,0,0,0,0,0,0,0,0,0,0,0,0,0,0,0,0,0,0,0,0,0,0],"trees":[{"base_weights":[1.6894137E-3,5.027432E-1,-9.944154E-1,1.0667386E0,-3.721641E-2,-6.8712443E-1,-1.665967E0,7.290584E-1,1.6346732E0,4.6955904E-1,-4.989724E-1,-2.607284E-1,-1.1200926E0,-7.588666E-1,-1.7156893E0,3.471269E-1,1.3477211E0,9.861712E-1,1.7374966E0,8.032406E-1,-9.5376E-2,-1.8527727E-1,-9.8159635E-1,-4.9947584E-1,4.2309824E-1,-8.0006695E-1,-1.4636035E0,-1.2723619E0,8.119774E-1,-1.0275439E0,-1.781725E0,7.292286E-1,1.5962841E-2,1.5279971E0,2.709494E-1,1.3912222E0,-2.2707207E-2,9.6661305E-1,1.8008637E0,1.1857971E0,3.9847043E-1,1.2239022E0,-3.3354452E-1,-7.02541E-1,2.0707288E-1,-7.682224E-1,-1.3763856E0,3.4116593E-1,-7.2117776E-1,6.279737E-1,-1.3401593E0,-1.2165195E0,-3.230407E-1,1.1425869E-1,-1.5198048E0,-1.7310536E0,6.0209495E-1,-6.363636E-2,8.283442E-2,-1.7505709E0,4.4779277E-1,-1.7929378E0,-6.2521935E-2,-5.395129E-2,4.3155607E-2,-5.4338267E-3,9.069414E-2,-2.7332304E-2,7.846471E-2,6.1885532E-2,-2.1548333E-2,7.7518575E-2,-3.5887086E-3,-5.5092264E-2,6.878304E-2,6.615302E-2,-6.1567247E-2,7.505902E-2,9.272657E-2,-3.608343E-2,6.1300565E-2,2.5865877E-2,-7.431432E-2,7.3615156E-2,-3.6981625E-3,-3.23594E-2,9.587574E-3,-5.6660693E-2,-9.435976E-3,2.1715112E-2,-2.511014E-2,3.3444162E-2,-4.12423E-2,-4.6667792E-2,-8.300011E-2,6.278457E-2,-2.988182E-3,-1.7418858E-2,-5.4540265E-2,3.6844596E-2,-8.4E-2,-8.323572E-2,5.7961054E-2,3.5007808E-3,-7.1174674E-2,9.159823E-3,-6.1350103E-2,7.531114E-2,-8.0000006E-2,-3.2169092E-2,-8.012873E-2,8.649658E-3,-9.3939394E-2,-5.555556E-2,7.338651E-2,-3.1260967E-3,-9.633028E-2,5.564419E-2,-5.41612E-2,-9.627561E-2,-8.300025E-2,-6.0000002E-2,5.7961054E-2],"categories":[],"categories_nodes":[],"categories_segments":[],"categories_sizes":[],"default_left":[0,0,0,0,0,0,0,0,0,0,0,0,0,0,0,0,0,0,0,0,0,0,0,0,0,0,0,0,0,0,0,0,0,0,0,0,0,0,0,0,0,0,0,0,0,0,0,0,0,0,0,0,0,0,0,0,0,0,0,0,0,0,0,0,0,0,0,0,0,0,0,0,0,0,0,0,0,0,0,0,0,0,0,0,0,0,0,0,0,0,0,0,0,0,0,0,0,0,0,0,0,0,0,0,0,0,0,0,0,0,0,0,0,0,0,0,0,0,0,0,0,0,0],"id":0,"left_children":[1,3,5,7,9,11,13,15,17,19,21,23,25,27,29,31,33,35,37,39,41,43,45,47,49,51,53,55,57,59,61,63,65,67,69,71,73,75,77,79,81,83,85,87,89,91,93,95,97,99,101,103,105,107,109,111,113,-1,-1,115,117,119,121,-1,-1,-1,-1,-1,-1,-1,-1,-1,-1,-1,-1,-1,-1,-1,-1,-1,-1,-1,-1,-1,-1,-1,-1,-1,-1,-1,-1,-1,-1,-1,-1,-1,-1,-1,-1,-1,-1,-1,-1,-1,-1,-1,-1,-1,-1,-1,-1,-1,-1,-1,-1,-1,-1,-1,-1,-1,-1,-1,-1],"loss_changes":[2.4239407E3,9.8406525E2,3.342672E2,3.0191296E2,3.8675787E2,2.0588837E2,2.1680298E1,2.3415656E2,3.7529297E1,1.4862277E2,1.3073933E2,9.228734E1,5.971277E1,2.3838306E1,2.0085083E1,7.784641E1,7.309241E1,3.388974E1,2.3009033E1,7.625516E1,9.26301E1,1.06761185E2,2.7618988E1,7.82404E1,5.376074E1,5.700386E1,2.3753845E1,1.9697174E1,1.5448966E1,4.8349056E1,8.34436E0,7.008664E1,7.4290535E1,2.8629883E1,3.8209682E1,1.3879921E1,3.8818058E1,3.3471203E1,4.727295E0,2.0386505E1,5.5036484E1,1.4647881E1,4.121514E1,4.99797E1,4.8489647E1,1.8718338E1,1.3299225E1,3.234614E1,4.5296234E1,3.4400517E1,1.4558426E1,4.107817E1,6.2474037E1,2.6452248E1,1.7599915E1,5.300915E0,9.056982E0,0E0,0E0,8.832443E0,1.6949772E1,4.484009E0,6.781383E0,0E0,0E0,0E0,0E0,0E0,0E0,0E0,0E0,0E0,0E0,0E0,0E0,0E0,0E0,0E0,0E0,0E0,0E0,0E0,0E0,0E0,0E0,0E0,0E0,0E0,0E0,0E0,0E0,0E0,0E0,0E0,0E0,0E0,0E0,0E0,0E0,0E0,0E0,0E0,0E0,0E0,0E0,0E0,0E0,0E0,0E0,0E0,0E0,0E0,0E0,0E0,0E0,0E0,0E0,0E0,0E0,0E0,0E0,0E0,0E0],"parents":[2147483647,0,0,1,1,2,2,3,3,4,4,5,5,6,6,7,7,8,8,9,9,10,10,11,11,12,12,13,13,14,14,15,15,16,16,17,17,18,18,19,19,20,20,21,21,22,22,23,23,24,24,25,25,26,26,27,27,28,28,29,29,30,30,31,31,32,32,33,33,34,34,35,35,36,36,37,37,38,38,39,39,40,40,41,41,42,42,43,43,44,44,45,45,46,46,47,47,48,48,49,49,50,50,51,51,52,52,53,53,54,54,55,55,56,56,59,59,60,60,61,61,62,62],"right_children":[2,4,6,8,10,12,14,16,18,20,22,24,26,28,30,32,34,36,38,40,42,44,46,48,50,52,54,56,58,60,62,64,66,68,70,72,74,76,78,80,82,84,86,88,90,92,94,96,98,100,102,104,106,108,110,112,114,-1,-1,116,118,120,122,-1,-1,-1,-1,-1,-1,-1,-1,-1,-1,-1,-1,-1,-1,-1,-1,-1,-1,-1,-1,-1,-1,-1,-1,-1,-1,-1,-1,-1,-1,-1,-1,-1,-1,-1,-1,-1,-1,-1,-1,-1,-1,-1,-1,-1,-1,-1,-1,-1,-1,-1,-1,-1,-1,-1,-1,-1,-1,-1,-1],"split_conditions":[7.196739E1,1E1,1.7418E2,5E0,3.3088333E1,2.2E1,5.740707E1,1.2928219E0,4E0,1E0,1E0,9.142236E-1,9E0,4E0,-6.946E1,4.1494583E1,4.2672184E1,8.089757E-1,1E0,7.351E1,5.725E1,-1.8369701E-16,1.2246469E-16,4.268775E-1,5.832E1,4E0,4.149113E1,7.698586E1,5.219485E1,5E0,1.2470382E0,2.4262506E1,1.3447236E0,2.4668682E1,-5E-1,1E0,1.2703731E0,8.458E1,-3.398E1,7.644063E1,2.7562E2,2.35E1,1.6E1,8.1856096E-1,3.832E1,2.5659065E1,7.472792E-1,3.7782565E-1,1E1,2.4439E2,1E1,6.381E1,7.3175575E1,2.9E1,8.99462E0,9.349E1,4.078E1,-6.363636E-2,8.283442E-2,-7.0710677E-1,2.9824E2,1.9129208E2,2E1,-5.395129E-2,4.3155607E-2,-5.4338267E-3,9.069414E-2,-2.7332304E-2,7.846471E-2,6.1885532E-2,-2.1548333E-2,7.7518575E-2,-3.5887086E-3,-5.5092264E-2,6.878304E-2,6.615302E-2,-6.1567247E-2,7.505902E-2,9.272657E-2,-3.608343E-2,6.1300565E-2,2.5865877E-2,-7.431432E-2,7.3615156E-2,-3.6981625E-3,-3.23594E-2,9.587574E-3,-5.6660693E-2,-9.435976E-3,2.1715112E-2,-2.511014E-2,3.3444162E-2,-4.12423E-2,-4.6667792E-2,-8.300011E-2,6.278457E-2,-2.988182E-3,-1.7418858E-2,-5.4540265E-2,3.6844596E-2,-8.4E-2,-8.323572E-2,5.7961054E-2,3.5007808E-3,-7.1174674E-2,9.159823E-3,-6.1350103E-2,7.531114E-2,-8.0000006E-2,-3.2169092E-2,-8.012873E-2,8.649658E-3,-9.3939394E-2,-5.555556E-2,7.338651E-2,-3.1260967E-3,-9.633028E-2,5.564419E-2,-5.41612E-2,-9.627561E-2,-8.300025E-2,-6.0000002E-2,5.7961054E-2],"split_indices":[34,0,14,3,34,62,46,45,56,12,12,51,0,3,67,40,46,45,0,38,38,8,7,45,68,3,46,47,47,3,51,41,51,47,8,8,51,19,67,49,49,20,0,45,66,47,51,51,0,19,56,15,47,77,29,67,17,0,0,2,31,40,0,0,0,0,0,0,0,0,0,0,0,0,0,0,0,0,0,0,0,0,0,0,0,0,0,0,0,0,0,0,0,0,0,0,0,0,0,0,0,0,0,0,0,0,0,0,0,0,0,0,0,0,0,0,0,0,0,0,0,0,0],"split_type":[0,0,0,0,0,0,0,0,0,0,0,0,0,0,0,0,0,0,0,0,0,0,0,0,0,0,0,0,0,0,0,0,0,0,0,0,0,0,0,0,0,0,0,0,0,0,0,0,0,0,0,0,0,0,0,0,0,0,0,0,0,0,0,0,0,0,0,0,0,0,0,0,0,0,0,0,0,0,0,0,0,0,0,0,0,0,0,0,0,0,0,0,0,0,0,0,0,0,0,0,0,0,0,0,0,0,0,0,0,0,0,0,0,0,0,0,0,0,0,0,0,0,0],"sum_hessian":[4.8546016E3,3.2302427E3,1.624359E3,1.5794789E3,1.6507637E3,1.1158073E3,5.0855176E2,9.919646E2,5.8751434E2,7.870082E2,8.6375543E2,5.6297754E2,5.528297E2,2.727248E1,4.812793E2,6.1429224E2,3.7767236E2,8.1854225E1,5.056601E2,4.945048E2,2.9250342E2,5.243338E2,3.3942166E2,4.1748773E2,1.4548978E2,2.8792166E2,2.6490805E2,2.0696867E1,6.575613E0,4.35906E1,4.376887E2,2.846533E2,3.2963898E2,3.2315054E2,5.45218E1,5.813488E1,2.3719347E1,3.964305E1,4.6601703E2,2.5323637E2,2.412684E2,4.4097412E1,2.4840599E2,2.2582358E2,2.9851022E2,2.2224796E2,1.17173706E2,8.7013626E1,3.3047412E2,1.3092166E2,1.456812E1,1.5289305E2,1.3502861E2,9.075613E0,2.5583243E2,1.6689373E1,4.007493E0,1.75E0,4.825613E0,2.9128746E1,1.4461853E1,4.3480994E2,2.8787465E0,1.913624E1,2.6551703E2,3.0914716E2,2.0491827E1,6.06812E0,3.1708243E2,2.261308E1,3.190872E1,5.2377384E1,5.757493E0,1.3507493E1,1.0211853E1,3.445368E1,5.1893735E0,7.517984E1,3.908372E2,4.8787465E0,2.4835764E2,2.2763965E2,1.3628747E1,3.6900547E1,7.1968665E0,1.5539236E2,9.3013626E1,1.2219618E2,1.0362739E2,2.2637466E2,7.213556E1,8.014986E0,2.1423297E2,4.740872E1,6.9764984E1,2.5870573E1,6.114305E1,1.6549796E2,1.6497617E2,1.2567166E2,5.25E0,1.3189373E1,1.3787466E0,2.1279972E1,1.3161308E2,8.706676E1,4.7961853E1,5.075613E0,4E0,2.2833107E1,2.3299931E2,1.1893733E0,1.55E1,1.25E0,2.7574933E0,2.8787465E0,2.625E1,1.027248E1,4.1893735E0,2.1094687E2,2.2386308E2,1.5E0,1.3787466E0],"tree_param":{"num_deleted":"0","num_feature":"78","num_nodes":"123","size_leaf_vector":"1"}},{"base_weights":[1.3608814E-2,4.8902178E-1,-9.267922E-1,1.0128752E0,-4.8149787E-3,-6.424244E-1,-1.5371095E0,6.766289E-1,1.5624826E0,5.932221E-1,-3.5087296E-1,-2.6066953E-1,-1.0353009E0,-1.2208066E0,-1.7054962E0,1.0827785E0,1.6713308E-1,1.6018944E0,2.7756855E-1,9.508568E-1,-2.26647E-2,-6.392307E-2,-7.9816633E-1,5.435962E-1,-4.764733E-1,-7.968239E-1,-1.4570367E0,-1.4899924E0,-5.07045E-1,-1.761379E0,-1.2034004E0,-1.1491217E-1,1.322613E0,3.6212376E-1,-7.610138E-1,8.5189426E-1,1.6659827E0,-1.1188399E0,1.3277769E0,1.1005981E0,1.98867E-1,1.0916477E0,-2.891383E-1,2.4181674E-1,-6.2904274E-1,-1.5491222E0,-6.421915E-1,7.224129E-1,-1.5104331E0,-2.2772187E-1,-9.8055005E-1,1.5528014E-1,-9.6172726E-1,2.6538014E-1,-1.5485201E0,-1.7579865E0,-5.494859E-1,4.4416226E-2,-1.6406662E0,-1.8360776E0,-1.4661345E0,-9.1847554E-2,2.713898E-2,-7.564121E-2,8.636978E-3,-2.956282E-2,6.9288105E-2,2.4962297E-2,-2.136564E-2,-6.2358964E-2,1.8111182E-3,6.083211E-2,-5.2715193E-2,8.372768E-2,-5.404837E-2,-8.154802E-2,-3.5447162E-3,-1.3238855E-2,8.19092E-2,-7.950648E-2,5.6765806E-2,-2.6272139E-2,4.8364908E-2,6.4009994E-2,-6.192194E-3,-2.6559204E-2,2.8737703E-2,-1.2757701E-2,2.6191806E-2,-5.3206462E-2,-9.481626E-3,-6.487284E-3,-8.068218E-2,6.2483173E-2,-3.460769E-2,-6.257627E-2,4.530602E-2,8.337132E-3,-8.787666E-2,-2.0674865E-3,-5.499045E-2,-1.487787E-2,-6.799927E-2,4.919843E-2,-3.980739E-2,-2.6835477E-2,-6.1900873E-2,6.1570328E-2,-7.5255595E-2,2.563688E-3,-8.041157E-2,-9.291326E-2,-5.3707313E-2,-4.9204953E-2,6.015137E-2,-7.967519E-2,1.7349204E-2,1.0913054E-2,-8.9746706E-2,-2.2149753E-2,-9.236365E-2,3.17331E-2,-8.710549E-2,5.9293758E-2,-8.050266E-2],"categories":[],"categories_nodes":[],"categories_segments":[],"categories_sizes":[],"default_left":[0,0,0,0,0,0,0,0,0,0,0,0,0,0,0,0,0,0,0,0,0,0,0,0,0,0,0,0,0,0,0,0,0,0,0,0,0,0,0,0,0,0,0,0,0,0,0,0,0,0,0,0,0,0,0,0,0,0,0,0,0,0,0,0,0,0,0,0,0,0,0,0,0,0,0,0,0,0,0,0,0,0,0,0,0,0,0,0,0,0,0,0,0,0,0,0,0,0,0,0,0,0,0,0,0,0,0,0,0,0,0,0,0,0,0,0,0,0,0,0,0,0,0,0,0],"id":1,"left_children":[1,3,5,7,9,11,13,15,17,19,21,23,25,27,29,31,33,35,37,39,41,43,45,47,49,51,53,55,57,59,61,63,65,67,69,71,73,75,77,79,81,83,85,87,89,91,93,95,97,99,101,103,105,107,109,111,113,115,117,119,121,-1,123,-1,-1,-1,-1,-1,-1,-1,-1,-1,-1,-1,-1,-1,-1,-1,-1,-1,-1,-1,-1,-1,-1,-1,-1,-1,-1,-1,-1,-1,-1,-1,-1,-1,-1,-1,-1,-1,-1,-1,-1,-1,-1,-1,-1,-1,-1,-1,-1,-1,-1,-1,-1,-1,-1,-1,-1,-1,-1,-1,-1,-1,-1],"loss_changes":[2.165269E3,8.322002E2,2.8126013E2,2.874198E2,3.4310556E2,1.6637503E2,2.5410278E1,2.0059369E2,2.952185E1,1.3387413E2,1.3473909E2,9.829824E1,5.387683E1,3.4375397E1,7.2612915E0,1.5517804E2,7.837773E1,2.616748E1,2.9085403E1,4.3074493E1,6.6894646E1,1.1087613E2,4.706723E1,4.5154686E1,5.5687096E1,5.537967E1,3.1367798E1,3.2369232E1,3.232368E1,3.8955688E0,2.8615486E1,3.6838207E1,5.5173645E1,3.8891457E1,2.9209328E1,3.411973E1,1.4233887E1,4.5111246E0,5.9697723E0,3.1736755E1,3.6723026E1,1.0123699E1,3.8307373E1,5.8519196E1,4.2864212E1,6.1885223E0,3.3141083E1,4.1398964E1,4.4088116E0,4.869194E1,3.7698517E1,4.2407555E1,3.456183E1,2.0260319E1,1.7917023E1,5.0309753E0,2.4630621E1,1.8235104E1,5.2409286E0,2.8376465E0,3.8949936E1,0E0,2.7403444E1,0E0,0E0,0E0,0E0,0E0,0E0,0E0,0E0,0E0,0E0,0E0,0E0,0E0,0E0,0E0,0E0,0E0,0E0,0E0,0E0,0E0,0E0,0E0,0E0,0E0,0E0,0E0,0E0,0E0,0E0,0E0,0E0,0E0,0E0,0E0,0E0,0E0,0E0,0E0,0E0,0E0,0E0,0E0,0E0,0E0,0E0,0E0,0E0,0E0,0E0,0E0,0E0,0E0,0E0,0E0,0E0,0E0,0E0,0E0,0E0,0E0,0E0],"parents":[2147483647,0,0,1,1,2,2,3,3,4,4,5,5,6,6,7,7,8,8,9,9,10,10,11,11,12,12,13,13,14,14,15,15,16,16,17,17,18,18,19,19,20,20,21,21,22,22,23,23,24,24,25,25,26,26,27,27,28,28,29,29,30,30,31,31,32,32,33,33,34,34,35,35,36,36,37,37,38,38,39,39,40,40,41,41,42,42,43,43,44,44,45,45,46,46,47,47,48,48,49,49,50,50,51,51,52,52,53,53,54,54,55,55,56,56,57,57,58,58,59,59,60,60,62,62],"right_children":[2,4,6,8,10,12,14,16,18,20,22,24,26,28,30,32,34,36,38,40,42,44,46,48,50,52,54,56,58,60,62,64,66,68,70,72,74,76,78,80,82,84,86,88,90,92,94,96,98,100,102,104,106,108,110,112,114,116,118,120,122,-1,124,-1,-1,-1,-1,-1,-1,-1,-1,-1,-1,-1,-1,-1,-1,-1,-1,-1,-1,-1,-1,-1,-1,-1,-1,-1,-1,-1,-1,-1,-1,-1,-1,-1,-1,-1,-1,-1,-1,-1,-1,-1,-1,-1,-1,-1,-1,-1,-1,-1,-1,-1,-1,-1,-1,-1,-1,-1,-1,-1,-1,-1,-1],"split_conditions":[7.196739E1,1E1,1.7418E2,5E0,2.5844584E1,2.2E1,1.611E1,4.2672184E1,2E1,1E0,1E0,5.5012512E1,1.1E1,1.8681125E2,5E0,1.7E1,7.4595E1,1E0,6E0,1.059E1,5.725E1,6.478E1,5E0,2.4E1,9E0,-5E-1,5.7836615E-2,9.9780715E-1,2.5941E2,9.1837654E1,2.5366E2,2.2953575E1,2.5659065E1,3.141E1,9.45936E1,7.982E1,3.1589E2,2.5887194E1,2.3775625E1,2.7E1,4E0,1.1705E1,1.7E1,-1.8369701E-16,4E0,1.7970137E1,6.574E1,8.458E1,1E0,2.7763E2,3.053E1,4.103E1,1.1E1,3.763E1,4.1276966E1,2.2E1,4E0,1.495E2,-4.0290257E1,-8.660254E-1,9.234127E1,-9.1847554E-2,2.9105E2,-7.564121E-2,8.636978E-3,-2.956282E-2,6.9288105E-2,2.4962297E-2,-2.136564E-2,-6.2358964E-2,1.8111182E-3,6.083211E-2,-5.2715193E-2,8.372768E-2,-5.404837E-2,-8.154802E-2,-3.5447162E-3,-1.3238855E-2,8.19092E-2,-7.950648E-2,5.6765806E-2,-2.6272139E-2,4.8364908E-2,6.4009994E-2,-6.192194E-3,-2.6559204E-2,2.8737703E-2,-1.2757701E-2,2.6191806E-2,-5.3206462E-2,-9.481626E-3,-6.487284E-3,-8.068218E-2,6.2483173E-2,-3.460769E-2,-6.257627E-2,4.530602E-2,8.337132E-3,-8.787666E-2,-2.0674865E-3,-5.499045E-2,-1.487787E-2,-6.799927E-2,4.919843E-2,-3.980739E-2,-2.6835477E-2,-6.1900873E-2,6.1570328E-2,-7.5255595E-2,2.563688E-3,-8.041157E-2,-9.291326E-2,-5.3707313E-2,-4.9204953E-2,6.015137E-2,-7.967519E-2,1.7349204E-2,1.0913054E-2,-8.9746706E-2,-2.2149753E-2,-9.236365E-2,3.17331E-2,-8.710549E-2,5.9293758E-2,-8.050266E-2],"split_indices":[34,0,14,3,34,62,36,46,62,12,12,46,0,34,3,58,22,0,3,68,38,14,6,58,58,7,33,51,14,47,18,35,47,68,22,19,43,35,41,60,3,34,0,8,3,35,43,31,0,38,26,21,60,77,46,62,3,19,68,8,47,0,43,0,0,0,0,0,0,0,0,0,0,0,0,0,0,0,0,0,0,0,0,0,0,0,0,0,0,0,0,0,0,0,0,0,0,0,0,0,0,0,0,0,0,0,0,0,0,0,0,0,0,0,0,0,0,0,0,0,0,0,0,0,0],"split_type":[0,0,0,0,0,0,0,0,0,0,0,0,0,0,0,0,0,0,0,0,0,0,0,0,0,0,0,0,0,0,0,0,0,0,0,0,0,0,0,0,0,0,0,0,0,0,0,0,0,0,0,0,0,0,0,0,0,0,0,0,0,0,0,0,0,0,0,0,0,0,0,0,0,0,0,0,0,0,0,0,0,0,0,0,0,0,0,0,0,0,0,0,0,0,0,0,0,0,0,0,0,0,0,0,0,0,0,0,0,0,0,0,0,0,0,0,0,0,0,0,0,0,0,0,0],"sum_hessian":[4.8411343E3,3.2158596E3,1.6252748E3,1.5599941E3,1.6558655E3,1.1100957E3,5.151791E2,9.6924646E2,5.907477E2,6.066956E2,1.0491699E3,5.638605E2,5.4623517E2,1.8184525E2,3.3333383E2,5.386951E2,4.3055133E2,5.7292773E2,1.7819954E1,3.8347467E2,2.2322096E2,6.3983966E2,4.0933023E2,1.1896781E2,4.4489267E2,3.507741E2,1.9546109E2,1.3125618E2,5.0589066E1,2.9769287E2,3.5640972E1,8.9961975E1,4.487332E2,3.563062E2,7.424512E1,4.6228355E1,5.2669934E2,7.62115E0,1.0198804E1,3.1940833E2,6.4066345E1,4.2481106E1,1.8073985E2,4.1557715E2,2.2426254E2,6.886089E1,3.4046933E2,1.100367E2,8.931117E0,2.9886215E2,1.4603053E2,5.179325E1,2.9898083E2,9.762123E0,1.8569896E2,1.0147269E2,2.9783497E1,3.4679634E1,1.5909431E1,2.3341794E2,6.427492E1,2.3202318E1,1.2438656E1,1.46257E1,7.533628E1,1.4066114E1,4.3466705E2,3.0388937E2,5.2416843E1,4.5769733E1,2.847538E1,3.9107033E1,7.1213226E0,5.254503E2,1.249052E0,4.745655E0,2.8754947E0,1.6875867E0,8.511217E0,3.4980643E0,3.1591025E2,3.3142765E1,3.0923576E1,3.6730137E1,5.7509685E0,1.4148395E2,3.925591E1,1.5048674E2,2.650904E2,1.11971306E2,1.1229123E2,3.125057E0,6.573584E1,8.14232E0,3.3232703E2,8.873907E0,1.0116279E2,1.188622E0,7.7424946E0,2.4710188E2,5.1760273E1,5.2790543E1,9.323999E1,2.7663925E1,2.4129326E1,1.1894701E2,1.8003383E2,6.5129642E0,3.249159E0,6.6867895E0,1.7901218E2,8.699789E1,1.4474798E1,2.4216429E1,5.5670695E0,4.7421103E0,2.9937525E1,1.1873271E0,1.4722104E1,2.184308E0,2.3123364E2,7.3122683E0,5.696265E1,7.4450355E0,4.99362E0],"tree_param":{"num_deleted":"0","num_feature":"78","num_nodes":"125","size_leaf_vector":"1"}},{"base_weights":[3.5281642E-3,-5.6949353E-1,6.6151696E-1,-2.0445938E-1,-1.1881162E0,1.1425734E0,1.0814252E-1,2.4002516E-1,-5.920786E-1,-8.3332103E-1,-1.5366876E0,-5.149363E-1,1.2196124E0,6.31181E-1,-3.9202976E-1,-2.17625E-1,9.951534E-1,-2.1227904E-1,-9.5038533E-1,-5.0264734E-1,-1.2384244E0,-1.6169952E0,-3.149795E-2,-1.6625481E0,2.1647934E-2,9.787913E-1,1.6126059E0,-1.1238939E-2,1.0329009E0,1.4396535E-1,-6.366359E-1,-1.3425143E0,1.0442185E-2,1.1291664E0,-7.087177E-1,-7.089216E-1,2.020153E-1,-6.008764E-1,-1.2589747E0,-5.482071E-2,-9.3696487E-1,-3.4033278E-1,-1.3881164E0,5.5877965E-2,-1.633226E0,8.673635E-1,-1.2426088E0,-9.085457E-2,1.2348429E-2,-4.2472464E-1,1.2437565E0,1.2599447E0,3.8042334E-1,1.6256883E0,9.426213E-2,-3.2087094E-1,8.2547116E-1,1.1221935E0,1.0954477E-1,1.4741277E0,-1.2400305E-2,-4.684425E-1,-1.437087E0,-7.467786E-2,6.335841E-2,6.0474966E-3,-7.341266E-2,6.079501E-2,-2.6417686E-2,6.991681E-2,-6.616285E-2,3.15676E-2,-3.9769635E-2,-1.9179864E-2,2.6848484E-2,2.0157013E-3,-3.9822925E-2,-4.793504E-2,-8.7951206E-2,-2.0135362E-2,3.2680973E-2,4.2803008E-2,-5.3871688E-2,-6.1490454E-2,3.6992703E-2,7.1277185E-3,-7.274923E-2,-8.548876E-2,-6.754299E-2,6.11294E-2,-6.039722E-2,5.9513148E-2,-8.493643E-2,4.0293943E-2,-4.1278373E-2,-3.8312466E-3,7.310628E-2,-1.1454361E-3,6.694108E-2,4.4709872E-2,1.7022884E-3,8.326182E-2,5.520094E-2,6.408019E-2,-6.311931E-2,-7.485805E-4,-5.5737812E-2,-1.1797162E-2,5.7029624E-2,5.9051663E-2,-2.1053493E-2,-5.3537972E-2,5.4647762E-2,-1.2570671E-2,8.3466224E-2,-1.7969718E-2,2.4015144E-2,-8.102749E-2,-1.6684433E-2,-8.594316E-2,-2.5208129E-2],"categories":[],"categories_nodes":[],"categories_segments":[],"categories_sizes":[],"default_left":[0,0,0,0,0,0,0,0,0,0,0,0,0,0,0,0,0,0,0,0,0,0,0,0,0,0,0,0,0,0,0,0,0,0,0,0,0,0,0,0,0,0,0,0,0,0,0,0,0,0,0,0,0,0,0,0,0,0,0,0,0,0,0,0,0,0,0,0,0,0,0,0,0,0,0,0,0,0,0,0,0,0,0,0,0,0,0,0,0,0,0,0,0,0,0,0,0,0,0,0,0,0,0,0,0,0,0,0,0,0,0,0,0,0,0,0,0,0,0,0,0],"id":2,"left_children":[1,3,5,7,9,11,13,15,17,19,21,23,25,27,29,31,33,35,37,39,41,43,45,47,49,51,53,55,57,59,61,63,65,67,69,71,73,75,77,79,81,83,85,-1,87,89,91,-1,-1,93,95,97,99,101,103,105,107,109,111,113,115,117,119,-1,-1,-1,-1,-1,-1,-1,-1,-1,-1,-1,-1,-1,-1,-1,-1,-1,-1,-1,-1,-1,-1,-1,-1,-1,-1,-1,-1,-1,-1,-1,-1,-1,-1,-1,-1,-1,-1,-1,-1,-1,-1,-1,-1,-1,-1,-1,-1,-1,-1,-1,-1,-1,-1,-1,-1,-1,-1],"loss_changes":[1.836933E3,5.8781525E2,6.035855E2,2.8251654E2,1.1820825E2,1.5553064E2,2.7644196E2,2.643055E2,1.1897601E2,6.381079E1,5.871765E1,3.3646904E1,1.0815857E2,1.3329654E2,7.092776E1,1.2229419E2,6.668759E1,8.788127E1,4.7815216E1,5.178482E1,2.8497223E1,2.2309937E1,2.8996044E1,5.5843163E0,2.1355593E1,1.20899414E2,8.567139E0,5.199946E1,2.6076874E1,3.5401527E1,4.9297775E1,3.356578E1,6.509584E1,3.915564E1,2.9889977E1,2.300393E1,4.596093E1,2.675399E1,3.4088745E1,3.2863823E1,3.4982986E1,3.1761776E1,1.9079071E1,0E0,7.616333E0,1.2762832E1,1.460154E1,0E0,0E0,1.4827557E1,3.1304836E0,4.9655396E1,4.1268513E1,7.1401367E0,9.368887E0,3.555443E1,1.8403484E1,2.67984E1,3.4980156E1,6.4497223E0,2.636715E1,4.730838E1,1.5948456E1,0E0,0E0,0E0,0E0,0E0,0E0,0E0,0E0,0E0,0E0,0E0,0E0,0E0,0E0,0E0,0E0,0E0,0E0,0E0,0E0,0E0,0E0,0E0,0E0,0E0,0E0,0E0,0E0,0E0,0E0,0E0,0E0,0E0,0E0,0E0,0E0,0E0,0E0,0E0,0E0,0E0,0E0,0E0,0E0,0E0,0E0,0E0,0E0,0E0,0E0,0E0,0E0,0E0,0E0,0E0,0E0,0E0,0E0],"parents":[2147483647,0,0,1,1,2,2,3,3,4,4,5,5,6,6,7,7,8,8,9,9,10,10,11,11,12,12,13,13,14,14,15,15,16,16,17,17,18,18,19,19,20,20,21,21,22,22,23,23,24,24,25,25,26,26,27,27,28,28,29,29,30,30,31,31,32,32,33,33,34,34,35,35,36,36,37,37,38,38,39,39,40,40,41,41,42,42,44,44,45,45,46,46,49,49,50,50,51,51,52,52,53,53,54,54,55,55,56,56,57,57,58,58,59,59,60,60,61,61,62,62],"right_children":[2,4,6,8,10,12,14,16,18,20,22,24,26,28,30,32,34,36,38,40,42,44,46,48,50,52,54,56,58,60,62,64,66,68,70,72,74,76,78,80,82,84,86,-1,88,90,92,-1,-1,94,96,98,100,102,104,106,108,110,112,114,116,118,120,-1,-1,-1,-1,-1,-1,-1,-1,-1,-1,-1,-1,-1,-1,-1,-1,-1,-1,-1,-1,-1,-1,-1,-1,-1,-1,-1,-1,-1,-1,-1,-1,-1,-1,-1,-1,-1,-1,-1,-1,-1,-1,-1,-1,-1,-1,-1,-1,-1,-1,-1,-1,-1,-1,-1,-1,-1,-1],"split_conditions":[8E0,2.5E1,1.1E1,1E1,1.8859E2,6.4265275E-1,3.0187603E1,5E0,5.740707E1,1E1,6E0,2E0,5E0,1.7E1,-2.299E1,1.8E1,8.739754E1,1.7E1,-9.038842E0,-3.2E0,7.1581924E1,4.815125E1,4E0,1.783175E2,1.4E1,4.2672184E1,8.697211E1,2E1,3.86E1,1.3316E2,2.6749377E2,3.3542E2,1.2769E2,5.94E1,2.9076E2,7.644063E1,-1.8369701E-16,2.287E2,3.1E1,5E0,3.134895E0,5.3416042E1,4.149113E1,5.5877965E-2,2E1,1.77E2,2.1369783E1,-9.085457E-2,1.2348429E-2,8.1517726E-1,7.502303E1,6.366E1,9.41E1,1E1,1.0492039E0,4.412609E1,1.7888308E0,8.607E1,2.485884E2,1.8E1,2E1,8.2406205E-1,8.333333E-1,-7.467786E-2,6.335841E-2,6.0474966E-3,-7.341266E-2,6.079501E-2,-2.6417686E-2,6.991681E-2,-6.616285E-2,3.15676E-2,-3.9769635E-2,-1.9179864E-2,2.6848484E-2,2.0157013E-3,-3.9822925E-2,-4.793504E-2,-8.7951206E-2,-2.0135362E-2,3.2680973E-2,4.2803008E-2,-5.3871688E-2,-6.1490454E-2,3.6992703E-2,7.1277185E-3,-7.274923E-2,-8.548876E-2,-6.754299E-2,6.11294E-2,-6.039722E-2,5.9513148E-2,-8.493643E-2,4.0293943E-2,-4.1278373E-2,-3.8312466E-3,7.310628E-2,-1.1454361E-3,6.694108E-2,4.4709872E-2,1.7022884E-3,8.326182E-2,5.520094E-2,6.408019E-2,-6.311931E-2,-7.485805E-4,-5.5737812E-2,-1.1797162E-2,5.7029624E-2,5.9051663E-2,-2.1053493E-2,-5.3537972E-2,5.4647762E-2,-1.2570671E-2,8.3466224E-2,-1.7969718E-2,2.4015144E-2,-8.102749E-2,-1.6684433E-2,-8.594316E-2,-2.5208129E-2],"split_indices":[56,62,0,0,25,51,35,3,46,0,3,3,3,0,76,60,41,0,69,76,31,40,0,28,56,46,35,56,40,49,49,43,20,76,49,43,8,49,60,3,36,40,46,0,0,19,35,0,0,39,40,43,43,0,39,47,45,38,49,58,0,45,55,0,0,0,0,0,0,0,0,0,0,0,0,0,0,0,0,0,0,0,0,0,0,0,0,0,0,0,0,0,0,0,0,0,0,0,0,0,0,0,0,0,0,0,0,0,0,0,0,0,0,0,0,0,0,0,0,0,0],"split_type":[0,0,0,0,0,0,0,0,0,0,0,0,0,0,0,0,0,0,0,0,0,0,0,0,0,0,0,0,0,0,0,0,0,0,0,0,0,0,0,0,0,0,0,0,0,0,0,0,0,0,0,0,0,0,0,0,0,0,0,0,0,0,0,0,0,0,0,0,0,0,0,0,0,0,0,0,0,0,0,0,0,0,0,0,0,0,0,0,0,0,0,0,0,0,0,0,0,0,0,0,0,0,0,0,0,0,0,0,0,0,0,0,0,0,0,0,0,0,0,0,0],"sum_hessian":[4.8699614E3,2.60312E3,2.266841E3,1.6379414E3,9.651789E2,1.2120894E3,1.0547517E3,7.6318024E2,8.747611E2,4.799996E2,4.8517926E2,5.3581745E1,1.1585076E3,5.154623E2,5.3928937E2,4.756322E2,2.8754803E2,4.2541754E2,4.4934357E2,2.6551138E2,2.144882E2,4.6053375E2,2.4645521E1,1.6402576E1,3.7179165E1,7.204912E2,4.3801636E2,1.9869176E2,3.1677054E2,1.6911855E2,3.7017084E2,7.935337E1,3.9627884E2,2.6689362E2,2.0654432E1,1.9315659E2,2.3226097E2,2.1208394E2,2.3725961E2,1.3127718E2,1.3423422E2,3.1110617E1,1.8337758E2,2.3169646E0,4.582168E2,1.430929E1,1.0336231E1,1.5219238E1,1.1833386E0,2.771045E1,9.468717E0,4.894222E2,2.31069E2,4.3420447E2,3.811885E0,1.4547423E2,5.321752E1,2.8864224E2,2.812827E1,1.6902855E1,1.5221568E2,3.0720514E2,6.2965725E1,7.541613E1,3.9372394E0,3.6957733E2,2.6701519E1,2.5387538E2,1.3018226E1,4.3758063E0,1.6278627E1,1.1324782E1,1.818318E2,8.445685E1,1.4780412E2,4.975677E1,1.6232718E2,1.5006471E2,8.719491E1,8.833229E1,4.2944878E1,9.38205E0,1.2485217E2,1.6985472E1,1.4125146E1,7.6282563E0,1.7574933E2,3.5651163E2,1.0170516E2,1.256881E1,1.7404786E0,1.3777883E0,8.958444E0,6.5601287E0,2.1150322E1,1.4358529E0,8.032865E0,2.8390442E1,4.6103177E2,9.241312E1,1.3865587E2,4.0156918E2,3.2635296E1,2.062285E0,1.7496003E0,1.057468E2,3.972743E1,1.224026E1,4.097726E1,2.782675E2,1.0374757E1,1.2743956E1,1.5384313E1,1.6884993E0,1.5214356E1,8.947327E1,6.2742413E1,3.1014442E1,2.7619067E2,4.7712433E1,1.5253289E1],"tree_param":{"num_deleted":"0","num_feature":"78","num_nodes":"121","size_leaf_vector":"1"}},{"base_weights":[-1.0304936E-2,4.2926493E-1,-8.7857056E-1,9.2747295E-1,-4.2144366E-2,-6.001561E-1,-1.4803178E0,6.265307E-1,1.4317654E0,4.0885168E-1,-4.4881305E-1,-2.3727314E-1,-9.704241E-1,-1.5070082E0,3.5470062E-1,-3.279538E-2,9.188651E-1,8.322937E-1,1.5359646E0,6.967748E-1,-8.243626E-2,-1.9228576E-1,-8.4777516E-1,-4.802502E-1,4.3486336E-1,-2.6609915E-1,-1.0919957E0,-9.555195E-1,-1.5711324E0,-6.378256E-2,1.1920176E0,5.8097595E-1,-4.002372E-1,1.14455E0,1.9710599E-1,1.584388E-1,1.3222723E0,8.864214E-1,1.5875258E0,8.975451E-1,-1.382948E-1,1.1644062E0,-2.5145152E-1,-6.075674E-1,1.3578193E-1,-1.2850584E0,-6.316376E-1,2.8398352E-2,-7.415265E-1,-1.6687343E-1,9.2386115E-1,2.606198E-1,-1.2644047E0,-1.2946004E0,-7.8470266E-1,-1.2913767E0,6.495101E-1,-1.6360291E0,-1.1777822E0,7.615159E-2,2.065942E-2,3.8566034E-2,-6.353227E-2,-1.05286185E-2,-6.668168E-2,-8.8310876E-4,6.326736E-2,-4.3566514E-2,2.17533E-2,4.049283E-2,-5.480754E-2,3.7520476E-2,8.293874E-2,5.8830597E-2,-5.438726E-2,6.8930425E-2,8.206151E-2,5.9512537E-2,2.5714485E-2,5.546397E-2,-2.5048932E-2,6.684002E-2,-6.580354E-2,-7.311122E-2,-6.0242615E-3,-4.7599312E-2,6.1196047E-3,2.3911754E-2,-1.551501E-2,-7.0992015E-2,-3.6757912E-2,-1.8862007E-2,-5.3658754E-2,-2.5188431E-2,2.7286137E-2,-5.662256E-2,-2.2319982E-2,-4.3599587E-2,3.155957E-2,5.8133334E-2,-3.0966891E-2,5.258291E-2,-3.955432E-2,7.152012E-2,-8.1789784E-2,-5.535186E-2,-8.2721464E-2,-7.430292E-2,-1.7591383E-2,2.7818277E-2,-7.4684694E-2,-6.766063E-2,8.319449E-2,-7.19404E-2,-8.577298E-2,-7.903167E-3,-7.50459E-2],"categories":[],"categories_nodes":[],"categories_segments":[],"categories_sizes":[],"default_left":[0,0,0,0,0,0,0,0,0,0,0,0,0,0,0,0,0,0,0,0,0,0,0,0,0,0,0,0,0,0,0,0,0,0,0,0,0,0,0,0,0,0,0,0,0,0,0,0,0,0,0,0,0,0,0,0,0,0,0,0,0,0,0,0,0,0,0,0,0,0,0,0,0,0,0,0,0,0,0,0,0,0,0,0,0,0,0,0,0,0,0,0,0,0,0,0,0,0,0,0,0,0,0,0,0,0,0,0,0,0,0,0,0,0,0,0,0],"id":3,"left_children":[1,3,5,7,9,11,13,15,17,19,21,23,25,27,29,31,33,35,37,39,41,43,45,47,49,51,53,55,57,-1,59,61,63,65,67,69,71,73,75,77,79,81,83,85,87,89,91,93,95,97,99,101,103,105,107,109,111,113,115,-1,-1,-1,-1,-1,-1,-1,-1,-1,-1,-1,-1,-1,-1,-1,-1,-1,-1,-1,-1,-1,-1,-1,-1,-1,-1,-1,-1,-1,-1,-1,-1,-1,-1,-1,-1,-1,-1,-1,-1,-1,-1,-1,-1,-1,-1,-1,-1,-1,-1,-1,-1,-1,-1,-1,-1,-1,-1],"loss_changes":[1.8298916E3,7.4761505E2,2.6908716E2,2.339701E2,3.0032376E2,1.480268E2,2.5466797E1,1.8718143E2,3.4801514E1,1.0989209E2,8.795642E1,9.143275E1,4.644568E1,1.6249634E1,1.2588415E1,6.771782E1,1.0935852E2,2.8751587E1,1.5033447E1,8.222044E1,6.094367E1,7.165549E1,3.1007523E1,5.4608025E1,4.394907E1,4.327192E1,2.794403E1,3.0399136E1,9.512207E0,0E0,8.8490963E-1,4.0617928E1,3.2960766E1,7.19436E1,4.1429356E1,3.199623E1,8.502022E0,2.3259142E1,2.8259277E0,4.3687256E1,4.3891846E1,1.6526695E1,4.014385E1,5.8453125E1,4.5107376E1,7.13826E0,2.512339E1,3.891376E1,3.0805801E1,3.857602E1,3.103611E1,4.599738E1,3.0740501E1,1.69841E1,5.636087E1,1.7908455E1,2.2880665E1,3.517273E0,2.1850235E1,0E0,0E0,0E0,0E0,0E0,0E0,0E0,0E0,0E0,0E0,0E0,0E0,0E0,0E0,0E0,0E0,0E0,0E0,0E0,0E0,0E0,0E0,0E0,0E0,0E0,0E0,0E0,0E0,0E0,0E0,0E0,0E0,0E0,0E0,0E0,0E0,0E0,0E0,0E0,0E0,0E0,0E0,0E0,0E0,0E0,0E0,0E0,0E0,0E0,0E0,0E0,0E0,0E0,0E0,0E0,0E0,0E0,0E0],"parents":[2147483647,0,0,1,1,2,2,3,3,4,4,5,5,6,6,7,7,8,8,9,9,10,10,11,11,12,12,13,13,14,14,15,15,16,16,17,17,18,18,19,19,20,20,21,21,22,22,23,23,24,24,25,25,26,26,27,27,28,28,30,30,31,31,32,32,33,33,34,34,35,35,36,36,37,37,38,38,39,39,40,40,41,41,42,42,43,43,44,44,45,45,46,46,47,47,48,48,49,49,50,50,51,51,52,52,53,53,54,54,55,55,56,56,57,57,58,58],"right_children":[2,4,6,8,10,12,14,16,18,20,22,24,26,28,30,32,34,36,38,40,42,44,46,48,50,52,54,56,58,-1,60,62,64,66,68,70,72,74,76,78,80,82,84,86,88,90,92,94,96,98,100,102,104,106,108,110,112,114,116,-1,-1,-1,-1,-1,-1,-1,-1,-1,-1,-1,-1,-1,-1,-1,-1,-1,-1,-1,-1,-1,-1,-1,-1,-1,-1,-1,-1,-1,-1,-1,-1,-1,-1,-1,-1,-1,-1,-1,-1,-1,-1,-1,-1,-1,-1,-1,-1,-1,-1,-1,-1,-1,-1,-1,-1,-1,-1],"split_conditions":[7.1300835E1,1E1,1.7418E2,5E0,3.3088333E1,2.2E1,8.3E1,8.859213E-1,4E0,1E0,1E0,9.142236E-1,-5E-1,-7.818315E-1,1.7783E2,8.899E1,4.6733154E1,6E0,1E0,1.117E1,5.125541E1,-1.8369701E-16,7E0,5.053195E-1,6.961313E1,1.1E1,4E0,8.660254E-1,8.790713E1,-6.378256E-2,8.597396E1,1.1258456E0,1.4E1,8E0,1.6793098E1,5.4235832E1,9.957E1,8.458E1,8.622334E-1,7.351E1,9.76875E0,1.023524E1,1.001E2,9.075646E-1,1.3E-1,1.5511795E0,3.511007E1,6.7621574E0,2.5881904E-1,4E0,2.6749377E2,4.103E1,7.696688E-1,1.2596709E2,7.155E1,5.0175095E1,2.4093E2,2.681757E-1,4.7082233E-1,7.615159E-2,2.065942E-2,3.8566034E-2,-6.353227E-2,-1.05286185E-2,-6.668168E-2,-8.8310876E-4,6.326736E-2,-4.3566514E-2,2.17533E-2,4.049283E-2,-5.480754E-2,3.7520476E-2,8.293874E-2,5.8830597E-2,-5.438726E-2,6.8930425E-2,8.206151E-2,5.9512537E-2,2.5714485E-2,5.546397E-2,-2.5048932E-2,6.684002E-2,-6.580354E-2,-7.311122E-2,-6.0242615E-3,-4.7599312E-2,6.1196047E-3,2.3911754E-2,-1.551501E-2,-7.0992015E-2,-3.6757912E-2,-1.8862007E-2,-5.3658754E-2,-2.5188431E-2,2.7286137E-2,-5.662256E-2,-2.2319982E-2,-4.3599587E-2,3.155957E-2,5.8133334E-2,-3.0966891E-2,5.258291E-2,-3.955432E-2,7.152012E-2,-8.1789784E-2,-5.535186E-2,-8.2721464E-2,-7.430292E-2,-1.7591383E-2,2.7818277E-2,-7.4684694E-2,-6.766063E-2,8.319449E-2,-7.19404E-2,-8.577298E-2,-7.903167E-3,-7.50459E-2],"split_indices":[34,0,14,3,34,62,60,45,56,12,12,51,7,4,22,43,46,3,0,76,38,8,6,45,40,0,3,1,35,0,40,51,58,56,34,28,38,19,39,38,34,28,49,39,66,27,14,24,1,3,49,21,51,46,21,41,38,45,45,0,0,0,0,0,0,0,0,0,0,0,0,0,0,0,0,0,0,0,0,0,0,0,0,0,0,0,0,0,0,0,0,0,0,0,0,0,0,0,0,0,0,0,0,0,0,0,0,0,0,0,0,0,0,0,0,0,0],"split_type":[0,0,0,0,0,0,0,0,0,0,0,0,0,0,0,0,0,0,0,0,0,0,0,0,0,0,0,0,0,0,0,0,0,0,0,0,0,0,0,0,0,0,0,0,0,0,0,0,0,0,0,0,0,0,0,0,0,0,0,0,0,0,0,0,0,0,0,0,0,0,0,0,0,0,0,0,0,0,0,0,0,0,0,0,0,0,0,0,0,0,0,0,0,0,0,0,0,0,0,0,0,0,0,0,0,0,0,0,0,0,0,0,0,0,0,0,0],"sum_hessian":[4.792529E3,3.1820723E3,1.6104567E3,1.546592E3,1.6354802E3,1.1023995E3,5.0805716E2,9.699849E2,5.766071E2,7.754737E2,8.600066E2,5.575806E2,5.4481885E2,5.009496E2,7.107572E0,2.982361E2,6.717488E2,8.6714516E1,4.898926E2,4.8866785E2,2.8680585E2,5.24343E2,3.3566357E2,4.097439E2,1.4783676E2,8.066647E1,4.6415237E2,5.3836823E1,4.4711276E2,2.2340748E0,4.8734975E0,1.1146496E2,1.8677115E2,5.1128937E2,1.6045944E2,3.70643E1,4.9650215E1,3.7365993E1,4.525266E2,3.9389212E2,9.477572E1,3.3533863E1,2.5327199E2,2.3103604E2,2.9330695E2,1.09394424E2,2.2626915E2,1.3935027E2,2.7039362E2,6.6573456E1,8.1263306E1,5.328929E1,2.7377184E1,2.7778802E2,1.8636435E2,4.468233E1,9.154492E0,3.8108102E2,6.603175E1,2.749414E0,2.1240833E0,1.01603645E2,9.861311E0,1.5624748E2,3.0523666E1,4.821899E1,4.6307037E2,2.8742855E1,1.317166E2,2.4630135E1,1.2434165E1,1.9589403E1,3.006081E1,3.2929543E1,4.436449E0,9.7992455E1,3.5453418E2,2.2213454E2,1.7175758E2,2.0883007E1,7.3892715E1,3.1785805E1,1.7480565E0,2.372953E1,2.2954245E2,1.56765E2,7.427103E1,1.6588585E2,1.27421104E2,8.65892E1,2.2805216E1,1.447335E2,8.153565E1,6.870265E1,7.0647606E1,1.1509789E2,1.5529573E2,3.529577E1,3.1277685E1,7.058679E1,1.0676512E1,3.0413725E1,2.2875566E1,2.9706593E0,2.4406525E1,1.8528406E2,9.250396E1,7.0196724E1,1.1616762E2,4.2369266E0,4.0445404E1,2.965527E0,6.188965E0,1.1490134E2,2.661797E2,1.6247791E1,4.9783966E1],"tree_param":{"num_deleted":"0","num_feature":"78","num_nodes":"117","size_leaf_vector":"1"}},{"base_weights":[1.918108E-3,4.9254492E-1,-6.882E-1,9.114024E-1,8.1932604E-2,-9.5807654E-1,-1.19110264E-1,6.3039076E-1,1.3863307E0,4.5925763E-1,-3.8096955E-1,-1.2966249E0,-5.4767525E-1,-3.6391243E-1,7.6388407E-1,4.2697424E-1,1.4902449E0,1.4354284E0,-3.1780204E-1,9.2190397E-1,2.4244682E-1,3.018348E-1,-4.7802395E-1,-1.4653736E0,-9.021466E-1,-1.1091806E0,-6.211807E-2,-1.783364E-1,-9.785938E-1,4.4029813E-2,1.3811053E0,6.2066257E-1,-3.485467E-2,-9.495051E-1,1.5428387E0,8.180479E-1,1.4856951E0,-1.3288219E0,6.0895383E-1,6.9782454E-1,1.27893E0,4.0055984E-1,-5.526876E-1,-1.5725467E-1,9.10868E-1,-8.3649635E-1,-1.8712804E-1,-1.0589877E0,-1.5649239E0,-1.4203556E0,-3.1561872E-1,-7.223025E-1,-1.4226844E0,1.2647513E-1,-1.2807581E0,-3.4675232E-1,5.990949E-1,6.2689716E-1,-1.0940396E0,-1.1016109E0,7.878851E-1,1.4710002E0,-6.471924E-2,3.2703605E-2,-7.432467E-2,8.937796E-3,-4.0945183E-2,-6.910398E-2,4.1000647E-3,3.768562E-2,8.0111526E-2,6.5882325E-2,-3.2742854E-2,5.1793028E-2,7.7643886E-2,-8.198805E-2,1.0218636E-2,-6.635004E-2,6.4293765E-2,3.6132045E-3,4.4798087E-2,6.728297E-2,-2.1559104E-2,-1.0042356E-3,3.673058E-2,1.5126322E-2,-4.525097E-2,4.8744604E-2,-2.2855708E-2,5.335194E-2,-6.481069E-2,-4.813628E-2,1.5008621E-2,6.225168E-3,-3.9658472E-2,-6.1901044E-2,3.27933E-2,-3.4401283E-2,-7.960052E-2,2.341511E-2,-7.672968E-2,-4.1714292E-2,2.1789934E-2,-5.952036E-2,-6.5594055E-3,1.5452432E-2,-7.476356E-2,-6.1279777E-3,5.7976414E-2,-8.387433E-2,-1.8275332E-2,2.0997379E-2,-2.775602E-2,5.5321094E-2,-1.8507672E-2,8.918878E-2,-6.7123495E-2,-6.885163E-2,-2.3798807E-2,-7.171942E-2,3.0572047E-2,5.572655E-3,7.8681104E-2,-5.919028E-2,7.662814E-2],"categories":[],"categories_nodes":[],"categories_segments":[],"categories_sizes":[],"default_left":[0,0,0,0,0,0,0,0,0,0,0,0,0,0,0,0,0,0,0,0,0,0,0,0,0,0,0,0,0,0,0,0,0,0,0,0,0,0,0,0,0,0,0,0,0,0,0,0,0,0,0,0,0,0,0,0,0,0,0,0,0,0,0,0,0,0,0,0,0,0,0,0,0,0,0,0,0,0,0,0,0,0,0,0,0,0,0,0,0,0,0,0,0,0,0,0,0,0,0,0,0,0,0,0,0,0,0,0,0,0,0,0,0,0,0,0,0,0,0,0,0,0,0,0,0],"id":4,"left_children":[1,3,5,7,9,11,13,15,17,19,21,23,25,27,29,31,33,35,37,39,41,43,45,47,49,51,53,55,57,59,61,63,65,67,69,71,73,75,77,79,81,83,85,87,89,91,93,95,97,99,101,103,105,107,109,111,113,115,117,119,121,123,-1,-1,-1,-1,-1,-1,-1,-1,-1,-1,-1,-1,-1,-1,-1,-1,-1,-1,-1,-1,-1,-1,-1,-1,-1,-1,-1,-1,-1,-1,-1,-1,-1,-1,-1,-1,-1,-1,-1,-1,-1,-1,-1,-1,-1,-1,-1,-1,-1,-1,-1,-1,-1,-1,-1,-1,-1,-1,-1,-1,-1,-1,-1],"loss_changes":[1.6374373E3,4.8605835E2,3.08511E2,1.8585425E2,2.4966986E2,1.8865747E2,1.4025145E2,1.534325E2,4.390338E1,7.875874E1,4.2690117E1,4.8345337E1,1.6837585E2,5.77352E1,6.2534004E1,6.3866043E1,2.3036865E1,1.4454102E1,1.5201575E1,1.9180084E1,6.779736E1,2.265462E1,5.8500275E1,1.941919E1,6.828758E1,3.371463E1,7.655125E1,5.1423645E1,2.2464676E1,5.7169247E1,2.0138428E1,3.637593E1,3.5625187E1,1.9725025E0,6.5231934E0,3.0473963E1,1.2464478E1,3.9871473E0,1.31076355E1,1.9314552E1,1.1483749E1,6.309733E1,2.726455E1,1.632005E1,1.3361603E1,3.6402374E1,5.898731E1,3.323336E1,8.7942505E0,2.6562027E1,4.2208023E1,3.5884254E1,2.022165E1,7.442585E1,1.5593758E1,5.1698124E1,3.4838562E1,2.180179E1,1.8581741E1,1.5941586E1,2.1424961E1,1.3878891E1,0E0,0E0,0E0,0E0,0E0,0E0,0E0,0E0,0E0,0E0,0E0,0E0,0E0,0E0,0E0,0E0,0E0,0E0,0E0,0E0,0E0,0E0,0E0,0E0,0E0,0E0,0E0,0E0,0E0,0E0,0E0,0E0,0E0,0E0,0E0,0E0,0E0,0E0,0E0,0E0,0E0,0E0,0E0,0E0,0E0,0E0,0E0,0E0,0E0,0E0,0E0,0E0,0E0,0E0,0E0,0E0,0E0,0E0,0E0,0E0,0E0,0E0,0E0],"parents":[2147483647,0,0,1,1,2,2,3,3,4,4,5,5,6,6,7,7,8,8,9,9,10,10,11,11,12,12,13,13,14,14,15,15,16,16,17,17,18,18,19,19,20,20,21,21,22,22,23,23,24,24,25,25,26,26,27,27,28,28,29,29,30,30,31,31,32,32,33,33,34,34,35,35,36,36,37,37,38,38,39,39,40,40,41,41,42,42,43,43,44,44,45,45,46,46,47,47,48,48,49,49,50,50,51,51,52,52,53,53,54,54,55,55,56,56,57,57,58,58,59,59,60,60,61,61],"right_children":[2,4,6,8,10,12,14,16,18,20,22,24,26,28,30,32,34,36,38,40,42,44,46,48,50,52,54,56,58,60,62,64,66,68,70,72,74,76,78,80,82,84,86,88,90,92,94,96,98,100,102,104,106,108,110,112,114,116,118,120,122,124,-1,-1,-1,-1,-1,-1,-1,-1,-1,-1,-1,-1,-1,-1,-1,-1,-1,-1,-1,-1,-1,-1,-1,-1,-1,-1,-1,-1,-1,-1,-1,-1,-1,-1,-1,-1,-1,-1,-1,-1,-1,-1,-1,-1,-1,-1,-1,-1,-1,-1,-1,-1,-1,-1,-1,-1,-1,-1,-1,-1,-1,-1,-1],"split_conditions":[5.770375E1,1E1,6E0,5E0,3.2712036E1,4E0,7E0,9.2E1,1.9E1,1.1705E1,-5.67E1,6.6538936E-1,2.5881904E-1,1.1357667E2,2.5881904E-1,4.2709457E1,1.9E1,1E0,6E0,1.9E1,1.493945E1,1.9E1,8E0,1.7E1,2.5881904E-1,-1.64E0,2.1550084E2,5E0,5.7836615E-2,5.970182E1,1.3E1,5.5333984E1,9E0,4.938E1,1E0,7.074E1,6E0,5.5315E1,2.035E1,-1.61E1,4.5E1,1.7E1,2.6319292E1,-7.263E1,1.4944E2,1.2442E2,4.8093025E1,1.9545958E2,3.815574E1,2.3775625E1,8.398E1,5.240772E-1,2.1989164E0,1E0,-8.986E1,-2.776E1,9E0,6.234898E-1,1.0225804E0,6E0,1.0291E2,-1.5217E2,-6.471924E-2,3.2703605E-2,-7.432467E-2,8.937796E-3,-4.0945183E-2,-6.910398E-2,4.1000647E-3,3.768562E-2,8.0111526E-2,6.5882325E-2,-3.2742854E-2,5.1793028E-2,7.7643886E-2,-8.198805E-2,1.0218636E-2,-6.635004E-2,6.4293765E-2,3.6132045E-3,4.4798087E-2,6.728297E-2,-2.1559104E-2,-1.0042356E-3,3.673058E-2,1.5126322E-2,-4.525097E-2,4.8744604E-2,-2.2855708E-2,5.335194E-2,-6.481069E-2,-4.813628E-2,1.5008621E-2,6.225168E-3,-3.9658472E-2,-6.1901044E-2,3.27933E-2,-3.4401283E-2,-7.960052E-2,2.341511E-2,-7.672968E-2,-4.1714292E-2,2.1789934E-2,-5.952036E-2,-6.5594055E-3,1.5452432E-2,-7.476356E-2,-6.1279777E-3,5.7976414E-2,-8.387433E-2,-1.8275332E-2,2.0997379E-2,-2.775602E-2,5.5321094E-2,-1.8507672E-2,8.918878E-2,-6.7123495E-2,-6.885163E-2,-2.3798807E-2,-7.171942E-2,3.0572047E-2,5.572655E-3,7.8681104E-2,-5.919028E-2,7.662814E-2],"split_indices":[34,0,6,3,34,3,56,60,62,34,68,51,1,22,1,40,58,0,3,0,76,0,6,62,1,77,34,3,33,40,56,41,6,18,0,19,56,34,26,77,58,0,41,67,32,26,47,34,47,41,19,51,29,7,67,69,0,5,51,3,17,68,0,0,0,0,0,0,0,0,0,0,0,0,0,0,0,0,0,0,0,0,0,0,0,0,0,0,0,0,0,0,0,0,0,0,0,0,0,0,0,0,0,0,0,0,0,0,0,0,0,0,0,0,0,0,0,0,0,0,0,0,0,0,0],"split_type":[0,0,0,0,0,0,0,0,0,0,0,0,0,0,0,0,0,0,0,0,0,0,0,0,0,0,0,0,0,0,0,0,0,0,0,0,0,0,0,0,0,0,0,0,0,0,0,0,0,0,0,0,0,0,0,0,0,0,0,0,0,0,0,0,0,0,0,0,0,0,0,0,0,0,0,0,0,0,0,0,0,0,0,0,0,0,0,0,0,0,0,0,0,0,0,0,0,0,0,0,0,0,0,0,0,0,0,0,0,0,0,0,0,0,0,0,0,0,0,0,0,0,0,0,0],"sum_hessian":[4.8340396E3,2.8255518E3,2.0084879E3,1.3981288E3,1.427423E3,1.361939E3,6.465488E2,8.7985333E2,5.1827545E2,7.8640735E2,6.410156E2,7.451173E2,6.168217E2,5.066677E2,1.3988116E2,7.12737E2,1.6711632E2,5.039149E2,1.4360585E1,2.4990024E2,5.365071E2,7.95126E1,5.61503E2,5.199709E2,2.2514644E2,2.8544482E2,3.313769E2,3.9016473E2,1.1650297E2,6.5066536E1,7.481462E1,5.0189938E2,2.108376E2,3.1666439E0,1.6394968E2,3.9240047E1,4.6467484E2,6.66057E0,7.700015E0,1.5535172E2,9.454853E1,4.479318E2,8.857531E1,4.5760284E1,3.3752323E1,2.506949E2,3.1080807E2,1.04601685E2,4.1536917E2,1.1878017E2,1.06366264E2,1.2924927E2,1.5619556E2,2.8774286E2,4.3634033E1,3.21148E2,6.9016716E1,7.5181823E0,1.0898479E2,2.5426004E1,3.9640533E1,7.281817E1,1.9964534E0,4.9474466E2,7.1547117E0,1.6630153E2,4.4536087E1,1.991584E0,1.17506E0,1.2433883E1,1.515158E2,2.9379982E1,9.8600645E0,6.2514523E1,4.021603E2,5.4797454E0,1.1808246E0,1.7460555E0,5.9539595E0,3.769752E1,1.1765419E2,9.120286E1,3.3456676E0,1.9868437E2,2.492474E2,2.5885317E1,6.2689995E1,9.11073E0,3.664955E1,3.2004272E1,1.7480505E0,2.2577518E2,2.4919731E1,2.0578589E2,1.050222E2,9.496524E1,9.636445E0,1.3236917E1,4.0213226E2,6.59802E0,1.12182144E2,6.2864002E1,4.3502262E1,7.156386E1,5.7685406E1,6.152587E0,1.5004297E2,2.3256142E2,5.5181446E1,2.9858599E1,1.3775434E1,6.841104E1,2.5273697E2,4.5210815E1,2.3805902E1,4.795418E0,2.7227645E0,7.391384E1,3.5070946E1,2.1426386E1,3.9996197E0,2.1915539E1,1.7724995E1,1.2371819E0,7.1580986E1],"tree_param":{"num_deleted":"0","num_feature":"78","num_nodes":"125","size_leaf_vector":"1"}},{"base_weights":[-2.869815E-3,3.9009333E-1,-7.8208387E-1,-6.2819034E-2,7.995094E-1,-5.1630753E-1,-1.2908142E0,-7.4565375E-1,1.7832236E-1,3.0153728E-1,1.0760807E0,-1.8300605E-1,-8.466646E-1,-8.9227796E-1,-1.4166156E0,3.299924E-1,-9.006819E-1,7.929715E-1,-1.1400369E-1,-6.3419595E-2,9.4815266E-1,9.2433405E-1,1.5656098E0,-4.0012056E-1,3.9265734E-1,-1.0857855E0,-4.7565776E-1,-1.1577817E0,1.594431E-3,-1.4548479E0,-4.9737033E-1,5.17543E-1,-7.920767E-2,-6.669766E-1,-1.2811955E0,9.055064E-1,-8.094049E-2,-4.8104987E-1,1.9956966E-1,-1.2442081E0,6.397822E-2,1.1076002E0,-4.3992928E-1,6.740717E-1,1.3322074E0,-8.352327E-3,1.5760682E0,1.482069E-1,-7.4366355E-1,5.8456725E-1,-8.338619E-2,-8.6858577E-1,-1.5176011E0,-1.2856366E-1,-1.1462353E0,-1.4453626E0,2.0427404E-1,-1.1720313E0,5.915417E-1,-1.2094469E0,-1.5594295E0,8.0535454E-1,-1.3418354E0,-1.9495282E-2,4.173204E-2,-6.1659045E-3,-4.4867493E-2,-2.0190483E-2,-6.995538E-2,1.2281114E-3,4.976006E-2,1.9064965E-2,-5.7122655E-2,-1.1127538E-3,-4.6778377E-2,4.720677E-2,4.4718554E-4,2.9774845E-2,-8.122881E-2,1.517943E-2,-2.1857522E-2,-2.9412315E-3,6.425675E-2,-5.5635955E-2,4.4635978E-2,-4.7787834E-2,3.9313383E-2,7.430465E-2,2.7960315E-2,7.981977E-2,5.6093942E-2,1.9142004E-2,-4.4307142E-2,-5.6259646E-3,-4.565492E-2,2.0002252E-3,4.7479335E-2,-5.2066486E-2,1.1317111E-2,6.557711E-2,-7.8337364E-2,9.550117E-3,-5.8160514E-2,6.760154E-2,-6.840175E-2,-1.2407558E-2,-8.007013E-2,3.4223896E-2,-7.032541E-2,-8.006513E-2,2.148765E-2,7.2565906E-2,-1.2174904E-2,-6.594476E-2,1.9957004E-2,-8.022345E-2,-3.088112E-2,-5.3694636E-2,7.5401604E-2,-7.721142E-2,-4.996785E-3],"categories":[],"categories_nodes":[],"categories_segments":[],"categories_sizes":[],"default_left":[0,0,0,0,0,0,0,0,0,0,0,0,0,0,0,0,0,0,0,0,0,0,0,0,0,0,0,0,0,0,0,0,0,0,0,0,0,0,0,0,0,0,0,0,0,0,0,0,0,0,0,0,0,0,0,0,0,0,0,0,0,0,0,0,0,0,0,0,0,0,0,0,0,0,0,0,0,0,0,0,0,0,0,0,0,0,0,0,0,0,0,0,0,0,0,0,0,0,0,0,0,0,0,0,0,0,0,0,0,0,0,0,0,0,0,0,0,0,0,0,0],"id":5,"left_children":[1,3,5,7,9,11,13,15,17,19,21,23,25,27,29,31,33,35,37,39,41,43,45,47,49,51,53,55,57,59,61,63,-1,65,67,69,71,73,75,77,79,81,83,85,87,-1,89,91,93,95,-1,97,99,101,103,105,107,109,111,113,115,117,119,-1,-1,-1,-1,-1,-1,-1,-1,-1,-1,-1,-1,-1,-1,-1,-1,-1,-1,-1,-1,-1,-1,-1,-1,-1,-1,-1,-1,-1,-1,-1,-1,-1,-1,-1,-1,-1,-1,-1,-1,-1,-1,-1,-1,-1,-1,-1,-1,-1,-1,-1,-1,-1,-1,-1,-1,-1,-1],"loss_changes":[1.4655625E3,5.900324E2,2.1628265E2,2.4902211E2,2.2983679E2,1.1607651E2,2.6308228E1,6.6111786E1,2.0094507E2,1.4120955E2,7.833765E1,6.59914E1,4.649121E1,3.1957108E1,1.39071045E1,1.8931152E1,2.9845917E1,3.551915E1,8.738907E1,5.7734756E1,4.8261703E1,8.304181E1,4.8426514E0,7.225333E1,5.821412E1,2.8828278E1,4.8601917E1,4.0959076E1,2.273412E1,8.358032E0,2.1039143E1,1.376368E1,0E0,2.6936783E1,1.2912064E1,2.521222E1,2.106117E1,7.290613E1,5.8144417E1,2.7120182E1,4.1786438E1,4.022841E1,2.1575579E1,9.4313065E1,3.6243774E1,0E0,5.2905273E-1,3.634383E1,2.5094345E1,2.6432236E1,0E0,4.1127197E1,1.682515E1,4.6226208E1,4.1362816E1,1.5638504E1,1.5639137E1,8.240981E0,1.6039982E1,2.2310196E1,1.0734497E1,1.1866713E1,2.7066212E0,0E0,0E0,0E0,0E0,0E0,0E0,0E0,0E0,0E0,0E0,0E0,0E0,0E0,0E0,0E0,0E0,0E0,0E0,0E0,0E0,0E0,0E0,0E0,0E0,0E0,0E0,0E0,0E0,0E0,0E0,0E0,0E0,0E0,0E0,0E0,0E0,0E0,0E0,0E0,0E0,0E0,0E0,0E0,0E0,0E0,0E0,0E0,0E0,0E0,0E0,0E0,0E0,0E0,0E0,0E0,0E0,0E0,0E0],"parents":[2147483647,0,0,1,1,2,2,3,3,4,4,5,5,6,6,7,7,8,8,9,9,10,10,11,11,12,12,13,13,14,14,15,15,16,16,17,17,18,18,19,19,20,20,21,21,22,22,23,23,24,24,25,25,26,26,27,27,28,28,29,29,30,30,31,31,33,33,34,34,35,35,36,36,37,37,38,38,39,39,40,40,41,41,42,42,43,43,44,44,46,46,47,47,48,48,49,49,51,51,52,52,53,53,54,54,55,55,56,56,57,57,58,58,59,59,60,60,61,61,62,62],"right_children":[2,4,6,8,10,12,14,16,18,20,22,24,26,28,30,32,34,36,38,40,42,44,46,48,50,52,54,56,58,60,62,64,-1,66,68,70,72,74,76,78,80,82,84,86,88,-1,90,92,94,96,-1,98,100,102,104,106,108,110,112,114,116,118,120,-1,-1,-1,-1,-1,-1,-1,-1,-1,-1,-1,-1,-1,-1,-1,-1,-1,-1,-1,-1,-1,-1,-1,-1,-1,-1,-1,-1,-1,-1,-1,-1,-1,-1,-1,-1,-1,-1,-1,-1,-1,-1,-1,-1,-1,-1,-1,-1,-1,-1,-1,-1,-1,-1,-1,-1,-1,-1],"split_conditions":[7.196739E1,2.5881904E-1,1.6812E2,-5E-1,9E0,2.1E1,1.7E1,1.05525E1,7.444731E1,5E0,9.4E1,9.142236E-1,4E0,1.8870166E2,6E0,4.8989773E0,5.928E1,4.3365208E1,4E0,2.257115E1,1E1,5E0,9.67E1,5.2520806E-1,5.948E1,2.46E1,-1.2E0,7E0,8E0,2.681757E-1,1.7418E2,-1.61E1,-7.920767E-2,-2.144E1,5.454518E-1,-2.5881904E-1,6.373E1,5.130128E1,2.4535418E1,4.829488E-1,2.4639E2,7.56E0,9.464E1,7.696688E-1,1E1,-8.352327E-3,2.0122683E0,2.7706E2,-7.818315E-1,6.961313E1,-8.338619E-2,1.201E1,7.502303E1,4.228E1,1.6845158E2,1.7236E2,2.5E1,1E0,2.0712E2,1.99814E2,1.2226E2,1.4107E2,2.895125E2,-1.9495282E-2,4.173204E-2,-6.1659045E-3,-4.4867493E-2,-2.0190483E-2,-6.995538E-2,1.2281114E-3,4.976006E-2,1.9064965E-2,-5.7122655E-2,-1.1127538E-3,-4.6778377E-2,4.720677E-2,4.4718554E-4,2.9774845E-2,-8.122881E-2,1.517943E-2,-2.1857522E-2,-2.9412315E-3,6.425675E-2,-5.5635955E-2,4.4635978E-2,-4.7787834E-2,3.9313383E-2,7.430465E-2,2.7960315E-2,7.981977E-2,5.6093942E-2,1.9142004E-2,-4.4307142E-2,-5.6259646E-3,-4.565492E-2,2.0002252E-3,4.7479335E-2,-5.2066486E-2,1.1317111E-2,6.557711E-2,-7.8337364E-2,9.550117E-3,-5.8160514E-2,6.760154E-2,-6.840175E-2,-1.2407558E-2,-8.007013E-2,3.4223896E-2,-7.032541E-2,-8.006513E-2,2.148765E-2,7.2565906E-2,-1.2174904E-2,-6.594476E-2,1.9957004E-2,-8.022345E-2,-3.088112E-2,-5.3694636E-2,7.5401604E-2,-7.721142E-2,-4.996785E-3],"split_indices":[34,1,14,2,56,62,62,34,37,3,60,51,3,34,3,39,18,40,3,41,0,3,49,45,71,42,71,6,62,45,15,77,0,69,45,2,32,14,34,51,49,19,18,51,0,0,51,37,4,40,0,42,40,77,49,14,58,7,22,38,70,30,28,0,0,0,0,0,0,0,0,0,0,0,0,0,0,0,0,0,0,0,0,0,0,0,0,0,0,0,0,0,0,0,0,0,0,0,0,0,0,0,0,0,0,0,0,0,0,0,0,0,0,0,0,0,0,0,0,0,0],"split_type":[0,0,0,0,0,0,0,0,0,0,0,0,0,0,0,0,0,0,0,0,0,0,0,0,0,0,0,0,0,0,0,0,0,0,0,0,0,0,0,0,0,0,0,0,0,0,0,0,0,0,0,0,0,0,0,0,0,0,0,0,0,0,0,0,0,0,0,0,0,0,0,0,0,0,0,0,0,0,0,0,0,0,0,0,0,0,0,0,0,0,0,0,0,0,0,0,0,0,0,0,0,0,0,0,0,0,0,0,0,0,0,0,0,0,0,0,0,0,0,0,0],"sum_hessian":[4.784258E3,3.1807053E3,1.6035527E3,1.5105364E3,1.670169E3,1.054608E3,5.4894464E2,3.9367722E2,1.1168591E3,5.9712445E2,1.0730444E3,5.257381E2,5.2886993E2,1.3364688E2,4.152978E2,4.9449383E1,3.442278E2,3.5942148E2,7.574377E2,3.8226935E2,2.1485512E2,8.213322E2,2.5171223E2,3.81978E2,1.4376009E2,3.20424E2,2.0844595E2,1.02813354E2,3.0833529E1,3.9815546E2,1.714234E1,4.5701145E1,3.7482374E0,2.1495734E2,1.292705E2,3.183863E2,4.1035206E1,3.4871875E2,4.087189E2,3.637362E1,3.4589572E2,1.9289906E2,2.1956062E1,5.1065683E2,3.1067535E2,1.4203793E0,2.5029185E2,1.4735457E2,2.3462341E2,1.3216605E2,1.1594048E1,2.1519441E2,1.0522961E2,1.381372E2,7.030875E1,8.483942E1,1.7973936E1,9.984317E0,2.084921E1,1.2273113E2,2.7542432E2,6.760099E0,1.038224E1,1.177491E1,3.3926235E1,6.443419E1,1.5052315E2,1.5838743E1,1.1343175E2,2.9539139E1,2.8884714E2,2.9033327E1,1.200188E1,1.7406485E2,1.746539E2,8.2506E1,3.2621292E2,6.1350384E0,3.0238579E1,2.3427388E2,1.1162185E2,2.5569965E1,1.673291E2,1.4699851E1,7.256211E0,3.2404854E1,4.7825198E2,2.5832645E2,5.234892E1,2.3716278E2,1.3129081E1,1.2062233E2,2.6732244E1,5.0007973E1,1.8461543E2,5.348412E1,7.868192E1,1.8591243E2,2.9281979E1,1.358175E0,1.0387143E2,1.06162674E2,3.1974525E1,5.3175993E0,6.499115E1,1.0081301E1,7.475812E1,1.4289144E1,3.684792E0,7.874331E0,2.109986E0,9.908828E0,1.0940383E1,1.1508109E2,7.650035E0,2.6218253E2,1.3241788E1,1.696004E0,5.064095E0,8.71802E0,1.6642206E0],"tree_param":{"num_deleted":"0","num_feature":"78","num_nodes":"121","size_leaf_vector":"1"}},{"base_weights":[-1.3765766E-3,-5.005242E-1,5.5332863E-1,-2.5374484E-1,-1.2351953E0,8.717644E-2,9.641868E-1,4.2687267E-2,-5.618265E-1,-1.3835934E0,-6.2629163E-1,5.2815E-1,-3.292399E-1,-4.1686553E-1,1.0336462E0,-4.4493517E-1,4.9764675E-1,-4.1305354E-1,-1.2402383E0,-1.4175435E0,2.790512E-1,-1.279476E0,2.430572E-1,-7.645811E-2,8.1859785E-1,-1.1936935E-1,-9.583725E-1,-1.5104172E0,7.6437384E-2,8.385816E-1,1.3670455E0,-1.1564912E0,-2.0687623E-1,6.6755706E-1,-9.9501294E-1,1.3290839E0,-4.4799274E-1,7.523394E-1,-1.3187201E0,1.6911563E-2,-1.426669E0,-6.486846E-2,9.5561975E-1,2.6170641E-2,-1.3418505E0,7.600806E-1,-1.112816E0,1.0110174E0,-2.552234E-1,9.060673E-1,-7.436157E-2,6.2775845E-3,-1.080307E0,2.4526402E-1,-1.3313954E0,-8.2988605E-2,1.8071389E-2,-9.625951E-1,5.0113684E-1,1.0643044E0,2.6534465E-1,1.4468338E0,3.2795802E-1,-6.645613E-2,2.5891358E-2,-8.7465456E-4,-5.4790583E-2,4.438142E-2,5.334515E-3,6.7817755E-2,-6.119764E-2,-1.6631959E-2,7.8096114E-2,-6.1206454E-3,-3.099358E-2,-5.5656493E-2,7.3792696E-2,-6.799402E-2,1.3059708E-3,-5.8955904E-2,-7.475191E-2,-1.4598864E-2,6.89912E-2,-2.6708306E-3,-7.155828E-2,6.044775E-2,-3.930376E-2,4.403233E-2,-7.883868E-2,5.821219E-2,-2.3988059E-2,-2.1373846E-2,6.90568E-2,4.8172448E-2,-2.3670537E-2,-5.3026702E-2,4.4072982E-2,-6.735603E-2,6.077127E-3,-7.3317595E-2,-1.1077599E-2,-1.8156221E-2,7.3449664E-2,-3.2044113E-2,-8.413566E-2,1.4130271E-2,-7.548129E-2,-7.28775E-2,3.973964E-2,-1.5428692E-2,5.5988785E-2,-6.271002E-2,2.2433488E-2,7.318231E-2,1.852115E-2,-2.6765266E-2,4.8900522E-2],"categories":[],"categories_nodes":[],"categories_segments":[],"categories_sizes":[],"default_left":[0,0,0,0,0,0,0,0,0,0,0,0,0,0,0,0,0,0,0,0,0,0,0,0,0,0,0,0,0,0,0,0,0,0,0,0,0,0,0,0,0,0,0,0,0,0,0,0,0,0,0,0,0,0,0,0,0,0,0,0,0,0,0,0,0,0,0,0,0,0,0,0,0,0,0,0,0,0,0,0,0,0,0,0,0,0,0,0,0,0,0,0,0,0,0,0,0,0,0,0,0,0,0,0,0,0,0,0,0,0,0,0,0,0,0,0,0],"id":6,"left_children":[1,3,5,7,9,11,13,15,17,19,21,23,25,27,29,31,33,35,37,39,41,43,45,47,49,51,53,55,57,59,61,63,65,67,69,71,73,75,77,-1,79,-1,81,-1,83,85,87,89,91,93,95,97,99,101,103,-1,-1,105,107,109,111,113,115,-1,-1,-1,-1,-1,-1,-1,-1,-1,-1,-1,-1,-1,-1,-1,-1,-1,-1,-1,-1,-1,-1,-1,-1,-1,-1,-1,-1,-1,-1,-1,-1,-1,-1,-1,-1,-1,-1,-1,-1,-1,-1,-1,-1,-1,-1,-1,-1,-1,-1,-1,-1,-1,-1],"loss_changes":[1.3138848E3,4.525318E2,4.3037805E2,1.7089009E2,5.5860107E1,1.9372516E2,1.150199E2,2.1196193E2,9.209277E1,2.884137E1,7.120372E1,9.0027435E1,7.154559E1,3.1357683E1,7.283862E1,7.788615E1,1.26009384E2,4.6490677E1,2.6720184E1,8.397766E0,1.2886268E1,8.736618E0,3.898149E1,3.275435E1,2.7103836E1,4.9281727E1,6.121662E1,5.646679E0,1.8514147E1,9.2918945E1,3.420807E1,3.4044266E1,5.836558E1,5.4747696E1,2.906623E1,6.3528786E0,4.133058E1,1.0916838E1,8.817383E0,0E0,6.5584106E0,0E0,4.7512794E0,0E0,7.902519E0,2.8695578E1,1.5653372E1,5.9953003E0,4.1280632E1,2.5417542E1,3.0915224E1,5.662208E1,1.5322002E1,2.505011E1,2.4074997E1,0E0,0E0,8.735877E0,1.8220638E1,3.9677246E1,5.762278E1,6.4832153E0,1.79897E1,0E0,0E0,0E0,0E0,0E0,0E0,0E0,0E0,0E0,0E0,0E0,0E0,0E0,0E0,0E0,0E0,0E0,0E0,0E0,0E0,0E0,0E0,0E0,0E0,0E0,0E0,0E0,0E0,0E0,0E0,0E0,0E0,0E0,0E0,0E0,0E0,0E0,0E0,0E0,0E0,0E0,0E0,0E0,0E0,0E0,0E0,0E0,0E0,0E0,0E0,0E0,0E0,0E0,0E0],"parents":[2147483647,0,0,1,1,2,2,3,3,4,4,5,5,6,6,7,7,8,8,9,9,10,10,11,11,12,12,13,13,14,14,15,15,16,16,17,17,18,18,19,19,20,20,21,21,22,22,23,23,24,24,25,25,26,26,27,27,28,28,29,29,30,30,31,31,32,32,33,33,34,34,35,35,36,36,37,37,38,38,40,40,42,42,44,44,45,45,46,46,47,47,48,48,49,49,50,50,51,51,52,52,53,53,54,54,57,57,58,58,59,59,60,60,61,61,62,62],"right_children":[2,4,6,8,10,12,14,16,18,20,22,24,26,28,30,32,34,36,38,40,42,44,46,48,50,52,54,56,58,60,62,64,66,68,70,72,74,76,78,-1,80,-1,82,-1,84,86,88,90,92,94,96,98,100,102,104,-1,-1,106,108,110,112,114,116,-1,-1,-1,-1,-1,-1,-1,-1,-1,-1,-1,-1,-1,-1,-1,-1,-1,-1,-1,-1,-1,-1,-1,-1,-1,-1,-1,-1,-1,-1,-1,-1,-1,-1,-1,-1,-1,-1,-1,-1,-1,-1,-1,-1,-1,-1,-1,-1,-1,-1,-1,-1,-1,-1],"split_conditions":[8E0,1.5203E2,2.5881904E-1,1E1,5E0,3.0187603E1,6.4265275E-1,4E0,2.1764765E1,7.1E1,2.5881904E-1,-2.5881904E-1,5E-1,2E0,5E0,1.8E1,8.398784E1,6.186E1,5.7836615E-2,4.4832916E1,-5E-1,2.1989164E0,2.9551E2,4.1641964E1,3.86E1,2.6749377E2,-6.273E1,1.9352583E2,7.23E1,4.6733154E1,1.1E1,9.072075E1,1.1324021E0,1.9E1,7.622492E1,2.2425209E1,-2.5300867E1,1.048156E2,6.356383E-1,1.6911563E-2,1.6985E2,-6.486846E-2,9.60986E-1,2.6170641E-2,5.6548687E1,4.9221578E-1,1.9597563E2,6.506265E1,2.8233795E1,8.697E1,2.534E2,8.4293765E-1,8.189134E1,2.5366E2,4.9467422E1,-8.2988605E-2,1.8071389E-2,4E0,4.829488E-1,8.920376E-1,2.4942684E1,8.697211E1,6.123234E-17,-6.645613E-2,2.5891358E-2,-8.7465456E-4,-5.4790583E-2,4.438142E-2,5.334515E-3,6.7817755E-2,-6.119764E-2,-1.6631959E-2,7.8096114E-2,-6.1206454E-3,-3.099358E-2,-5.5656493E-2,7.3792696E-2,-6.799402E-2,1.3059708E-3,-5.8955904E-2,-7.475191E-2,-1.4598864E-2,6.89912E-2,-2.6708306E-3,-7.155828E-2,6.044775E-2,-3.930376E-2,4.403233E-2,-7.883868E-2,5.821219E-2,-2.3988059E-2,-2.1373846E-2,6.90568E-2,4.8172448E-2,-2.3670537E-2,-5.3026702E-2,4.4072982E-2,-6.735603E-2,6.077127E-3,-7.3317595E-2,-1.1077599E-2,-1.8156221E-2,7.3449664E-2,-3.2044113E-2,-8.413566E-2,1.4130271E-2,-7.548129E-2,-7.28775E-2,3.973964E-2,-1.5428692E-2,5.5988785E-2,-6.271002E-2,2.2433488E-2,7.318231E-2,1.852115E-2,-2.6765266E-2,4.8900522E-2],"split_indices":[56,14,1,0,3,35,51,3,36,60,1,2,7,3,3,60,47,37,33,40,2,29,43,38,40,49,71,28,32,46,0,47,51,62,37,40,72,46,33,0,15,0,39,0,47,51,40,20,29,37,49,45,21,20,47,0,0,3,51,45,35,35,8,0,0,0,0,0,0,0,0,0,0,0,0,0,0,0,0,0,0,0,0,0,0,0,0,0,0,0,0,0,0,0,0,0,0,0,0,0,0,0,0,0,0,0,0,0,0,0,0,0,0,0,0,0,0],"split_type":[0,0,0,0,0,0,0,0,0,0,0,0,0,0,0,0,0,0,0,0,0,0,0,0,0,0,0,0,0,0,0,0,0,0,0,0,0,0,0,0,0,0,0,0,0,0,0,0,0,0,0,0,0,0,0,0,0,0,0,0,0,0,0,0,0,0,0,0,0,0,0,0,0,0,0,0,0,0,0,0,0,0,0,0,0,0,0,0,0,0,0,0,0,0,0,0,0,0,0,0,0,0,0,0,0,0,0,0,0,0,0,0,0,0,0,0,0],"sum_hessian":[4.743325E3,2.4967446E3,2.2465808E3,1.8699613E3,6.2678326E2,1.0530367E3,1.1935441E3,9.534377E2,9.165236E2,5.0293808E2,1.2384519E2,5.1130756E2,5.417291E2,5.6914734E1,1.1366294E3,4.602099E2,4.9322775E2,7.530021E2,1.6352151E2,4.9301837E2,9.919702E0,7.044479E1,5.34004E1,1.6615964E2,3.4514795E2,4.0711163E2,1.3461748E2,1.7052029E1,3.9862705E1,7.1929877E2,4.1733057E2,1.1440284E2,3.4580707E2,4.4331747E2,4.9910297E1,1.4076571E1,7.3892554E2,5.871202E0,1.5765031E2,2.3626802E0,4.906557E2,2.7033234E0,7.2163777E0,2.1085062E0,6.833629E1,3.897704E1,1.442336E1,2.2800814E1,1.4335881E2,3.14342E2,3.0805922E1,3.6091397E2,4.6197662E1,3.1930275E1,1.026872E2,1.5896908E1,1.1551211E0,1.1198618E1,2.8664087E1,5.154673E2,2.0383147E2,3.872058E2,3.0124752E1,1.038967E2,1.0506145E1,2.8591418E2,5.989288E1,3.179705E2,1.25346985E2,3.9913998E0,4.59189E1,1.6773094E0,1.2399262E1,2.5590059E2,4.8302493E2,1.4902698E0,4.3809323E0,1.529577E2,4.692606E0,1.1013305E2,3.8052264E2,1.910182E0,5.3061957E0,4.533615E0,6.3802673E1,3.037637E1,8.600669E0,2.5535476E0,1.1869812E1,2.0874329E1,1.9264853E0,1.3037363E2,1.2985187E1,3.0207816E2,1.2263846E1,1.5108309E1,1.5697612E1,2.7486822E1,3.3342715E2,3.138246E1,1.4815204E1,2.179697E1,1.0133305E1,3.55797E1,6.71075E1,3.5656185E0,7.632999E0,3.220418E0,2.544367E1,1.9841482E1,4.9562582E2,2.1314924E1,1.8251654E2,3.8089688E2,6.3089294E0,1.3016064E1,1.7108688E1],"tree_param":{"num_deleted":"0","num_feature":"78","num_nodes":"117","size_leaf_vector":"1"}},{"base_weights":[-4.3783057E-3,3.5742897E-1,-7.336822E-1,7.3942006E-1,-5.369307E-2,-1.0515769E0,-4.1727054E-1,1.2057776E0,4.627557E-1,3.6836737E-1,-4.0041497E-1,-1.2880386E0,-3.4924942E-1,2.2090064E-1,-6.8062866E-1,3.9677483E-1,1.2605791E0,2.8596878E-1,1.3445473E0,-7.041872E-2,6.5596706E-1,-1.6495034E-1,-7.100496E-1,-4.2408425E-1,-1.3259767E0,-5.452413E-1,1.2747394E0,5.003307E-1,-9.6486807E-1,-2.9172957E-1,-1.2732663E0,-5.6719027E-2,7.399582E-2,1.3031545E0,7.48867E-1,5.4143804E-1,-1.2717184E-1,-7.348268E-2,1.40306E0,9.228215E-1,-2.6825216E-1,7.7504134E-1,-4.6765536E-1,1.9521461E-1,-4.804329E-1,-9.058069E-1,-3.7290555E-1,1.3901169E0,-8.9710176E-1,-9.7183174E-1,-1.3916796E0,-1.0497077E0,1.5475725E-1,1.6788479E0,-6.4864933E-1,-3.653793E-1,8.851588E-1,-1.5848175E0,-3.008978E-1,-1.0638599E0,2.9993271E-2,-1.3459866E0,9.291763E-1,3.4960266E-2,-6.891338E-2,6.5633394E-2,-2.6643429E-2,-2.4834037E-2,5.172754E-2,2.8761549E-2,-5.5512298E-2,-1.7619388E-2,2.107456E-2,1.684185E-2,7.216483E-2,5.7893336E-2,-3.9420344E-2,6.635857E-2,-1.7518649E-2,6.2422436E-2,2.8686548E-2,-4.4123977E-2,1.7275618E-2,1.9414455E-2,-1.1417354E-2,-3.691272E-2,1.2906628E-2,-3.6192916E-2,-6.768044E-2,4.724652E-2,-2.5704462E-2,8.707857E-2,8.121128E-3,2.6975194E-2,-5.933444E-2,-5.8475196E-2,1.2559342E-2,-5.4607894E-2,-7.288769E-2,2.0221999E-2,-6.0136158E-2,4.036576E-2,-3.12902E-2,9.004315E-2,6.2012323E-3,-5.7447072E-2,2.2695074E-2,6.912828E-2,-3.207383E-2,2.1651018E-2,6.849272E-2,-8.4962346E-2,4.069761E-3,-6.627239E-2,3.1016007E-2,-6.425606E-2,4.178004E-2,-1.712795E-2,2.7888749E-2,-2.7450372E-2,-7.245005E-2,8.613352E-2,-5.0874975E-2],"categories":[],"categories_nodes":[],"categories_segments":[],"categories_sizes":[],"default_left":[0,0,0,0,0,0,0,0,0,0,0,0,0,0,0,0,0,0,0,0,0,0,0,0,0,0,0,0,0,0,0,0,0,0,0,0,0,0,0,0,0,0,0,0,0,0,0,0,0,0,0,0,0,0,0,0,0,0,0,0,0,0,0,0,0,0,0,0,0,0,0,0,0,0,0,0,0,0,0,0,0,0,0,0,0,0,0,0,0,0,0,0,0,0,0,0,0,0,0,0,0,0,0,0,0,0,0,0,0,0,0,0,0,0,0,0,0,0,0,0,0,0,0],"id":7,"left_children":[1,3,5,7,9,11,13,15,17,19,21,23,25,27,29,31,33,35,37,39,41,43,45,47,49,51,53,55,57,59,61,63,-1,65,67,69,71,-1,73,75,77,79,81,83,85,87,89,91,93,95,97,99,101,103,105,107,109,111,113,115,117,119,121,-1,-1,-1,-1,-1,-1,-1,-1,-1,-1,-1,-1,-1,-1,-1,-1,-1,-1,-1,-1,-1,-1,-1,-1,-1,-1,-1,-1,-1,-1,-1,-1,-1,-1,-1,-1,-1,-1,-1,-1,-1,-1,-1,-1,-1,-1,-1,-1,-1,-1,-1,-1,-1,-1,-1,-1,-1,-1,-1,-1],"loss_changes":[1.2510297E3,4.9771533E2,1.5769525E2,2.1139929E2,2.2363931E2,1.296806E2,1.3285022E2,2.6591003E1,1.6060312E2,8.703293E1,6.1047485E1,1.8639404E1,6.3950962E1,7.715633E1,1.285011E2,1.984299E1,1.1482239E1,9.099664E1,3.041684E1,5.4052418E1,5.608574E1,5.4388973E1,2.3559357E1,2.3656181E1,1.169458E1,6.303158E1,1.7956596E1,6.293285E1,1.7829472E1,8.422084E1,3.66864E1,3.0251816E1,0E0,9.896851E0,1.6979755E1,3.0361618E1,4.0923878E1,0E0,6.7727356E0,1.9296589E1,3.0483124E1,3.5208054E1,1.397685E1,1.8393387E1,4.8749184E1,1.762764E1,2.554941E1,2.2165518E0,9.510075E0,2.2308884E1,7.722534E0,2.3537659E1,3.893065E1,3.2317314E0,2.9977324E0,2.9138504E1,2.7982132E1,4.478691E0,2.225522E1,4.297831E1,4.742103E1,1.6822021E1,1.359015E1,0E0,0E0,0E0,0E0,0E0,0E0,0E0,0E0,0E0,0E0,0E0,0E0,0E0,0E0,0E0,0E0,0E0,0E0,0E0,0E0,0E0,0E0,0E0,0E0,0E0,0E0,0E0,0E0,0E0,0E0,0E0,0E0,0E0,0E0,0E0,0E0,0E0,0E0,0E0,0E0,0E0,0E0,0E0,0E0,0E0,0E0,0E0,0E0,0E0,0E0,0E0,0E0,0E0,0E0,0E0,0E0,0E0,0E0,0E0,0E0],"parents":[2147483647,0,0,1,1,2,2,3,3,4,4,5,5,6,6,7,7,8,8,9,9,10,10,11,11,12,12,13,13,14,14,15,15,16,16,17,17,18,18,19,19,20,20,21,21,22,22,23,23,24,24,25,25,26,26,27,27,28,28,29,29,30,30,31,31,33,33,34,34,35,35,36,36,38,38,39,39,40,40,41,41,42,42,43,43,44,44,45,45,46,46,47,47,48,48,49,49,50,50,51,51,52,52,53,53,54,54,55,55,56,56,57,57,58,58,59,59,60,60,61,61,62,62],"right_children":[2,4,6,8,10,12,14,16,18,20,22,24,26,28,30,32,34,36,38,40,42,44,46,48,50,52,54,56,58,60,62,64,-1,66,68,70,72,-1,74,76,78,80,82,84,86,88,90,92,94,96,98,100,102,104,106,108,110,112,114,116,118,120,122,-1,-1,-1,-1,-1,-1,-1,-1,-1,-1,-1,-1,-1,-1,-1,-1,-1,-1,-1,-1,-1,-1,-1,-1,-1,-1,-1,-1,-1,-1,-1,-1,-1,-1,-1,-1,-1,-1,-1,-1,-1,-1,-1,-1,-1,-1,-1,-1,-1,-1,-1,-1,-1,-1,-1,-1,-1,-1,-1,-1],"split_conditions":[7.196739E1,1.1E1,2.5881904E-1,-4.3388373E-1,3.1335E1,6E0,-4.3388373E-1,4.7969106E-1,5.4761904E-1,1.7E1,1E0,-1.6852E2,1.18239586E2,2.881E2,1.3871896E2,6.1187916E1,1E1,4.2709457E1,7.9897344E-1,5.725E1,1.9832155E1,2.47E0,1.6E1,2.3834E2,-8.184E1,7.5219595E-1,5.5E1,5.179E1,1.5409E2,1.1309524E-1,2.23E2,5.5699165E1,7.399582E-2,2.1E1,3.3977154E1,5.3915154E1,9.0813786E-1,-7.348268E-2,2.9848349E1,1.1037917E1,-6.352E1,6.366E1,3.108E1,5.593131E1,1.236E2,1.3552E2,-5.989E1,8.179E1,-2.0619E2,2.2E1,2.7359977E-1,-9.408E1,1.1E1,4.616E1,2.885E-3,7.651292E1,1.2402875E2,2.2555E2,2.5781E2,8.67718E1,6.902015E1,1.8837E2,0E0,3.4960266E-2,-6.891338E-2,6.5633394E-2,-2.6643429E-2,-2.4834037E-2,5.172754E-2,2.8761549E-2,-5.5512298E-2,-1.7619388E-2,2.107456E-2,1.684185E-2,7.216483E-2,5.7893336E-2,-3.9420344E-2,6.635857E-2,-1.7518649E-2,6.2422436E-2,2.8686548E-2,-4.4123977E-2,1.7275618E-2,1.9414455E-2,-1.1417354E-2,-3.691272E-2,1.2906628E-2,-3.6192916E-2,-6.768044E-2,4.724652E-2,-2.5704462E-2,8.707857E-2,8.121128E-3,2.6975194E-2,-5.933444E-2,-5.8475196E-2,1.2559342E-2,-5.4607894E-2,-7.288769E-2,2.0221999E-2,-6.0136158E-2,4.036576E-2,-3.12902E-2,9.004315E-2,6.2012323E-3,-5.7447072E-2,2.2695074E-2,6.912828E-2,-3.207383E-2,2.1651018E-2,6.849272E-2,-8.4962346E-2,4.069761E-3,-6.627239E-2,3.1016007E-2,-6.425606E-2,4.178004E-2,-1.712795E-2,2.7888749E-2,-2.7450372E-2,-7.245005E-2,8.613352E-2,-5.0874975E-2],"split_indices":[34,0,1,4,34,6,4,39,61,0,12,66,46,37,40,34,0,40,45,38,77,66,0,44,69,39,62,75,15,61,62,28,0,62,47,41,45,0,47,34,76,37,70,46,31,38,66,20,67,0,45,77,58,69,70,34,34,16,38,41,47,31,4,0,0,0,0,0,0,0,0,0,0,0,0,0,0,0,0,0,0,0,0,0,0,0,0,0,0,0,0,0,0,0,0,0,0,0,0,0,0,0,0,0,0,0,0,0,0,0,0,0,0,0,0,0,0,0,0,0,0,0,0],"split_type":[0,0,0,0,0,0,0,0,0,0,0,0,0,0,0,0,0,0,0,0,0,0,0,0,0,0,0,0,0,0,0,0,0,0,0,0,0,0,0,0,0,0,0,0,0,0,0,0,0,0,0,0,0,0,0,0,0,0,0,0,0,0,0,0,0,0,0,0,0,0,0,0,0,0,0,0,0,0,0,0,0,0,0,0,0,0,0,0,0,0,0,0,0,0,0,0,0,0,0,0,0,0,0,0,0,0,0,0,0,0,0,0,0,0,0,0,0,0,0,0,0,0,0],"sum_hessian":[4.7391353E3,3.1680012E3,1.5711339E3,1.6417668E3,1.5262344E3,7.825713E2,7.8856256E2,6.100617E2,1.0317051E3,6.8830566E2,8.379287E2,5.8483374E2,1.977376E2,2.3040494E2,5.581576E2,3.922625E1,5.7083545E2,8.605093E2,1.7119582E2,2.728215E2,4.1548413E2,4.768422E2,3.6108652E2,2.5113304E1,5.597204E2,1.7703615E2,2.0701439E1,1.8693192E2,4.347303E1,3.3790848E2,2.2024915E2,2.8317713E1,1.0908535E1,5.2556116E2,4.5274303E1,5.315252E2,3.2898404E2,2.9957678E0,1.6820006E2,4.4706074E1,2.2811545E2,3.7595328E2,3.9530876E1,2.2283168E2,2.5401051E2,2.27377E2,1.3370952E2,4.792691E0,2.0320614E1,9.006311E1,4.6965732E2,1.0259772E2,7.443843E1,1.7212246E1,3.489193E0,5.7540108E1,1.293918E2,2.1764563E1,2.1708467E1,9.870678E1,2.3920169E2,2.1358583E2,6.663313E0,1.8313393E1,1.0004321E1,5.2313556E2,2.4255853E0,8.30909E0,3.6965214E1,5.215071E2,1.0018121E1,2.3349603E2,9.548802E1,6.4574337E0,1.6174261E2,3.9591385E1,5.1146903E0,1.04247465E1,2.176907E2,1.1061835E2,2.6533493E2,2.612063E1,1.3410249E1,1.5311823E2,6.9713455E1,1.8828398E2,6.572653E1,1.6354335E2,6.3833652E1,1.2387669E1,1.21321846E2,3.400619E0,1.3920726E0,3.2642179E0,1.7056395E1,7.756957E1,1.249354E1,8.804922E1,3.816081E2,9.611728E0,9.2985985E1,4.052489E1,3.391354E1,1.5813068E1,1.399178E0,2.3711758E0,1.1180172E0,7.3023167E0,5.023779E1,6.792383E1,6.146797E1,2.0347353E1,1.4172081E0,1.007006E1,1.1638407E1,8.86981E1,1.0008681E1,1.4042734E2,9.877436E1,2.5171766E1,1.8841406E2,4.81551E0,1.8478029E0],"tree_param":{"num_deleted":"0","num_feature":"78","num_nodes":"123","size_leaf_vector":"1"}},{"base_weights":[3.2489767E-4,3.476522E-1,-6.990648E-1,5.3679067E-1,-4.0834978E-1,-4.748299E-1,-1.2050887E0,1.1338856E-1,7.405949E-1,-1.5108472E-1,-8.517583E-1,-1.9055186E-1,-7.769804E-1,-6.600548E-1,-1.2721405E0,-2.2444539E-1,4.9804127E-1,3.9897078E-1,9.420553E-1,8.1422114E-1,-2.7325794E-1,-3.761562E-1,-1.0397379E0,-3.8325527E-1,3.2435948E-1,-5.2754587E-1,-1.0476855E0,2.779366E-1,-1.1418877E0,-1.3274891E0,-5.4289347E-1,5.9518807E-2,-9.075655E-1,7.142383E-1,8.994062E-2,6.116452E-1,-2.2050515E-1,1.1341031E0,5.7898295E-1,1.0225941E0,-5.0376177E-1,-6.134832E-1,1.611926E-2,8.712878E-1,-5.832179E-1,-1.3186377E0,-7.5132674E-1,-9.311673E-1,-1.7193262E-1,4.7828242E-1,-1.2728215E0,-7.900515E-1,1.5738054E-1,-1.0838325E0,1.3336865E0,9.551348E-1,-6.621732E-2,-7.5605534E-2,-2.4444477E-1,-1.3824984E0,-7.135269E-1,5.5493526E-2,-1.2938182E0,-4.054075E-2,9.009777E-3,-2.8195394E-2,-6.777685E-2,-1.161362E-3,4.4815075E-2,-4.1681003E-2,1.9540275E-2,1.7709695E-2,4.6705913E-2,-2.7199148E-3,-6.3962035E-2,4.060166E-2,6.325173E-2,4.0947046E-2,5.827791E-3,6.2349018E-2,-2.0387573E-2,-7.378855E-2,4.0072028E-2,-1.3799394E-2,-4.8876155E-2,-3.0822024E-2,7.7527105E-3,6.6619426E-2,-5.2341234E-2,-3.6641534E-2,4.598976E-2,-4.7725145E-2,-7.528253E-2,5.9771653E-2,-4.1101944E-2,-1.45731615E-2,-5.7387527E-2,2.5643143E-3,-3.3703677E-2,2.973546E-2,-6.783748E-2,1.1106085E-2,-7.162689E-2,3.9146714E-2,-4.4579294E-2,2.7735839E-2,-5.029924E-2,-1.9378787E-2,-5.8523428E-2,1.6392652E-2,8.062156E-2,8.7609135E-2,1.2514166E-2,5.5323876E-2,-6.6285305E-2,-6.944389E-2,6.9970535E-3,-7.231178E-2,-8.291572E-3,-5.086726E-2,2.937367E-2,-7.3787056E-2,2.0482853E-2],"categories":[],"categories_nodes":[],"categories_segments":[],"categories_sizes":[],"default_left":[0,0,0,0,0,0,0,0,0,0,0,0,0,0,0,0,0,0,0,0,0,0,0,0,0,0,0,0,0,0,0,0,0,0,0,0,0,0,0,0,0,0,0,0,0,0,0,0,0,0,0,0,0,0,0,0,0,0,0,0,0,0,0,0,0,0,0,0,0,0,0,0,0,0,0,0,0,0,0,0,0,0,0,0,0,0,0,0,0,0,0,0,0,0,0,0,0,0,0,0,0,0,0,0,0,0,0,0,0,0,0,0,0,0,0,0,0,0,0,0,0,0,0],"id":8,"left_children":[1,3,5,7,9,11,13,15,17,19,21,23,25,27,29,31,33,35,37,39,41,43,45,47,49,51,53,55,57,59,61,63,65,67,69,71,73,75,77,79,81,83,85,87,89,91,93,95,97,99,101,103,105,107,109,111,-1,-1,113,115,117,119,121,-1,-1,-1,-1,-1,-1,-1,-1,-1,-1,-1,-1,-1,-1,-1,-1,-1,-1,-1,-1,-1,-1,-1,-1,-1,-1,-1,-1,-1,-1,-1,-1,-1,-1,-1,-1,-1,-1,-1,-1,-1,-1,-1,-1,-1,-1,-1,-1,-1,-1,-1,-1,-1,-1,-1,-1,-1,-1,-1,-1],"loss_changes":[1.1326559E3,4.4570352E2,1.74987E2,2.14995E2,7.105713E1,9.208324E1,1.6498962E1,1.0551145E2,1.1541278E2,4.693925E1,2.007425E1,5.5151917E1,3.4572693E1,2.4746225E1,1.628778E1,8.395353E1,3.3425613E1,8.258564E1,7.308447E1,1.2806025E1,3.4701965E1,1.7662365E1,1.2160645E1,4.6618183E1,3.7870537E1,4.9163933E1,2.2831787E1,2.2040867E1,1.1559727E1,1.2217957E1,1.4189476E1,3.2332546E1,1.8796333E1,3.331613E1,3.7168747E1,3.836934E1,2.818798E1,2.8096863E1,4.072956E1,1.3017288E1,9.783841E0,1.9631573E1,1.6915714E1,1.01112995E1,1.361693E1,4.132904E0,1.2367477E1,1.5213875E1,3.285179E1,3.0497694E1,3.5644627E0,3.2216408E1,3.587596E1,1.4342163E1,6.3858604E-1,7.4490604E0,0E0,0E0,1.8525963E1,3.6689453E0,1.3491039E1,1.1124182E1,4.9352474E0,0E0,0E0,0E0,0E0,0E0,0E0,0E0,0E0,0E0,0E0,0E0,0E0,0E0,0E0,0E0,0E0,0E0,0E0,0E0,0E0,0E0,0E0,0E0,0E0,0E0,0E0,0E0,0E0,0E0,0E0,0E0,0E0,0E0,0E0,0E0,0E0,0E0,0E0,0E0,0E0,0E0,0E0,0E0,0E0,0E0,0E0,0E0,0E0,0E0,0E0,0E0,0E0,0E0,0E0,0E0,0E0,0E0,0E0,0E0,0E0],"parents":[2147483647,0,0,1,1,2,2,3,3,4,4,5,5,6,6,7,7,8,8,9,9,10,10,11,11,12,12,13,13,14,14,15,15,16,16,17,17,18,18,19,19,20,20,21,21,22,22,23,23,24,24,25,25,26,26,27,27,28,28,29,29,30,30,31,31,32,32,33,33,34,34,35,35,36,36,37,37,38,38,39,39,40,40,41,41,42,42,43,43,44,44,45,45,46,46,47,47,48,48,49,49,50,50,51,51,52,52,53,53,54,54,55,55,58,58,59,59,60,60,61,61,62,62],"right_children":[2,4,6,8,10,12,14,16,18,20,22,24,26,28,30,32,34,36,38,40,42,44,46,48,50,52,54,56,58,60,62,64,66,68,70,72,74,76,78,80,82,84,86,88,90,92,94,96,98,100,102,104,106,108,110,112,-1,-1,114,116,118,120,122,-1,-1,-1,-1,-1,-1,-1,-1,-1,-1,-1,-1,-1,-1,-1,-1,-1,-1,-1,-1,-1,-1,-1,-1,-1,-1,-1,-1,-1,-1,-1,-1,-1,-1,-1,-1,-1,-1,-1,-1,-1,-1,-1,-1,-1,-1,-1,-1,-1,-1,-1,-1,-1,-1,-1,-1,-1,-1,-1,-1],"split_conditions":[7.196739E1,1E0,1.7418E2,8E0,4.3216667E1,2.2E1,-7.818315E-1,4E0,6E1,5.725E1,7E0,9.142236E-1,9E0,-4.31E0,1.0225804E0,6.478E1,1E1,6.381E1,1.1E1,1.1037917E1,1.5E1,-1.67E1,3.019964E1,7.13E1,2.4E1,5E0,3.7166E2,2.9075E2,3.3542E2,2.9546E2,4.5712727E1,3.2332085E1,7.68E1,4.7969106E-1,7.540149E-1,5E0,1.6212E2,2E0,1.4035375E1,2.35E1,1.198E1,6.234898E-1,6.794E1,4E0,1.0131631E0,3.8063633E-1,3.0356659E1,-7.818315E-1,9E0,2.3329884E2,1E0,3.815574E1,-1.72E0,-8.660254E-1,1.6836E2,9E0,-6.621732E-2,-7.5605534E-2,1.2E-1,2.7E1,1.9129208E2,1.7601334E2,2.11805E2,-4.054075E-2,9.009777E-3,-2.8195394E-2,-6.777685E-2,-1.161362E-3,4.4815075E-2,-4.1681003E-2,1.9540275E-2,1.7709695E-2,4.6705913E-2,-2.7199148E-3,-6.3962035E-2,4.060166E-2,6.325173E-2,4.0947046E-2,5.827791E-3,6.2349018E-2,-2.0387573E-2,-7.378855E-2,4.0072028E-2,-1.3799394E-2,-4.8876155E-2,-3.0822024E-2,7.7527105E-3,6.6619426E-2,-5.2341234E-2,-3.6641534E-2,4.598976E-2,-4.7725145E-2,-7.528253E-2,5.9771653E-2,-4.1101944E-2,-1.45731615E-2,-5.7387527E-2,2.5643143E-3,-3.3703677E-2,2.973546E-2,-6.783748E-2,1.1106085E-2,-7.162689E-2,3.9146714E-2,-4.4579294E-2,2.7735839E-2,-5.029924E-2,-1.9378787E-2,-5.8523428E-2,1.6392652E-2,8.062156E-2,8.7609135E-2,1.2514166E-2,5.5323876E-2,-6.6285305E-2,-6.944389E-2,6.9970535E-3,-7.231178E-2,-8.291572E-3,-5.086726E-2,2.937367E-2,-7.3787056E-2,2.0482853E-2],"split_indices":[34,12,14,56,34,62,4,3,60,38,58,51,0,66,51,14,0,14,0,34,0,70,29,75,58,3,49,31,49,38,75,40,14,39,51,3,37,3,28,20,15,5,37,3,33,33,29,4,58,73,0,47,68,8,21,60,0,0,36,58,40,22,28,0,0,0,0,0,0,0,0,0,0,0,0,0,0,0,0,0,0,0,0,0,0,0,0,0,0,0,0,0,0,0,0,0,0,0,0,0,0,0,0,0,0,0,0,0,0,0,0,0,0,0,0,0,0,0,0,0,0,0,0],"split_type":[0,0,0,0,0,0,0,0,0,0,0,0,0,0,0,0,0,0,0,0,0,0,0,0,0,0,0,0,0,0,0,0,0,0,0,0,0,0,0,0,0,0,0,0,0,0,0,0,0,0,0,0,0,0,0,0,0,0,0,0,0,0,0,0,0,0,0,0,0,0,0,0,0,0,0,0,0,0,0,0,0,0,0,0,0,0,0,0,0,0,0,0,0,0,0,0,0,0,0,0,0,0,0,0,0,0,0,0,0,0,0,0,0,0,0,0,0,0,0,0,0,0,0],"sum_hessian":[4.6607246E3,3.114514E3,1.5462109E3,2.4914792E3,6.230345E2,1.0727712E3,4.7343976E2,8.100864E2,1.681393E3,3.9512448E2,2.2790997E2,5.5357306E2,5.191981E2,5.3051517E1,4.2038824E2,4.3151266E2,3.7857373E2,6.248281E2,1.0565648E3,4.3754025E1,3.5137045E2,6.541254E1,1.6249744E2,4.030056E2,1.5056747E2,2.717498E2,2.4744833E2,1.8147219E1,3.49043E1,3.899698E2,3.0418446E1,3.054528E2,1.260599E2,2.4698163E2,1.3159212E2,4.6514886E2,1.5967924E2,6.896497E2,3.669151E2,3.79744E1,5.779625E0,1.6098174E2,1.9038872E2,8.855383E0,5.655715E1,8.079493E1,8.1702515E1,1.11223015E2,2.917826E2,1.3797148E2,1.2595991E1,1.9634492E2,7.5404854E1,2.4428519E2,3.1631505E0,1.3039865E1,5.107353E0,2.4225582E1,1.0678717E1,3.5675394E2,3.321587E1,1.7444E1,1.2974445E1,3.6499004E1,2.6895377E2,7.26137E1,5.3446194E1,4.9074146E1,1.9790749E2,3.1899601E1,9.969251E1,2.5981772E2,2.0533115E2,1.3893315E2,2.0746084E1,2.0141168E2,4.8823804E2,2.4105717E2,1.2585793E2,3.2935776E1,5.038623E0,3.2377367E0,2.5418885E0,8.444879E1,7.653295E1,3.36673E1,1.5672142E2,7.3853593E0,1.4700233E0,5.190305E1,4.654103E0,2.94861E1,5.1308826E1,2.3061712E0,7.939635E1,2.872527E1,8.249774E1,2.0261232E2,8.917029E1,1.3037549E2,7.595987E0,1.1781139E0,1.1417877E1,1.1498428E1,1.848465E2,5.659765E1,1.8807203E1,2.7638674E1,2.1664651E2,1.1585981E0,2.0045526E0,5.4223585E0,7.6175065E0,4.737005E0,5.9417114E0,3.5535263E2,1.4012911E0,1.3506392E1,1.9709478E1,5.480053E0,1.1963946E1,1.1843324E1,1.1311219E0],"tree_param":{"num_deleted":"0","num_feature":"78","num_nodes":"123","size_leaf_vector":"1"}},{"base_weights":[-9.520102E-3,3.234969E-1,-6.780694E-1,7.0427537E-1,-2.6114995E-2,-3.9988324E-1,-1.0177032E0,4.4163373E-1,1.1526725E0,3.3763322E-1,-3.575977E-1,-1.17617324E-1,-7.569829E-1,-1.071702E0,6.2415195E-1,2.684323E-1,1.289241E0,6.474475E-1,1.2401137E0,5.8218634E-1,-8.153942E-2,-1.4556634E-1,-6.884581E-1,-3.8404268E-1,4.183977E-1,-9.6868855E-1,-3.62082E-1,-1.1891598E0,-5.8034736E-1,-6.825187E-2,1.0765595E0,4.9294966E-1,-1.0726994E-1,-7.121789E-2,1.341365E0,1.8522983E-2,1.0740131E0,5.712623E-1,1.2935244E0,8.839403E-1,2.4990351E-1,7.3065454E-1,-2.2720392E-1,-1.4669847E0,-8.468448E-2,-4.894782E-1,-1.0519527E0,1.3597323E-1,-7.310308E-1,6.6214836E-1,-1.3661327E0,4.4128397E-1,-1.0537915E0,-7.7077043E-1,8.288783E-1,-8.883109E-1,-1.3217554E0,-1.3378441E-1,-1.2310398E0,-5.549587E-2,1.3523698E0,2.9205605E-2,-1.8156635E-2,8.410274E-3,-3.253218E-2,6.844023E-2,-2.9064119E-2,2.8066112E-2,-5.0041933E-2,1.221843E-2,6.5950416E-2,4.435347E-2,-7.906626E-2,3.8834702E-2,6.641098E-2,-4.9158365E-2,4.617377E-2,1.7826835E-2,-6.65669E-2,4.364065E-2,-6.557082E-2,-3.7443537E-2,1.6975126E-3,-8.493458E-3,-8.409856E-2,-3.4748074E-2,1.8164258E-3,-2.7565563E-2,3.8406987E-2,-5.5491734E-2,7.239493E-2,-5.3886563E-2,2.1078426E-2,1.9345578E-2,-4.4679027E-2,5.099454E-2,6.242297E-3,-8.1967175E-2,4.04936E-2,7.217863E-2,-3.892996E-2,-6.13086E-2,-1.1918202E-2,-4.650819E-2,1.8196648E-2,6.0236912E-2,-7.5363494E-2,-5.4810137E-2,-1.3291425E-2,-9.414594E-3,-6.759844E-2,7.114721E-2,-1.9656805E-2,-1.9336505E-2,-7.359483E-2,7.9086944E-2,1.4161291E-2],"categories":[],"categories_nodes":[],"categories_segments":[],"categories_sizes":[],"default_left":[0,0,0,0,0,0,0,0,0,0,0,0,0,0,0,0,0,0,0,0,0,0,0,0,0,0,0,0,0,0,0,0,0,0,0,0,0,0,0,0,0,0,0,0,0,0,0,0,0,0,0,0,0,0,0,0,0,0,0,0,0,0,0,0,0,0,0,0,0,0,0,0,0,0,0,0,0,0,0,0,0,0,0,0,0,0,0,0,0,0,0,0,0,0,0,0,0,0,0,0,0,0,0,0,0,0,0,0,0,0,0,0,0,0,0,0,0],"id":9,"left_children":[1,3,5,7,9,11,13,15,17,19,21,23,25,27,29,31,33,35,37,39,41,43,45,47,49,51,53,55,57,-1,59,61,63,-1,65,67,69,71,73,75,77,79,81,83,85,87,89,91,93,95,97,99,101,103,105,107,109,111,113,-1,115,-1,-1,-1,-1,-1,-1,-1,-1,-1,-1,-1,-1,-1,-1,-1,-1,-1,-1,-1,-1,-1,-1,-1,-1,-1,-1,-1,-1,-1,-1,-1,-1,-1,-1,-1,-1,-1,-1,-1,-1,-1,-1,-1,-1,-1,-1,-1,-1,-1,-1,-1,-1,-1,-1,-1,-1],"loss_changes":[1.0325813E3,4.1215332E2,1.4529187E2,1.7401245E2,1.948447E2,8.552594E1,6.217206E1,1.3708696E2,2.3351807E1,7.9032646E1,5.9209213E1,6.807746E1,3.098346E1,3.8092773E1,2.1916584E1,6.572696E1,2.4339905E1,2.218309E1,1.5872742E1,4.8582977E1,3.3857265E1,4.1429146E1,2.3347824E1,5.75153E1,6.9797E1,2.9670883E1,6.508293E1,2.0422607E1,3.8074947E1,0E0,1.3001196E1,3.8259476E1,4.382585E1,0E0,9.030975E0,1.9631393E1,9.697636E0,2.5996254E1,6.6758423E0,1.9708328E1,3.9768856E1,1.3785339E1,3.3026043E1,6.0410576E0,3.6568523E1,1.7148651E1,1.8368942E1,4.488926E1,3.5056084E1,2.6786839E1,1.2837322E1,1.8925535E1,3.2014557E1,1.826088E1,3.1941061E1,2.1535614E1,1.2543823E1,3.252071E1,1.0297562E1,0E0,3.8152122E0,0E0,0E0,0E0,0E0,0E0,0E0,0E0,0E0,0E0,0E0,0E0,0E0,0E0,0E0,0E0,0E0,0E0,0E0,0E0,0E0,0E0,0E0,0E0,0E0,0E0,0E0,0E0,0E0,0E0,0E0,0E0,0E0,0E0,0E0,0E0,0E0,0E0,0E0,0E0,0E0,0E0,0E0,0E0,0E0,0E0,0E0,0E0,0E0,0E0,0E0,0E0,0E0,0E0,0E0,0E0,0E0],"parents":[2147483647,0,0,1,1,2,2,3,3,4,4,5,5,6,6,7,7,8,8,9,9,10,10,11,11,12,12,13,13,14,14,15,15,16,16,17,17,18,18,19,19,20,20,21,21,22,22,23,23,24,24,25,25,26,26,27,27,28,28,30,30,31,31,32,32,34,34,35,35,36,36,37,37,38,38,39,39,40,40,41,41,42,42,43,43,44,44,45,45,46,46,47,47,48,48,49,49,50,50,51,51,52,52,53,53,54,54,55,55,56,56,57,57,58,58,60,60],"right_children":[2,4,6,8,10,12,14,16,18,20,22,24,26,28,30,32,34,36,38,40,42,44,46,48,50,52,54,56,58,-1,60,62,64,-1,66,68,70,72,74,76,78,80,82,84,86,88,90,92,94,96,98,100,102,104,106,108,110,112,114,-1,116,-1,-1,-1,-1,-1,-1,-1,-1,-1,-1,-1,-1,-1,-1,-1,-1,-1,-1,-1,-1,-1,-1,-1,-1,-1,-1,-1,-1,-1,-1,-1,-1,-1,-1,-1,-1,-1,-1,-1,-1,-1,-1,-1,-1,-1,-1,-1,-1,-1,-1,-1,-1,-1,-1,-1,-1],"split_conditions":[7.196739E1,1E1,1.8859E2,5E0,3.3088333E1,1E1,8.3E1,9.2E1,1.6666667E-1,1E0,1E0,5E0,1.5659E2,5E0,1.120325E2,4.2709457E1,1.329696E0,6E0,1E0,7.382E1,5.725E1,1.5E1,4.716025E1,6.335E1,2.9551E2,4.232137E1,6E0,2.5E1,2.9551E2,-6.825187E-2,9.006932E-1,1.6126E2,8.411E1,-7.121789E-2,8.206636E1,2.035E-3,1.1004E2,8.458E1,5.086633E1,7.644063E1,2.7562E2,1E-2,2.0527082E1,-5.679E1,8.95E1,4.175E1,1.8485E2,1.7723178E2,4.2508495E1,2.4E1,2.1411084E2,7.4E1,7.547744E1,3.2174E2,2.2555E2,4E0,5.928E1,5E0,4E0,-5.549587E-2,3.436E1,2.9205605E-2,-1.8156635E-2,8.410274E-3,-3.253218E-2,6.844023E-2,-2.9064119E-2,2.8066112E-2,-5.0041933E-2,1.221843E-2,6.5950416E-2,4.435347E-2,-7.906626E-2,3.8834702E-2,6.641098E-2,-4.9158365E-2,4.617377E-2,1.7826835E-2,-6.65669E-2,4.364065E-2,-6.557082E-2,-3.7443537E-2,1.6975126E-3,-8.493458E-3,-8.409856E-2,-3.4748074E-2,1.8164258E-3,-2.7565563E-2,3.8406987E-2,-5.5491734E-2,7.239493E-2,-5.3886563E-2,2.1078426E-2,1.9345578E-2,-4.4679027E-2,5.099454E-2,6.242297E-3,-8.1967175E-2,4.04936E-2,7.217863E-2,-3.892996E-2,-6.13086E-2,-1.1918202E-2,-4.650819E-2,1.8196648E-2,6.0236912E-2,-7.5363494E-2,-5.4810137E-2,-1.3291425E-2,-9.414594E-3,-6.759844E-2,7.114721E-2,-1.9656805E-2,-1.9336505E-2,-7.359483E-2,7.9086944E-2,1.4161291E-2],"split_indices":[34,0,25,3,34,0,60,60,57,12,12,3,20,3,28,40,51,3,0,38,38,60,75,24,43,46,6,62,43,0,39,43,25,0,47,30,43,19,31,50,50,18,40,76,44,21,17,37,47,60,28,60,47,43,19,3,19,60,0,0,76,0,0,0,0,0,0,0,0,0,0,0,0,0,0,0,0,0,0,0,0,0,0,0,0,0,0,0,0,0,0,0,0,0,0,0,0,0,0,0,0,0,0,0,0,0,0,0,0,0,0,0,0,0,0,0,0],"split_type":[0,0,0,0,0,0,0,0,0,0,0,0,0,0,0,0,0,0,0,0,0,0,0,0,0,0,0,0,0,0,0,0,0,0,0,0,0,0,0,0,0,0,0,0,0,0,0,0,0,0,0,0,0,0,0,0,0,0,0,0,0,0,0,0,0,0,0,0,0,0,0,0,0,0,0,0,0,0,0,0,0,0,0,0,0,0,0,0,0,0,0,0,0,0,0,0,0,0,0,0,0,0,0,0,0,0,0,0,0,0,0,0,0,0,0,0,0],"sum_hessian":[4.6359473E3,3.094857E3,1.5410905E3,1.4809125E3,1.6139446E3,8.483797E2,6.9271075E2,9.351487E2,5.4576373E2,7.695121E2,8.444325E2,4.7458112E2,3.7379858E2,6.709899E2,2.1720842E1,7.775745E2,1.5757416E2,8.176126E1,4.6400247E2,4.8573584E2,2.8377625E2,5.1550916E2,3.2892334E2,3.172006E2,1.5738051E2,2.42397E2,1.3140158E2,5.403901E2,1.3059984E2,3.6509075E0,1.8069935E1,4.8652063E2,2.910539E2,2.4735544E0,1.551006E2,3.346467E1,4.8296593E1,3.5177437E1,4.2882504E2,2.5369194E2,2.320439E2,4.2544003E1,2.4123225E2,2.16878E1,4.9382138E2,2.1408054E2,1.14842804E2,1.2719186E2,1.9000874E2,1.3902051E2,1.835999E1,1.35595255E1,2.2883748E2,9.809294E1,3.3308636E1,1.6766687E2,3.727232E2,7.8163025E1,5.2436817E1,1.6853292E0,1.6384605E1,4.399852E2,4.653543E1,1.9359633E2,9.745754E1,1.5320221E2,1.8983994E0,2.2130013E1,1.1334657E1,1.1465977E1,3.6830616E1,3.1189516E1,3.9879222E0,2.8447502E1,4.0037753E2,4.765496E0,2.4892645E2,2.1810988E2,1.3934015E1,4.0310387E1,2.2336168E0,7.985362E1,1.6137862E2,3.3380282E0,1.8349771E1,8.093214E1,4.1288925E2,2.0458345E2,9.497094E0,1.1278735E2,2.0554552E0,2.3699902E1,1.0349196E2,2.3945099E1,1.6606364E2,8.291592E1,5.610459E1,1.6531042E1,1.8289474E0,7.3429728E0,6.2165527E0,1.8848767E2,4.0349804E1,8.616893E1,1.1924012E1,2.9109543E1,4.1990924E0,1.2511943E2,4.254744E1,9.865036E0,3.628582E2,1.0521627E1,6.7641396E1,1.2216881E1,4.0219936E1,1.3095677E1,3.2889283E0],"tree_param":{"num_deleted":"0","num_feature":"78","num_nodes":"117","size_leaf_vector":"1"}},{"base_weights":[4.6502394E-3,2.7040717E-1,-7.80619E-1,6.339194E-1,-1.0453448E-1,-4.9550998E-1,-1.1607444E0,1.0280408E0,3.9106262E-1,3.634806E-1,-3.4899563E-1,-9.1530675E-1,-3.2313484E-1,-7.2167885E-1,-1.2376579E0,1.056471E0,-7.5172916E-2,7.8602624E-1,-4.3446936E-2,-9.702206E-2,6.142799E-1,-8.2904214E-1,-1.15056835E-1,1.5308546E-1,-1.0443012E0,7.7840626E-2,-5.816948E-1,-8.8273835E-1,1.3993803E0,2.8180491E-2,-1.2638837E0,1.1534376E0,5.1900464E-1,4.448795E-2,9.92079E-1,9.33871E-2,-9.8494077E-1,-3.3327958E-1,6.096812E-1,9.87861E-1,2.7793056E-1,1.0057485E0,-9.058592E-1,-3.7578142E-1,1.1796546E-1,6.191735E-1,-6.936461E-2,-1.0853751E0,8.205121E-2,2.620403E-1,-1.3296747E0,-1.20212235E-1,-9.6703815E-1,-4.4096313E-2,-1.3249246E0,8.559558E-2,1.1182233E-2,-6.4347915E-2,8.847352E-2,4.2304412E-1,-1.284274E0,6.1124332E-2,3.949801E-2,5.9171654E-3,5.28919E-2,-7.725875E-2,8.504176E-3,-7.4526966E-2,5.11409E-2,9.246261E-3,-4.02656E-2,-6.0385384E-2,1.8368816E-2,1.83787E-3,-4.72091E-2,5.9352E-2,1.4874325E-3,5.148015E-2,-2.782487E-2,-2.2020418E-2,2.6800642E-2,-6.449855E-2,8.032848E-2,-3.6041345E-2,-6.8261825E-2,5.0126617E-3,-3.0441841E-2,1.757751E-2,-1.673104E-2,-3.6555693E-2,8.775394E-2,-3.052783E-2,-6.1933126E-2,-6.168936E-2,1.8979916E-2,-8.373982E-2,4.4788953E-2,6.57564E-2,-1.5507651E-2,-6.292921E-2,-2.5063938E-2,1.7004302E-2,-6.667554E-2,-2.3621408E-2,-7.566144E-2,6.506636E-2,-5.236895E-2,-6.528572E-2,-2.107198E-2],"categories":[],"categories_nodes":[],"categories_segments":[],"categories_sizes":[],"default_left":[0,0,0,0,0,0,0,0,0,0,0,0,0,0,0,0,0,0,0,0,0,0,0,0,0,0,0,0,0,0,0,0,0,0,0,0,0,0,0,0,0,0,0,0,0,0,0,0,0,0,0,0,0,0,0,0,0,0,0,0,0,0,0,0,0,0,0,0,0,0,0,0,0,0,0,0,0,0,0,0,0,0,0,0,0,0,0,0,0,0,0,0,0,0,0,0,0,0,0,0,0,0,0,0,0,0,0,0,0],"id":10,"left_children":[1,3,5,7,9,11,13,15,17,19,21,23,25,27,29,31,-1,33,35,37,39,41,43,45,47,49,51,53,55,57,59,61,63,65,67,69,71,73,75,77,79,81,83,85,87,89,-1,91,-1,93,95,97,99,101,103,-1,-1,-1,-1,105,107,-1,-1,-1,-1,-1,-1,-1,-1,-1,-1,-1,-1,-1,-1,-1,-1,-1,-1,-1,-1,-1,-1,-1,-1,-1,-1,-1,-1,-1,-1,-1,-1,-1,-1,-1,-1,-1,-1,-1,-1,-1,-1,-1,-1,-1,-1,-1,-1],"loss_changes":[9.5654565E2,4.6682098E2,1.2503137E2,1.6603955E2,1.9309798E2,4.7753036E1,1.5855835E1,4.9260254E1,1.8495863E2,6.695372E1,1.2438406E2,2.6722397E1,4.9007725E1,2.7310898E1,1.4000061E1,3.3569214E1,0E0,8.621149E1,6.63145E1,3.4445045E1,4.6860184E1,5.207646E1,4.5392704E1,1.6392454E1,2.076352E1,4.857796E1,5.0963097E1,2.6477207E1,1.7387342E0,2.4069859E1,1.4719177E1,1.2953125E1,2.1900084E1,2.4980074E1,3.5233185E1,3.7145367E1,2.011995E1,3.4926067E1,1.7287838E1,1.2004501E1,3.708907E1,2.2847301E1,2.8677368E1,3.9169212E1,4.186639E1,2.7820007E1,0E0,1.1625107E1,0E0,2.9541536E1,1.8160976E1,3.6353592E1,2.0605362E1,1.3203409E1,6.8007584E0,0E0,0E0,0E0,0E0,8.69089E0,6.9873657E0,0E0,0E0,0E0,0E0,0E0,0E0,0E0,0E0,0E0,0E0,0E0,0E0,0E0,0E0,0E0,0E0,0E0,0E0,0E0,0E0,0E0,0E0,0E0,0E0,0E0,0E0,0E0,0E0,0E0,0E0,0E0,0E0,0E0,0E0,0E0,0E0,0E0,0E0,0E0,0E0,0E0,0E0,0E0,0E0,0E0,0E0,0E0,0E0],"parents":[2147483647,0,0,1,1,2,2,3,3,4,4,5,5,6,6,7,7,8,8,9,9,10,10,11,11,12,12,13,13,14,14,15,15,17,17,18,18,19,19,20,20,21,21,22,22,23,23,24,24,25,25,26,26,27,27,28,28,29,29,30,30,31,31,32,32,33,33,34,34,35,35,36,36,37,37,38,38,39,39,40,40,41,41,42,42,43,43,44,44,45,45,47,47,49,49,50,50,51,51,52,52,53,53,54,54,59,59,60,60],"right_children":[2,4,6,8,10,12,14,16,18,20,22,24,26,28,30,32,-1,34,36,38,40,42,44,46,48,50,52,54,56,58,60,62,64,66,68,70,72,74,76,78,80,82,84,86,88,90,-1,92,-1,94,96,98,100,102,104,-1,-1,-1,-1,106,108,-1,-1,-1,-1,-1,-1,-1,-1,-1,-1,-1,-1,-1,-1,-1,-1,-1,-1,-1,-1,-1,-1,-1,-1,-1,-1,-1,-1,-1,-1,-1,-1,-1,-1,-1,-1,-1,-1,-1,-1,-1,-1,-1,-1,-1,-1,-1,-1],"split_conditions":[1.7E1,1.1E1,1.8859E2,-4.3388373E-1,1.4827733E1,-5E-1,-4.3388373E-1,3.1589E2,4.3710835E1,1.7E1,6E0,1.303E1,6.833E1,7.010689E-1,-1.5722354E2,7.651292E1,-7.5172916E-2,9E0,1.2526E2,2E1,7.444731E1,6.283E1,7.763E1,5.7649166E1,2.6215E2,9.1680133E-1,0E0,1.4385E2,1.9934224E2,1.33E0,7.060833E1,9E0,1.173575E2,6.428E1,8.168E1,5.948E1,1.8881E2,1.1804483E0,2.7026553E0,4.8989773E0,1.0620766E0,1.8E1,4.1162624E0,7.288625E1,6.234898E-1,5.656478E1,-6.936461E-2,1E1,8.205121E-2,4.938E1,7.20458E1,5.1069344E1,2.2022E2,8.572318E1,3E0,8.559558E-2,1.1182233E-2,-6.4347915E-2,8.847352E-2,2.4549E2,1.2226E2,6.1124332E-2,3.949801E-2,5.9171654E-3,5.28919E-2,-7.725875E-2,8.504176E-3,-7.4526966E-2,5.11409E-2,9.246261E-3,-4.02656E-2,-6.0385384E-2,1.8368816E-2,1.83787E-3,-4.72091E-2,5.9352E-2,1.4874325E-3,5.148015E-2,-2.782487E-2,-2.2020418E-2,2.6800642E-2,-6.449855E-2,8.032848E-2,-3.6041345E-2,-6.8261825E-2,5.0126617E-3,-3.0441841E-2,1.757751E-2,-1.673104E-2,-3.6555693E-2,8.775394E-2,-3.052783E-2,-6.1933126E-2,-6.168936E-2,1.8979916E-2,-8.373982E-2,4.4788953E-2,6.57564E-2,-1.5507651E-2,-6.292921E-2,-2.5063938E-2,1.7004302E-2,-6.667554E-2,-2.3621408E-2,-7.566144E-2,6.506636E-2,-5.236895E-2,-6.528572E-2,-2.107198E-2],"split_indices":[62,0,25,4,28,2,4,44,46,0,6,24,14,45,77,34,0,56,20,56,37,37,32,28,32,45,4,32,14,67,34,0,34,31,49,77,19,51,39,39,39,0,68,37,5,34,0,0,0,38,47,46,44,47,0,0,0,0,0,49,70,0,0,0,0,0,0,0,0,0,0,0,0,0,0,0,0,0,0,0,0,0,0,0,0,0,0,0,0,0,0,0,0,0,0,0,0,0,0,0,0,0,0,0,0,0,0,0,0],"split_type":[0,0,0,0,0,0,0,0,0,0,0,0,0,0,0,0,0,0,0,0,0,0,0,0,0,0,0,0,0,0,0,0,0,0,0,0,0,0,0,0,0,0,0,0,0,0,0,0,0,0,0,0,0,0,0,0,0,0,0,0,0,0,0,0,0,0,0,0,0,0,0,0,0,0,0,0,0,0,0,0,0,0,0,0,0,0,0,0,0,0,0,0,0,0,0,0,0,0,0,0,0,0,0,0,0,0,0,0,0],"sum_hessian":[4.581544E3,3.4235688E3,1.1579751E3,1.7379279E3,1.6856411E3,6.6300146E2,4.949737E2,6.6137646E2,1.0765514E3,5.7820135E2,1.1074397E3,1.917383E2,4.7126315E2,7.533003E1,4.1964368E2,6.5460754E2,6.768947E0,5.635147E2,5.130367E2,2.0408531E2,3.7411606E2,3.6202142E2,7.454183E2,2.0635832E1,1.7110246E2,1.8502492E2,2.8623822E2,7.055627E1,4.7737637E0,8.516274E0,4.111274E2,5.5358655E2,1.0102096E2,1.22800125E2,4.4071457E2,4.4872156E2,6.43151E1,1.5334802E2,5.073728E1,1.7633022E2,1.9778583E2,1.4061714E1,3.4795972E2,3.515087E2,3.939096E2,1.6301388E1,4.334443E0,1.6911159E2,1.9908686E0,1.6433273E2,2.069218E1,1.308481E2,1.5539012E2,2.4738125E1,4.5818142E1,3.4110205E0,1.3627433E0,5.000488E0,3.5157866E0,4.674179E0,4.0645322E2,4.6322537E2,9.036119E1,5.8638584E1,4.2382374E1,8.164118E0,1.1463601E2,4.80923E0,4.3590533E2,4.0796228E2,4.0759274E1,5.5310715E1,9.004389E0,9.608629E1,5.726174E1,2.4900463E1,2.5836817E1,1.720142E2,4.316007E0,5.209093E1,1.456949E2,2.678859E0,1.1382855E1,2.4987988E2,9.8079834E1,1.1571703E2,2.3579166E2,2.5996304E2,1.3394653E2,7.610683E0,8.690705E0,4.2487312E1,1.26624275E2,1.1282119E1,1.5305061E2,1.8128294E1,2.563886E0,1.4599447E1,1.1624866E2,9.452141E1,6.0868717E1,1.9626604E1,5.1115203E0,8.924364E0,3.6893776E1,2.9982958E0,1.6758829E0,3.9609738E2,1.035584E1],"tree_param":{"num_deleted":"0","num_feature":"78","num_nodes":"109","size_leaf_vector":"1"}},{"base_weights":[1.104821E-2,2.5707918E-1,-7.250841E-1,-1.1264361E-1,6.0912246E-1,-2.4051253E-1,-9.0237623E-1,2.2307612E-1,-4.8348692E-1,4.8309582E-1,1.2499937E0,-9.334718E-1,-4.8757486E-2,-5.9554297E-1,-1.0802484E0,-2.2942871E-1,4.367048E-1,-7.952518E-1,-2.4191125E-1,8.846581E-1,2.2960466E-1,1.2688857E0,-5.9920248E-2,-1.2641602E0,-1.3847396E-1,8.426427E-2,-1.1858441E0,9.541408E-1,-6.8819994E-1,-8.532743E-1,-1.2884475E0,4.5198172E-1,-4.3816444E-1,8.098437E-1,1.2434835E-1,7.973494E-1,-8.6026186E-1,-6.840055E-1,2.4806045E-2,1.0504037E0,-3.268444E-2,3.039129E-1,-1.2192439E0,1.5471359E-1,1.3093071E0,5.9893798E-2,-1.4158888E0,-9.011998E-1,9.6095806E-1,-7.245335E-1,2.802952E-1,-7.993059E-2,-8.291302E-2,-7.123148E-2,1.3788887E0,-4.470928E-1,-1.3483957E0,-1.2283725E0,-5.379006E-1,-1.3994976E0,-9.2000675E-1,3.0528298E-2,-7.7367E-2,-7.9428546E-2,-1.5877778E-2,4.235204E-2,-2.029545E-2,3.727753E-2,-3.992414E-3,7.920585E-2,-6.6663146E-2,-2.4634672E-2,-5.9057184E-2,-4.807948E-2,-7.4875504E-3,2.420989E-2,-1.5698813E-2,5.562179E-2,-1.2665071E-2,-5.008459E-2,3.63241E-2,3.749023E-2,6.7625926E-3,-6.915685E-2,2.1346765E-2,-6.235748E-2,7.180043E-2,5.0349068E-2,6.861856E-2,-7.921298E-2,-6.3300575E-3,-2.5454366E-3,-7.072526E-2,-4.1180853E-2,6.60859E-2,5.4237057E-2,-5.5290677E-2,1.8218454E-2,-7.056459E-2,5.7319324E-2,-6.1522663E-2,-4.7889575E-2,8.189765E-2,-5.006973E-3,-5.20068E-2,-3.7845325E-2,-7.361632E-2,3.1079242E-2,-6.430803E-2,-1.9453384E-3,-4.8789676E-2,-4.064315E-2,-7.1769394E-2,6.0396385E-4,-6.84205E-2],"categories":[],"categories_nodes":[],"categories_segments":[],"categories_sizes":[],"default_left":[0,0,0,0,0,0,0,0,0,0,0,0,0,0,0,0,0,0,0,0,0,0,0,0,0,0,0,0,0,0,0,0,0,0,0,0,0,0,0,0,0,0,0,0,0,0,0,0,0,0,0,0,0,0,0,0,0,0,0,0,0,0,0,0,0,0,0,0,0,0,0,0,0,0,0,0,0,0,0,0,0,0,0,0,0,0,0,0,0,0,0,0,0,0,0,0,0,0,0,0,0,0,0,0,0,0,0,0,0,0,0,0,0,0,0],"id":11,"left_children":[1,3,5,7,9,11,13,15,17,19,21,23,25,27,29,31,33,35,37,39,41,43,-1,45,47,49,51,53,55,57,59,61,63,65,67,69,71,73,75,77,79,81,83,85,87,-1,89,91,93,95,97,-1,99,-1,101,103,105,107,109,111,113,-1,-1,-1,-1,-1,-1,-1,-1,-1,-1,-1,-1,-1,-1,-1,-1,-1,-1,-1,-1,-1,-1,-1,-1,-1,-1,-1,-1,-1,-1,-1,-1,-1,-1,-1,-1,-1,-1,-1,-1,-1,-1,-1,-1,-1,-1,-1,-1,-1,-1,-1,-1,-1,-1],"loss_changes":[8.3612354E2,4.5043414E2,9.913574E1,2.1032922E2,1.4256348E2,4.129872E1,4.5546448E1,8.583696E1,6.0256287E1,1.5074838E2,1.4965546E1,1.7539658E1,3.7121723E1,4.5571693E1,2.4159729E1,4.0747772E1,7.016046E1,3.6919632E1,5.3508507E1,8.723422E1,9.838779E1,1.2809662E1,0E0,1.9427162E1,1.8406952E1,3.509342E1,1.1567833E1,2.0218533E1,4.64718E1,2.9941223E1,1.0039032E1,2.2297146E1,2.9846321E1,1.2757706E1,4.183321E1,2.5989723E1,3.9132965E1,2.5176437E1,4.4338127E1,3.9567383E1,6.60043E1,6.50864E1,1.2627541E1,2.1996567E1,3.931305E0,0E0,9.6044235E0,5.543501E0,6.9161215E0,3.1007627E1,2.5807686E1,0E0,1.2771755E1,0E0,1.1156111E1,4.4775837E1,4.6484375E0,1.3347778E1,3.1058014E1,3.2714539E0,2.8032742E1,0E0,0E0,0E0,0E0,0E0,0E0,0E0,0E0,0E0,0E0,0E0,0E0,0E0,0E0,0E0,0E0,0E0,0E0,0E0,0E0,0E0,0E0,0E0,0E0,0E0,0E0,0E0,0E0,0E0,0E0,0E0,0E0,0E0,0E0,0E0,0E0,0E0,0E0,0E0,0E0,0E0,0E0,0E0,0E0,0E0,0E0,0E0,0E0,0E0,0E0,0E0,0E0,0E0,0E0],"parents":[2147483647,0,0,1,1,2,2,3,3,4,4,5,5,6,6,7,7,8,8,9,9,10,10,11,11,12,12,13,13,14,14,15,15,16,16,17,17,18,18,19,19,20,20,21,21,23,23,24,24,25,25,26,26,27,27,28,28,29,29,30,30,31,31,32,32,33,33,34,34,35,35,36,36,37,37,38,38,39,39,40,40,41,41,42,42,43,43,44,44,46,46,47,47,48,48,49,49,50,50,52,52,54,54,55,55,56,56,57,57,58,58,59,59,60,60],"right_children":[2,4,6,8,10,12,14,16,18,20,22,24,26,28,30,32,34,36,38,40,42,44,-1,46,48,50,52,54,56,58,60,62,64,66,68,70,72,74,76,78,80,82,84,86,88,-1,90,92,94,96,98,-1,100,-1,102,104,106,108,110,112,114,-1,-1,-1,-1,-1,-1,-1,-1,-1,-1,-1,-1,-1,-1,-1,-1,-1,-1,-1,-1,-1,-1,-1,-1,-1,-1,-1,-1,-1,-1,-1,-1,-1,-1,-1,-1,-1,-1,-1,-1,-1,-1,-1,-1,-1,-1,-1,-1,-1,-1,-1,-1,-1,-1],"split_conditions":[1.7E1,2.5881904E-1,6.833E1,4.1494583E1,9.2E1,-7.0710677E-1,0E0,-2.5881904E-1,6E0,-4.3388373E-1,8.3196625E1,6.123234E-17,2.5366E2,5.1069344E1,1.2596709E2,1.1037917E1,7.444731E1,3.4548107E-1,5.182662E1,1E1,1.4577191E2,1.7E1,-5.9920248E-2,2.5042498E1,7.227E1,5.2272915E1,1.0432E2,1.3929E2,2.6E1,1.9769E2,9.072075E1,4.8989773E0,5E0,1.3E1,-1.189E1,7.588E1,-1.0950743E1,1E1,5.176026E1,2.7716E2,6.123234E-17,1.4616E2,2.412E2,3.9915478E1,9.7E1,5.9893798E-2,5.7189876E-1,1.186E1,-1.6127E2,6E0,1.37325E2,-7.993059E-2,1.3051334E2,-7.123148E-2,-2.997E1,1.909509E2,5.1007595E0,5.2593334E1,6.71E0,-1.0399E2,9.234127E1,3.0528298E-2,-7.7367E-2,-7.9428546E-2,-1.5877778E-2,4.235204E-2,-2.029545E-2,3.727753E-2,-3.992414E-3,7.920585E-2,-6.6663146E-2,-2.4634672E-2,-5.9057184E-2,-4.807948E-2,-7.4875504E-3,2.420989E-2,-1.5698813E-2,5.562179E-2,-1.2665071E-2,-5.008459E-2,3.63241E-2,3.749023E-2,6.7625926E-3,-6.915685E-2,2.1346765E-2,-6.235748E-2,7.180043E-2,5.0349068E-2,6.861856E-2,-7.921298E-2,-6.3300575E-3,-2.5454366E-3,-7.072526E-2,-4.1180853E-2,6.60859E-2,5.4237057E-2,-5.5290677E-2,1.8218454E-2,-7.056459E-2,5.7319324E-2,-6.1522663E-2,-4.7889575E-2,8.189765E-2,-5.006973E-3,-5.20068E-2,-3.7845325E-2,-7.361632E-2,3.1079242E-2,-6.430803E-2,-1.9453384E-3,-4.8789676E-2,-4.064315E-2,-7.1769394E-2,6.0396385E-4,-6.84205E-2],"split_indices":[62,1,14,40,60,2,4,2,6,4,47,8,37,46,46,34,37,39,40,0,46,58,0,47,22,34,16,43,60,44,47,39,6,62,68,32,68,6,47,43,8,49,14,46,60,0,27,21,68,6,34,0,22,0,67,46,23,22,67,68,47,0,0,0,0,0,0,0,0,0,0,0,0,0,0,0,0,0,0,0,0,0,0,0,0,0,0,0,0,0,0,0,0,0,0,0,0,0,0,0,0,0,0,0,0,0,0,0,0,0,0,0,0,0,0],"split_type":[0,0,0,0,0,0,0,0,0,0,0,0,0,0,0,0,0,0,0,0,0,0,0,0,0,0,0,0,0,0,0,0,0,0,0,0,0,0,0,0,0,0,0,0,0,0,0,0,0,0,0,0,0,0,0,0,0,0,0,0,0,0,0,0,0,0,0,0,0,0,0,0,0,0,0,0,0,0,0,0,0,0,0,0,0,0,0,0,0,0,0,0,0,0,0,0,0,0,0,0,0,0,0,0,0,0,0,0,0,0,0,0,0,0,0],"sum_hessian":[4.6145977E3,3.4591333E3,1.1554647E3,1.6875328E3,1.7716003E3,3.101433E2,8.4532135E2,8.859196E2,8.016133E2,1.4819335E3,2.8966684E2,6.638282E1,2.437605E2,3.118028E2,5.3351855E2,2.8409027E2,6.0182935E2,3.489652E2,4.5264804E2,5.725119E2,9.094216E2,2.879269E2,1.7399207E0,4.6465023E1,1.9917799E1,2.1905975E2,2.470075E1,1.7066631E1,2.9473618E2,2.576895E2,2.7582904E2,6.634477E1,2.177455E2,2.7350705E2,3.2832233E2,1.3244306E1,3.3572092E2,1.697373E2,2.8291074E2,4.8477722E2,8.773469E1,8.658065E2,4.3615067E1,1.0249106E1,2.7767783E2,2.297042E0,4.416798E1,1.1866072E1,8.051727E0,4.2210163E1,1.768496E2,1.7647005E1,7.0537443E0,2.2290335E0,1.4837598E1,2.1711998E2,7.7616196E1,1.16377655E2,1.4131186E2,2.0979668E2,6.603237E1,6.211267E1,4.232103E0,1.9507303E1,1.9823819E2,2.6568155E2,7.8254886E0,8.056827E1,2.4775404E2,9.859866E0,3.384439E0,1.576589E2,1.7806201E2,1.111743E2,5.8563007E1,1.1989832E2,1.630124E2,4.6289856E2,2.1878653E1,3.840048E1,4.9334206E1,2.3667079E2,6.2913574E2,3.981126E1,3.8038049E0,4.9070067E0,5.3420997E0,5.085398E1,2.2682384E2,3.886388E1,5.304098E0,4.8805737E0,6.9854975E0,1.1382295E0,6.913498E0,7.0258145E0,3.518435E1,1.6922357E2,7.626011E0,3.406039E0,3.647705E0,1.2116616E0,1.36259365E1,1.3771828E2,7.940169E1,1.4676504E1,6.2939693E1,3.2296999E0,1.1314795E2,6.6556885E1,7.475498E1,1.3458734E1,1.9633795E2,2.176435E1,4.4268017E1],"tree_param":{"num_deleted":"0","num_feature":"78","num_nodes":"115","size_leaf_vector":"1"}},{"base_weights":[9.463932E-3,3.0266678E-1,-5.944221E-1,6.662291E-1,-2.8089676E-2,-3.789106E-1,-1.1015035E0,4.5057797E-1,1.0636145E0,2.1531612E-1,-3.8087884E-1,-8.427185E-1,-2.467372E-1,-1.2442172E0,-8.2555014E-1,1.9933848E-1,8.7103295E-1,6.316641E-1,1.1563361E0,4.4871932E-1,-1.7011392E-1,-6.1509097E-1,-1.7043184E-1,-1.1701146E0,-4.7221178E-1,-1.367029E-1,-8.947179E-1,-1.2748618E0,-1.289981E-2,6.695439E-1,-8.915457E-1,-8.2228196E-1,2.8563246E-1,-1.3206546E0,9.426711E-1,9.550669E-1,-2.4862522E-1,7.5653434E-1,1.2205577E0,6.298254E-1,-1.4802794E-1,7.497204E-1,-2.9260385E-1,-9.417239E-1,-1.23141296E-1,3.5384086E-1,-4.7737822E-1,-6.7450774E-1,-1.4215434E0,9.579457E-2,-8.471535E-1,-6.500217E-2,-1.3674722E0,-6.272516E-2,-1.0827531E0,-1.0524701E0,-1.350843E0,-6.399955E-2,9.519618E-1,-5.4259647E-2,7.1411714E-2,-1.0412382E0,-7.464645E-2,-5.8172792E-2,4.5433935E-2,1.8742226E-2,-3.5414968E-2,3.3824217E-2,-8.5101865E-2,-1.7967334E-2,5.0299246E-2,-9.448121E-3,5.553303E-2,-6.802664E-2,3.6606394E-2,4.7792405E-2,-9.416976E-2,3.308589E-2,6.335596E-2,5.4140057E-2,2.4387637E-2,-2.4814202E-2,1.7879346E-2,5.0701834E-2,-3.159059E-2,-4.0864583E-2,-2.4147704E-3,1.7405043E-3,-5.477602E-2,-8.350445E-2,1.9308161E-3,5.4761022E-2,-5.927995E-3,-1.626373E-2,-8.617133E-2,3.0938298E-2,-6.24619E-2,-3.3078577E-2,-7.406985E-2,-3.079598E-2,3.00522E-2,-4.9357478E-2,5.0505947E-2,6.909215E-3,-1.833233E-2,-7.448227E-2,-1.23761045E-2,-5.347678E-2,1.984497E-2,-1.7117178E-2,-6.8223044E-2,-5.7326682E-2,3.5141874E-2,-6.805089E-2,-2.6152093E-2,6.529467E-2,5.970935E-4,1.50116505E-2,-5.4330934E-2,-4.8147973E-2,4.0608514E-2],"categories":[],"categories_nodes":[],"categories_segments":[],"categories_sizes":[],"default_left":[0,0,0,0,0,0,0,0,0,0,0,0,0,0,0,0,0,0,0,0,0,0,0,0,0,0,0,0,0,0,0,0,0,0,0,0,0,0,0,0,0,0,0,0,0,0,0,0,0,0,0,0,0,0,0,0,0,0,0,0,0,0,0,0,0,0,0,0,0,0,0,0,0,0,0,0,0,0,0,0,0,0,0,0,0,0,0,0,0,0,0,0,0,0,0,0,0,0,0,0,0,0,0,0,0,0,0,0,0,0,0,0,0,0,0,0,0,0,0,0,0],"id":12,"left_children":[1,3,5,7,9,11,13,15,17,19,21,23,25,27,29,31,33,35,37,39,41,43,45,47,49,51,53,55,57,59,61,63,65,67,69,71,73,75,77,79,81,83,85,87,89,91,93,95,97,99,101,103,105,107,109,111,113,-1,115,-1,-1,117,119,-1,-1,-1,-1,-1,-1,-1,-1,-1,-1,-1,-1,-1,-1,-1,-1,-1,-1,-1,-1,-1,-1,-1,-1,-1,-1,-1,-1,-1,-1,-1,-1,-1,-1,-1,-1,-1,-1,-1,-1,-1,-1,-1,-1,-1,-1,-1,-1,-1,-1,-1,-1,-1,-1,-1,-1,-1,-1],"loss_changes":[8.0201776E2,3.666795E2,1.6136945E2,1.2400159E2,1.3726628E2,6.357405E1,1.6341187E1,9.9474976E1,1.9705444E1,8.5176605E1,3.2060905E1,2.7386856E1,5.770983E1,1.0877655E1,1.5723419E1,5.2406494E1,5.6597504E1,2.6535782E1,9.831482E0,6.3798668E1,4.050066E1,4.9451653E1,5.5706554E1,1.4193909E1,2.344962E1,6.120288E1,1.8323807E1,3.3381958E0,1.1024877E1,1.0938375E1,1.7928818E1,2.8430296E1,4.8718216E1,9.967903E0,2.8552063E1,1.2271996E1,2.8926817E1,3.3687744E1,8.509827E0,2.8586655E1,2.4486156E1,1.608497E1,4.0495377E1,2.7858093E1,3.1152689E1,4.4965004E1,4.077577E1,3.2607918E1,2.6484985E0,1.6382452E1,1.8209354E1,4.034048E1,4.8560257E0,1.0944344E1,1.9520615E1,1.3397255E1,1.0268555E0,0E0,1.6902122E0,0E0,0E0,7.8975067E0,1.9595339E1,0E0,0E0,0E0,0E0,0E0,0E0,0E0,0E0,0E0,0E0,0E0,0E0,0E0,0E0,0E0,0E0,0E0,0E0,0E0,0E0,0E0,0E0,0E0,0E0,0E0,0E0,0E0,0E0,0E0,0E0,0E0,0E0,0E0,0E0,0E0,0E0,0E0,0E0,0E0,0E0,0E0,0E0,0E0,0E0,0E0,0E0,0E0,0E0,0E0,0E0,0E0,0E0,0E0,0E0,0E0,0E0,0E0,0E0],"parents":[2147483647,0,0,1,1,2,2,3,3,4,4,5,5,6,6,7,7,8,8,9,9,10,10,11,11,12,12,13,13,14,14,15,15,16,16,17,17,18,18,19,19,20,20,21,21,22,22,23,23,24,24,25,25,26,26,27,27,28,28,29,29,30,30,31,31,32,32,33,33,34,34,35,35,36,36,37,37,38,38,39,39,40,40,41,41,42,42,43,43,44,44,45,45,46,46,47,47,48,48,49,49,50,50,51,51,52,52,53,53,54,54,55,55,56,56,58,58,61,61,62,62],"right_children":[2,4,6,8,10,12,14,16,18,20,22,24,26,28,30,32,34,36,38,40,42,44,46,48,50,52,54,56,58,60,62,64,66,68,70,72,74,76,78,80,82,84,86,88,90,92,94,96,98,100,102,104,106,108,110,112,114,-1,116,-1,-1,118,120,-1,-1,-1,-1,-1,-1,-1,-1,-1,-1,-1,-1,-1,-1,-1,-1,-1,-1,-1,-1,-1,-1,-1,-1,-1,-1,-1,-1,-1,-1,-1,-1,-1,-1,-1,-1,-1,-1,-1,-1,-1,-1,-1,-1,-1,-1,-1,-1,-1,-1,-1,-1,-1,-1,-1,-1,-1,-1],"split_conditions":[7.196739E1,1E1,1.7418E2,5E0,4.1494583E1,2E0,4E0,1.2928219E0,5E0,1E0,5.3416042E1,5.819161E-1,1E0,8.3E1,5.360345E1,2.2875687E1,5E0,8.1856096E-1,7.2243637E-1,3.5825E1,5.725E1,9E0,5.2756844E1,-2.5881904E-1,1.8624287E1,2.1550084E2,5.9048256E1,-1.51E0,7E0,5.0507927E1,7.0710677E-1,7.803E1,8.621E1,-5.241E1,5.3E1,6.283E1,5.7E1,3.9E1,1E0,-1.885E1,7.8E1,1.1705E1,2E0,-5.67E1,2.9848349E1,6.373E1,1.0669454E0,1.8E1,7.568077E1,6.910044E1,1E1,-2.1190975E0,1.56E2,6.0719275E-1,4.473961E-1,-1.72E0,5.625E-1,-6.399955E-2,2.4724E2,-5.4259647E-2,7.1411714E-2,2.1989164E0,2.5225E2,-5.8172792E-2,4.5433935E-2,1.8742226E-2,-3.5414968E-2,3.3824217E-2,-8.5101865E-2,-1.7967334E-2,5.0299246E-2,-9.448121E-3,5.553303E-2,-6.802664E-2,3.6606394E-2,4.7792405E-2,-9.416976E-2,3.308589E-2,6.335596E-2,5.4140057E-2,2.4387637E-2,-2.4814202E-2,1.7879346E-2,5.0701834E-2,-3.159059E-2,-4.0864583E-2,-2.4147704E-3,1.7405043E-3,-5.477602E-2,-8.350445E-2,1.9308161E-3,5.4761022E-2,-5.927995E-3,-1.626373E-2,-8.617133E-2,3.0938298E-2,-6.24619E-2,-3.3078577E-2,-7.406985E-2,-3.079598E-2,3.00522E-2,-4.9357478E-2,5.0505947E-2,6.909215E-3,-1.833233E-2,-7.448227E-2,-1.23761045E-2,-5.347678E-2,1.984497E-2,-1.7117178E-2,-6.8223044E-2,-5.7326682E-2,3.5141874E-2,-6.805089E-2,-2.6152093E-2,6.529467E-2,5.970935E-4,1.50116505E-2,-5.4330934E-2,-4.8147973E-2,4.0608514E-2],"split_indices":[34,0,14,3,40,3,3,45,56,12,40,51,12,60,46,41,6,45,51,22,38,6,46,1,23,34,25,71,62,47,1,21,20,70,60,25,60,60,0,71,60,34,3,71,47,32,51,62,46,40,56,71,62,51,51,71,59,0,14,0,0,29,38,0,0,0,0,0,0,0,0,0,0,0,0,0,0,0,0,0,0,0,0,0,0,0,0,0,0,0,0,0,0,0,0,0,0,0,0,0,0,0,0,0,0,0,0,0,0,0,0,0,0,0,0,0,0,0,0,0,0],"split_type":[0,0,0,0,0,0,0,0,0,0,0,0,0,0,0,0,0,0,0,0,0,0,0,0,0,0,0,0,0,0,0,0,0,0,0,0,0,0,0,0,0,0,0,0,0,0,0,0,0,0,0,0,0,0,0,0,0,0,0,0,0,0,0,0,0,0,0,0,0,0,0,0,0,0,0,0,0,0,0,0,0,0,0,0,0,0,0,0,0,0,0,0,0,0,0,0,0,0,0,0,0,0,0,0,0,0,0,0,0,0,0,0,0,0,0,0,0,0,0,0,0],"sum_hessian":[4.5275938E3,3.0481394E3,1.4794546E3,1.4515757E3,1.5965637E3,1.0394371E3,4.4001743E2,9.4233044E2,5.092453E2,9.449725E2,6.515912E2,2.2932835E2,8.1010876E2,2.877131E2,1.5230432E2,5.907854E2,3.51545E2,9.1375946E1,4.1786935E2,5.884582E2,3.5651428E2,3.0747318E2,3.44118E2,1.20601425E2,1.0872693E2,6.9354767E2,1.1656111E2,2.8069196E2,7.021131E0,6.0520954E0,1.4625223E2,4.535119E1,5.454342E2,1.057516E1,3.4096985E2,6.676333E1,2.4612617E1,5.960257E1,3.5826678E2,4.514061E2,1.3705211E2,4.129442E1,3.1521988E2,1.84235E2,1.2323819E2,1.2701692E2,2.1710109E2,4.1830128E1,7.877129E1,4.352881E1,6.519812E1,6.5636285E2,3.7184807E1,2.173309E1,9.4828026E1,7.526069E1,2.0543127E2,2.8940089E0,4.1271224E0,1.6969513E0,4.355144E0,1.23370605E2,2.2881628E1,3.815806E1,7.193131E0,5.0108163E2,4.4352577E1,1.5715985E0,9.003561E0,1.5594802E1,3.2537506E2,7.967374E0,5.879595E1,1.1353547E1,1.3259071E1,5.601164E1,3.5909321E0,2.87243E1,3.2954248E2,1.0619598E2,3.452101E2,8.116556E1,5.5886547E1,3.4885998E1,6.408423E0,9.939957E1,2.1582031E2,2.517288E1,1.5906212E2,1.0783828E1,1.1245436E2,4.8921597E1,7.809533E1,1.9460674E2,2.2494366E1,1.2846334E1,2.8983793E1,6.630886E0,7.214041E1,1.798101E1,2.5547798E1,6.1063797E1,4.134323E0,3.9251096E2,2.638519E2,3.3229736E1,3.955068E0,6.395886E0,1.5337204E1,2.6746288E1,6.808173E1,7.1761925E1,3.4987593E0,2.0230057E2,3.1307065E0,2.7154837E0,1.4116386E0,3.853165E0,1.1951744E2,1.1388276E1,1.1493352E1],"tree_param":{"num_deleted":"0","num_feature":"78","num_nodes":"121","size_leaf_vector":"1"}},{"base_weights":[1.8508075E-3,2.792919E-1,-5.702634E-1,4.3580654E-1,-3.5172948E-1,-2.399413E-1,-8.3225656E-1,1.0126592E-1,6.3868517E-1,2.4847011E-1,-4.575112E-1,-1.1032661E-1,-1.0328697E0,-9.6020097E-1,-3.2633397E-1,-1.5037091E-1,3.8313976E-1,7.9217106E-1,2.1940668E-1,3.7523553E-1,-8.0500886E-2,-3.762284E-1,-1.1291001E0,-3.0215672E-1,4.7904256E-1,-1.2467031E0,-2.6265463E-1,-7.339301E-1,-1.2031208E0,5.829431E-2,-1.1501912E0,-6.1359867E-2,-1.1230813E0,4.648249E-1,-7.8361064E-1,9.3831944E-1,4.4081238E-1,-1.3652493E-1,4.9132454E-1,9.917987E-1,3.2887084E-3,-1.3551884E0,-3.2377738E-1,-3.8431805E-2,-1.3583242E0,6.749708E-2,-5.608778E-1,5.9636134E-1,-1.2644943E0,-7.8501865E-2,-1.3060877E0,-6.998677E-2,3.4370995E-1,-1.1242545E0,-5.433578E-1,-1.2181604E0,1.3984123E-1,-1.4397413E0,4.7902113E-1,-4.0318102E-1,-7.3395394E-2,1.7741611E-2,-1.2360474E-2,-7.891221E-2,2.56385E-2,-5.0930525E-3,3.2684874E-2,2.3546359E-2,-5.7962712E-2,2.5477424E-2,5.191459E-2,2.9408399E-2,-3.0611241E-2,-2.901411E-2,3.272259E-2,3.821655E-2,-2.4712442E-3,5.61795E-2,-1.4300304E-2,-3.523911E-2,2.3540322E-2,-7.882693E-2,3.741578E-2,-1.0892092E-2,-4.374812E-2,2.9200753E-2,-5.926044E-2,-7.080821E-2,2.5081163E-2,1.3469E-2,-3.8526285E-2,-3.2975186E-2,2.1628166E-2,-1.6875518E-2,4.02477E-2,1.2338142E-2,-7.6316945E-2,6.738293E-2,-5.610326E-2,-6.849353E-2,-2.3601016E-2,3.8492147E-2,-5.8456182E-2,2.432703E-2,-6.2986486E-2,7.3487066E-2,-3.0366719E-2,-6.603023E-2,-5.0163772E-2,6.607019E-2,-4.6214834E-2,-7.6192796E-2,-2.8534705E-2,4.4091005E-2,-2.987012E-2,-5.4141115E-2,2.3730768E-2],"categories":[],"categories_nodes":[],"categories_segments":[],"categories_sizes":[],"default_left":[0,0,0,0,0,0,0,0,0,0,0,0,0,0,